{"learner":{"attributes":{},"feature_names":[],"feature_types":[],"gradient_booster":{"model":{"gbtree_model_param":{"num_parallel_tree":"1","num_trees":"467"},"iteration_indptr":[0,1,2,3,4,5,6,7,8,9,10,11,12,13,14,15,16,17,18,19,20,21,22,23,24,25,26,27,28,29,30,31,32,33,34,35,36,37,38,39,40,41,42,43,44,45,46,47,48,49,50,51,52,53,54,55,56,57,58,59,60,61,62,63,64,65,66,67,68,69,70,71,72,73,74,75,76,77,78,79,80,81,82,83,84,85,86,87,88,89,90,91,92,93,94,95,96,97,98,99,100,101,102,103,104,105,106,107,108,109,110,111,112,113,114,115,116,117,118,119,120,121,122,123,124,125,126,127,128,129,130,131,132,133,134,135,136,137,138,139,140,141,142,143,144,145,146,147,148,149,150,151,152,153,154,155,156,157,158,159,160,161,162,163,164,165,166,167,168,169,170,171,172,173,174,175,176,177,178,179,180,181,182,183,184,185,186,187,188,189,190,191,192,193,194,195,196,197,198,199,200,201,202,203,204,205,206,207,208,209,210,211,212,213,214,215,216,217,218,219,220,221,222,223,224,225,226,227,228,229,230,231,232,233,234,235,236,237,238,239,240,241,242,243,244,245,246,247,248,249,250,251,252,253,254,255,256,257,258,259,260,261,262,263,264,265,266,267,268,269,270,271,272,273,274,275,276,277,278,279,280,281,282,283,284,285,286,287,288,289,290,291,292,293,294,295,296,297,298,299,300,301,302,303,304,305,306,307,308,309,310,311,312,313,314,315,316,317,318,319,320,321,322,323,324,325,326,327,328,329,330,331,332,333,334,335,336,337,338,339,340,341,342,343,344,345,346,347,348,349,350,351,352,353,354,355,356,357,358,359,360,361,362,363,364,365,366,367,368,369,370,371,372,373,374,375,376,377,378,379,380,381,382,383,384,385,386,387,388,389,390,391,392,393,394,395,396,397,398,399,400,401,402,403,404,405,406,407,408,409,410,411,412,413,414,415,416,417,418,419,420,421,422,423,424,425,426,427,428,429,430,431,432,433,434,435,436,437,438,439,440,441,442,443,444,445,446,447,448,449,450,451,452,453,454,455,456,457,458,459,460,461,462,463,464,465,466,467],"tree_info":[0,0,0,0,0,0,0,0,0,0,0,0,0,0,0,0,0,0,0,0,0,0,0,0,0,0,0,0,0,0,0,0,0,0,0,0,0,0,0,0,0,0,0,0,0,0,0,0,0,0,0,0,0,0,0,0,0,0,0,0,0,0,0,0,0,0,0,0,0,0,0,0,0,0,0,0,0,0,0,0,0,0,0,0,0,0,0,0,0,0,0,0,0,0,0,0,0,0,0,0,0,0,0,0,0,0,0,0,0,0,0,0,0,0,0,0,0,0,0,0,0,0,0,0,0,0,0,0,0,0,0,0,0,0,0,0,0,0,0,0,0,0,0,0,0,0,0,0,0,0,0,0,0,0,0,0,0,0,0,0,0,0,0,0,0,0,0,0,0,0,0,0,0,0,0,0,0,0,0,0,0,0,0,0,0,0,0,0,0,0,0,0,0,0,0,0,0,0,0,0,0,0,0,0,0,0,0,0,0,0,0,0,0,0,0,0,0,0,0,0,0,0,0,0,0,0,0,0,0,0,0,0,0,0,0,0,0,0,0,0,0,0,0,0,0,0,0,0,0,0,0,0,0,0,0,0,0,0,0,0,0,0,0,0,0,0,0,0,0,0,0,0,0,0,0,0,0,0,0,0,0,0,0,0,0,0,0,0,0,0,0,0,0,0,0,0,0,0,0,0,0,0,0,0,0,0,0,0,0,0,0,0,0,0,0,0,0,0,0,0,0,0,0,0,0,0,0,0,0,0,0,0,0,0,0,0,0,0,0,0,0,0,0,0,0,0,0,0,0,0,0,0,0,0,0,0,0,0,0,0,0,0,0,0,0,0,0,0,0,0,0,0,0,0,0,0,0,0,0,0,0,0,0,0,0,0,0,0,0,0,0,0,0,0,0,0,0,0,0,0,0,0,0,0,0,0,0,0,0,0,0,0,0,0,0,0,0,0,0,0,0,0,0,0,0,0,0,0,0,0,0,0,0,0,0,0,0,0,0,0,0,0,0,0,0,0,0,0,0,0,0,0,0,0,0,0,0,0,0,0,0,0,0,0,0,0,0],"trees":[{"base_weights":[-3.9343086E-1,3.5848157E0,-7.7778807E0,-6.2789607E0,6.27494E0,-9.821585E0,-3.7953997E-1,-2.7551062E0,-1.7890818E1,1.1828932E0,1.0756702E1,-8.291374E0,-1.2905055E1,4.431766E0,-9.238525E0,1.0538632E0,-9.964159E0,1.0940782E-3,-1.8376951E1,-1.6355858E0,8.707877E0,1.4877723E1,2.4526477E0,-8.871364E0,6.1629963E0,-5.2885017E0,-1.6637781E1,-1.0501349E1,6.6439424E0,2.1419249E0,-1.0489673E1,-5.9514657E-2,1.9311586E-1,8.5909836E-2,-2.9867074E-1,-4.3233243E-1,-1.1488726E-1,9.96641E-3,-2.1635766E-1,-5.155546E-2,2.752707E-1,4.2848727E-1,1.364335E-1,2.2231042E-1,-3.5350632E-2,-2.388093E-1,-1.4260115E-1,-4.1740723E-2,2.3824136E-1,-1.4704083E-1,-8.6498335E-3,-4.1778636E-1,-2.6758075E-1,-3.7882697E-2,-2.6234382E-1,5.963781E-1,1.214892E-1,-6.7497365E-2,1.9875087E-1,-2.6396182E-1,-1.5227251E-2],"categories":[],"categories_nodes":[],"categories_segments":[],"categories_sizes":[],"default_left":[0,0,0,0,0,0,0,0,0,0,0,0,0,0,0,0,0,0,0,0,0,0,0,0,0,0,0,0,0,0,0,0,0,0,0,0,0,0,0,0,0,0,0,0,0,0,0,0,0,0,0,0,0,0,0,0,0,0,0,0,0],"id":0,"left_children":[1,3,5,7,9,11,13,15,17,19,21,23,25,27,29,31,33,-1,35,37,39,41,43,45,47,49,51,53,55,57,59,-1,-1,-1,-1,-1,-1,-1,-1,-1,-1,-1,-1,-1,-1,-1,-1,-1,-1,-1,-1,-1,-1,-1,-1,-1,-1,-1,-1,-1,-1],"loss_changes":[3.4487293E4,2.028544E4,6.2106016E3,6.661342E3,1.3680088E4,1.4123105E3,3.877039E3,3.4978015E3,3.3226953E2,5.995183E3,1.0880066E4,1.8822549E3,2.8972148E3,2.0188168E3,4.7810376E2,2.3120422E3,1.9584502E3,0E0,2.0865039E2,3.3657073E3,2.8883438E3,7.357086E3,3.1502925E3,8.212637E2,3.2896732E2,2.0459021E2,3.711328E2,5.3255737E1,1.1887048E3,1.605289E2,3.07635E2,0E0,0E0,0E0,0E0,0E0,0E0,0E0,0E0,0E0,0E0,0E0,0E0,0E0,0E0,0E0,0E0,0E0,0E0,0E0,0E0,0E0,0E0,0E0,0E0,0E0,0E0,0E0,0E0,0E0,0E0],"parents":[2147483647,0,0,1,1,2,2,3,3,4,4,5,5,6,6,7,7,8,8,9,9,10,10,11,11,12,12,13,13,14,14,15,15,16,16,18,18,19,19,20,20,21,21,22,22,23,23,24,24,25,25,26,26,27,27,28,28,29,29,30,30],"right_children":[2,4,6,8,10,12,14,16,18,20,22,24,26,28,30,32,34,-1,36,38,40,42,44,46,48,50,52,54,56,58,60,-1,-1,-1,-1,-1,-1,-1,-1,-1,-1,-1,-1,-1,-1,-1,-1,-1,-1,-1,-1,-1,-1,-1,-1,-1,-1,-1,-1,-1,-1],"split_conditions":[2.1690613E-1,3.1781915E-1,5.217391E-1,6.956522E-1,9.970989E-2,1.7333333E-1,2E-2,2.5E-2,1.8700235E-1,3.4891877E-1,6.25E-2,6E-2,7.5E-2,8.29465E-2,9.741703E-2,1.2854622E-1,3.818702E-2,1.0940782E-3,3.1117022E-1,1.3666667E-1,3.906465E-1,5.652174E-1,8E-2,2.1535653E-1,1.4954959E-1,6.6712517E-1,2.625E-1,2.3404256E-1,2.3906179E-1,9.446049E-2,4.6277997E-1,-5.9514657E-2,1.9311586E-1,8.5909836E-2,-2.9867074E-1,-4.3233243E-1,-1.1488726E-1,9.96641E-3,-2.1635766E-1,-5.155546E-2,2.752707E-1,4.2848727E-1,1.364335E-1,2.2231042E-1,-3.5350632E-2,-2.388093E-1,-1.4260115E-1,-4.1740723E-2,2.3824136E-1,-1.4704083E-1,-8.6498335E-3,-4.1778636E-1,-2.6758075E-1,-3.7882697E-2,-2.6234382E-1,5.963781E-1,1.214892E-1,-6.7497365E-2,1.9875087E-1,-2.6396182E-1,-1.5227251E-2],"split_indices":[9,3,7,7,9,15,15,13,2,2,13,15,13,2,2,9,9,0,3,15,5,7,15,2,2,5,13,3,9,2,9,0,0,0,0,0,0,0,0,0,0,0,0,0,0,0,0,0,0,0,0,0,0,0,0,0,0,0,0,0,0],"split_type":[0,0,0,0,0,0,0,0,0,0,0,0,0,0,0,0,0,0,0,0,0,0,0,0,0,0,0,0,0,0,0,0,0,0,0,0,0,0,0,0,0,0,0,0,0,0,0,0,0,0,0,0,0,0,0,0,0,0,0,0,0],"sum_hessian":[1.172E3,7.62E2,4.1E2,1.63E2,5.99E2,3.21E2,8.9E1,1.26E2,3.7E1,2.81E2,3.18E2,2.17E2,1.04E2,5.8E1,3.1E1,8.3E1,4.3E1,1E0,3.6E1,2.05E2,7.6E1,2.12E2,1.06E2,2.09E2,8E0,3.5E1,6.9E1,7E0,5.1E1,3E0,2.8E1,5.6E1,2.7E1,8E0,3.5E1,3.4E1,2E0,1.63E2,4.2E1,1.8E1,5.8E1,1.46E2,6.6E1,3.7E1,6.9E1,1.27E2,8.2E1,3E0,5E0,2.8E1,7E0,4.9E1,2E1,1E0,6E0,2E0,4.9E1,2E0,1E0,2.5E1,3E0],"tree_param":{"num_deleted":"0","num_feature":"16","num_nodes":"61","size_leaf_vector":"1"}},{"base_weights":[-4.9900106E-1,5.280382E0,-1.2654311E1,-1.24881886E-1,1.2335872E1,-6.393792E0,-1.7044569E1,-1.0346278E1,2.6762488E0,1.7346046E1,3.7456853E0,3.4065777E-1,-8.328599E0,-1.737585E1,-2.277695E0,7.0135915E-1,-1.4192004E1,1.0292817E1,-9.3771374E-1,1.5121989E1,3.0705276E1,1.4176772E1,2.1289518E0,-1.2021484E0,1.7712242E1,-1.1577814E1,-5.8315873E0,-1.761156E1,-4.8035765E-1,3.238235E-2,-3.302318E0,2.43737E-1,-3.7284738E-1,4.678078E-3,-3.3734033E-1,3.9430076E-1,9.370033E-2,4.1161582E-1,-5.1900864E-2,3.863567E-1,5.3823967E-2,1.2560758E-1,7.5792885E-1,5.544331E-1,5.506955E-2,-6.116603E-2,1.3163021E-1,1.0485555E-1,-1.2515728E-1,6.413062E-1,-3.658293E-2,-2.7559894E-1,-4.9711335E-2,-1.7405695E-1,3.314721E-2,-3.2814434E-1,-4.2409182E-1,1.7739864E-1,-1.3284367E-1,-4.0156215E-2,-1.0759796E-1],"categories":[],"categories_nodes":[],"categories_segments":[],"categories_sizes":[],"default_left":[0,0,0,0,0,0,0,0,0,0,0,0,0,0,0,0,0,0,0,0,0,0,0,0,0,0,0,0,0,0,0,0,0,0,0,0,0,0,0,0,0,0,0,0,0,0,0,0,0,0,0,0,0,0,0,0,0,0,0,0,0],"id":1,"left_children":[1,3,5,7,9,11,13,15,17,19,21,23,25,27,29,31,33,35,37,39,41,43,45,47,49,51,53,55,57,-1,59,-1,-1,-1,-1,-1,-1,-1,-1,-1,-1,-1,-1,-1,-1,-1,-1,-1,-1,-1,-1,-1,-1,-1,-1,-1,-1,-1,-1,-1,-1],"loss_changes":[8.218929E4,3.024401E4,1.0252977E4,1.291185E4,1.4740219E4,2.048526E3,1.0415508E3,4.1311133E3,9.753854E3,5.983117E3,2.1284473E3,9.8612836E2,9.223096E2,8.517461E2,2.744737E1,4.6199995E3,6.5503906E2,4.878832E3,6.1958174E3,4.4028125E3,1.7763711E3,1.9762053E3,1.98669E3,8.739297E2,6.517277E2,2.3271826E2,9.5058203E2,4.259922E2,2.2276135E2,0E0,2.6183548E0,0E0,0E0,0E0,0E0,0E0,0E0,0E0,0E0,0E0,0E0,0E0,0E0,0E0,0E0,0E0,0E0,0E0,0E0,0E0,0E0,0E0,0E0,0E0,0E0,0E0,0E0,0E0,0E0,0E0,0E0],"parents":[2147483647,0,0,1,1,2,2,3,3,4,4,5,5,6,6,7,7,8,8,9,9,10,10,11,11,12,12,13,13,14,14,15,15,16,16,17,17,18,18,19,19,20,20,21,21,22,22,23,23,24,24,25,25,26,26,27,27,28,28,30,30],"right_children":[2,4,6,8,10,12,14,16,18,20,22,24,26,28,30,32,34,36,38,40,42,44,46,48,50,52,54,56,58,-1,60,-1,-1,-1,-1,-1,-1,-1,-1,-1,-1,-1,-1,-1,-1,-1,-1,-1,-1,-1,-1,-1,-1,-1,-1,-1,-1,-1,-1,-1,-1],"split_conditions":[6.764074E-1,7.247059E-2,7.7762103E-1,1.8823529E-2,5.173617E-1,2.9787233E-1,3.6235294E-1,3.7367022E-1,4.6324152E-1,3E-1,7.1428575E-2,2.9654256E-1,1.728272E-1,5.1E-1,3.4831535E-2,6.2752753E-3,8.478611E-2,1.3333334E-2,1.9764706E-2,4E-2,9.848978E-2,1.333341E-1,1.4598133E-1,2.632979E-1,1.9607078E-2,6.4E-1,6.274586E-2,2.6668198E-2,1.9764706E-2,3.238235E-2,8.3116025E-1,2.43737E-1,-3.7284738E-1,4.678078E-3,-3.3734033E-1,3.9430076E-1,9.370033E-2,4.1161582E-1,-5.1900864E-2,3.863567E-1,5.3823967E-2,1.2560758E-1,7.5792885E-1,5.544331E-1,5.506955E-2,-6.116603E-2,1.3163021E-1,1.0485555E-1,-1.2515728E-1,6.413062E-1,-3.658293E-2,-2.7559894E-1,-4.9711335E-2,-1.7405695E-1,3.314721E-2,-3.2814434E-1,-4.2409182E-1,1.7739864E-1,-1.3284367E-1,-4.0156215E-2,-1.0759796E-1],"split_indices":[1,0,1,0,1,3,0,3,1,6,6,3,2,15,2,0,1,15,0,10,2,0,2,3,0,15,0,0,0,0,1,0,0,0,0,0,0,0,0,0,0,0,0,0,0,0,0,0,0,0,0,0,0,0,0,0,0,0,0,0,0],"split_type":[0,0,0,0,0,0,0,0,0,0,0,0,0,0,0,0,0,0,0,0,0,0,0,0,0,0,0,0,0,0,0,0,0,0,0,0,0,0,0,0,0,0,0,0,0,0,0,0,0,0,0,0,0,0,0,0,0,0,0,0,0],"sum_hessian":[1.168E3,7.92E2,3.76E2,4.49E2,3.43E2,1.56E2,2.2E2,9.6E1,3.53E2,2.16E2,1.27E2,3.5E1,1.21E2,2.15E2,5E0,2.5E1,7.1E1,1.13E2,2.4E2,1.87E2,2.9E1,1.6E1,1.11E2,3.3E1,2E0,5.1E1,7E1,2.12E2,3E0,1E0,4E0,1.6E1,9E0,3E0,6.8E1,5.2E1,6.1E1,1.5E1,2.25E2,1.63E2,2.4E1,3E0,2.6E1,8E0,8E0,4.8E1,6.3E1,1.4E1,1.9E1,1E0,1E0,4.8E1,3E0,5.6E1,1.4E1,5.5E1,1.57E2,1E0,2E0,3E0,1E0],"tree_param":{"num_deleted":"0","num_feature":"16","num_nodes":"61","size_leaf_vector":"1"}},{"base_weights":[1.2122078E-1,3.864879E0,-7.0243816E0,4.137148E-2,1.048494E1,-4.8579254E0,-1.5498863E1,2.4009795E0,-9.093759E0,3.1173971E1,8.000074E0,-2.1120663E0,-9.327889E0,-1.7471008E1,-2.538762E0,5.805815E0,-5.336656E0,-6.048068E0,-1.3780546E1,1.0137091E0,2.5170553E1,1.1599679E1,-5.8701196E0,-8.77477E-1,-1.081786E1,-6.5313473E0,-1.2780297E1,-1.1875942E1,-4.4573873E-1,2.3435197E0,-6.3608947E0,8.2396664E-2,4.5599416E-1,1.2715963E-1,-2.4737096E-1,-9.138229E-2,-2.9310578E-1,-2.1793865E-1,-4.0294763E-1,9.640506E-2,5.901848E-1,3.248579E-1,1.3079661E-1,-3.349724E-1,8.838077E-2,8.992069E-2,-1.06588006E-1,-8.921125E-2,-4.0889025E-1,-1.2173583E-1,-3.7358844E-1,-3.2395723E-1,-1.616925E-1,-2.9307547E-1,-1.3428633E-1,3.1635076E-1,-6.25312E-2,3.3423547E-3,-2.0469812E-1],"categories":[],"categories_nodes":[],"categories_segments":[],"categories_sizes":[],"default_left":[0,0,0,0,0,0,0,0,0,0,0,0,0,0,0,0,0,0,0,0,0,0,0,0,0,0,0,0,0,0,0,0,0,0,0,0,0,0,0,0,0,0,0,0,0,0,0,0,0,0,0,0,0,0,0,0,0,0,0],"id":2,"left_children":[1,3,5,7,9,11,13,15,17,19,21,23,25,27,29,31,33,35,37,-1,39,41,43,45,47,49,51,53,-1,55,57,-1,-1,-1,-1,-1,-1,-1,-1,-1,-1,-1,-1,-1,-1,-1,-1,-1,-1,-1,-1,-1,-1,-1,-1,-1,-1,-1,-1],"loss_changes":[3.1512713E4,1.9565625E4,7.3603438E3,1.0605497E4,1.4299484E4,3.957041E3,2.0515E3,1.0332025E4,1.3583799E3,1.2857051E3,1.2749603E4,2.1616196E3,1.1040684E3,6.0658203E2,2.3883563E2,8.386421E3,7.3114727E3,8.230996E2,4.7388867E2,0E0,2.556709E2,3.0782207E3,4.6301904E3,3.2889158E3,1.162094E3,7.304961E2,3.4417285E2,5.5540283E1,0E0,3.911383E2,1.2124042E2,0E0,0E0,0E0,0E0,0E0,0E0,0E0,0E0,0E0,0E0,0E0,0E0,0E0,0E0,0E0,0E0,0E0,0E0,0E0,0E0,0E0,0E0,0E0,0E0,0E0,0E0,0E0,0E0],"parents":[2147483647,0,0,1,1,2,2,3,3,4,4,5,5,6,6,7,7,8,8,9,9,10,10,11,11,12,12,13,13,14,14,15,15,16,16,17,17,18,18,20,20,21,21,22,22,23,23,24,24,25,25,26,26,27,27,29,29,30,30],"right_children":[2,4,6,8,10,12,14,16,18,20,22,24,26,28,30,32,34,36,38,-1,40,42,44,46,48,50,52,54,-1,56,58,-1,-1,-1,-1,-1,-1,-1,-1,-1,-1,-1,-1,-1,-1,-1,-1,-1,-1,-1,-1,-1,-1,-1,-1,-1,-1,-1,-1],"split_conditions":[2.1690613E-1,1.1372283E-1,7.834412E-1,7.2958434E-1,1.2391322E-1,3.3333335E-2,6.5217394E-1,1.4E-1,8.1309503E-1,4.2907733E-1,2.4285714E-1,5.818432E-1,3.3166113E-1,3.6258793E-1,3.3333334E-3,2.7142859E-1,3.818702E-2,3.9889959E-1,1.3714285E-1,1.0137091E0,4.4776306E-1,3.3333334E-3,1.7297694E-1,5.801403E-1,5E-3,7.5E-1,4.1081896E-1,3E-1,-4.4573873E-1,2.0357634E-1,8.292007E-1,8.2396664E-2,4.5599416E-1,1.2715963E-1,-2.4737096E-1,-9.138229E-2,-2.9310578E-1,-2.1793865E-1,-4.0294763E-1,9.640506E-2,5.901848E-1,3.248579E-1,1.3079661E-1,-3.349724E-1,8.838077E-2,8.992069E-2,-1.06588006E-1,-8.921125E-2,-4.0889025E-1,-1.2173583E-1,-3.7358844E-1,-3.2395723E-1,-1.616925E-1,-2.9307547E-1,-1.3428633E-1,3.1635076E-1,-6.25312E-2,3.3423547E-3,-2.0469812E-1],"split_indices":[9,9,4,4,9,15,7,15,4,4,6,5,9,9,15,6,9,5,6,0,4,15,9,4,12,11,9,6,0,5,4,0,0,0,0,0,0,0,0,0,0,0,0,0,0,0,0,0,0,0,0,0,0,0,0,0,0,0,0],"split_type":[0,0,0,0,0,0,0,0,0,0,0,0,0,0,0,0,0,0,0,0,0,0,0,0,0,0,0,0,0,0,0,0,0,0,0,0,0,0,0,0,0,0,0,0,0,0,0,0,0,0,0,0,0,0,0,0,0,0,0],"sum_hessian":[1.176E3,7.72E2,4.04E2,4.9E2,2.82E2,3.23E2,8.1E1,3.9E2,1E2,2.9E1,2.53E2,2.01E2,1.22E2,7E1,1.1E1,2.71E2,1.19E2,6.2E1,3.8E1,7E0,2.2E1,2.01E2,5.2E1,1.77E2,2.4E1,6.9E1,5.3E1,2.1E1,4.9E1,5E0,6E0,2.36E2,3.5E1,4E1,7.9E1,4.9E1,1.3E1,2E1,1.8E1,1E0,2.1E1,1.37E2,6.4E1,2.7E1,2.5E1,7.8E1,9.9E1,1.3E1,1.1E1,6.3E1,6E0,4.1E1,1.2E1,1.7E1,4E0,1E0,4E0,2E0,4E0],"tree_param":{"num_deleted":"0","num_feature":"16","num_nodes":"59","size_leaf_vector":"1"}},{"base_weights":[-1.7933722E-1,-5.5642877E0,6.4162865E0,-3.0445728E0,-1.4595516E1,9.72527E-1,1.1753663E1,-6.1187787E0,1.2828405E-1,-1.0644578E1,-1.8075903E1,-5.527205E0,2.5008953E0,8.941051E0,2.0629963E1,9.033949E0,-8.094387E0,-5.761354E0,4.2541647E0,-2.243329E0,-1.3401008E1,-4.3293464E-1,-9.242678E0,-1.386226E1,9.865335E-1,6.469659E0,-1.3807812E0,3.0216179E1,7.6821513E0,2.4359053E1,8.153321E0,-1.7317317E-1,3.5123718E-1,-1.066375E-1,-2.36329E-1,9.101991E-2,-2.1942478E-1,8.059678E-3,1.6709693E-1,-1.331723E-1,1.8906471E-1,-3.348687E-1,-6.956643E-2,-4.7866408E-2,-3.3080474E-1,-3.682015E-1,1.4086851E-1,-2.1584788E-2,6.277776E-1,2.0654248E-1,3.72895E-2,-9.1274194E-2,1.0151002E-1,7.7662987E-1,-1.0051724E-1,1.968568E-1,-5.0002035E-2,4.5516065E-1,8.1433636E-1,3.7832212E-1,3.2099262E-2],"categories":[],"categories_nodes":[],"categories_segments":[],"categories_sizes":[],"default_left":[0,0,0,0,0,0,0,0,0,0,0,0,0,0,0,0,0,0,0,0,0,0,0,0,0,0,0,0,0,0,0,0,0,0,0,0,0,0,0,0,0,0,0,0,0,0,0,0,0,0,0,0,0,0,0,0,0,0,0,0,0],"id":3,"left_children":[1,3,5,7,9,11,13,15,17,19,21,23,25,27,29,31,33,35,37,39,41,-1,43,45,47,49,51,53,55,57,59,-1,-1,-1,-1,-1,-1,-1,-1,-1,-1,-1,-1,-1,-1,-1,-1,-1,-1,-1,-1,-1,-1,-1,-1,-1,-1,-1,-1,-1,-1],"loss_changes":[4.1484164E4,1.458775E4,1.5242654E4,4.9168086E3,1.7327012E3,2.606593E3,6.4314336E3,7.736701E3,6.0751953E3,1.5446445E3,4.335371E2,2.7282942E3,3.2748901E3,5.204873E3,2.7325625E3,3.3115085E3,1.7225781E3,3.9381667E3,1.7673191E3,7.3366614E2,6.468779E2,0E0,3.0942908E2,1.121145E3,1.518407E3,1.3064937E3,1.6764236E3,1.6382656E3,1.8621543E3,1.6751504E3,8.9017944E2,0E0,0E0,0E0,0E0,0E0,0E0,0E0,0E0,0E0,0E0,0E0,0E0,0E0,0E0,0E0,0E0,0E0,0E0,0E0,0E0,0E0,0E0,0E0,0E0,0E0,0E0,0E0,0E0,0E0,0E0],"parents":[2147483647,0,0,1,1,2,2,3,3,4,4,5,5,6,6,7,7,8,8,9,9,10,10,11,11,12,12,13,13,14,14,15,15,16,16,17,17,18,18,19,19,20,20,22,22,23,23,24,24,25,25,26,26,27,27,28,28,29,29,30,30],"right_children":[2,4,6,8,10,12,14,16,18,20,22,24,26,28,30,32,34,36,38,40,42,-1,44,46,48,50,52,54,56,58,60,-1,-1,-1,-1,-1,-1,-1,-1,-1,-1,-1,-1,-1,-1,-1,-1,-1,-1,-1,-1,-1,-1,-1,-1,-1,-1,-1,-1,-1,-1],"split_conditions":[5.7411764E-2,2.7142859E-1,2.120233E-1,3.670588E-2,2.5098804E-2,3.2608697E-1,2.1428572E-1,2.9347825E-1,3.75E-1,1.6304348E-1,4.611765E-2,1.5529412E-1,5.652174E-1,2.5E-1,3.9586118E-1,2.957359E-1,4.1953233E-1,4.235294E-2,1E-1,2.6473528E-1,3.4285715E-1,-4.3293464E-1,1.3372126E-1,4.6010637E-1,5.1169187E-1,3.9760637E-1,4.1953233E-1,2.8670105E-1,3E-2,4.6492434E-1,2.4285714E-1,-1.7317317E-1,3.5123718E-1,-1.066375E-1,-2.36329E-1,9.101991E-2,-2.1942478E-1,8.059678E-3,1.6709693E-1,-1.331723E-1,1.8906471E-1,-3.348687E-1,-6.956643E-2,-4.7866408E-2,-3.3080474E-1,-3.682015E-1,1.4086851E-1,-2.1584788E-2,6.277776E-1,2.0654248E-1,3.72895E-2,-9.1274194E-2,1.0151002E-1,7.7662987E-1,-1.0051724E-1,1.968568E-1,-5.0002035E-2,4.5516065E-1,8.1433636E-1,3.7832212E-1,3.2099262E-2],"split_indices":[0,6,2,0,0,7,6,7,3,7,0,0,7,7,2,5,5,0,6,2,6,0,2,3,5,3,5,2,12,5,6,0,0,0,0,0,0,0,0,0,0,0,0,0,0,0,0,0,0,0,0,0,0,0,0,0,0,0,0,0,0],"split_type":[0,0,0,0,0,0,0,0,0,0,0,0,0,0,0,0,0,0,0,0,0,0,0,0,0,0,0,0,0,0,0,0,0,0,0,0,0,0,0,0,0,0,0,0,0,0,0,0,0,0,0,0,0,0,0,0,0,0,0,0,0],"sum_hessian":[1.166E3,6.42E2,5.24E2,5.03E2,1.39E2,2.6E2,2.64E2,2.55E2,2.48E2,6.7E1,7.2E1,4.9E1,2.11E2,2.02E2,6.2E1,2.9E1,2.26E2,1.02E2,1.46E2,1.7E1,5E1,6.4E1,8E0,2.1E1,2.8E1,1.04E2,1.07E2,1E1,1.92E2,4.7E1,1.5E1,8E0,2.1E1,9.2E1,1.34E2,2.9E1,7.3E1,6.5E1,8.1E1,1.3E1,4E0,4.4E1,6E0,4E0,4E0,1.9E1,2E0,2.7E1,1E0,6.7E1,3.7E1,7.4E1,3.3E1,9E0,1E0,1.75E2,1.7E1,3.6E1,1.1E1,6E0,9E0],"tree_param":{"num_deleted":"0","num_feature":"16","num_nodes":"61","size_leaf_vector":"1"}},{"base_weights":[-5.572714E-2,2.9517124E0,-6.944404E0,5.9377947E0,-4.0487113E0,-4.8153205E0,-1.3157939E1,7.264848E-1,1.0929444E1,-6.774151E0,1.3335092E1,-1.493318E1,-4.2294593E0,-5.858616E0,-1.5188777E1,-6.244697E-1,1.3792409E1,2.7883375E0,1.449759E1,6.9977956E0,-8.943279E0,2.9699719E-2,1.3670259E1,-4.483157E-2,-1.5778861E1,-5.7887297E0,-1.4414078E0,-7.6602864E0,1.4387887E0,-1.1247682E1,-4.208289E-1,-1.1701115E-1,5.196288E-2,1.980705E-1,4.7949663E-1,1.0643154E-1,-3.302813E-1,6.3767296E-1,2.8836814E-1,4.7715384E-1,-1.6921827E-1,-2.698849E-1,-4.6702843E-2,2.7548555E-1,4.486357E-1,-5.143166E-2,-3.8049972E-1,-1.694698E-1,-2.176864E-2,8.785554E-2,-1.4763874E-1,-1.1218105E-2,-1.9535984E-1,5.3084813E-2,-2.4298854E-2,-2.716498E-1,-7.078893E-2],"categories":[],"categories_nodes":[],"categories_segments":[],"categories_sizes":[],"default_left":[0,0,0,0,0,0,0,0,0,0,0,0,0,0,0,0,0,0,0,0,0,0,0,0,0,0,0,0,0,0,0,0,0,0,0,0,0,0,0,0,0,0,0,0,0,0,0,0,0,0,0,0,0,0,0,0,0],"id":4,"left_children":[1,3,5,7,9,11,13,15,17,19,21,23,25,27,29,31,33,35,37,39,41,-1,43,-1,45,47,49,51,53,55,-1,-1,-1,-1,-1,-1,-1,-1,-1,-1,-1,-1,-1,-1,-1,-1,-1,-1,-1,-1,-1,-1,-1,-1,-1,-1,-1],"loss_changes":[2.3928238E4,1.683073E4,4.5800664E3,1.4663412E4,1.1508552E4,1.4958164E3,1.2303281E3,4.89807E3,8.325586E3,6.3060664E3,1.15223145E2,1.2240283E2,1.0784878E3,2.871195E2,6.894922E2,3.3207852E3,7.7938086E2,2.9742124E3,4.587949E3,6.0010947E3,3.6104873E3,0E0,6.430127E1,0E0,1.2713135E2,1.2739365E3,2.4588762E3,1.0820917E2,1.3686714E1,1.5301025E2,0E0,0E0,0E0,0E0,0E0,0E0,0E0,0E0,0E0,0E0,0E0,0E0,0E0,0E0,0E0,0E0,0E0,0E0,0E0,0E0,0E0,0E0,0E0,0E0,0E0,0E0,0E0],"parents":[2147483647,0,0,1,1,2,2,3,3,4,4,5,5,6,6,7,7,8,8,9,9,10,10,11,11,12,12,13,13,14,14,15,15,16,16,17,17,18,18,19,19,20,20,22,22,24,24,25,25,26,26,27,27,28,28,29,29],"right_children":[2,4,6,8,10,12,14,16,18,20,22,24,26,28,30,32,34,36,38,40,42,-1,44,-1,46,48,50,52,54,56,-1,-1,-1,-1,-1,-1,-1,-1,-1,-1,-1,-1,-1,-1,-1,-1,-1,-1,-1,-1,-1,-1,-1,-1,-1,-1,-1],"split_conditions":[2.5383008E-1,1.5666667E-1,2.1333334E-1,9.742894E-2,1.904762E-1,1.9565217E-1,7.5E-2,6.1904764E-1,3.4175533E-1,6.25E-2,4.7602267E-3,1.0869565E-1,5.0076634E-1,6.9325995E-1,4.0426973E-1,3.8962767E-1,3.2608697E-1,6.956522E-1,1.0129025E-1,2.7173913E-1,1.6354E-1,2.9699719E-2,3.818702E-2,-4.483157E-2,2.9082525E-1,5.217391E-1,5.230998E-1,3.537234E-1,4.7473404E-1,5.6648934E-1,-4.208289E-1,-1.1701115E-1,5.196288E-2,1.980705E-1,4.7949663E-1,1.0643154E-1,-3.302813E-1,6.3767296E-1,2.8836814E-1,4.7715384E-1,-1.6921827E-1,-2.698849E-1,-4.6702843E-2,2.7548555E-1,4.486357E-1,-5.143166E-2,-3.8049972E-1,-1.694698E-1,-2.176864E-2,8.785554E-2,-1.4763874E-1,-1.1218105E-2,-1.9535984E-1,5.3084813E-2,-2.4298854E-2,-2.716498E-1,-7.078893E-2],"split_indices":[9,15,15,9,8,7,13,8,3,13,9,7,9,5,9,3,7,7,9,7,9,0,9,0,9,7,9,3,3,3,0,0,0,0,0,0,0,0,0,0,0,0,0,0,0,0,0,0,0,0,0,0,0,0,0,0,0],"split_type":[0,0,0,0,0,0,0,0,0,0,0,0,0,0,0,0,0,0,0,0,0,0,0,0,0,0,0,0,0,0,0,0,0,0,0,0,0,0,0,0,0,0,0,0,0,0,0,0,0,0,0,0,0,0,0,0,0],"sum_hessian":[1.153E3,8.03E2,3.5E2,5.63E2,2.4E2,2.62E2,8.8E1,2.76E2,2.87E2,2.08E2,3.2E1,1.3E1,2.49E2,2E1,6.8E1,2.51E2,2.5E1,8.8E1,1.99E2,2.8E1,1.8E2,1E0,3.1E1,1E0,1.2E1,1.59E2,9E1,1.6E1,4E0,3.3E1,3.5E1,9.8E1,1.53E2,1.6E1,9E0,8E1,8E0,2.2E1,1.77E2,1.4E1,1.4E1,1.26E2,5.4E1,2.7E1,4E0,1E0,1.1E1,1.18E2,4.1E1,4.4E1,4.6E1,2E0,1.4E1,3E0,1E0,3E1,3E0],"tree_param":{"num_deleted":"0","num_feature":"16","num_nodes":"57","size_leaf_vector":"1"}},{"base_weights":[-3.4159672E-1,6.0580063E0,-1.0879609E1,9.210659E0,-1.8224243E0,-5.9053125E0,-1.6354046E1,2.5671387E0,1.5180319E1,-4.3576546E0,4.136137E0,4.1397753E-1,-7.846538E0,-1.1613583E1,-1.7526157E1,-1.2852868E0,1.19721365E1,1.890811E1,7.3866296E0,-2.1939774E0,-9.274414E0,1.0759743E1,-1.2809235E0,-5.922591E-1,6.2309176E-1,9.850691E0,-8.421607E0,-1.2050454E1,-1.6261896E0,1.7599002E-2,-1.7643167E1,2.2694219E-2,-2.2221828E-1,3.7029833E-1,1.7782171E-1,5.236751E-1,2.4132736E-1,5.8825797E-1,1.13509364E-1,1.6424404E-1,-1.1089006E-1,-2.2788128E-1,2.5535372E-1,4.2337772E-1,1.6525033E-1,7.233118E-2,-6.706698E-2,3.569839E-2,-1.4372523E-1,-6.3942716E-2,2.946313E-1,-1.3810539E-1,-2.6172063E-1,-5.3550705E-2,-2.8397846E-1,-1.0084391E-2,-4.543623E-2,-4.034676E-1,-4.7621086E-2],"categories":[],"categories_nodes":[],"categories_segments":[],"categories_sizes":[],"default_left":[0,0,0,0,0,0,0,0,0,0,0,0,0,0,0,0,0,0,0,0,0,0,0,0,0,0,0,0,0,0,0,0,0,0,0,0,0,0,0,0,0,0,0,0,0,0,0,0,0,0,0,0,0,0,0,0,0,0,0],"id":5,"left_children":[1,3,5,7,9,11,13,15,17,19,21,23,25,27,29,31,33,35,37,39,41,43,45,47,-1,49,51,53,55,-1,57,-1,-1,-1,-1,-1,-1,-1,-1,-1,-1,-1,-1,-1,-1,-1,-1,-1,-1,-1,-1,-1,-1,-1,-1,-1,-1,-1,-1],"loss_changes":[7.782318E4,1.7854963E4,1.1776348E4,2.0306383E4,3.1299268E3,2.8246968E3,9.466211E2,8.856009E3,7.704707E3,1.5222029E3,2.238372E3,1.5083385E3,1.8741338E3,1.7238477E2,3.6479688E2,3.3765227E3,1.1418828E3,5.952707E3,3.8131943E3,2.6055046E3,7.773247E2,6.3328784E2,2.693E2,6.775532E2,0E0,2.7137488E2,1.1688262E3,1.4418506E2,4.2897987E-1,0E0,1.735039E2,0E0,0E0,0E0,0E0,0E0,0E0,0E0,0E0,0E0,0E0,0E0,0E0,0E0,0E0,0E0,0E0,0E0,0E0,0E0,0E0,0E0,0E0,0E0,0E0,0E0,0E0,0E0,0E0],"parents":[2147483647,0,0,1,1,2,2,3,3,4,4,5,5,6,6,7,7,8,8,9,9,10,10,11,11,12,12,13,13,14,14,15,15,16,16,17,17,18,18,19,19,20,20,21,21,22,22,23,23,25,25,26,26,27,27,28,28,30,30],"right_children":[2,4,6,8,10,12,14,16,18,20,22,24,26,28,30,32,34,36,38,40,42,44,46,48,-1,50,52,54,56,-1,58,-1,-1,-1,-1,-1,-1,-1,-1,-1,-1,-1,-1,-1,-1,-1,-1,-1,-1,-1,-1,-1,-1,-1,-1,-1,-1,-1,-1],"split_conditions":[6.3615704E-1,2.1690613E-1,7.7762103E-1,9.970989E-2,3.8144225E-1,2.992021E-1,8.0893666E-1,1.904762E-1,5.1657456E-1,5.419532E-1,5.113254E-1,4.6905088E-1,1.0869565E-1,7.6616234E-1,9.318803E-2,1.4E-1,3.726519E-1,6.25E-2,2.6086956E-1,2.5383008E-1,6.0719615E-1,3.3776596E-1,5.624766E-1,7.30159E-1,6.2309176E-1,6.736021E-1,2.3946986E-1,2.2971115E-1,7.851697E-1,1.7599002E-2,5.2E-1,2.2694219E-2,-2.2221828E-1,3.7029833E-1,1.7782171E-1,5.236751E-1,2.4132736E-1,5.8825797E-1,1.13509364E-1,1.6424404E-1,-1.1089006E-1,-2.2788128E-1,2.5535372E-1,4.2337772E-1,1.6525033E-1,7.233118E-2,-6.706698E-2,3.569839E-2,-1.4372523E-1,-6.3942716E-2,2.946313E-1,-1.3810539E-1,-2.6172063E-1,-5.3550705E-2,-2.8397846E-1,-1.0084391E-2,-4.543623E-2,-4.034676E-1,-4.7621086E-2],"split_indices":[1,9,1,9,9,3,1,8,1,5,4,5,7,5,4,15,4,13,7,9,4,3,4,1,0,1,9,5,1,0,15,0,0,0,0,0,0,0,0,0,0,0,0,0,0,0,0,0,0,0,0,0,0,0,0,0,0,0,0],"split_type":[0,0,0,0,0,0,0,0,0,0,0,0,0,0,0,0,0,0,0,0,0,0,0,0,0,0,0,0,0,0,0,0,0,0,0,0,0,0,0,0,0,0,0,0,0,0,0,0,0,0,0,0,0,0,0,0,0,0,0],"sum_hessian":[1.152E3,7.17E2,4.35E2,5.12E2,2.05E2,2.29E2,2.06E2,2.43E2,2.69E2,1.44E2,6.1E1,5.4E1,1.75E2,4.3E1,1.63E2,1.73E2,7E1,1.81E2,8.8E1,1.01E2,4.3E1,2.7E1,3.4E1,5.3E1,1E0,5E0,1.7E2,4.1E1,2E0,1E0,1.62E2,1.37E2,3.6E1,3.3E1,3.7E1,1.2E2,6.1E1,9E0,7.9E1,2.2E1,7.9E1,4.2E1,1E0,7E0,2E1,9E0,2.5E1,3.9E1,1.4E1,1E0,4E0,9.8E1,7.2E1,2E0,3.9E1,1E0,1E0,1.61E2,1E0],"tree_param":{"num_deleted":"0","num_feature":"16","num_nodes":"59","size_leaf_vector":"1"}},{"base_weights":[2.0530403E-1,7.6002274E0,-9.244172E0,-3.7222955E0,1.1508241E1,-4.3919115E0,-1.5437827E1,6.68746E0,-7.080055E0,1.7416067E1,6.9481826E0,-1.0899382E0,-7.2119675E0,-1.5629266E1,-1.1449697E0,1.0409088E1,-9.965393E0,-1.2859703E1,-1.2800885E0,1.4999103E1,3.1256752E1,9.32977E0,-1.8078859E0,1.0594469E1,-2.0310287E0,-5.0098963E0,-9.320376E0,-1.245971E1,-1.678139E1,-2.2330083E-1,2.8282988E-1,3.942152E-1,3.532775E-2,-3.680202E-1,6.380082E-3,-1.6188878E-1,-3.6386934E-1,2.57E-1,-6.316745E-2,6.205549E-1,2.6677743E-1,8.359281E-1,5.502596E-1,3.018596E-1,1.165662E-1,4.1093428E-2,-1.8133461E-1,3.289304E-1,1.2779301E-1,3.786976E-2,-1.2185226E-1,-6.0193796E-2,-1.9197522E-1,-2.3009312E-1,-5.093979E-2,-2.8715798E-1,-3.3151504E-2,-3.8431054E-1,-7.767753E-3],"categories":[],"categories_nodes":[],"categories_segments":[],"categories_sizes":[],"default_left":[0,0,0,0,0,0,0,0,0,0,0,0,0,0,0,0,0,0,0,0,0,0,0,0,0,0,0,0,0,0,0,0,0,0,0,0,0,0,0,0,0,0,0,0,0,0,0,0,0,0,0,0,0,0,0,0,0,0,0],"id":6,"left_children":[1,3,5,7,9,11,13,15,17,19,21,23,25,27,29,31,33,35,37,39,41,43,45,47,49,51,53,55,57,-1,-1,-1,-1,-1,-1,-1,-1,-1,-1,-1,-1,-1,-1,-1,-1,-1,-1,-1,-1,-1,-1,-1,-1,-1,-1,-1,-1,-1,-1],"loss_changes":[8.02205E4,2.8538922E4,1.5079027E4,5.849622E3,1.2783262E4,2.6366768E3,5.868008E2,2.6447354E3,4.2072812E3,6.489289E3,5.6889756E3,1.4730009E3,6.6366406E2,5.869844E2,5.9231757E2,2.0541724E3,5.130044E2,1.0184209E3,1.2342864E3,6.8776406E3,2.7405664E2,3.4736035E3,1.3273948E3,1.1093701E2,1.5188717E3,6.013889E2,4.0749023E2,8.83916E1,2.6060156E2,0E0,0E0,0E0,0E0,0E0,0E0,0E0,0E0,0E0,0E0,0E0,0E0,0E0,0E0,0E0,0E0,0E0,0E0,0E0,0E0,0E0,0E0,0E0,0E0,0E0,0E0,0E0,0E0,0E0,0E0],"parents":[2147483647,0,0,1,1,2,2,3,3,4,4,5,5,6,6,7,7,8,8,9,9,10,10,11,11,12,12,13,13,14,14,15,15,16,16,17,17,18,18,19,19,20,20,21,21,22,22,23,23,24,24,25,25,26,26,27,27,28,28],"right_children":[2,4,6,8,10,12,14,16,18,20,22,24,26,28,30,32,34,36,38,40,42,44,46,48,50,52,54,56,58,-1,-1,-1,-1,-1,-1,-1,-1,-1,-1,-1,-1,-1,-1,-1,-1,-1,-1,-1,-1,-1,-1,-1,-1,-1,-1,-1,-1,-1,-1],"split_conditions":[5.951633E-1,3.8588237E-2,7.5322354E-1,3.7898937E-1,4.272762E-1,3.6569148E-1,5E-1,2.7142859E-1,1.7882353E-2,3E-1,5.159575E-1,2.5132978E-1,4.268617E-1,8.17276E-1,8.294244E-1,5.305701E-1,3E-1,1E-1,1.9607078E-2,4.574468E-1,3.4169438E-1,5.232732E-1,5.0234085E-1,6.431296E-2,6.67931E-1,6.823537E-1,3E-1,4.677647E-1,4.4470587E-1,-2.2330083E-1,2.8282988E-1,3.942152E-1,3.532775E-2,-3.680202E-1,6.380082E-3,-1.6188878E-1,-3.6386934E-1,2.57E-1,-6.316745E-2,6.205549E-1,2.6677743E-1,8.359281E-1,5.502596E-1,3.018596E-1,1.165662E-1,4.1093428E-2,-1.8133461E-1,3.289304E-1,1.2779301E-1,3.786976E-2,-1.2185226E-1,-6.0193796E-2,-1.9197522E-1,-2.3009312E-1,-5.093979E-2,-2.8715798E-1,-3.3151504E-2,-3.8431054E-1,-7.767753E-3],"split_indices":[1,0,1,3,1,3,14,6,0,6,3,3,3,1,1,1,6,6,0,3,1,1,1,0,1,1,6,0,0,0,0,0,0,0,0,0,0,0,0,0,0,0,0,0,0,0,0,0,0,0,0,0,0,0,0,0,0,0,0],"split_type":[0,0,0,0,0,0,0,0,0,0,0,0,0,0,0,0,0,0,0,0,0,0,0,0,0,0,0,0,0,0,0,0,0,0,0,0,0,0,0,0,0,0,0,0,0,0,0,0,0,0,0,0,0,0,0,0,0,0,0],"sum_hessian":[1.146E3,6.43E2,5.03E2,1.65E2,4.78E2,2.83E2,2.2E2,4E1,1.25E2,2.07E2,2.71E2,1.31E2,1.52E2,2.17E2,3E0,3.3E1,7E0,6.2E1,6.3E1,1.78E2,2.9E1,2.13E2,5.8E1,9E0,1.22E2,7.6E1,7.6E1,6.1E1,1.56E2,2E0,1E0,1.8E1,1.5E1,4E0,3E0,2.3E1,3.9E1,6E0,5.7E1,3.6E1,1.42E2,1.4E1,1.5E1,1.09E2,1.04E2,3.7E1,2.1E1,4E0,5E0,5.8E1,6.4E1,4.6E1,3E1,6.8E1,8E0,6E1,1E0,1.55E2,1E0],"tree_param":{"num_deleted":"0","num_feature":"16","num_nodes":"59","size_leaf_vector":"1"}},{"base_weights":[-1.2770836E-1,6.656872E0,-9.090308E0,1.3026784E-1,1.3686718E1,-4.448424E0,-1.5287815E1,3.1657157E0,-8.2017975E0,1.663007E1,2.7194362E0,-2.6628134E0,-8.270608E0,3.4014225E-2,-1.5511113E1,6.5811462E0,-3.304813E0,-1.23870945E1,9.227562E0,1.15774355E1,2.4486044E1,1.515583E1,-8.516084E-1,-4.791301E0,1.8053558E0,-9.318448E0,-2.480035E0,-8.14441E0,2.7961114E-1,-1.5805031E1,-3.0796955E0,-1.3016529E-2,2.6186123E-1,-8.8907875E-2,6.9340155E-2,-1.5150438E-1,-3.6447063E-1,2.942874E-1,3.558128E-2,2.9347286E-1,-1.8824823E-1,9.02339E-1,4.8655596E-1,4.3375784E-1,2.1304645E-1,5.691293E-2,-5.391471E-2,-1.5735312E-1,4.757231E-3,-2.566955E-1,6.5631494E-2,-1.9259388E-2,-2.226903E-1,7.921695E-2,-8.341332E-2,-5.6069992E-2,-2.2199275E-1,-2.2627372E-1,-3.7323615E-1,-9.937854E-2,3.8155247E-2],"categories":[],"categories_nodes":[],"categories_segments":[],"categories_sizes":[],"default_left":[0,0,0,0,0,0,0,0,0,0,0,0,0,0,0,0,0,0,0,0,0,0,0,0,0,0,0,0,0,0,0,0,0,0,0,0,0,0,0,0,0,0,0,0,0,0,0,0,0,0,0,0,0,0,0,0,0,0,0,0,0],"id":7,"left_children":[1,3,5,7,9,11,13,15,17,19,21,23,25,27,29,31,33,35,37,39,41,43,45,47,49,51,53,55,-1,57,59,-1,-1,-1,-1,-1,-1,-1,-1,-1,-1,-1,-1,-1,-1,-1,-1,-1,-1,-1,-1,-1,-1,-1,-1,-1,-1,-1,-1,-1,-1],"loss_changes":[6.901619E4,2.9637357E4,1.3999605E4,8.523925E3,9.994023E3,1.8957832E3,7.1558594E2,5.4803613E3,6.679536E3,9.441391E3,2.9884385E3,1.844165E3,5.1690576E2,5.0081458E2,7.040117E2,5.7120684E3,3.403523E2,1.4102705E3,4.9049048E2,4.0514297E3,3.6300078E3,1.6077612E2,2.754536E2,1.3914199E3,9.21174E2,2.8744336E2,1.1867489E2,3.3922424E0,0E0,5.3590625E2,4.4030342E1,0E0,0E0,0E0,0E0,0E0,0E0,0E0,0E0,0E0,0E0,0E0,0E0,0E0,0E0,0E0,0E0,0E0,0E0,0E0,0E0,0E0,0E0,0E0,0E0,0E0,0E0,0E0,0E0,0E0,0E0],"parents":[2147483647,0,0,1,1,2,2,3,3,4,4,5,5,6,6,7,7,8,8,9,9,10,10,11,11,12,12,13,13,14,14,15,15,16,16,17,17,18,18,19,19,20,20,21,21,22,22,23,23,24,24,25,25,26,26,27,27,29,29,30,30],"right_children":[2,4,6,8,10,12,14,16,18,20,22,24,26,28,30,32,34,36,38,40,42,44,46,48,50,52,54,56,-1,58,60,-1,-1,-1,-1,-1,-1,-1,-1,-1,-1,-1,-1,-1,-1,-1,-1,-1,-1,-1,-1,-1,-1,-1,-1,-1,-1,-1,-1,-1,-1],"split_conditions":[6.068322E-1,7.058824E-2,7.8257215E-1,3.15E-1,2.9082525E-1,2.3946986E-1,8.695652E-2,1.8467773E-1,4.6277997E-1,1.118485E-1,4.4367063E-1,1.3613915E-1,5.869565E-1,8.722742E-1,3.6941177E-1,9.970989E-2,9E-2,1.3761947E-1,5.691654E-1,1.5E-2,2.59646E-1,3.726519E-1,5.474685E-1,7.247059E-2,1.7882353E-2,2.58581E-1,1.7882353E-2,7.9514337E-1,2.7961114E-1,8.0100226E-1,8.727456E-1,-1.3016529E-2,2.6186123E-1,-8.8907875E-2,6.9340155E-2,-1.5150438E-1,-3.6447063E-1,2.942874E-1,3.558128E-2,2.9347286E-1,-1.8824823E-1,9.02339E-1,4.8655596E-1,4.3375784E-1,2.1304645E-1,5.691293E-2,-5.391471E-2,-1.5735312E-1,4.757231E-3,-2.566955E-1,6.5631494E-2,-1.9259388E-2,-2.226903E-1,7.921695E-2,-8.341332E-2,-5.6069992E-2,-2.2199275E-1,-2.2627372E-1,-3.7323615E-1,-9.937854E-2,3.8155247E-2],"split_indices":[1,0,1,12,9,9,7,9,9,9,4,9,7,1,0,9,12,9,1,12,1,4,4,0,0,4,0,1,0,1,4,0,0,0,0,0,0,0,0,0,0,0,0,0,0,0,0,0,0,0,0,0,0,0,0,0,0,0,0,0,0],"split_type":[0,0,0,0,0,0,0,0,0,0,0,0,0,0,0,0,0,0,0,0,0,0,0,0,0,0,0,0,0,0,0,0,0,0,0,0,0,0,0,0,0,0,0,0,0,0,0,0,0,0,0,0,0,0,0,0,0,0,0,0,0],"sum_hessian":[1.133E3,6.45E2,4.88E2,3.35E2,3.1E2,2.8E2,2.08E2,2.46E2,8.9E1,2.44E2,6.6E1,1.92E2,8.8E1,3E0,2.05E2,1.61E2,8.5E1,7.2E1,1.7E1,1.5E2,9.4E1,1.4E1,5.2E1,1.3E2,6.2E1,7.4E1,1.4E1,2E0,1E0,2E2,5E0,6.6E1,9.5E1,7.8E1,7E0,2.9E1,4.3E1,1.1E1,6E0,1.41E2,9E0,1.4E1,8E1,7E0,7E0,1.6E1,3.6E1,9.1E1,3.9E1,4E0,5.8E1,4E0,7E1,2E0,1.2E1,1E0,1E0,2E1,1.8E2,4E0,1E0],"tree_param":{"num_deleted":"0","num_feature":"16","num_nodes":"61","size_leaf_vector":"1"}},{"base_weights":[-1.7228183E-1,-4.2476687E0,5.6738586E0,-2.524234E0,-1.3448107E1,1.2149748E1,2.9312712E-1,9.3700504E-1,-6.9561715E0,2.2151084E0,-1.4419767E1,1.0008492E1,2.381463E1,3.0044682E0,-1.2091106E1,-1.1190739E1,2.0136638E0,-1.31391735E1,-4.9892225E0,-6.4809656E-1,1.02983095E-1,-1.6527466E1,-1.0441261E1,1.4566706E1,6.688921E0,2.8595127E1,-1.6667084E0,1.5213081E1,1.9873283E0,4.811606E0,-1.52483015E1,-3.1044558E-1,4.145447E-2,1.0772861E-1,-5.4603804E-2,-3.4748963E-1,-1.6944669E-1,3.0119973E-1,-1.4846174E-1,1.8482374E-2,-3.199004E-2,-3.7902266E-1,-1.000343E-1,-1.5899685E-1,-3.3095387E-1,3.5823697E-1,-2.3164316E-1,1.9884916E-1,-3.472845E-2,6.893231E-1,2.573293E-1,1.050605E-1,-1.3569938E-1,-4.8598237E-2,7.4720377E-1,3.8647402E-2,6.614812E-1,1.7778443E-1,-1.8417712E-1,-1.0613959E-1,-3.64196E-1],"categories":[],"categories_nodes":[],"categories_segments":[],"categories_sizes":[],"default_left":[0,0,0,0,0,0,0,0,0,0,0,0,0,0,0,0,0,0,0,0,0,0,0,0,0,0,0,0,0,0,0,0,0,0,0,0,0,0,0,0,0,0,0,0,0,0,0,0,0,0,0,0,0,0,0,0,0,0,0,0,0],"id":8,"left_children":[1,3,5,7,9,11,13,15,17,19,21,23,25,27,29,31,33,35,37,39,-1,41,43,45,47,49,51,53,55,57,59,-1,-1,-1,-1,-1,-1,-1,-1,-1,-1,-1,-1,-1,-1,-1,-1,-1,-1,-1,-1,-1,-1,-1,-1,-1,-1,-1,-1,-1,-1],"loss_changes":[2.6970498E4,1.0542242E4,1.6199373E4,8.642936E3,1.6299727E3,5.0319062E3,8.5986875E3,4.161743E3,2.938372E3,4.921889E1,6.5759766E2,2.6262012E3,3.9456914E3,2.5775188E3,2.5281665E3,8.532373E2,3.5152544E3,6.01208E2,5.367406E3,5.564706E0,0E0,2.2201172E1,4.2255615E2,2.3358076E3,1.7961792E3,4.4657422E2,1.8942735E2,4.9595537E3,1.478371E3,3.728139E2,2.3605371E2,0E0,0E0,0E0,0E0,0E0,0E0,0E0,0E0,0E0,0E0,0E0,0E0,0E0,0E0,0E0,0E0,0E0,0E0,0E0,0E0,0E0,0E0,0E0,0E0,0E0,0E0,0E0,0E0,0E0,0E0],"parents":[2147483647,0,0,1,1,2,2,3,3,4,4,5,5,6,6,7,7,8,8,9,9,10,10,11,11,12,12,13,13,14,14,15,15,16,16,17,17,18,18,19,19,21,21,22,22,23,23,24,24,25,25,26,26,27,27,28,28,29,29,30,30],"right_children":[2,4,6,8,10,12,14,16,18,20,22,24,26,28,30,32,34,36,38,40,-1,42,44,46,48,50,52,54,56,58,60,-1,-1,-1,-1,-1,-1,-1,-1,-1,-1,-1,-1,-1,-1,-1,-1,-1,-1,-1,-1,-1,-1,-1,-1,-1,-1,-1,-1,-1,-1],"split_conditions":[6.274586E-2,7.7623737E-1,5.5273086E-1,1.2E-1,2.8571429E-2,3E-1,8.081711E-1,4.705882E-3,1.7882353E-2,2.957388E-1,5.217391E-1,3.915647E-1,3.4285715E-1,2.5E-1,2.0357634E-1,5.019193E-1,5.953893E-1,5.217391E-1,1.9607078E-2,2.90586E-1,1.02983095E-1,3.3666667E-1,8.727456E-1,8.695652E-1,4.8968363E-1,1.8901892E-1,8.9276604E-2,2.1056832E-1,8.046505E-1,6.956522E-1,5.185994E-2,-3.1044558E-1,4.145447E-2,1.0772861E-1,-5.4603804E-2,-3.4748963E-1,-1.6944669E-1,3.0119973E-1,-1.4846174E-1,1.8482374E-2,-3.199004E-2,-3.7902266E-1,-1.000343E-1,-1.5899685E-1,-3.3095387E-1,3.5823697E-1,-2.3164316E-1,1.9884916E-1,-3.472845E-2,6.893231E-1,2.573293E-1,1.050605E-1,-1.3569938E-1,-4.8598237E-2,7.4720377E-1,3.8647402E-2,6.614812E-1,1.7778443E-1,-1.8417712E-1,-1.0613959E-1,-3.64196E-1],"split_indices":[0,4,4,15,6,6,4,0,0,2,7,4,6,7,5,4,4,7,0,2,0,15,4,7,5,0,2,2,4,7,2,0,0,0,0,0,0,0,0,0,0,0,0,0,0,0,0,0,0,0,0,0,0,0,0,0,0,0,0,0,0],"split_type":[0,0,0,0,0,0,0,0,0,0,0,0,0,0,0,0,0,0,0,0,0,0,0,0,0,0,0,0,0,0,0,0,0,0,0,0,0,0,0,0,0,0,0,0,0,0,0,0,0,0,0,0,0,0,0,0,0,0,0,0,0],"sum_hessian":[1.13E3,6.66E2,4.64E2,5.62E2,1.04E2,2.1E2,2.54E2,3.16E2,2.46E2,6E0,9.8E1,1.79E2,3.1E1,2.09E2,4.5E1,2.5E1,2.91E2,5.8E1,1.88E2,3E0,3E0,6.2E1,3.6E1,7.4E1,1.05E2,2.6E1,5E0,1.5E1,1.94E2,7E0,3.8E1,2.1E1,4E0,1.8E2,1.11E2,4.1E1,1.7E1,1.4E1,1.74E2,1E0,2E0,6.1E1,1E0,2.1E1,1.5E1,7.1E1,3E0,8.4E1,2.1E1,2.3E1,3E0,2E0,3E0,8E0,7E0,1.93E2,1E0,6E0,1E0,3E0,3.5E1],"tree_param":{"num_deleted":"0","num_feature":"16","num_nodes":"61","size_leaf_vector":"1"}},{"base_weights":[2.4605095E-1,-4.686313E0,6.5533123E0,-3.265087E0,-1.0623292E1,9.758892E0,-3.5479345E0,-8.106907E-1,-6.675822E0,-1.2118569E1,1.6954868E1,2.3436258E0,1.2332316E1,-3.226403E-2,-8.234898E0,-6.77366E0,8.022766E0,-8.580401E0,5.51995E0,-1.3737044E1,3.4235832E-1,7.0471305E-1,5.159984E0,5.889354E0,-5.025334E0,7.330197E0,1.6738525E1,-1.7396095E0,5.2812696E0,-1.3196465E1,-1.4830866E0,-2.0372435E-1,-6.965516E-2,5.159051E-3,2.5831246E-1,-3.409092E-1,-1.4805722E-1,-7.11377E-2,2.9187632E-1,2.7811858E-1,-3.207899E-1,4.9135464E-1,-2.8312415E-1,-1.0757013E-2,2.0650126E-1,3.6725227E-2,2.876827E-1,-1.768094E-1,1.5166906E-1,8.5783616E-2,2.9675427E-1,4.7914642E-1,1.6526635E-1,-5.206966E-2,3.2324722E-1,3.1086573E-1,2.2964159E-2,-3.1678966E-1,-4.147269E-2,-8.798219E-2,2.5936705E-1],"categories":[],"categories_nodes":[],"categories_segments":[],"categories_sizes":[],"default_left":[0,0,0,0,0,0,0,0,0,0,0,0,0,0,0,0,0,0,0,0,0,0,0,0,0,0,0,0,0,0,0,0,0,0,0,0,0,0,0,0,0,0,0,0,0,0,0,0,0,0,0,0,0,0,0,0,0,0,0,0,0],"id":9,"left_children":[1,3,5,7,9,11,13,15,17,19,21,23,25,27,29,31,33,35,37,39,41,-1,43,45,47,49,51,53,55,57,59,-1,-1,-1,-1,-1,-1,-1,-1,-1,-1,-1,-1,-1,-1,-1,-1,-1,-1,-1,-1,-1,-1,-1,-1,-1,-1,-1,-1,-1,-1],"loss_changes":[3.686461E4,5.5764443E3,1.6872402E4,4.498345E3,5.4838057E3,7.5087383E3,2.0759395E3,1.6593863E4,5.273624E3,2.465162E3,9.966769E2,2.720814E3,6.3351367E3,6.714461E2,1.789405E3,1.4923477E3,3.2906436E3,2.4917832E3,1.9974799E3,1.1723516E3,4.3416577E3,0E0,1.1447804E2,1.999915E3,1.1417885E3,2.7762686E3,6.182547E3,5.217501E2,6.3039453E2,2.2908301E2,7.803953E2,0E0,0E0,0E0,0E0,0E0,0E0,0E0,0E0,0E0,0E0,0E0,0E0,0E0,0E0,0E0,0E0,0E0,0E0,0E0,0E0,0E0,0E0,0E0,0E0,0E0,0E0,0E0,0E0,0E0,0E0],"parents":[2147483647,0,0,1,1,2,2,3,3,4,4,5,5,6,6,7,7,8,8,9,9,10,10,11,11,12,12,13,13,14,14,15,15,16,16,17,17,18,18,19,19,20,20,22,22,23,23,24,24,25,25,26,26,27,27,28,28,29,29,30,30],"right_children":[2,4,6,8,10,12,14,16,18,20,22,24,26,28,30,32,34,36,38,40,42,-1,44,46,48,50,52,54,56,58,60,-1,-1,-1,-1,-1,-1,-1,-1,-1,-1,-1,-1,-1,-1,-1,-1,-1,-1,-1,-1,-1,-1,-1,-1,-1,-1,-1,-1,-1,-1],"split_conditions":[5.929412E-2,2.7142859E-1,2.9082525E-1,1.8467773E-1,4.2666668E-1,3.4175533E-1,5.230998E-1,1.0770473E-1,4.912912E-1,4.4235293E-2,4.3191198E-1,5.652174E-1,9.742894E-2,4.8555708E-1,2.298046E-1,4.8537233E-1,3.3837688E-1,1.7882353E-2,2.9298487E-1,1.6755319E-1,4.548943E-2,7.0471305E-1,8.695652E-2,3.9130434E-1,1.2854622E-1,2.857143E-1,5.652174E-1,5.0541174E-1,1.7142858E-1,4.8537233E-1,3.6235294E-1,-2.0372435E-1,-6.965516E-2,5.159051E-3,2.5831246E-1,-3.409092E-1,-1.4805722E-1,-7.11377E-2,2.9187632E-1,2.7811858E-1,-3.207899E-1,4.9135464E-1,-2.8312415E-1,-1.0757013E-2,2.0650126E-1,3.6725227E-2,2.876827E-1,-1.768094E-1,1.5166906E-1,8.5783616E-2,2.9675427E-1,4.7914642E-1,1.6526635E-1,-5.206966E-2,3.2324722E-1,3.1086573E-1,2.2964159E-2,-3.1678966E-1,-4.147269E-2,-8.798219E-2,2.5936705E-1],"split_indices":[0,6,9,9,15,3,9,9,9,0,5,7,9,5,0,3,5,0,5,3,0,0,7,7,9,8,7,0,6,3,0,0,0,0,0,0,0,0,0,0,0,0,0,0,0,0,0,0,0,0,0,0,0,0,0,0,0,0,0,0,0],"split_type":[0,0,0,0,0,0,0,0,0,0,0,0,0,0,0,0,0,0,0,0,0,0,0,0,0,0,0,0,0,0,0,0,0,0,0,0,0,0,0,0,0,0,0,0,0,0,0,0,0,0,0,0,0,0,0,0,0,0,0,0,0],"sum_hessian":[1.183E3,6.64E2,5.19E2,5.37E2,1.27E2,3.94E2,1.25E2,3.13E2,2.24E2,1.21E2,6E0,1.02E2,2.92E2,7.2E1,5.3E1,1.87E2,1.26E2,1.94E2,3E1,1.07E2,1.4E1,2E0,4E0,6.9E1,3.3E1,1.38E2,1.54E2,5.5E1,1.7E1,3E1,2.3E1,1.17E2,7E1,3.8E1,8.8E1,4.6E1,1.48E2,1.4E1,1.6E1,1E0,1.06E2,5E0,9E0,2E0,2E0,4.3E1,2.6E1,2.7E1,6E0,8.6E1,5.2E1,1.05E2,4.9E1,5.4E1,1E0,5E0,1.2E1,2.8E1,2E0,2E1,3E0],"tree_param":{"num_deleted":"0","num_feature":"16","num_nodes":"61","size_leaf_vector":"1"}},{"base_weights":[-2.4766253E-1,-4.9161797E0,5.68361E0,-3.4838836E0,-1.0896513E1,1.2044636E1,-1.171992E0,-9.033295E0,-1.9269272E0,-1.2293554E1,-7.85449E-1,2.495091E0,1.435193E1,2.7911594E0,-8.84543E0,-1.1549897E1,2.5418174E0,-6.935752E0,1.1738487E0,-7.082516E0,-1.6344343E1,1.942321E1,-1.173695E1,-4.476869E0,4.0584517E0,1.1660267E1,2.2105341E1,-2.58893E0,6.367599E0,-5.2510033E0,-3.4188318E-1,-6.731933E-2,-2.9669303E-1,4.888797E-1,-1.3247217E-2,-1.19800895E-1,-3.2623345E-1,1.6908039E-1,-1.2763068E-1,-2.700803E-1,4.130598E-2,-3.7784407E-1,-1.3529558E-1,4.9273166E-1,9.4447576E-2,-3.0146316E-1,3.8018018E-2,-1.5084028E-1,1.692906E-1,1.3800865E-1,-7.201896E-2,7.068199E-1,2.4635442E-1,5.522774E-1,-7.9031035E-2,-9.05386E-2,1.2399256E-1,1.8648396E-1,-3.4063077E-1,-5.6606095E-2,-1.75915E-1],"categories":[],"categories_nodes":[],"categories_segments":[],"categories_sizes":[],"default_left":[0,0,0,0,0,0,0,0,0,0,0,0,0,0,0,0,0,0,0,0,0,0,0,0,0,0,0,0,0,0,0,0,0,0,0,0,0,0,0,0,0,0,0,0,0,0,0,0,0,0,0,0,0,0,0,0,0,0,0,0,0],"id":10,"left_children":[1,3,5,7,9,11,13,15,17,19,21,23,25,27,29,31,33,35,37,39,41,43,45,47,49,51,53,55,57,59,-1,-1,-1,-1,-1,-1,-1,-1,-1,-1,-1,-1,-1,-1,-1,-1,-1,-1,-1,-1,-1,-1,-1,-1,-1,-1,-1,-1,-1,-1,-1],"loss_changes":[3.1622516E4,5.435462E3,2.1949277E4,4.4495723E3,1.72779E3,5.7149688E3,7.4145615E3,3.321043E3,6.2982954E3,2.1639941E3,3.769012E3,5.8495294E2,4.1248555E3,3.1143774E3,1.7633975E3,1.1482676E3,1.2547759E3,1.8420049E3,1.0687695E4,2.1069353E3,6.1157227E1,1.1405884E2,2.4448682E2,3.0548602E2,6.4185693E2,2.2278496E3,3.0107754E3,7.47173E2,3.9002012E3,3.5060583E2,0E0,0E0,0E0,0E0,0E0,0E0,0E0,0E0,0E0,0E0,0E0,0E0,0E0,0E0,0E0,0E0,0E0,0E0,0E0,0E0,0E0,0E0,0E0,0E0,0E0,0E0,0E0,0E0,0E0,0E0,0E0],"parents":[2147483647,0,0,1,1,2,2,3,3,4,4,5,5,6,6,7,7,8,8,9,9,10,10,11,11,12,12,13,13,14,14,15,15,16,16,17,17,18,18,19,19,20,20,21,21,22,22,23,23,24,24,25,25,26,26,27,27,28,28,29,29],"right_children":[2,4,6,8,10,12,14,16,18,20,22,24,26,28,30,32,34,36,38,40,42,44,46,48,50,52,54,56,58,60,-1,-1,-1,-1,-1,-1,-1,-1,-1,-1,-1,-1,-1,-1,-1,-1,-1,-1,-1,-1,-1,-1,-1,-1,-1,-1,-1,-1,-1,-1,-1],"split_conditions":[5.7411764E-2,2.7142859E-1,5.7179356E-1,1.7882353E-2,4.4235293E-2,1.6271725E-1,2.9082525E-1,4.6277997E-1,1.0770473E-1,2.3529412E-2,6.2400967E-1,8.045571E-2,2.1428572E-1,9.2174396E-2,7.6245177E-1,6.906781E-2,3.995181E-1,1.7142858E-1,1.8467773E-1,3E-1,4E-2,4.548943E-2,3.75E-1,4.677647E-1,5.398177E-1,1.6495119E-1,2.5E-2,4.752941E-1,8.4268725E-1,3.962766E-1,-3.4188318E-1,-6.731933E-2,-2.9669303E-1,4.888797E-1,-1.3247217E-2,-1.19800895E-1,-3.2623345E-1,1.6908039E-1,-1.2763068E-1,-2.700803E-1,4.130598E-2,-3.7784407E-1,-1.3529558E-1,4.9273166E-1,9.4447576E-2,-3.0146316E-1,3.8018018E-2,-1.5084028E-1,1.692906E-1,1.3800865E-1,-7.201896E-2,7.068199E-1,2.4635442E-1,5.522774E-1,-7.9031035E-2,-9.05386E-2,1.2399256E-1,1.8648396E-1,-3.4063077E-1,-5.6606095E-2,-1.75915E-1],"split_indices":[0,6,4,0,0,2,9,9,9,0,4,9,6,9,4,9,4,6,9,6,10,0,3,0,4,4,13,0,4,3,0,0,0,0,0,0,0,0,0,0,0,0,0,0,0,0,0,0,0,0,0,0,0,0,0,0,0,0,0,0,0],"split_type":[0,0,0,0,0,0,0,0,0,0,0,0,0,0,0,0,0,0,0,0,0,0,0,0,0,0,0,0,0,0,0,0,0,0,0,0,0,0,0,0,0,0,0,0,0,0,0,0,0,0,0,0,0,0,0,0,0,0,0,0,0],"sum_hessian":[1.14E3,6.38E2,5.02E2,5.16E2,1.22E2,2.6E2,2.42E2,1.12E2,4.04E2,1.07E2,1.5E1,5.1E1,2.09E2,1.6E2,8.2E1,9.2E1,2E1,1.54E2,2.5E2,4.8E1,5.9E1,5E0,1E1,9E0,4.2E1,1.57E2,5.2E1,6.4E1,9.6E1,5.3E1,2.9E1,1.4E1,7.8E1,2E0,1.8E1,1.27E2,2.7E1,1.3E2,1.2E2,3.1E1,1.7E1,5.7E1,2E0,4E0,1E0,9E0,1E0,8E0,1E0,3.3E1,9E0,5E0,1.52E2,4.8E1,4E0,5.5E1,9E0,8.9E1,7E0,2.6E1,2.7E1],"tree_param":{"num_deleted":"0","num_feature":"16","num_nodes":"61","size_leaf_vector":"1"}},{"base_weights":[4.6095464E-2,8.571956E0,-6.6752825E0,1.2131381E1,-2.3700035E0,-2.8256636E0,-1.4486714E1,1.7779198E1,7.2595215E0,-5.040022E0,1.1347235E1,-9.098615E-1,-6.854624E0,-1.1646515E1,-1.558728E1,2.2873583E1,9.326215E0,2.8075788E0,1.0205201E1,-2.3729664E-1,-1.0720038E1,1.3011029E0,1.5278947E1,9.495281E0,-1.9815742E0,-4.054173E0,-9.637164E0,-1.316261E1,-7.6529756E0,-1.559597E0,-1.5859249E1,3.1735182E-1,6.493833E-1,6.405442E-1,1.6880713E-1,1.4516915E-1,-5.0740846E-2,3.5785195E-1,2.07726E-2,-1.5914945E-1,1.9586216E-1,-3.0767757E-1,-2.2017246E-2,-1.4257617E-1,8.207557E-2,4.156796E-1,5.70783E-2,1.1454614E-1,7.969432E-1,-1.6422579E-1,-6.718059E-3,-1.5145975E-1,-4.383518E-2,-3.1961966E-3,-2.2566229E-1,-3.074058E-1,2.2050679E-2,2.3727359E-1,-2.0833364E-1,1.7523093E-2,-9.72807E-2,-3.6296472E-1,-3.3086427E-2],"categories":[],"categories_nodes":[],"categories_segments":[],"categories_sizes":[],"default_left":[0,0,0,0,0,0,0,0,0,0,0,0,0,0,0,0,0,0,0,0,0,0,0,0,0,0,0,0,0,0,0,0,0,0,0,0,0,0,0,0,0,0,0,0,0,0,0,0,0,0,0,0,0,0,0,0,0,0,0,0,0,0,0],"id":11,"left_children":[1,3,5,7,9,11,13,15,17,19,21,23,25,27,29,31,33,35,37,39,41,43,45,47,49,51,53,55,57,59,61,-1,-1,-1,-1,-1,-1,-1,-1,-1,-1,-1,-1,-1,-1,-1,-1,-1,-1,-1,-1,-1,-1,-1,-1,-1,-1,-1,-1,-1,-1,-1,-1],"loss_changes":[6.6818164E4,2.0047555E4,1.9565379E4,1.0546898E4,4.7086006E3,3.3745503E3,4.9051562E2,7.49491E3,2.725288E3,2.9163687E3,8.095891E2,3.34191E3,1.0596538E3,2.8676074E2,5.5516016E2,5.2100156E3,2.270667E3,1.5428224E3,6.4452256E3,3.584228E3,1.323897E3,1.446446E2,5.258096E2,3.0124546E3,2.3897463E3,3.8562598E2,1.829165E2,2.3132129E2,6.377825E2,2.8582943E1,1.6466016E2,0E0,0E0,0E0,0E0,0E0,0E0,0E0,0E0,0E0,0E0,0E0,0E0,0E0,0E0,0E0,0E0,0E0,0E0,0E0,0E0,0E0,0E0,0E0,0E0,0E0,0E0,0E0,0E0,0E0,0E0,0E0,0E0],"parents":[2147483647,0,0,1,1,2,2,3,3,4,4,5,5,6,6,7,7,8,8,9,9,10,10,11,11,12,12,13,13,14,14,15,15,16,16,17,17,18,18,19,19,20,20,21,21,22,22,23,23,24,24,25,25,26,26,27,27,28,28,29,29,30,30],"right_children":[2,4,6,8,10,12,14,16,18,20,22,24,26,28,30,32,34,36,38,40,42,44,46,48,50,52,54,56,58,60,62,-1,-1,-1,-1,-1,-1,-1,-1,-1,-1,-1,-1,-1,-1,-1,-1,-1,-1,-1,-1,-1,-1,-1,-1,-1,-1,-1,-1,-1,-1,-1,-1],"split_conditions":[5.305701E-1,4E-2,7.712507E-1,4.0354827E-1,4.912912E-1,2.5383008E-1,8.2552004E-1,3.3333334E-3,9.9066235E-2,1.7297694E-1,3.6596343E-1,2.5E-1,6.6544163E-1,3.0082273E-1,5.185994E-2,9.742894E-2,2.0546766E-1,3.3333334E-3,2.5383008E-1,1.0763461E-1,2.6666668E-1,2.0546766E-1,4.9519745E-1,1.8915974E-1,5.0349927E-1,3.6258793E-1,2.3695533E-1,6.956522E-1,3.0763778E-1,8.446318E-1,5.1E-1,3.1735182E-1,6.493833E-1,6.405442E-1,1.6880713E-1,1.4516915E-1,-5.0740846E-2,3.5785195E-1,2.07726E-2,-1.5914945E-1,1.9586216E-1,-3.0767757E-1,-2.2017246E-2,-1.4257617E-1,8.207557E-2,4.156796E-1,5.70783E-2,1.1454614E-1,7.969432E-1,-1.6422579E-1,-6.718059E-3,-1.5145975E-1,-4.383518E-2,-3.1961966E-3,-2.2566229E-1,-3.074058E-1,2.2050679E-2,2.3727359E-1,-2.0833364E-1,1.7523093E-2,-9.72807E-2,-3.6296472E-1,-3.3086427E-2],"split_indices":[1,10,1,1,9,9,1,15,9,9,1,7,1,2,2,9,1,15,9,9,15,1,1,9,4,9,4,7,2,1,15,0,0,0,0,0,0,0,0,0,0,0,0,0,0,0,0,0,0,0,0,0,0,0,0,0,0,0,0,0,0,0,0],"split_type":[0,0,0,0,0,0,0,0,0,0,0,0,0,0,0,0,0,0,0,0,0,0,0,0,0,0,0,0,0,0,0,0,0,0,0,0,0,0,0,0,0,0,0,0,0,0,0,0,0,0,0,0,0,0,0,0,0,0,0,0,0,0,0],"sum_hessian":[1.164E3,5.13E2,6.51E2,3.87E2,1.26E2,4.37E2,2.14E2,1.78E2,2.09E2,1.06E2,2E1,2.97E2,1.4E2,6.3E1,1.51E2,1.1E2,6.8E1,8.4E1,1.25E2,5.8E1,4.8E1,6E0,1.4E1,2.7E1,2.7E2,7.1E1,6.9E1,4.4E1,1.9E1,3E0,1.48E2,4.4E1,6.6E1,5E0,6.3E1,4.9E1,3.5E1,7.8E1,4.7E1,3.3E1,2.5E1,3.7E1,1.1E1,1E0,5E0,1.1E1,3E0,2.4E1,3E0,6.5E1,2.05E2,3.1E1,4E1,2E0,6.7E1,4.3E1,1E0,1E0,1.8E1,2E0,1E0,1.47E2,1E0],"tree_param":{"num_deleted":"0","num_feature":"16","num_nodes":"63","size_leaf_vector":"1"}},{"base_weights":[2.044802E-1,-3.6637988E0,6.920139E0,-1.2137123E0,-7.2844276E0,1.290098E1,1.348391E0,2.5066602E0,-5.641966E0,-1.2920575E1,-5.8922887E0,1.7529577E1,6.879267E0,3.5174823E0,-1.404586E1,-4.268312E0,7.785536E0,-3.1180918E0,-1.0530166E1,-3.1932366E0,-1.3594463E1,1.5888197E1,-7.13003E0,8.678307E0,2.2260706E1,8.079147E0,-6.279413E0,1.5867985E1,2.060927E0,1.3573489E-1,-1.5885147E1,4.8968405E-2,-2.2822076E-1,2.7811685E-1,6.406758E-2,-1.5120021E-2,-1.7505929E-1,-2.5485635E-1,-4.8715272E-4,-1.7159663E-1,1.6148989E-1,-3.3189657E-1,-2.3036693E-1,-1.5507782E-1,5.3215235E-1,-1.1230487E-1,-2.6208395E-1,2.5771797E-1,-1.4836003E-2,5.849306E-1,2.5348455E-1,4.8664725E-1,1.4458284E-1,2.596471E-1,-2.3752877E-1,5.0048465E-1,-1.5686412E-1,7.433042E-2,-1.5380515E-1,-3.686129E-1,-9.61736E-2],"categories":[],"categories_nodes":[],"categories_segments":[],"categories_sizes":[],"default_left":[0,0,0,0,0,0,0,0,0,0,0,0,0,0,0,0,0,0,0,0,0,0,0,0,0,0,0,0,0,0,0,0,0,0,0,0,0,0,0,0,0,0,0,0,0,0,0,0,0,0,0,0,0,0,0,0,0,0,0,0,0],"id":12,"left_children":[1,3,5,7,9,11,13,15,17,19,21,23,25,27,29,31,33,35,37,39,41,43,45,47,49,51,53,55,57,-1,59,-1,-1,-1,-1,-1,-1,-1,-1,-1,-1,-1,-1,-1,-1,-1,-1,-1,-1,-1,-1,-1,-1,-1,-1,-1,-1,-1,-1,-1,-1],"loss_changes":[2.9640322E4,6.413657E3,1.3878598E4,7.147711E3,2.2149883E3,5.4816953E3,7.295369E3,8.47359E3,2.4099326E3,3.3023242E2,6.4755146E3,4.5388555E3,1.455939E3,3.403233E3,1.0884087E3,3.866249E3,2.8966045E3,1.4761216E3,4.6930518E2,2.770441E2,3.41709E1,2.3702659E3,2.099914E3,1.01898145E3,2.5056719E3,1.7478057E3,7.0715186E2,2.937646E3,1.8493899E3,0E0,2.18667E1,0E0,0E0,0E0,0E0,0E0,0E0,0E0,0E0,0E0,0E0,0E0,0E0,0E0,0E0,0E0,0E0,0E0,0E0,0E0,0E0,0E0,0E0,0E0,0E0,0E0,0E0,0E0,0E0,0E0,0E0],"parents":[2147483647,0,0,1,1,2,2,3,3,4,4,5,5,6,6,7,7,8,8,9,9,10,10,11,11,12,12,13,13,14,14,15,15,16,16,17,17,18,18,19,19,20,20,21,21,22,22,23,23,24,24,25,25,26,26,27,27,28,28,30,30],"right_children":[2,4,6,8,10,12,14,16,18,20,22,24,26,28,30,32,34,36,38,40,42,44,46,48,50,52,54,56,58,-1,60,-1,-1,-1,-1,-1,-1,-1,-1,-1,-1,-1,-1,-1,-1,-1,-1,-1,-1,-1,-1,-1,-1,-1,-1,-1,-1,-1,-1,-1,-1],"split_conditions":[7.247059E-2,1.7666666E-1,5.5273086E-1,6.160435E-1,1.7882353E-2,4.7826087E-1,8.6475873E-1,3.8588237E-2,8.046505E-1,1.569393E-3,1.9607078E-2,3.3695653E-1,6.956522E-1,2.5E-1,1.4442916E-1,4.1127923E-1,4.8661423E-1,3.9477304E-1,1.904762E-1,4.7302464E-1,5.217391E-1,3.2462174E-1,2.9804688E-2,3.3333334E-3,1.904762E-1,2.6316458E-1,9.694117E-2,3.741403E-1,7.7623737E-1,1.3573489E-1,3.6941177E-1,4.8968405E-2,-2.2822076E-1,2.7811685E-1,6.406758E-2,-1.5120021E-2,-1.7505929E-1,-2.5485635E-1,-4.8715272E-4,-1.7159663E-1,1.6148989E-1,-3.3189657E-1,-2.3036693E-1,-1.5507782E-1,5.3215235E-1,-1.1230487E-1,-2.6208395E-1,2.5771797E-1,-1.4836003E-2,5.849306E-1,2.5348455E-1,4.8664725E-1,1.4458284E-1,2.596471E-1,-2.3752877E-1,5.0048465E-1,-1.5686412E-1,7.433042E-2,-1.5380515E-1,-3.686129E-1,-9.61736E-2],"split_indices":[0,15,4,4,0,7,4,0,4,0,0,7,7,7,5,5,4,5,8,4,7,5,0,15,8,4,0,5,4,0,0,0,0,0,0,0,0,0,0,0,0,0,0,0,0,0,0,0,0,0,0,0,0,0,0,0,0,0,0,0,0],"split_type":[0,0,0,0,0,0,0,0,0,0,0,0,0,0,0,0,0,0,0,0,0,0,0,0,0,0,0,0,0,0,0,0,0,0,0,0,0,0,0,0,0,0,0,0,0,0,0,0,0,0,0,0,0,0,0,0,0,0,0,0,0],"sum_hessian":[1.139E3,7.23E2,4.16E2,4.32E2,2.91E2,2E2,2.16E2,2.35E2,1.97E2,5.6E1,2.35E2,1.12E2,8.8E1,1.9E2,2.6E1,1.03E2,1.32E2,1.31E2,6.6E1,4E0,5.2E1,1.2E1,2.23E2,4E1,7.2E1,8.1E1,7E0,1.9E1,1.71E2,2E0,2.4E1,4.9E1,5.4E1,6.9E1,6.3E1,8.6E1,4.5E1,6.2E1,4E0,3E0,1E0,3.8E1,1.4E1,3E0,9E0,1.5E2,7.3E1,3.1E1,9E0,5.4E1,1.8E1,8E0,7.3E1,1E0,6E0,1.5E1,4E0,1.51E2,2E1,2.3E1,1E0],"tree_param":{"num_deleted":"0","num_feature":"16","num_nodes":"61","size_leaf_vector":"1"}},{"base_weights":[1.5470637E-1,3.006295E0,-5.7914014E0,-5.380573E0,5.1963067E0,-2.776008E0,-1.0070988E1,-2.3011901E0,-1.0348614E1,3.7026086E-1,9.455162E0,-5.6712394E0,6.0599747E0,-5.910218E0,-1.3494274E1,1.9308453E1,-3.5747569E0,-1.2401217E1,1.8520747E-1,-2.4877539E0,8.901828E0,1.2865134E1,1.4509029E0,-4.212111E0,-1.4140795E1,1.0824403E1,-9.4213104E-1,3.114917E-1,-6.36612E0,-7.4720745E0,-3.4552205E-1,6.051325E-1,7.211715E-2,-2.015114E-2,-2.380529E-1,2.7989218E-1,-2.9703724E-1,-1.6276389E-3,-2.1319559E-1,2.6473385E-1,-4.68777E-2,2.4660155E-1,5.738891E-1,2.2568116E-1,-1.033248E-1,-4.1008264E-2,-1.5888774E-1,-1.8280533E-1,-3.4748217E-1,3.0397427E-1,5.260031E-2,3.6952004E-2,-5.2951306E-2,-1.9483559E-1,-9.8831214E-2,-1.3200666E-1,-2.4323462E-1],"categories":[],"categories_nodes":[],"categories_segments":[],"categories_sizes":[],"default_left":[0,0,0,0,0,0,0,0,0,0,0,0,0,0,0,0,0,0,0,0,0,0,0,0,0,0,0,0,0,0,0,0,0,0,0,0,0,0,0,0,0,0,0,0,0,0,0,0,0,0,0,0,0,0,0,0,0],"id":13,"left_children":[1,3,5,7,9,11,13,15,17,19,21,23,25,27,29,31,33,35,-1,37,39,41,43,45,47,49,51,-1,53,55,-1,-1,-1,-1,-1,-1,-1,-1,-1,-1,-1,-1,-1,-1,-1,-1,-1,-1,-1,-1,-1,-1,-1,-1,-1,-1,-1],"loss_changes":[2.0296613E4,1.4887139E4,4.97904E3,2.546334E3,1.3191801E4,5.8926943E3,2.199206E3,2.9587622E3,2.5293076E3,7.3859155E3,9.288693E3,2.0784E3,1.9117769E3,7.482114E2,7.699971E2,6.205537E2,1.8421482E3,1.0902236E3,0E0,3.7723423E3,2.2975454E3,5.720199E3,5.267649E3,9.817678E2,4.932422E1,7.0164404E2,8.901279E1,0E0,2.8698804E2,5.0911865E1,0E0,0E0,0E0,0E0,0E0,0E0,0E0,0E0,0E0,0E0,0E0,0E0,0E0,0E0,0E0,0E0,0E0,0E0,0E0,0E0,0E0,0E0,0E0,0E0,0E0,0E0,0E0],"parents":[2147483647,0,0,1,1,2,2,3,3,4,4,5,5,6,6,7,7,8,8,9,9,10,10,11,11,12,12,13,13,14,14,15,15,16,16,17,17,19,19,20,20,21,21,22,22,23,23,24,24,25,25,26,26,28,28,29,29],"right_children":[2,4,6,8,10,12,14,16,18,20,22,24,26,28,30,32,34,36,-1,38,40,42,44,46,48,50,52,-1,54,56,-1,-1,-1,-1,-1,-1,-1,-1,-1,-1,-1,-1,-1,-1,-1,-1,-1,-1,-1,-1,-1,-1,-1,-1,-1,-1,-1],"split_conditions":[2.3906179E-1,3.1648937E-1,6.114405E-1,6.666667E-3,9.970989E-2,5.102067E-1,3.8339695E-1,5.5273086E-1,1.904762E-1,1.904762E-1,8E-2,2.1428572E-1,5.474685E-1,2.3670213E-1,7.1495444E-1,2.8989363E-1,8.4268725E-1,1.6755319E-1,1.8520747E-1,1.4E-1,4.9098223E-1,3.1428573E-1,1.8571429E-1,1.2666667E-1,2.4285714E-1,4.162234E-1,5.230998E-1,3.114917E-1,2.924625E-1,3.3333334E-3,-3.4552205E-1,6.051325E-1,7.211715E-2,-2.015114E-2,-2.380529E-1,2.7989218E-1,-2.9703724E-1,-1.6276389E-3,-2.1319559E-1,2.6473385E-1,-4.68777E-2,2.4660155E-1,5.738891E-1,2.2568116E-1,-1.033248E-1,-4.1008264E-2,-1.5888774E-1,-1.8280533E-1,-3.4748217E-1,3.0397427E-1,5.260031E-2,3.6952004E-2,-5.2951306E-2,-1.9483559E-1,-9.8831214E-2,-1.3200666E-1,-2.4323462E-1],"split_indices":[9,3,4,15,9,9,9,4,8,8,15,6,4,3,4,3,4,3,0,15,4,6,6,15,6,3,9,0,9,15,0,0,0,0,0,0,0,0,0,0,0,0,0,0,0,0,0,0,0,0,0,0,0,0,0,0,0],"split_type":[0,0,0,0,0,0,0,0,0,0,0,0,0,0,0,0,0,0,0,0,0,0,0,0,0,0,0,0,0,0,0,0,0,0,0,0,0,0,0,0,0,0,0,0,0,0,0,0,0,0,0,0,0,0,0,0,0],"sum_hessian":[1.195E3,8.08E2,3.87E2,1.67E2,6.41E2,2.28E2,1.59E2,1.04E2,6.3E1,3.01E2,3.4E2,1.72E2,5.6E1,7.3E1,8.6E1,5E0,9.9E1,5.7E1,6E0,2.26E2,7.5E1,2.38E2,1.02E2,1.48E2,2.4E1,3.3E1,2.3E1,1E0,7.2E1,2E1,6.6E1,3E0,2E0,7.2E1,2.7E1,1E0,5.6E1,1.68E2,5.8E1,6E1,1.5E1,2.06E2,3.2E1,4.2E1,6E1,8E1,6.8E1,5E0,1.9E1,2.5E1,8E0,8E0,1.5E1,3.3E1,3.9E1,1.5E1,5E0],"tree_param":{"num_deleted":"0","num_feature":"16","num_nodes":"57","size_leaf_vector":"1"}},{"base_weights":[-6.0631312E-2,-4.1379275E0,6.2013783E0,-2.4475555E0,-1.0978526E1,8.26481E0,-1.3542157E1,-7.547378E0,-1.0387733E0,2.7670687E-1,-1.12324295E1,2.8917363E0,1.3572941E1,1.6285598E-1,-1.4189884E1,-4.4232454E0,-1.3056088E1,3.679833E0,-4.7380824E0,-1.4224923E1,-8.411659E0,1.7024183E1,1.9444593E0,1.5064328E1,1.4361611E-1,-1.4662475E1,6.44014E-2,-7.3381655E-2,-3.3716857E-1,-3.1810966E-1,-8.245971E-3,-1.6598029E-2,2.1618427E-1,-1.3850433E-1,1.6281635E-1,-2.9918479E-2,-3.372921E-1,-2.5879171E-1,3.240191E-2,5.2974004E-1,-6.501437E-2,6.392975E-2,-2.3909229E-1,2.350053E-1,5.600575E-1,-1.6751575E-1,1.5954901E-1,-1.6352229E-1,-3.4263325E-1],"categories":[],"categories_nodes":[],"categories_segments":[],"categories_sizes":[],"default_left":[0,0,0,0,0,0,0,0,0,0,0,0,0,0,0,0,0,0,0,0,0,0,0,0,0,0,0,0,0,0,0,0,0,0,0,0,0,0,0,0,0,0,0,0,0,0,0,0,0],"id":14,"left_children":[1,3,5,7,9,11,13,15,17,-1,19,21,23,-1,25,27,29,31,33,35,37,39,41,43,45,47,-1,-1,-1,-1,-1,-1,-1,-1,-1,-1,-1,-1,-1,-1,-1,-1,-1,-1,-1,-1,-1,-1,-1],"loss_changes":[2.9847121E4,8.1598457E3,1.8892803E4,4.080164E3,9.589414E2,1.1882521E4,6.9139844E2,2.0590728E3,7.8200815E3,0E0,1.0536641E3,2.7648516E3,4.203785E3,0E0,3.8734277E2,9.49067E2,5.0876953E2,5.060502E3,4.0641753E3,4.8659473E2,2.169249E3,1.6817275E3,2.1490925E3,8.292902E3,1.1850117E3,1.4666992E1,0E0,0E0,0E0,0E0,0E0,0E0,0E0,0E0,0E0,0E0,0E0,0E0,0E0,0E0,0E0,0E0,0E0,0E0,0E0,0E0,0E0,0E0,0E0],"parents":[2147483647,0,0,1,1,2,2,3,3,4,4,5,5,6,6,7,7,8,8,10,10,11,11,12,12,14,14,15,15,16,16,17,17,18,18,19,19,20,20,21,21,22,22,23,23,24,24,25,25],"right_children":[2,4,6,8,10,12,14,16,18,-1,20,22,24,-1,26,28,30,32,34,36,38,40,42,44,46,48,-1,-1,-1,-1,-1,-1,-1,-1,-1,-1,-1,-1,-1,-1,-1,-1,-1,-1,-1,-1,-1,-1,-1],"split_conditions":[6.7451745E-2,2.7142859E-1,8.240532E-1,7.995603E-2,1.6755319E-1,2.2978103E-1,8.571429E-2,1E-1,1.7323713E-1,2.7670687E-1,3.4707448E-1,7.1428575E-2,2.3906179E-1,1.6285598E-1,9.7442305E-1,6.906781E-2,7.878998E-2,1.2854622E-1,5.102067E-1,6.2752753E-3,2.594357E-1,3.435294E-1,7.547139E-1,1.118485E-1,3.019894E-1,5.185994E-2,6.44014E-2,-7.3381655E-2,-3.3716857E-1,-3.1810966E-1,-8.245971E-3,-1.6598029E-2,2.1618427E-1,-1.3850433E-1,1.6281635E-1,-2.9918479E-2,-3.372921E-1,-2.5879171E-1,3.240191E-2,5.2974004E-1,-6.501437E-2,6.392975E-2,-2.3909229E-1,2.350053E-1,5.600575E-1,-1.6751575E-1,1.5954901E-1,-1.6352229E-1,-3.4263325E-1],"split_indices":[0,6,4,9,3,2,6,6,9,0,3,6,9,0,4,9,9,9,9,0,2,0,4,9,9,2,0,0,0,0,0,0,0,0,0,0,0,0,0,0,0,0,0,0,0,0,0,0,0],"split_type":[0,0,0,0,0,0,0,0,0,0,0,0,0,0,0,0,0,0,0,0,0,0,0,0,0,0,0,0,0,0,0,0,0,0,0,0,0,0,0,0,0,0,0,0,0,0,0,0,0],"sum_hessian":[1.167E3,7.07E2,4.6E2,5.68E2,1.39E2,4.17E2,4.3E1,1.22E2,4.46E2,1E0,1.38E2,2.08E2,2.09E2,1E0,4.2E1,7.9E1,4.3E1,1.96E2,2.5E2,6.5E1,7.3E1,1.2E1,1.96E2,1.88E2,2.1E1,4.1E1,1E0,7.2E1,7E0,4E1,3E0,1.12E2,8.4E1,2.25E2,2.5E1,3E0,6.2E1,5.6E1,1.7E1,9E0,3E0,1.84E2,1.2E1,1.27E2,6.1E1,1E1,1.1E1,3E0,3.8E1],"tree_param":{"num_deleted":"0","num_feature":"16","num_nodes":"49","size_leaf_vector":"1"}},{"base_weights":[-1.0871477E-1,2.5950563E0,-6.285121E0,4.706094E0,-2.3950913E0,-4.8288546E0,-1.1264134E1,1.3212298E0,9.471306E0,1.4786667E0,-9.339678E0,-3.8884423E0,-8.714659E0,-6.5281415E0,-1.2784681E1,-3.653093E-1,1.3828284E1,1.1939708E1,2.355955E0,-2.544424E0,7.113034E0,-1.0877598E1,1.7442566E1,-4.902722E0,5.012244E0,-1.2226347E1,-2.4846416E0,-8.006252E0,-1.4984894E0,-6.9411974E0,-1.3857466E1,-6.236099E-2,1.7972751E-1,-1.3642731E-1,3.7020653E-1,3.2652768E-1,-9.560734E-3,5.336049E-1,2.8309265E-2,-1.23464406E-1,2.529748E-1,-1.4896621E-1,2.4406126E-1,-2.6732764E-1,4.3748006E-2,-3.8089108E-2,6.9977367E-1,-1.790554E-1,-7.571946E-2,-9.00808E-2,2.5176686E-1,-2.9303554E-1,-9.807833E-2,-2.0203789E-1,2.0228943E-2,-1.912579E-1,-2.3410033E-2,-6.501113E-2,6.020634E-2,-3.203612E-2,-1.824187E-1,1.9161725E-2,-3.2293642E-1],"categories":[],"categories_nodes":[],"categories_segments":[],"categories_sizes":[],"default_left":[0,0,0,0,0,0,0,0,0,0,0,0,0,0,0,0,0,0,0,0,0,0,0,0,0,0,0,0,0,0,0,0,0,0,0,0,0,0,0,0,0,0,0,0,0,0,0,0,0,0,0,0,0,0,0,0,0,0,0,0,0,0,0],"id":15,"left_children":[1,3,5,7,9,11,13,15,17,19,21,23,25,27,29,31,33,35,37,39,41,43,45,47,49,51,53,55,57,59,61,-1,-1,-1,-1,-1,-1,-1,-1,-1,-1,-1,-1,-1,-1,-1,-1,-1,-1,-1,-1,-1,-1,-1,-1,-1,-1,-1,-1,-1,-1,-1,-1],"loss_changes":[1.908724E4,8.38611E3,2.468875E3,9.003931E3,6.3895005E3,9.564175E2,4.782412E2,6.923764E3,4.0466113E3,3.4862368E3,3.6907954E3,2.0106863E3,1.1072712E3,1.4412463E2,2.6740332E2,5.7106196E3,1.9811772E3,5.1213223E3,1.4015223E3,3.6005938E3,3.2254514E3,9.218428E2,1.3228359E3,8.987539E2,1.2917495E3,1.1385205E2,4.3913312E2,3.563733E1,4.131156E1,5.4053467E1,2.4525E2,0E0,0E0,0E0,0E0,0E0,0E0,0E0,0E0,0E0,0E0,0E0,0E0,0E0,0E0,0E0,0E0,0E0,0E0,0E0,0E0,0E0,0E0,0E0,0E0,0E0,0E0,0E0,0E0,0E0,0E0,0E0,0E0],"parents":[2147483647,0,0,1,1,2,2,3,3,4,4,5,5,6,6,7,7,8,8,9,9,10,10,11,11,12,12,13,13,14,14,15,15,16,16,17,17,18,18,19,19,20,20,21,21,22,22,23,23,24,24,25,25,26,26,27,27,28,28,29,29,30,30],"right_children":[2,4,6,8,10,12,14,16,18,20,22,24,26,28,30,32,34,36,38,40,42,44,46,48,50,52,54,56,58,60,62,-1,-1,-1,-1,-1,-1,-1,-1,-1,-1,-1,-1,-1,-1,-1,-1,-1,-1,-1,-1,-1,-1,-1,-1,-1,-1,-1,-1,-1,-1,-1,-1],"split_conditions":[2.5383008E-1,1.25E-1,3.2E-1,1.1372283E-1,2E-1,2.7142859E-1,7.5E-2,3E-1,5.652174E-1,9.467738E-2,5.3E-1,2.4285714E-1,4.7142857E-1,5.4607975E-1,3.019894E-1,1.904762E-1,5.2500505E-2,2.1690613E-1,5.7142857E-2,1.904762E-1,1E-2,8.280605E-1,1.3043478E-1,3.6956522E-1,2.9298487E-1,3.6666665E-2,2.7173913E-1,2.1428572E-1,2.0618904E-1,4.2271596E-1,2.5644012E-2,-6.236099E-2,1.7972751E-1,-1.3642731E-1,3.7020653E-1,3.2652768E-1,-9.560734E-3,5.336049E-1,2.8309265E-2,-1.23464406E-1,2.529748E-1,-1.4896621E-1,2.4406126E-1,-2.6732764E-1,4.3748006E-2,-3.8089108E-2,6.9977367E-1,-1.790554E-1,-7.571946E-2,-9.00808E-2,2.5176686E-1,-2.9303554E-1,-9.807833E-2,-2.0203789E-1,2.0228943E-2,-1.912579E-1,-2.3410033E-2,-6.501113E-2,6.020634E-2,-3.203612E-2,-1.824187E-1,1.9161725E-2,-3.2293642E-1],"split_indices":[9,13,15,9,6,6,13,6,7,9,15,6,6,5,9,8,9,9,6,8,15,5,7,7,5,15,7,6,2,5,2,0,0,0,0,0,0,0,0,0,0,0,0,0,0,0,0,0,0,0,0,0,0,0,0,0,0,0,0,0,0,0,0],"split_type":[0,0,0,0,0,0,0,0,0,0,0,0,0,0,0,0,0,0,0,0,0,0,0,0,0,0,0,0,0,0,0,0,0,0,0,0,0,0,0,0,0,0,0,0,0,0,0,0,0,0,0,0,0,0,0,0,0,0,0,0,0,0,0],"sum_hessian":[1.141E3,7.94E2,3.47E2,5.58E2,2.36E2,2.7E2,7.7E1,3.27E2,2.31E2,1.52E2,8.4E1,2.19E2,5.1E1,2E1,5.7E1,2.89E2,3.8E1,1.71E2,6E1,8.9E1,6.3E1,8E1,4E0,1.97E2,2.2E1,3.2E1,1.9E1,1.5E1,5E0,1E1,4.7E1,2.25E2,6.4E1,4E0,3.4E1,1.43E2,2.8E1,2E0,5.8E1,7.4E1,1.5E1,1.3E1,5E1,7.5E1,5E0,2E0,2E0,6.7E1,1.3E2,9E0,1.3E1,2.9E1,3E0,6E0,1.3E1,1.4E1,1E0,4E0,1E0,2E0,8E0,1E0,4.6E1],"tree_param":{"num_deleted":"0","num_feature":"16","num_nodes":"63","size_leaf_vector":"1"}},{"base_weights":[2.877512E-1,7.016269E0,-8.512744E0,9.150807E0,-2.7817678E0,-4.581686E0,-1.3451079E1,1.5054618E1,3.0505865E0,1.3330481E1,-6.563356E0,-4.9454274E0,1.2307793E1,-1.3732966E1,1.0783905E0,3.625771E1,1.3540476E1,6.8771935E0,-2.1256719E0,1.949162E1,3.987952E0,-4.969046E-2,-9.090305E0,5.432506E0,-5.500153E0,2.1054604E1,-3.45722E0,-1.2019499E1,-3.3591068E-1,1.9037437E-1,-2.8340368E0,9.3986714E-1,3.6223885E-1,4.4595432E-1,2.25507E-1,6.646502E-1,1.3038158E-1,9.151135E-2,-7.674769E-2,5.054431E-1,1.7825246E-1,2.275304E-2,1.5423612E-1,8.410534E-2,-1.8094873E-1,-1.3671859E-1,-2.9415828E-1,3.0350992E-1,-4.918471E-2,-9.123687E-2,-1.8892294E-1,6.8915534E-1,-7.5284116E-2,-1.59823E-1,4.1788172E-2,-2.0925613E-1,-3.1745666E-1,1.0684318E-2,-9.3130335E-2],"categories":[],"categories_nodes":[],"categories_segments":[],"categories_sizes":[],"default_left":[0,0,0,0,0,0,0,0,0,0,0,0,0,0,0,0,0,0,0,0,0,0,0,0,0,0,0,0,0,0,0,0,0,0,0,0,0,0,0,0,0,0,0,0,0,0,0,0,0,0,0,0,0,0,0,0,0,0,0],"id":16,"left_children":[1,3,5,7,9,11,13,15,17,19,21,23,25,27,29,31,33,35,37,39,41,43,45,47,49,51,53,55,-1,-1,57,-1,-1,-1,-1,-1,-1,-1,-1,-1,-1,-1,-1,-1,-1,-1,-1,-1,-1,-1,-1,-1,-1,-1,-1,-1,-1,-1,-1],"loss_changes":[6.6142875E4,1.3264199E4,9.334203E3,1.8681637E4,7.0335E3,1.725729E3,8.9128516E2,7.9846406E3,5.1051475E3,1.1886023E3,1.5303013E3,1.5612178E3,9.0015186E2,1.915039E2,1.6622708E2,1.0841152E3,5.258836E3,3.628685E3,8.561029E2,2.3761914E2,7.65511E1,8.281749E2,7.143711E2,8.688739E2,1.0234868E3,9.9894214E2,6.949521E1,3.2940137E2,0E0,0E0,1.8538624E1,0E0,0E0,0E0,0E0,0E0,0E0,0E0,0E0,0E0,0E0,0E0,0E0,0E0,0E0,0E0,0E0,0E0,0E0,0E0,0E0,0E0,0E0,0E0,0E0,0E0,0E0,0E0,0E0],"parents":[2147483647,0,0,1,1,2,2,3,3,4,4,5,5,6,6,7,7,8,8,9,9,10,10,11,11,12,12,13,13,14,14,15,15,16,16,17,17,18,18,19,19,20,20,21,21,22,22,23,23,24,24,25,25,26,26,27,27,30,30],"right_children":[2,4,6,8,10,12,14,16,18,20,22,24,26,28,30,32,34,36,38,40,42,44,46,48,50,52,54,56,-1,-1,58,-1,-1,-1,-1,-1,-1,-1,-1,-1,-1,-1,-1,-1,-1,-1,-1,-1,-1,-1,-1,-1,-1,-1,-1,-1,-1,-1,-1],"split_conditions":[5.951633E-1,1E-2,7.680913E-1,4.5780703E-1,3.7632978E-1,5.7666665E-1,4.8666668E-1,2.0546766E-1,4.2021278E-1,4.874024E-1,2.8E-1,2.4734043E-1,7.606106E-1,8.446318E-1,9.741703E-2,5E-1,4.7074467E-1,2.2826087E-1,4.819371E-1,2.4457876E-1,3.2047874E-1,4.9519745E-1,3.3333334E-3,6.950772E-1,4.0824467E-1,1.5745126E-1,1.2375815E-1,3.430851E-1,-3.3591068E-1,1.9037437E-1,7.7762103E-1,9.3986714E-1,3.6223885E-1,4.4595432E-1,2.25507E-1,6.646502E-1,1.3038158E-1,9.151135E-2,-7.674769E-2,5.054431E-1,1.7825246E-1,2.275304E-2,1.5423612E-1,8.410534E-2,-1.8094873E-1,-1.3671859E-1,-2.9415828E-1,3.0350992E-1,-4.918471E-2,-9.123687E-2,-1.8892294E-1,6.8915534E-1,-7.5284116E-2,-1.59823E-1,4.1788172E-2,-2.0925613E-1,-3.1745666E-1,1.0684318E-2,-9.3130335E-2],"split_indices":[1,12,1,1,3,15,15,1,3,1,12,3,1,1,2,7,3,7,1,2,3,1,15,1,3,2,2,3,0,0,1,0,0,0,0,0,0,0,0,0,0,0,0,0,0,0,0,0,0,0,0,0,0,0,0,0,0,0,0],"split_type":[0,0,0,0,0,0,0,0,0,0,0,0,0,0,0,0,0,0,0,0,0,0,0,0,0,0,0,0,0,0,0,0,0,0,0,0,0,0,0,0,0,0,0,0,0,0,0,0,0,0,0,0,0,0,0,0,0,0,0],"sum_hessian":[1.115E3,6.32E2,4.83E2,5.19E2,1.13E2,2.7E2,2.13E2,2.63E2,2.56E2,2.1E1,9.2E1,2.65E2,5E0,2.09E2,4E0,1.6E1,2.47E2,1.47E2,1.09E2,1.2E1,9E0,2.6E1,6.6E1,1.3E1,2.52E2,3E0,2E0,8.3E1,1.26E2,1E0,3E0,1.2E1,4E0,9.1E1,1.56E2,6E0,1.41E2,1.8E1,9.1E1,9E0,3E0,5E0,4E0,1.8E1,8E0,3.8E1,2.8E1,6E0,7E0,1.66E2,8.6E1,2E0,1E0,1E0,1E0,3.6E1,4.7E1,1E0,2E0],"tree_param":{"num_deleted":"0","num_feature":"16","num_nodes":"59","size_leaf_vector":"1"}},{"base_weights":[-1.1385833E-1,4.7751355E0,-8.585533E0,7.2036724E0,-5.0382543E0,-4.764601E0,-1.2549576E1,1.3433285E1,2.1903322E0,7.061532E0,-7.1275105E0,2.5475955E-1,-6.1917257E0,2.7688277E-1,-1.27286005E1,3.0807816E1,1.2101959E1,4.964379E0,-1.8933477E0,3.719063E-1,2.5610278E0,-6.087382E-1,-9.179663E0,6.40634E0,-1.6945491E0,-4.149421E0,-9.477547E0,-1.0497618E1,-3.2341287E-1,7.629909E-1,-1.7446472E-1,3.8047248E-1,1.5730809E-1,2.1885833E-1,4.785563E-2,-9.3648665E-2,1.12937614E-1,-1.8591721E-1,1.2894884E-1,7.238563E-2,-1.7723808E-1,-1.412813E-1,-3.0670655E-1,4.9868725E-2,6.006114E-1,3.5385065E-2,-1.2270746E-1,8.242685E-2,-1.2225634E-1,-4.6547044E-2,-2.390549E-1,2.8126424E-2,-2.4563004E-1],"categories":[],"categories_nodes":[],"categories_segments":[],"categories_sizes":[],"default_left":[0,0,0,0,0,0,0,0,0,0,0,0,0,0,0,0,0,0,0,0,0,0,0,0,0,0,0,0,0,0,0,0,0,0,0,0,0,0,0,0,0,0,0,0,0,0,0,0,0,0,0,0,0],"id":17,"left_children":[1,3,5,7,9,11,13,15,17,19,21,23,25,-1,27,29,31,33,35,-1,37,39,41,43,45,47,49,51,-1,-1,-1,-1,-1,-1,-1,-1,-1,-1,-1,-1,-1,-1,-1,-1,-1,-1,-1,-1,-1,-1,-1,-1,-1],"loss_changes":[4.7878746E4,1.7505283E4,6.3471055E3,1.8334504E4,3.7411465E3,1.5560039E3,1.0707109E3,5.6875234E3,3.7137598E3,8.767865E2,1.6666016E3,5.9843097E2,1.0947734E3,0E0,5.3123047E2,2.1364219E3,5.75216E3,2.5753862E3,2.0454785E3,0E0,5.79186E2,8.6790125E2,1.1293301E3,9.5293176E2,4.647931E2,1.0259231E3,4.6622314E2,3.100791E2,0E0,0E0,0E0,0E0,0E0,0E0,0E0,0E0,0E0,0E0,0E0,0E0,0E0,0E0,0E0,0E0,0E0,0E0,0E0,0E0,0E0,0E0,0E0,0E0,0E0],"parents":[2147483647,0,0,1,1,2,2,3,3,4,4,5,5,6,6,7,7,8,8,9,9,10,10,11,11,12,12,14,14,15,15,16,16,17,17,18,18,20,20,21,21,22,22,23,23,24,24,25,25,26,26,27,27],"right_children":[2,4,6,8,10,12,14,16,18,20,22,24,26,-1,28,30,32,34,36,-1,38,40,42,44,46,48,50,52,-1,-1,-1,-1,-1,-1,-1,-1,-1,-1,-1,-1,-1,-1,-1,-1,-1,-1,-1,-1,-1,-1,-1,-1,-1],"split_conditions":[6.3100755E-1,2E-2,7.680913E-1,4.5780703E-1,3.3909574E-1,2.9787233E-1,7.608695E-2,2.0546766E-1,4.2952126E-1,4.9519745E-1,3.15E-1,6.363494E-1,1.9611895E-1,2.7688277E-1,8.446318E-1,3.45701E-1,5.2393615E-1,5.379645E-1,3.045729E-1,3.719063E-1,3.8144225E-1,4.9519745E-1,1.8467773E-1,6.302519E-1,7.0897394E-1,2.2826087E-1,3.253383E-1,1.7433143E-1,-3.2341287E-1,7.629909E-1,-1.7446472E-1,3.8047248E-1,1.5730809E-1,2.1885833E-1,4.785563E-2,-9.3648665E-2,1.12937614E-1,-1.8591721E-1,1.2894884E-1,7.238563E-2,-1.7723808E-1,-1.412813E-1,-3.0670655E-1,4.9868725E-2,6.006114E-1,3.5385065E-2,-1.2270746E-1,8.242685E-2,-1.2225634E-1,-4.6547044E-2,-2.390549E-1,2.8126424E-2,-2.4563004E-1],"split_indices":[1,12,1,1,3,3,7,1,3,1,12,4,9,0,1,4,3,1,2,0,9,1,9,4,1,7,4,4,0,0,0,0,0,0,0,0,0,0,0,0,0,0,0,0,0,0,0,0,0,0,0,0,0],"split_type":[0,0,0,0,0,0,0,0,0,0,0,0,0,0,0,0,0,0,0,0,0,0,0,0,0,0,0,0,0,0,0,0,0,0,0,0,0,0,0,0,0,0,0,0,0,0,0,0,0,0,0,0,0],"sum_hessian":[1.154E3,7.32E2,4.22E2,5.87E2,1.45E2,2.16E2,2.06E2,2.61E2,3.26E2,2.1E1,1.24E2,4.8E1,1.68E2,1E0,2.05E2,1.7E1,2.44E2,1.94E2,1.32E2,6E0,1.5E1,3E1,9.4E1,1.1E1,3.7E1,1.05E2,6.3E1,8.5E1,1.2E2,1.6E1,1E0,1.28E2,1.16E2,7.3E1,1.21E2,1E2,3.2E1,3E0,1.2E1,2E1,1E1,5.7E1,3.7E1,1E1,1E0,2E1,1.7E1,1.4E1,9.1E1,8E0,5.5E1,2E0,8.3E1],"tree_param":{"num_deleted":"0","num_feature":"16","num_nodes":"53","size_leaf_vector":"1"}},{"base_weights":[5.6873024E-1,-3.9565465E0,6.008167E0,-9.546889E0,-2.7571783E0,-6.8653905E-1,1.0628839E1,2.737317E-1,-9.846886E0,-7.253359E0,-1.0929745E0,-9.717556E0,7.3134914E-2,1.1935738E1,-2.2281234E0,-8.513554E0,-3.1248832E-1,4.2457673E-1,-7.567167E0,-6.3454256E0,1.4440444E-1,-2.984227E-1,1.0492386E0,-5.885975E-1,7.8439198E0,1.3062078E1,-3.7540107E0,2.4634328E0,-9.470744E0,-1.4212069E-1,-2.8546542E-1,-1.8698739E-1,1.3895734E-1,-5.903062E-3,-3.072258E-1,3.560941E-1,-1.1861001E-2,-5.1050276E-2,5.5377323E-2,-2.5721468E-2,1.304589E-1,2.4653664E-1,-1.9831409E-1,8.94122E-1,2.8487682E-1,-2.6185358E-1,2.1189918E-1,-2.853576E-1,9.089168E-2,-2.9590455E-1,1.2409299E-1],"categories":[],"categories_nodes":[],"categories_segments":[],"categories_sizes":[],"default_left":[0,0,0,0,0,0,0,0,0,0,0,0,0,0,0,0,0,0,0,0,0,0,0,0,0,0,0,0,0,0,0,0,0,0,0,0,0,0,0,0,0,0,0,0,0,0,0,0,0,0,0],"id":18,"left_children":[1,3,5,7,9,11,13,-1,15,17,19,21,23,25,27,29,-1,-1,31,33,35,-1,37,39,41,43,45,47,49,-1,-1,-1,-1,-1,-1,-1,-1,-1,-1,-1,-1,-1,-1,-1,-1,-1,-1,-1,-1,-1,-1],"loss_changes":[2.8946344E4,4.278211E3,1.6526074E4,8.497461E2,3.9578296E3,1.5031884E3,5.3362656E3,0E0,4.628584E2,1.3037212E3,2.522634E3,6.349005E2,1.0484795E3,5.1208984E3,1.0427054E3,7.079253E2,0E0,0E0,1.3083667E3,3.2177512E3,3.257632E3,0E0,2.8234253E1,6.498568E2,8.858168E2,3.3458008E3,2.1321045E3,4.8609338E2,7.029606E2,0E0,0E0,0E0,0E0,0E0,0E0,0E0,0E0,0E0,0E0,0E0,0E0,0E0,0E0,0E0,0E0,0E0,0E0,0E0,0E0,0E0,0E0],"parents":[2147483647,0,0,1,1,2,2,3,3,4,4,5,5,6,6,8,8,9,9,10,10,11,11,12,12,13,13,14,14,15,15,18,18,19,19,20,20,22,22,23,23,24,24,25,25,26,26,27,27,28,28],"right_children":[2,4,6,8,10,12,14,-1,16,18,20,22,24,26,28,30,-1,-1,32,34,36,-1,38,40,42,44,46,48,50,-1,-1,-1,-1,-1,-1,-1,-1,-1,-1,-1,-1,-1,-1,-1,-1,-1,-1,-1,-1,-1,-1],"split_conditions":[5.7411764E-2,2.925532E-1,1.9463477E-1,7.608695E-2,1.7744903E-1,2.2826087E-1,3E-2,2.737317E-1,6.956522E-1,2.173913E-2,1.7882353E-2,1.6078354E-1,4.752941E-1,6.956522E-1,3.80972E-1,4.047059E-2,-3.1248832E-1,4.2457673E-1,6.956522E-1,5.5585104E-1,1.9607078E-2,-2.984227E-1,8.9276604E-2,1.863431E-1,4.2021278E-1,1.0869565E-1,3.949468E-1,9.35E-2,7.5E-1,-1.4212069E-1,-2.8546542E-1,-1.8698739E-1,1.3895734E-1,-5.903062E-3,-3.072258E-1,3.560941E-1,-1.1861001E-2,-5.1050276E-2,5.5377323E-2,-2.5721468E-2,1.304589E-1,2.4653664E-1,-1.9831409E-1,8.94122E-1,2.8487682E-1,-2.6185358E-1,2.1189918E-1,-2.853576E-1,9.089168E-2,-2.9590455E-1,1.2409299E-1],"split_indices":[0,3,2,7,2,7,12,0,7,7,0,0,0,7,2,0,0,0,7,3,0,0,2,2,3,7,3,12,11,0,0,0,0,0,0,0,0,0,0,0,0,0,0,0,0,0,0,0,0,0,0],"split_type":[0,0,0,0,0,0,0,0,0,0,0,0,0,0,0,0,0,0,0,0,0,0,0,0,0,0,0,0,0,0,0,0,0,0,0,0,0,0,0,0,0,0,0,0,0,0,0,0,0,0,0],"sum_hessian":[1.174E3,6.41E2,5.33E2,1.12E2,5.29E2,2.18E2,3.15E2,1E0,1.11E2,1.42E2,3.87E2,1.6E1,2.02E2,2.86E2,2.9E1,8.5E1,2.6E1,1E0,1.41E2,7.3E1,3.14E2,1.2E1,4E0,1.87E2,1.5E1,2.67E2,1.9E1,1.8E1,1.1E1,5.6E1,2.9E1,1.35E2,6E0,4E1,3.3E1,1.2E1,3.02E2,1E0,3E0,1.73E2,1.4E1,1.3E1,2E0,4E0,2.63E2,1.2E1,7E0,1E0,1.7E1,9E0,2E0],"tree_param":{"num_deleted":"0","num_feature":"16","num_nodes":"51","size_leaf_vector":"1"}},{"base_weights":[-1.5993829E-1,5.30151E0,-7.408242E0,-8.087714E0,7.5116634E0,-4.185968E0,-1.2686898E1,-1.3788604E0,-1.2495727E1,1.6400923E1,5.4528365E0,3.1189225E0,-5.0177455E0,-1.0043127E1,-1.3559173E1,-1.0501412E1,4.380187E0,-4.926908E0,-1.3476438E1,1.9078325E1,-5.9387965E0,8.343874E0,-1.50463E0,6.0491037E0,-2.4096449E-1,-3.2423856E0,-7.167845E0,-1.67813E0,-1.093528E1,-1.3707172E1,-2.3794754E0,-3.4000418E-1,-3.0883726E-2,3.6148784E-1,-5.3790566E-2,3.3596873E-2,-2.6627907E-1,-2.6575622E-1,-3.574578E-1,7.53172E-1,3.8290015E-1,2.2529343E-1,-2.2979577E-1,3.347756E-1,1.1761108E-1,2.2545608E-2,-1.3438374E-1,1.2587968E-2,2.529451E-1,-1.864528E-2,-1.4246927E-1,-1.9065513E-1,-5.7262592E-2,-1.1501212E-1,7.695757E-2,-2.668384E-1,-8.781399E-2,-2.5827885E-1,-3.2424712E-1,-8.881126E-2,7.572307E-3],"categories":[],"categories_nodes":[],"categories_segments":[],"categories_sizes":[],"default_left":[0,0,0,0,0,0,0,0,0,0,0,0,0,0,0,0,0,0,0,0,0,0,0,0,0,0,0,0,0,0,0,0,0,0,0,0,0,0,0,0,0,0,0,0,0,0,0,0,0,0,0,0,0,0,0,0,0,0,0,0,0],"id":19,"left_children":[1,3,5,7,9,11,13,15,17,19,21,23,25,27,29,31,33,35,37,39,41,43,45,47,-1,49,51,53,55,57,59,-1,-1,-1,-1,-1,-1,-1,-1,-1,-1,-1,-1,-1,-1,-1,-1,-1,-1,-1,-1,-1,-1,-1,-1,-1,-1,-1,-1,-1,-1],"loss_changes":[4.532593E4,1.9384486E4,8.315459E3,2.7330327E3,1.0177682E4,1.8809951E3,2.927578E2,2.0424122E3,3.4928027E2,6.3936016E3,9.204789E3,1.3491602E3,1.0303057E3,3.54792E2,1.9406445E2,5.882893E2,1.8990021E3,3.6415594E2,1.3230469E1,2.4144062E3,8.8998804E2,6.4542695E3,1.4878032E3,7.453149E2,0E0,1.113416E3,6.760747E2,1.1953141E2,2.0579004E2,9.910156E0,1.3685305E1,0E0,0E0,0E0,0E0,0E0,0E0,0E0,0E0,0E0,0E0,0E0,0E0,0E0,0E0,0E0,0E0,0E0,0E0,0E0,0E0,0E0,0E0,0E0,0E0,0E0,0E0,0E0,0E0,0E0,0E0],"parents":[2147483647,0,0,1,1,2,2,3,3,4,4,5,5,6,6,7,7,8,8,9,9,10,10,11,11,12,12,13,13,14,14,15,15,16,16,17,17,18,18,19,19,20,20,21,21,22,22,23,23,25,25,26,26,27,27,28,28,29,29,30,30],"right_children":[2,4,6,8,10,12,14,16,18,20,22,24,26,28,30,32,34,36,38,40,42,44,46,48,-1,50,52,54,56,58,60,-1,-1,-1,-1,-1,-1,-1,-1,-1,-1,-1,-1,-1,-1,-1,-1,-1,-1,-1,-1,-1,-1,-1,-1,-1,-1,-1,-1,-1,-1],"split_conditions":[5.9815556E-1,1.7882353E-2,7.801249E-1,4.1540578E-1,3.3834717E-1,2.6728722E-1,2.6668198E-2,1.569393E-3,2.3596297E-1,1E-1,5.159575E-1,7.606106E-1,3.645117E-1,8.0100226E-1,3.3960715E-1,4.7739363E-1,4.3007678E-1,7.6616234E-1,6.2765956E-1,1.8047825E-1,4.099037E-1,4.5780703E-1,4.7431308E-1,1.4598133E-1,-2.4096449E-1,6.736021E-1,3.375E-1,4.1127923E-1,3.561093E-1,8.17276E-1,8.0100226E-1,-3.4000418E-1,-3.0883726E-2,3.6148784E-1,-5.3790566E-2,3.3596873E-2,-2.6627907E-1,-2.6575622E-1,-3.574578E-1,7.53172E-1,3.8290015E-1,2.2529343E-1,-2.2979577E-1,3.347756E-1,1.1761108E-1,2.2545608E-2,-1.3438374E-1,1.2587968E-2,2.529451E-1,-1.864528E-2,-1.4246927E-1,-1.9065513E-1,-5.7262592E-2,-1.1501212E-1,7.695757E-2,-2.668384E-1,-8.781399E-2,-2.5827885E-1,-3.2424712E-1,-8.881126E-2,7.572307E-3],"split_indices":[1,0,1,5,1,3,0,0,1,10,3,1,5,1,0,3,1,5,3,1,5,1,1,2,0,1,13,5,2,1,1,0,0,0,0,0,0,0,0,0,0,0,0,0,0,0,0,0,0,0,0,0,0,0,0,0,0,0,0,0,0],"split_type":[0,0,0,0,0,0,0,0,0,0,0,0,0,0,0,0,0,0,0,0,0,0,0,0,0,0,0,0,0,0,0,0,0,0,0,0,0,0,0,0,0,0,0,0,0,0,0,0,0,0,0,0,0,0,0,0,0,0,0,0,0],"sum_hessian":[1.143E3,6.52E2,4.91E2,9.2E1,5.6E2,3.06E2,1.85E2,3.7E1,5.5E1,1.04E2,4.56E2,3.1E1,2.75E2,4.9E1,1.36E2,1.4E1,2.3E1,7E0,4.8E1,9.3E1,1.1E1,3.22E2,1.34E2,2.6E1,5E0,1.52E2,1.23E2,5E0,4.4E1,1.34E2,2E0,9E0,5E0,8E0,1.5E1,4E0,3E0,3E1,1.8E1,1.1E1,8.2E1,2E0,9E0,1.06E2,2.16E2,8.6E1,4.8E1,1.3E1,1.3E1,8.5E1,6.7E1,9.7E1,2.6E1,3E0,2E0,3.9E1,5E0,2.9E1,1.05E2,1E0,1E0],"tree_param":{"num_deleted":"0","num_feature":"16","num_nodes":"61","size_leaf_vector":"1"}},{"base_weights":[5.7100904E-1,5.537559E0,-7.869984E0,7.7413063E0,-6.228017E-1,-3.8485842E0,-1.2498494E1,3.681253E0,1.1596043E1,4.5086813E0,-2.2592432E0,-1.0446504E0,-8.3931055E0,-1.2665255E1,-5.0234904E0,9.478622E0,9.0774655E-1,1.0047894E1,2.3038307E1,3.5073906E-1,1.1460019E0,6.074745E-1,-5.6912565E0,-3.9538028E0,7.174401E0,-2.548982E0,-1.03025255E1,-9.972534E0,-1.3097017E1,-6.5712085E0,3.0899227E-2,7.119388E-1,1.889075E-1,-3.305183E-2,9.2242874E-2,2.529248E-1,-3.0740964E-1,6.415208E-1,2.0250398E-1,4.5622773E-2,-1.4651494E-1,-2.998823E-1,3.8411316E-2,-9.2407584E-2,-2.1217695E-1,-4.6386257E-2,-2.2405912E-1,-1.0176424E-2,2.4375269E-1,-9.356292E-2,3.659549E-2,-2.0041057E-1,-3.1425685E-1,-5.082214E-2,-2.762484E-1,-1.5674208E-1,-3.0156106E-1,1.104378E-2,-1.9248122E-1],"categories":[],"categories_nodes":[],"categories_segments":[],"categories_sizes":[],"default_left":[0,0,0,0,0,0,0,0,0,0,0,0,0,0,0,0,0,0,0,0,0,0,0,0,0,0,0,0,0,0,0,0,0,0,0,0,0,0,0,0,0,0,0,0,0,0,0,0,0,0,0,0,0,0,0,0,0,0,0],"id":20,"left_children":[1,3,5,7,9,11,13,15,17,19,21,23,25,27,29,31,33,35,37,-1,39,41,43,45,47,49,51,53,55,57,-1,-1,-1,-1,-1,-1,-1,-1,-1,-1,-1,-1,-1,-1,-1,-1,-1,-1,-1,-1,-1,-1,-1,-1,-1,-1,-1,-1,-1],"loss_changes":[4.8548047E4,9.901637E3,7.93691E3,8.3616E3,1.6308788E3,2.9347583E3,1.844375E2,4.2201836E3,4.639961E3,1.7051914E3,1.4497334E3,3.471474E3,9.557212E2,9.493359E1,6.817706E1,1.9251426E3,1.3343523E3,6.2667246E3,2.0782598E3,0E0,2.5375447E2,1.228078E3,3.5899E2,1.1873911E3,1.0285294E3,1.5591579E2,2.2478418E2,4.9219727E2,6.3570312E1,7.0624176E1,0E0,0E0,0E0,0E0,0E0,0E0,0E0,0E0,0E0,0E0,0E0,0E0,0E0,0E0,0E0,0E0,0E0,0E0,0E0,0E0,0E0,0E0,0E0,0E0,0E0,0E0,0E0,0E0,0E0],"parents":[2147483647,0,0,1,1,2,2,3,3,4,4,5,5,6,6,7,7,8,8,9,9,10,10,11,11,12,12,13,13,14,14,15,15,16,16,17,17,18,18,20,20,21,21,22,22,23,23,24,24,25,25,26,26,27,27,28,28,29,29],"right_children":[2,4,6,8,10,12,14,16,18,20,22,24,26,28,30,32,34,36,38,-1,40,42,44,46,48,50,52,54,56,58,-1,-1,-1,-1,-1,-1,-1,-1,-1,-1,-1,-1,-1,-1,-1,-1,-1,-1,-1,-1,-1,-1,-1,-1,-1,-1,-1,-1,-1],"split_conditions":[6.3615704E-1,2.1690613E-1,7.7762103E-1,9.970989E-2,3.7632978E-1,2.1690613E-1,8.280605E-1,4.0118888E-1,3E-1,4.9519745E-1,4.5912045E-1,1.3922949E-1,3.0452126E-1,8.0893666E-1,3.3569205E-1,2.9160935E-1,2.7311885E-1,2.4285714E-1,4.32852E-1,3.5073906E-1,6.118649E-1,2.1813402E-1,7.5E-2,4.1223404E-1,1.5114751E-1,2.5E-2,4.7739363E-1,2.792297E-1,5.185994E-2,7.851697E-1,3.0899227E-2,7.119388E-1,1.889075E-1,-3.305183E-2,9.2242874E-2,2.529248E-1,-3.0740964E-1,6.415208E-1,2.0250398E-1,4.5622773E-2,-1.4651494E-1,-2.998823E-1,3.8411316E-2,-9.2407584E-2,-2.1217695E-1,-4.6386257E-2,-2.2405912E-1,-1.0176424E-2,2.4375269E-1,-9.356292E-2,3.659549E-2,-2.0041057E-1,-3.1425685E-1,-5.082214E-2,-2.762484E-1,-1.5674208E-1,-3.0156106E-1,1.104378E-2,-1.9248122E-1],"split_indices":[1,9,1,9,3,9,5,1,6,1,1,9,3,1,2,5,2,6,1,0,1,9,13,3,2,13,3,5,2,1,0,0,0,0,0,0,0,0,0,0,0,0,0,0,0,0,0,0,0,0,0,0,0,0,0,0,0,0,0],"split_type":[0,0,0,0,0,0,0,0,0,0,0,0,0,0,0,0,0,0,0,0,0,0,0,0,0,0,0,0,0,0,0,0,0,0,0,0,0,0,0,0,0,0,0,0,0,0,0,0,0,0,0,0,0,0,0,0,0,0,0],"sum_hessian":[1.156E3,7.28E2,4.28E2,5.36E2,1.92E2,2.3E2,1.98E2,2.62E2,2.74E2,4.6E1,1.46E2,1.43E2,8.7E1,1.93E2,5E0,8.4E1,1.78E2,2.43E2,3.1E1,1E1,3.6E1,8E1,6.6E1,1.06E2,3.7E1,2.2E1,6.5E1,3E1,1.63E2,4E0,1E0,3E0,8.1E1,1.02E2,7.6E1,2.33E2,1E1,2.2E1,9E0,3.3E1,3E0,5E0,7.5E1,4.7E1,1.9E1,8.1E1,2.5E1,1.2E1,2.5E1,1.6E1,6E0,4.8E1,1.7E1,7E0,2.3E1,5E0,1.58E2,1E0,3E0],"tree_param":{"num_deleted":"0","num_feature":"16","num_nodes":"59","size_leaf_vector":"1"}},{"base_weights":[7.5760907E-1,8.083753E0,-5.268068E0,1.0330826E1,-2.6972003E0,-1.6882995E0,-1.0899006E1,1.2949313E1,2.1308787E0,-5.4534445E0,8.783871E0,1.8249007E0,-3.5343688E0,-7.4171934E0,-1.2953495E1,7.2944875E0,1.6967201E1,1.414884E1,7.3162395E-1,-8.051582E-1,-1.2638538E1,1.0750507E1,-4.632815E0,1.790945E1,1.197056E0,-5.7265244E0,-1.154602E0,-9.190128E0,-1.8632127E0,-1.3102896E1,-4.075236E0,2.924411E-1,8.8565595E-2,4.4531372E-1,7.8508556E-2,-1.2279645E-3,3.5449195E-1,1.6305271E-1,-3.1707175E-2,-2.1091396E-1,1.13012806E-1,-1.7837708E-1,-3.1433186E-1,5.6775022E-2,2.674826E-1,-9.556551E-4,-1.5721579E-1,6.2970096E-1,1.9469643E-1,5.3513795E-2,-7.591454E-2,4.9814016E-2,-1.3776809E-1,2.2300264E-2,-1.18310064E-1,-1.7023243E-1,-2.7402502E-1,-1.7298315E-1,1.0258115E-1,-2.990746E-1,-8.617844E-2,-1.1339937E-1,-1.5414057E-2],"categories":[],"categories_nodes":[],"categories_segments":[],"categories_sizes":[],"default_left":[0,0,0,0,0,0,0,0,0,0,0,0,0,0,0,0,0,0,0,0,0,0,0,0,0,0,0,0,0,0,0,0,0,0,0,0,0,0,0,0,0,0,0,0,0,0,0,0,0,0,0,0,0,0,0,0,0,0,0,0,0,0,0],"id":21,"left_children":[1,3,5,7,9,11,13,15,17,19,21,23,25,27,29,31,33,35,37,39,41,43,45,47,49,51,53,55,57,59,61,-1,-1,-1,-1,-1,-1,-1,-1,-1,-1,-1,-1,-1,-1,-1,-1,-1,-1,-1,-1,-1,-1,-1,-1,-1,-1,-1,-1,-1,-1,-1,-1],"loss_changes":[5.116246E4,1.2697855E4,1.280174E4,9.269543E3,2.9275642E3,2.535838E3,1.6707988E3,7.328539E3,1.7721643E3,2.4613032E3,5.247484E2,1.3418723E3,1.328894E3,9.0848E2,1.508711E2,2.5584585E3,6.6391914E3,2.2357446E2,1.3219154E3,2.2919414E3,5.4904785E1,1.0295239E2,3.1034424E1,2.1972498E2,6.930488E2,3.567256E2,1.0751997E3,2.5606982E2,9.113002E2,2.1191406E0,8.953178E0,0E0,0E0,0E0,0E0,0E0,0E0,0E0,0E0,0E0,0E0,0E0,0E0,0E0,0E0,0E0,0E0,0E0,0E0,0E0,0E0,0E0,0E0,0E0,0E0,0E0,0E0,0E0,0E0,0E0,0E0,0E0,0E0],"parents":[2147483647,0,0,1,1,2,2,3,3,4,4,5,5,6,6,7,7,8,8,9,9,10,10,11,11,12,12,13,13,14,14,15,15,16,16,17,17,18,18,19,19,20,20,21,21,22,22,23,23,24,24,25,25,26,26,27,27,28,28,29,29,30,30],"right_children":[2,4,6,8,10,12,14,16,18,20,22,24,26,28,30,32,34,36,38,40,42,44,46,48,50,52,54,56,58,60,62,-1,-1,-1,-1,-1,-1,-1,-1,-1,-1,-1,-1,-1,-1,-1,-1,-1,-1,-1,-1,-1,-1,-1,-1,-1,-1,-1,-1,-1,-1,-1,-1],"split_conditions":[5.3263235E-1,3.15E-1,7.30159E-1,2.3906179E-1,3.8144225E-1,3.03989E-1,8.0893666E-1,9.9066235E-2,2.9345572E-1,1.8467773E-1,4.0577716E-1,1.7606603E-1,2.0516865E-1,3.375E-1,5.1E-1,3.8633165E-1,2.4333334E-1,1.5745126E-1,1.2851636E-1,1.0763461E-1,1.416244E-1,2.957359E-1,3.5259143E-1,1.4285714E-2,5E-2,5.185994E-2,2.1690613E-1,2.1428572E-1,3E-1,5.036121E-1,8.17276E-1,2.924411E-1,8.8565595E-2,4.4531372E-1,7.8508556E-2,-1.2279645E-3,3.5449195E-1,1.6305271E-1,-3.1707175E-2,-2.1091396E-1,1.13012806E-1,-1.7837708E-1,-3.1433186E-1,5.6775022E-2,2.674826E-1,-9.556551E-4,-1.5721579E-1,6.2970096E-1,1.9469643E-1,5.3513795E-2,-7.591454E-2,4.9814016E-2,-1.3776809E-1,2.2300264E-2,-1.18310064E-1,-1.7023243E-1,-2.7402502E-1,-1.7298315E-1,1.0258115E-1,-2.990746E-1,-8.617844E-2,-1.1339937E-1,-1.5414057E-2],"split_indices":[1,12,1,9,9,5,1,9,1,9,5,5,2,13,15,1,15,2,2,9,2,5,1,6,13,2,9,6,6,2,1,0,0,0,0,0,0,0,0,0,0,0,0,0,0,0,0,0,0,0,0,0,0,0,0,0,0,0,0,0,0,0,0],"split_type":[0,0,0,0,0,0,0,0,0,0,0,0,0,0,0,0,0,0,0,0,0,0,0,0,0,0,0,0,0,0,0,0,0,0,0,0,0,0,0,0,0,0,0,0,0,0,0,0,0,0,0,0,0,0,0,0,0,0,0,0,0,0,0],"sum_hessian":[1.157E3,5.22E2,6.35E2,4.32E2,9E1,3.89E2,2.46E2,3.27E2,1.05E2,7.3E1,1.7E1,1.34E2,2.55E2,9.3E1,1.53E2,1.37E2,1.9E2,1E1,9.5E1,4.5E1,2.8E1,1.5E1,2E0,4E0,1.3E2,1.32E2,1.23E2,7E1,2.3E1,1.5E2,3E0,5.1E1,8.6E1,1.59E2,3.1E1,1E0,9E0,2.3E1,7.2E1,1.8E1,2.7E1,7E0,2.1E1,2E0,1.3E1,1E0,1E0,1E0,3E0,1.04E2,2.6E1,5E0,1.27E2,8.1E1,4.2E1,4.6E1,2.4E1,1.2E1,1.1E1,1.49E2,1E0,2E0,1E0],"tree_param":{"num_deleted":"0","num_feature":"16","num_nodes":"63","size_leaf_vector":"1"}},{"base_weights":[-5.1955426E-1,5.3331637E0,-7.4797573E0,4.1903577E0,1.5338666E1,-4.42482E0,-1.2084735E1,4.792339E0,-1.3360915E1,2.3958075E1,5.9705687E0,1.421145E0,-5.0815864E0,-8.815891E0,-1.2622865E1,7.139869E0,1.6685183E0,-1.2757148E-2,-3.1958562E-1,2.7405012E1,-1.7943624E-1,2.0338984E1,2.5564554E0,8.080738E0,-1.8256668E0,-3.4862406E0,-7.7327642E0,-9.184775E0,3.4009654E-2,-1.1588645E1,-1.3594487E1,2.893564E-1,9.7696796E-2,1.0392763E-1,-9.955588E-2,6.4313823E-1,3.0989438E-2,5.155511E-1,9.9930905E-2,1.6648811E-1,-1.4257221E-1,1.2772032E-2,6.360789E-1,1.1944571E-1,-2.627983E-1,-4.1199126E-3,-1.3016252E-1,-1.8624005E-1,2.7313031E-2,-2.2377281E-1,-8.482384E-2,-1.785069E-1,-2.8615847E-1,-3.1118447E-1,-7.9914495E-2],"categories":[],"categories_nodes":[],"categories_segments":[],"categories_sizes":[],"default_left":[0,0,0,0,0,0,0,0,0,0,0,0,0,0,0,0,0,0,0,0,0,0,0,0,0,0,0,0,0,0,0,0,0,0,0,0,0,0,0,0,0,0,0,0,0,0,0,0,0,0,0,0,0,0,0],"id":22,"left_children":[1,3,5,7,9,11,13,15,17,19,21,23,25,27,29,31,33,-1,-1,35,-1,37,39,41,43,45,47,49,-1,51,53,-1,-1,-1,-1,-1,-1,-1,-1,-1,-1,-1,-1,-1,-1,-1,-1,-1,-1,-1,-1,-1,-1,-1,-1],"loss_changes":[4.709009E4,7.116494E3,7.3743867E3,6.0335596E3,5.024792E3,1.232001E3,2.581211E2,3.9993818E3,1.5751099E2,3.8379941E3,1.5177772E3,7.282934E2,1.1869209E3,1.3923071E2,2.1326172E1,4.8966865E3,4.151903E3,0E0,0E0,6.265E2,0E0,1.217561E2,1.1789678E3,1.6274833E3,1.6419897E3,1.334502E3,4.395913E2,7.6299805E1,0E0,2.4408301E2,1.9051758E1,0E0,0E0,0E0,0E0,0E0,0E0,0E0,0E0,0E0,0E0,0E0,0E0,0E0,0E0,0E0,0E0,0E0,0E0,0E0,0E0,0E0,0E0,0E0,0E0],"parents":[2147483647,0,0,1,1,2,2,3,3,4,4,5,5,6,6,7,7,8,8,9,9,10,10,11,11,12,12,13,13,14,14,15,15,16,16,19,19,21,21,22,22,23,23,24,24,25,25,26,26,27,27,29,29,30,30],"right_children":[2,4,6,8,10,12,14,16,18,20,22,24,26,28,30,32,34,-1,-1,36,-1,38,40,42,44,46,48,50,-1,52,54,-1,-1,-1,-1,-1,-1,-1,-1,-1,-1,-1,-1,-1,-1,-1,-1,-1,-1,-1,-1,-1,-1,-1,-1],"split_conditions":[5.951633E-1,3E-1,7.801249E-1,2.7142859E-1,4.32852E-1,2.5E-1,8.0893666E-1,5.0265956E-1,2.8473178E-1,3.3333334E-3,2.8473178E-1,7.0174545E-1,3.9760637E-1,5E-1,2.8989363E-1,4.5780703E-1,4.364557E-1,-1.2757148E-2,-3.1958562E-1,3.4285715E-1,-1.7943624E-1,3.3510637E-1,5.673881E-1,7.7767414E-1,6.926837E-1,6.736021E-1,7.2489685E-1,5.869565E-1,3.4009654E-2,8.7530905E-1,9.7442305E-1,2.893564E-1,9.7696796E-2,1.0392763E-1,-9.955588E-2,6.4313823E-1,3.0989438E-2,5.155511E-1,9.9930905E-2,1.6648811E-1,-1.4257221E-1,1.2772032E-2,6.360789E-1,1.1944571E-1,-2.627983E-1,-4.1199126E-3,-1.3016252E-1,-1.8624005E-1,2.7313031E-2,-2.2377281E-1,-8.482384E-2,-1.785069E-1,-2.8615847E-1,-3.1118447E-1,-7.9914495E-2],"split_indices":[1,6,1,6,1,7,1,3,5,15,5,1,3,14,3,1,1,0,0,6,0,3,1,4,4,1,5,7,0,1,4,0,0,0,0,0,0,0,0,0,0,0,0,0,0,0,0,0,0,0,0,0,0,0,0],"split_type":[0,0,0,0,0,0,0,0,0,0,0,0,0,0,0,0,0,0,0,0,0,0,0,0,0,0,0,0,0,0,0,0,0,0,0,0,0,0,0,0,0,0,0,0,0,0,0,0,0,0,0,0,0,0,0],"sum_hessian":[1.154E3,6.27E2,5.27E2,5.64E2,6.3E1,3.18E2,2.09E2,5.46E2,1.8E1,3.2E1,3.1E1,3.2E1,2.86E2,3.2E1,1.77E2,3.11E2,2.35E2,1E0,1.7E1,2.9E1,3E0,5E0,2.6E1,1E1,2.2E1,1.8E2,1.06E2,3.1E1,1E0,9.2E1,8.5E1,1.04E2,2.07E2,1.59E2,7.6E1,2.8E1,1E0,4E0,1E0,1.7E1,9E0,8E0,2E0,1.3E1,9E0,7.3E1,1.07E2,1.01E2,5E0,2.7E1,4E0,2.1E1,7.1E1,8.4E1,1E0],"tree_param":{"num_deleted":"0","num_feature":"16","num_nodes":"55","size_leaf_vector":"1"}},{"base_weights":[-3.0553463E-1,-4.15227E0,5.8515387E0,-2.8277798E0,-9.557136E0,8.2779875E0,-2.2161064E0,-7.1036587E0,-1.6259921E0,-1.691557E0,-1.0118918E1,5.025577E0,1.3535376E1,2.9299612E0,-3.6264498E0,-5.34047E0,-1.2028719E1,2.2123687E0,-5.6742344E0,-5.0306196E0,3.3214417E0,-1.0441715E1,4.9126378E-1,2.540206E0,1.0457104E1,6.6344686E0,2.0240118E1,-2.4042969E0,6.9118814E0,-9.935284E0,-1.5641474E0,-9.2546634E-2,-2.6624912E-1,-3.7825823E-1,-2.3269103E-1,-7.00298E-2,1.09870374E-1,-1.5898734E-1,1.3356489E-1,-1.3558246E-1,5.990134E-3,1.3521558E-1,-9.216525E-3,-2.4489352E-1,-4.3827552E-2,2.110824E-1,-1.9244628E-1,-6.623369E-4,2.9175922E-1,2.6809624E-1,1.3621727E-1,8.0954924E-2,3.4499162E-1,3.6862987E-1,6.4059514E-1,-9.7014345E-2,1.8408823E-1,2.0860718E-1,-2.304443E-2,-2.3775752E-1,-7.716337E-2,-4.4407703E-2,2.6839754E-1],"categories":[],"categories_nodes":[],"categories_segments":[],"categories_sizes":[],"default_left":[0,0,0,0,0,0,0,0,0,0,0,0,0,0,0,0,0,0,0,0,0,0,0,0,0,0,0,0,0,0,0,0,0,0,0,0,0,0,0,0,0,0,0,0,0,0,0,0,0,0,0,0,0,0,0,0,0,0,0,0,0,0,0],"id":23,"left_children":[1,3,5,7,9,11,13,15,17,19,21,23,25,27,29,31,33,35,37,39,41,43,45,47,49,51,53,55,57,59,61,-1,-1,-1,-1,-1,-1,-1,-1,-1,-1,-1,-1,-1,-1,-1,-1,-1,-1,-1,-1,-1,-1,-1,-1,-1,-1,-1,-1,-1,-1,-1,-1],"loss_changes":[2.8824809E4,5.334834E3,9.179788E3,3.087084E3,6.324385E2,6.0876836E3,8.0171704E2,1.0820239E3,7.3467793E3,2.008348E2,4.7434668E2,2.997293E3,6.204541E3,5.2639246E2,1.103382E3,7.5452295E2,1.118667E2,3.37548E3,3.520921E3,3.588803E1,5.1206413E1,3.390332E2,4.7127133E2,4.0935723E3,3.4327344E2,1.7559917E3,1.7500098E3,2.4891225E2,2.5925317E2,3.475879E1,3.6405524E2,0E0,0E0,0E0,0E0,0E0,0E0,0E0,0E0,0E0,0E0,0E0,0E0,0E0,0E0,0E0,0E0,0E0,0E0,0E0,0E0,0E0,0E0,0E0,0E0,0E0,0E0,0E0,0E0,0E0,0E0,0E0,0E0],"parents":[2147483647,0,0,1,1,2,2,3,3,4,4,5,5,6,6,7,7,8,8,9,9,10,10,11,11,12,12,13,13,14,14,15,15,16,16,17,17,18,18,19,19,20,20,21,21,22,22,23,23,24,24,25,25,26,26,27,27,28,28,29,29,30,30],"right_children":[2,4,6,8,10,12,14,16,18,20,22,24,26,28,30,32,34,36,38,40,42,44,46,48,50,52,54,56,58,60,62,-1,-1,-1,-1,-1,-1,-1,-1,-1,-1,-1,-1,-1,-1,-1,-1,-1,-1,-1,-1,-1,-1,-1,-1,-1,-1,-1,-1,-1,-1,-1,-1],"split_conditions":[6.901884E-2,2.7142859E-1,2.9082525E-1,7.995603E-2,6.2752753E-3,1.118485E-1,9.568704E-2,3.6666665E-2,1.8467773E-1,2.224971E-1,8.280605E-1,1.904762E-1,2.2978103E-1,1.7637514E-1,1.1921645E-1,1.5714286E-1,5.7142857E-2,1E-1,5.102067E-1,6.666667E-3,2.3802343E-1,4.2666668E-1,1.9764706E-2,3E-1,1.14285715E-1,4.181568E-1,4.4016507E-1,3.6863825E-1,2.1428572E-1,3.3333334E-3,4.3191198E-1,-9.2546634E-2,-2.6624912E-1,-3.7825823E-1,-2.3269103E-1,-7.00298E-2,1.09870374E-1,-1.5898734E-1,1.3356489E-1,-1.3558246E-1,5.990134E-3,1.3521558E-1,-9.216525E-3,-2.4489352E-1,-4.3827552E-2,2.110824E-1,-1.9244628E-1,-6.623369E-4,2.9175922E-1,2.6809624E-1,1.3621727E-1,8.0954924E-2,3.4499162E-1,3.6862987E-1,6.4059514E-1,-9.7014345E-2,1.8408823E-1,2.0860718E-1,-2.304443E-2,-2.3775752E-1,-7.716337E-2,-4.4407703E-2,2.6839754E-1],"split_indices":[0,6,9,9,0,9,0,15,9,2,5,8,2,2,0,6,6,6,9,15,2,15,0,6,6,5,5,5,6,15,5,0,0,0,0,0,0,0,0,0,0,0,0,0,0,0,0,0,0,0,0,0,0,0,0,0,0,0,0,0,0,0,0],"split_type":[0,0,0,0,0,0,0,0,0,0,0,0,0,0,0,0,0,0,0,0,0,0,0,0,0,0,0,0,0,0,0,0,0,0,0,0,0,0,0,0,0,0,0,0,0,0,0,0,0,0,0,0,0,0,0,0,0,0,0,0,0,0,0],"sum_hessian":[1.215E3,7.48E2,4.67E2,6.02E2,1.46E2,3.59E2,1.08E2,1.31E2,4.71E2,1E1,1.36E2,2.23E2,1.36E2,2.3E1,8.5E1,9.8E1,3.3E1,2.42E2,2.29E2,6E0,4E0,1.32E2,4E0,1.54E2,6.9E1,6.8E1,6.8E1,1E1,1.3E1,2E1,6.5E1,8.3E1,1.5E1,7E0,2.6E1,8E1,1.62E2,2.06E2,2.3E1,5E0,1E0,2E0,2E0,1.27E2,5E0,2E0,2E0,1.24E2,3E1,5.2E1,1.7E1,5.1E1,1.7E1,4.7E1,2.1E1,9E0,1E0,1E1,3E0,1.8E1,2E0,6.4E1,1E0],"tree_param":{"num_deleted":"0","num_feature":"16","num_nodes":"63","size_leaf_vector":"1"}},{"base_weights":[-1.2005141E-1,4.127599E0,-7.859203E0,6.2640467E0,-3.9285142E0,-4.5003595E0,-1.1530245E1,1.125915E1,2.304357E0,-1.109517E1,-1.1168501E0,-4.7596884E0,7.084071E0,-1.1599203E1,-7.660117E-2,1.5018029E1,3.1915226E0,1.755395E1,1.7593254E0,-3.6505656E0,-1.419948E1,-3.5188262E0,7.2867007E0,-2.4358776E0,-5.990125E0,3.437229E-1,-3.2945945E0,-1.1657919E1,-4.092404E0,6.486796E-1,3.128397E-1,7.327773E-3,6.0160184E-1,8.7848306E-2,5.6510913E-1,7.517997E-2,-5.168884E-2,-1.5038516E-1,1.2274201E-1,-2.8628007E-2,-3.432128E-1,-1.22141585E-1,7.68293E-2,2.983404E-1,-1.5297595E-1,-9.37734E-2,4.3935508E-2,-9.861094E-2,-1.760683E-1,-1.5372457E-1,4.1242033E-2,-1.2677315E-1,-2.6692516E-1,3.2372214E-2,-1.720932E-1],"categories":[],"categories_nodes":[],"categories_segments":[],"categories_sizes":[],"default_left":[0,0,0,0,0,0,0,0,0,0,0,0,0,0,0,0,0,0,0,0,0,0,0,0,0,0,0,0,0,0,0,0,0,0,0,0,0,0,0,0,0,0,0,0,0,0,0,0,0,0,0,0,0,0,0],"id":24,"left_children":[1,3,5,7,9,11,13,15,17,19,21,23,25,27,-1,29,31,33,35,37,39,41,43,45,47,-1,49,51,53,-1,-1,-1,-1,-1,-1,-1,-1,-1,-1,-1,-1,-1,-1,-1,-1,-1,-1,-1,-1,-1,-1,-1,-1,-1,-1],"loss_changes":[3.7014797E4,1.2537345E4,4.867963E3,1.1347012E4,3.070594E3,6.645957E2,6.79375E1,7.6546797E3,2.6454238E3,9.4191016E2,2.2661897E3,5.744248E2,4.6579773E2,3.515625E1,0E0,2.5784766E3,5.4599194E3,9.999116E2,1.9485979E3,4.0994586E2,3.2249707E2,1.1262123E3,2.1264932E3,5.4470557E2,3.54188E2,0E0,6.523231E1,1.3236328E1,6.813591E1,0E0,0E0,0E0,0E0,0E0,0E0,0E0,0E0,0E0,0E0,0E0,0E0,0E0,0E0,0E0,0E0,0E0,0E0,0E0,0E0,0E0,0E0,0E0,0E0,0E0,0E0],"parents":[2147483647,0,0,1,1,2,2,3,3,4,4,5,5,6,6,7,7,8,8,9,9,10,10,11,11,12,12,13,13,15,15,16,16,17,17,18,18,19,19,20,20,21,21,22,22,23,23,24,24,26,26,27,27,28,28],"right_children":[2,4,6,8,10,12,14,16,18,20,22,24,26,28,-1,30,32,34,36,38,40,42,44,46,48,-1,50,52,54,-1,-1,-1,-1,-1,-1,-1,-1,-1,-1,-1,-1,-1,-1,-1,-1,-1,-1,-1,-1,-1,-1,-1,-1,-1,-1],"split_conditions":[6.3615704E-1,4E-2,7.7762103E-1,4.5780703E-1,3.0642518E-1,6.4E-1,6.666667E-1,1.6875E-1,2.2826087E-1,1.9301511E-1,2.1428572E-1,6.764074E-1,7.606106E-1,1E0,-7.660117E-2,2.298109E-1,3.9586118E-1,1.8130323E-1,1.25E-1,8.3333336E-2,1.3372126E-1,2.969557E-1,2.7142859E-1,6.6544163E-1,1.7142858E-1,3.437229E-1,1.2375815E-1,3.4831535E-2,8.0893666E-1,6.486796E-1,3.128397E-1,7.327773E-3,6.0160184E-1,8.7848306E-2,5.6510913E-1,7.517997E-2,-5.168884E-2,-1.5038516E-1,1.2274201E-1,-2.8628007E-2,-3.432128E-1,-1.22141585E-1,7.68293E-2,2.983404E-1,-1.5297595E-1,-9.37734E-2,4.3935508E-2,-9.861094E-2,-1.760683E-1,-1.5372457E-1,4.1242033E-2,-1.2677315E-1,-2.6692516E-1,3.2372214E-2,-1.720932E-1],"split_indices":[1,10,1,1,1,15,15,13,7,1,6,1,1,14,0,1,2,2,13,15,2,2,6,1,6,0,2,2,1,0,0,0,0,0,0,0,0,0,0,0,0,0,0,0,0,0,0,0,0,0,0,0,0,0,0],"split_type":[0,0,0,0,0,0,0,0,0,0,0,0,0,0,0,0,0,0,0,0,0,0,0,0,0,0,0,0,0,0,0,0,0,0,0,0,0,0,0,0,0,0,0,0,0,0,0,0,0,0,0,0,0,0,0],"sum_hessian":[1.124E3,7.26E2,3.98E2,5.74E2,1.52E2,2.09E2,1.89E2,2.53E2,3.21E2,4.2E1,1.1E2,2.05E2,4E0,1.87E2,2E0,1.72E2,8.1E1,1E1,3.11E2,1.3E1,2.9E1,8.6E1,2.4E1,7.2E1,1.33E2,2E0,2E0,1.85E2,2E0,1.3E1,1.59E2,7.3E1,8E0,4E0,6E0,2.25E2,8.6E1,1E1,3E0,2E0,2.7E1,6.8E1,1.8E1,1.7E1,7E0,5.2E1,2E1,7E1,6.3E1,1E0,1E0,3E0,1.82E2,1E0,1E0],"tree_param":{"num_deleted":"0","num_feature":"16","num_nodes":"55","size_leaf_vector":"1"}},{"base_weights":[-1.4754482E-1,-3.4282904E0,4.678981E0,-1.4564654E0,-6.1004486E0,6.531159E0,-4.8990345E0,-1.0152706E1,-6.452587E-1,-4.4490747E0,-1.0130291E1,7.44405E0,-2.2502544E0,-4.319169E-1,-6.8404694E0,5.1957355E0,-1.23007555E1,5.983983E0,-1.3198308E0,-1.1164333E1,-1.9133195E0,-1.0289278E1,4.0316746E-2,5.8921347E0,1.374231E1,-5.704596E0,8.337796E0,2.1158716E-1,-1.6820003E0,-1.065056E1,-1.8423374E0,1.5843537E-1,3.86651E-2,-2.9206204E-1,-1.2539388E-1,3.695264E-2,2.8243557E-1,-9.06278E-3,-3.0849466E-1,3.5660195E-3,-2.632156E-1,2.0341195E-1,-1.07883774E-1,-2.0749016E-1,-2.7488008E-1,1.6210456E-1,2.756202E-2,2.0533095E-1,5.1914996E-1,-7.141681E-2,-2.8158596E-1,-9.7802095E-2,3.2699665E-1,8.7322704E-2,-7.8026086E-2,-2.6609027E-1,-6.610234E-2,-1.8804356E-1,-1.346196E-2],"categories":[],"categories_nodes":[],"categories_segments":[],"categories_sizes":[],"default_left":[0,0,0,0,0,0,0,0,0,0,0,0,0,0,0,0,0,0,0,0,0,0,0,0,0,0,0,0,0,0,0,0,0,0,0,0,0,0,0,0,0,0,0,0,0,0,0,0,0,0,0,0,0,0,0,0,0,0,0],"id":25,"left_children":[1,3,5,7,9,11,13,15,17,19,21,23,25,27,29,31,33,35,37,39,41,43,-1,45,47,49,51,-1,53,55,57,-1,-1,-1,-1,-1,-1,-1,-1,-1,-1,-1,-1,-1,-1,-1,-1,-1,-1,-1,-1,-1,-1,-1,-1,-1,-1,-1,-1],"loss_changes":[1.8938393E4,3.742663E3,8.618248E3,2.8928271E3,1.9646719E3,3.2714395E3,6.8218225E2,1.2178337E3,1.6938044E3,3.6567422E3,1.8284668E2,3.515996E3,1.473979E3,3.1965448E2,1.0277615E3,1.9037796E1,4.108789E1,9.603793E2,3.8620676E3,2.6897266E2,4.887951E3,7.02666E1,0E0,1.7013105E3,2.8761172E3,4.7457697E2,8.2344275E2,0E0,2.3477081E2,2.1580273E2,1.9585985E2,0E0,0E0,0E0,0E0,0E0,0E0,0E0,0E0,0E0,0E0,0E0,0E0,0E0,0E0,0E0,0E0,0E0,0E0,0E0,0E0,0E0,0E0,0E0,0E0,0E0,0E0,0E0,0E0],"parents":[2147483647,0,0,1,1,2,2,3,3,4,4,5,5,6,6,7,7,8,8,9,9,10,10,11,11,12,12,13,13,14,14,15,15,16,16,17,17,18,18,19,19,20,20,21,21,23,23,24,24,25,25,26,26,28,28,29,29,30,30],"right_children":[2,4,6,8,10,12,14,16,18,20,22,24,26,28,30,32,34,36,38,40,42,44,-1,46,48,50,52,-1,54,56,58,-1,-1,-1,-1,-1,-1,-1,-1,-1,-1,-1,-1,-1,-1,-1,-1,-1,-1,-1,-1,-1,-1,-1,-1,-1,-1,-1,-1],"split_conditions":[6.305882E-2,9.3333334E-2,3.8325146E-1,4.705882E-3,2.9804688E-2,5E-3,5.230998E-1,3.15E-1,6.2752753E-3,1.8823529E-2,7.5E-1,4.965612E-1,7.5E-1,8.1569396E-2,3.2470587E-1,3.3333334E-3,2.1428572E-1,3.1636864E-1,3.15E-1,5.127628E-2,1.9764706E-2,2.4285714E-1,4.0316746E-2,3.3333334E-3,1.0129025E-1,1.3613915E-1,1.118485E-1,2.1158716E-1,1.7142858E-1,6.2857145E-1,5.7142857E-2,1.5843537E-1,3.86651E-2,-2.9206204E-1,-1.2539388E-1,3.695264E-2,2.8243557E-1,-9.06278E-3,-3.0849466E-1,3.5660195E-3,-2.632156E-1,2.0341195E-1,-1.07883774E-1,-2.0749016E-1,-2.7488008E-1,1.6210456E-1,2.756202E-2,2.0533095E-1,5.1914996E-1,-7.141681E-2,-2.8158596E-1,-9.7802095E-2,3.2699665E-1,8.7322704E-2,-7.8026086E-2,-2.6609027E-1,-6.610234E-2,-1.8804356E-1,-1.346196E-2],"split_indices":[0,15,9,0,0,12,9,12,0,0,11,5,11,0,0,15,6,5,12,9,0,6,0,15,9,9,9,0,6,6,6,0,0,0,0,0,0,0,0,0,0,0,0,0,0,0,0,0,0,0,0,0,0,0,0,0,0,0,0],"split_type":[0,0,0,0,0,0,0,0,0,0,0,0,0,0,0,0,0,0,0,0,0,0,0,0,0,0,0,0,0,0,0,0,0,0,0,0,0,0,0,0,0,0,0,0,0,0,0,0,0,0,0,0,0,0,0,0,0,0,0],"sum_hessian":[1.194E3,7.11E2,4.83E2,4.1E2,3.01E2,4.05E2,7.8E1,3.4E1,3.76E2,2.15E2,8.6E1,3.67E2,3.8E1,2.4E1,5.4E1,4E0,3E1,3.4E1,3.42E2,5.8E1,1.57E2,8.5E1,1E0,2.96E2,7.1E1,2.9E1,9E0,2E0,2.2E1,3E1,2.4E1,2E0,2E0,2.7E1,3E0,2.1E1,1.3E1,3.19E2,2.3E1,2E0,5.6E1,3.2E1,1.25E2,5.5E1,3E1,2.34E2,6.2E1,4.8E1,2.3E1,2.2E1,7E0,3E0,6E0,5E0,1.7E1,2.6E1,4E0,3E0,2.1E1],"tree_param":{"num_deleted":"0","num_feature":"16","num_nodes":"59","size_leaf_vector":"1"}},{"base_weights":[-5.643348E-1,4.6889277E0,-6.0730653E0,-6.816255E0,6.5701623E0,-3.4469924E0,-1.0992676E1,-8.684843E0,3.2878348E-1,1.3299994E1,4.565574E0,4.912358E0,-4.3003993E0,-3.6508355E0,-1.1129466E1,-5.832211E0,-1.2037147E1,1.1108262E1,2.6030087E1,8.512645E0,2.233621E0,-7.097285E0,8.288831E0,-2.6763666E0,-6.2205696E0,-2.4428327E-1,2.8082463E-1,-1.1226163E1,-3.8748507E0,1.5647198E-1,-1.8387648E-1,-3.443558E-1,-2.1993734E-1,6.1434424E-1,2.1430343E-1,-1.484102E-1,6.5175766E-1,2.1813335E-1,-9.05348E-2,2.2974605E-2,2.061114E-1,-2.1820161E-2,-2.0447859E-1,1.05631396E-1,4.108033E-1,-9.847412E-2,7.045596E-3,-1.4952426E-1,1.18511274E-1,-2.2850218E-1,-2.7924275E-1,-1.03471756E-1,-2.1183545E-2],"categories":[],"categories_nodes":[],"categories_segments":[],"categories_sizes":[],"default_left":[0,0,0,0,0,0,0,0,0,0,0,0,0,0,0,0,0,0,0,0,0,0,0,0,0,0,0,0,0,0,0,0,0,0,0,0,0,0,0,0,0,0,0,0,0,0,0,0,0,0,0,0,0],"id":26,"left_children":[1,3,5,7,9,11,13,15,-1,17,19,21,23,25,27,29,31,33,35,37,39,41,43,45,47,-1,-1,49,51,-1,-1,-1,-1,-1,-1,-1,-1,-1,-1,-1,-1,-1,-1,-1,-1,-1,-1,-1,-1,-1,-1,-1,-1],"loss_changes":[3.2787207E4,1.2598274E4,7.106457E3,3.3831938E3,6.6710586E3,2.603607E3,1.5218945E2,6.5657666E2,0E0,2.8915605E3,3.533878E3,1.4375363E3,1.009312E3,6.985557E2,8.8384766E1,1.2829249E3,1.0341211E2,2.4077715E3,1.5432676E3,1.9510225E3,2.0286359E3,8.402829E1,8.7751575E2,8.881924E2,6.3198E2,0E0,0E0,1.0571289E2,3.6729965E0,0E0,0E0,0E0,0E0,0E0,0E0,0E0,0E0,0E0,0E0,0E0,0E0,0E0,0E0,0E0,0E0,0E0,0E0,0E0,0E0,0E0,0E0,0E0,0E0],"parents":[2147483647,0,0,1,1,2,2,3,3,4,4,5,5,6,6,7,7,9,9,10,10,11,11,12,12,13,13,14,14,15,15,16,16,17,17,18,18,19,19,20,20,21,21,22,22,23,23,24,24,27,27,28,28],"right_children":[2,4,6,8,10,12,14,16,-1,18,20,22,24,26,28,30,32,34,36,38,40,42,44,46,48,-1,-1,50,52,-1,-1,-1,-1,-1,-1,-1,-1,-1,-1,-1,-1,-1,-1,-1,-1,-1,-1,-1,-1,-1,-1,-1,-1],"split_conditions":[5.720245E-1,1.7882353E-2,7.7762103E-1,6.956522E-1,3.4903845E-1,2.5E-1,7.608695E-2,1.6875E-1,3.2878348E-1,2.857143E-1,4.7826087E-1,1.2375815E-1,6.67931E-1,8.722742E-1,3.6941177E-1,2.9347825E-1,3.6956522E-1,1.7433143E-1,2.0392923E-2,2.9375E-1,6.489682E-1,6.420969E-1,2.857143E-1,6.7451745E-2,5.0541174E-1,-2.4428327E-1,2.8082463E-1,3.670588E-2,4.752941E-1,1.5647198E-1,-1.8387648E-1,-3.443558E-1,-2.1993734E-1,6.1434424E-1,2.1430343E-1,-1.484102E-1,6.5175766E-1,2.1813335E-1,-9.05348E-2,2.2974605E-2,2.061114E-1,-2.1820161E-2,-2.0447859E-1,1.05631396E-1,4.108033E-1,-9.847412E-2,7.045596E-3,-1.4952426E-1,1.18511274E-1,-2.2850218E-1,-2.7924275E-1,-1.03471756E-1,-2.1183545E-2],"split_indices":[1,0,1,7,1,7,7,13,0,6,7,2,1,1,0,7,7,4,0,13,4,4,6,0,0,0,0,0,0,0,0,0,0,0,0,0,0,0,0,0,0,0,0,0,0,0,0,0,0,0,0,0,0],"split_type":[0,0,0,0,0,0,0,0,0,0,0,0,0,0,0,0,0,0,0,0,0,0,0,0,0,0,0,0,0,0,0,0,0,0,0,0,0,0,0,0,0,0,0,0,0,0,0,0,0,0,0,0,0],"sum_hessian":[1.131E3,5.79E2,5.52E2,8.1E1,4.98E2,3.61E2,1.91E2,7.5E1,6E0,1.13E2,3.85E2,3.3E1,3.28E2,4E0,1.87E2,4.2E1,3.3E1,9.8E1,1.5E1,1.42E2,2.43E2,7E0,2.6E1,1.79E2,1.49E2,3E0,1E0,1.84E2,3E0,6E0,3.6E1,1.2E1,2.1E1,8E0,9E1,1E0,1.4E1,1.31E2,1.1E1,2.07E2,3.6E1,2E0,5E0,2E1,6E0,1.15E2,6.4E1,1.45E2,4E0,9.1E1,9.3E1,2E0,1E0],"tree_param":{"num_deleted":"0","num_feature":"16","num_nodes":"53","size_leaf_vector":"1"}},{"base_weights":[-1.0613302E-1,5.7899375E0,-5.0739546E0,-2.1354687E0,8.580886E0,-2.5613997E0,-1.0339266E1,8.264596E0,-6.11496E0,1.963007E1,6.4819746E0,1.9032027E0,-3.6047196E0,-1.0713007E1,-8.4357274E-1,1.4839253E1,2.2108195E0,-2.0537E0,-1.0631605E1,2.2207413E1,1.4121542E0,1.0096399E1,6.107869E-1,1.3019361E0,5.8960545E-1,-4.7580757E0,-1.0057673E0,-1.0946122E1,-2.6886594E0,-3.998406E0,2.7762872E-1,3.6989403E-1,-1.2035779E-1,1.8361214E-1,-1.6261317E-1,-1.0610323E-1,1.2257689E-1,1.5333581E-1,-2.5341663E-1,6.784347E-1,4.126701E-1,1.6605175E-1,-1.7675793E-1,2.5392815E-1,-8.007402E-2,2.634635E-2,-2.497433E-1,3.4077505E-3,2.207399E-1,-1.1501108E-1,6.228588E-2,-7.518708E-2,1.0299194E-1,-2.0984904E-1,-2.642495E-1,4.01844E-2,-8.47909E-2,-5.1015955E-3,-1.7563868E-1],"categories":[],"categories_nodes":[],"categories_segments":[],"categories_sizes":[],"default_left":[0,0,0,0,0,0,0,0,0,0,0,0,0,0,0,0,0,0,0,0,0,0,0,0,0,0,0,0,0,0,0,0,0,0,0,0,0,0,0,0,0,0,0,0,0,0,0,0,0,0,0,0,0,0,0,0,0,0,0],"id":27,"left_children":[1,3,5,7,9,11,13,15,17,19,21,23,25,27,29,31,33,35,37,39,41,43,45,47,-1,49,51,53,55,57,-1,-1,-1,-1,-1,-1,-1,-1,-1,-1,-1,-1,-1,-1,-1,-1,-1,-1,-1,-1,-1,-1,-1,-1,-1,-1,-1,-1,-1],"loss_changes":[3.4973094E4,1.2095518E4,8.546158E3,5.968875E3,9.242025E3,2.0563845E3,7.3268945E2,1.5592532E3,1.885866E3,2.9736836E3,7.2301836E3,1.1784764E3,1.0653281E3,3.4656055E2,4.1905377E2,6.2588477E2,1.2629083E3,1.1115339E3,5.023955E2,1.1945684E3,5.4262463E2,3.083877E3,8.42313E2,8.015121E2,0E0,5.59749E2,1.4254337E3,1.1637305E2,3.8897358E1,1.1053934E2,0E0,0E0,0E0,0E0,0E0,0E0,0E0,0E0,0E0,0E0,0E0,0E0,0E0,0E0,0E0,0E0,0E0,0E0,0E0,0E0,0E0,0E0,0E0,0E0,0E0,0E0,0E0,0E0,0E0],"parents":[2147483647,0,0,1,1,2,2,3,3,4,4,5,5,6,6,7,7,8,8,9,9,10,10,11,11,12,12,13,13,14,14,15,15,16,16,17,17,18,18,19,19,20,20,21,21,22,22,23,23,25,25,26,26,27,27,28,28,29,29],"right_children":[2,4,6,8,10,12,14,16,18,20,22,24,26,28,30,32,34,36,38,40,42,44,46,48,-1,50,52,54,56,58,-1,-1,-1,-1,-1,-1,-1,-1,-1,-1,-1,-1,-1,-1,-1,-1,-1,-1,-1,-1,-1,-1,-1,-1,-1,-1,-1,-1,-1],"split_conditions":[5.3263235E-1,3.607996E-2,7.606106E-1,4.2154256E-1,3.0642518E-1,3.018617E-1,8.280605E-1,4.998463E-1,3.7E-1,4E-2,5.1329786E-1,4.8418158E-1,7.215763E-2,3.6235294E-1,8.446318E-1,2.8235294E-2,2.0712493E-1,1E-1,3.2462174E-1,5.930851E-1,1.2549172E-1,1E-1,1E-1,7.725832E-1,5.8960545E-1,7.5126004E-1,2.4245825E-1,8.2552004E-1,3.4831535E-2,3.7367022E-1,2.7762872E-1,3.6989403E-1,-1.2035779E-1,1.8361214E-1,-1.6261317E-1,-1.0610323E-1,1.2257689E-1,1.5333581E-1,-2.5341663E-1,6.784347E-1,4.126701E-1,1.6605175E-1,-1.7675793E-1,2.5392815E-1,-8.007402E-2,2.634635E-2,-2.497433E-1,3.4077505E-3,2.207399E-1,-1.1501108E-1,6.228588E-2,