{"learner":{"attributes":{},"feature_names":[],"feature_types":[],"gradient_booster":{"model":{"gbtree_model_param":{"num_parallel_tree":"1","num_trees":"382"},"iteration_indptr":[0,1,2,3,4,5,6,7,8,9,10,11,12,13,14,15,16,17,18,19,20,21,22,23,24,25,26,27,28,29,30,31,32,33,34,35,36,37,38,39,40,41,42,43,44,45,46,47,48,49,50,51,52,53,54,55,56,57,58,59,60,61,62,63,64,65,66,67,68,69,70,71,72,73,74,75,76,77,78,79,80,81,82,83,84,85,86,87,88,89,90,91,92,93,94,95,96,97,98,99,100,101,102,103,104,105,106,107,108,109,110,111,112,113,114,115,116,117,118,119,120,121,122,123,124,125,126,127,128,129,130,131,132,133,134,135,136,137,138,139,140,141,142,143,144,145,146,147,148,149,150,151,152,153,154,155,156,157,158,159,160,161,162,163,164,165,166,167,168,169,170,171,172,173,174,175,176,177,178,179,180,181,182,183,184,185,186,187,188,189,190,191,192,193,194,195,196,197,198,199,200,201,202,203,204,205,206,207,208,209,210,211,212,213,214,215,216,217,218,219,220,221,222,223,224,225,226,227,228,229,230,231,232,233,234,235,236,237,238,239,240,241,242,243,244,245,246,247,248,249,250,251,252,253,254,255,256,257,258,259,260,261,262,263,264,265,266,267,268,269,270,271,272,273,274,275,276,277,278,279,280,281,282,283,284,285,286,287,288,289,290,291,292,293,294,295,296,297,298,299,300,301,302,303,304,305,306,307,308,309,310,311,312,313,314,315,316,317,318,319,320,321,322,323,324,325,326,327,328,329,330,331,332,333,334,335,336,337,338,339,340,341,342,343,344,345,346,347,348,349,350,351,352,353,354,355,356,357,358,359,360,361,362,363,364,365,366,367,368,369,370,371,372,373,374,375,376,377,378,379,380,381,382],"tree_info":[0,0,0,0,0,0,0,0,0,0,0,0,0,0,0,0,0,0,0,0,0,0,0,0,0,0,0,0,0,0,0,0,0,0,0,0,0,0,0,0,0,0,0,0,0,0,0,0,0,0,0,0,0,0,0,0,0,0,0,0,0,0,0,0,0,0,0,0,0,0,0,0,0,0,0,0,0,0,0,0,0,0,0,0,0,0,0,0,0,0,0,0,0,0,0,0,0,0,0,0,0,0,0,0,0,0,0,0,0,0,0,0,0,0,0,0,0,0,0,0,0,0,0,0,0,0,0,0,0,0,0,0,0,0,0,0,0,0,0,0,0,0,0,0,0,0,0,0,0,0,0,0,0,0,0,0,0,0,0,0,0,0,0,0,0,0,0,0,0,0,0,0,0,0,0,0,0,0,0,0,0,0,0,0,0,0,0,0,0,0,0,0,0,0,0,0,0,0,0,0,0,0,0,0,0,0,0,0,0,0,0,0,0,0,0,0,0,0,0,0,0,0,0,0,0,0,0,0,0,0,0,0,0,0,0,0,0,0,0,0,0,0,0,0,0,0,0,0,0,0,0,0,0,0,0,0,0,0,0,0,0,0,0,0,0,0,0,0,0,0,0,0,0,0,0,0,0,0,0,0,0,0,0,0,0,0,0,0,0,0,0,0,0,0,0,0,0,0,0,0,0,0,0,0,0,0,0,0,0,0,0,0,0,0,0,0,0,0,0,0,0,0,0,0,0,0,0,0,0,0,0,0,0,0,0,0,0,0,0,0,0,0,0,0,0,0,0,0,0,0,0,0,0,0,0,0,0,0,0,0,0,0,0,0,0,0,0,0,0,0,0,0,0,0,0,0,0,0,0,0,0,0],"trees":[{"base_weights":[6.3319417E-4,-1.3351381E-1,3.1414944E-1,-2.9680508E-1,-1.2121492E-2,5.629429E-1,1.5274408E-1,-4.105479E-1,-2.1479724E-1,1.3489401E-1,-3.4377116E-1,6.524484E-1,5.1800087E-2,6.515896E-2,5.714487E-1,-9.561707E-1,-3.9276868E-1,-4.0388367E-1,-1.3686737E-1,-3.7414718E-1,1.8652172E-1,-1.9228818E-1,-5.8255816E-1,2.1474141E-1,7.8477657E-1,-3.599819E-1,4.6958175E-1,1.6165175E-1,-2.6884732E-1,7.356005E-1,1.597952E-1,-1.2302471E0,-4.7058934E-1,-4.5172375E-1,-2.899561E-1,-5.318991E-1,1.6757652E-2,-1.6636388E-1,1.9299771E-1,-2.559348E-1,-1.1221842E-1,1.4520486E-1,4.8974437E-1,-3.7230518E-1,1.569934E-3,-7.7130663E-1,-3.442321E-1,3.0880585E-1,-1.0730625E-1,7.0245737E-1,1.1711888E0,-1.0342257E0,-2.074983E-1,7.9473525E-1,-1.7211926E-1,7.588498E-2,5.0805944E-1,-1.8368699E-2,-5.002278E-1,5.9030455E-1,1.1559539E0,2.5254673E-1,-4.9784607E-1,-1.915689E-2,-9.894719E-2,-3.793333E-2,-1.0529568E-2,-4.4301104E-2,-3.1025354E-2,-2.304897E-2,1.9089924E-2,-3.1905096E-2,-7.471359E-2,-6.4770672E-3,1.2232047E-2,-1.0767805E-2,-3.0045647E-2,3.6837857E-2,-1.0089845E-2,-3.579009E-2,-6.332221E-3,4.8329234E-3,2.155806E-2,1.2195333E-2,5.3560298E-2,-4.4134565E-2,-2.0297138E-2,5.668936E-3,-5.4394107E-2,-6.337228E-2,-2.3966571E-3,-2.8762102E-2,1.355382E-2,1.5401241E-2,5.0560713E-2,6.0686994E-2,2.4255667E-2,7.283691E-2,1.3637437E-1,-3.1492393E-2,-8.7275006E-2,1.0378288E-2,-2.734958E-2,6.6708006E-2,1.1474079E-2,4.0986156E-3,-3.2875936E-2,9.577465E-3,-2.9238816E-2,4.3498684E-2,8.34496E-3,-1.4066633E-2,4.0462416E-2,-4.458101E-2,1.7535418E-2,3.6433954E-2,8.765678E-2,1.3015668E-1,5.7178963E-2,2.4514485E-2,-3.5172928E-2,-1.0072852E-2,-4.630701E-2],"categories":[],"categories_nodes":[],"categories_segments":[],"categories_sizes":[],"default_left":[0,0,0,0,0,0,0,0,0,0,0,0,0,0,0,0,0,0,0,0,0,0,0,0,0,0,0,0,0,0,0,0,0,0,0,0,0,0,0,0,0,0,0,0,0,0,0,0,0,0,0,0,0,0,0,0,0,0,0,0,0,0,0,0,0,0,0,0,0,0,0,0,0,0,0,0,0,0,0,0,0,0,0,0,0,0,0,0,0,0,0,0,0,0,0,0,0,0,0,0,0,0,0,0,0,0,0,0,0,0,0,0,0,0,0,0,0,0,0,0,0,0,0],"id":0,"left_children":[1,3,5,7,9,11,13,15,17,19,21,23,25,27,29,31,33,35,37,39,41,43,45,47,49,51,53,55,57,59,61,63,65,67,69,71,73,75,77,79,-1,81,83,85,87,89,91,93,-1,95,97,99,101,103,105,107,109,111,113,115,117,119,121,-1,-1,-1,-1,-1,-1,-1,-1,-1,-1,-1,-1,-1,-1,-1,-1,-1,-1,-1,-1,-1,-1,-1,-1,-1,-1,-1,-1,-1,-1,-1,-1,-1,-1,-1,-1,-1,-1,-1,-1,-1,-1,-1,-1,-1,-1,-1,-1,-1,-1,-1,-1,-1,-1,-1,-1,-1,-1,-1,-1],"loss_changes":[2.847696E2,9.399376E1,8.1391754E1,1.8772629E1,1.3271593E2,3.6474777E1,4.5143036E1,7.8312836E0,1.7288387E1,4.963506E1,3.0127914E1,3.915979E1,2.0813238E1,3.2917236E1,1.4275642E1,2.8813057E0,4.845375E0,1.8478981E1,8.1565485E0,2.1774683E1,2.138972E1,1.7903133E1,1.4309212E1,2.4389107E1,1.5749847E1,6.0568786E0,1.26558695E1,2.349198E1,1.3262707E1,8.601128E0,3.907558E0,4.53413E-1,6.2026978E-3,2.9553986E0,1.3757153E0,1.3232811E1,1.1641449E0,4.570923E0,6.3838596E0,5.649103E0,0E0,1.6648243E1,1.3690533E1,5.6465836E0,1.2587786E1,6.3714294E0,2.1455097E0,5.582011E0,0E0,1.3552032E1,1.0566841E1,1.8976021E-1,2.5931413E0,1.6225147E0,1.2181354E0,1.3885411E1,3.3517265E0,9.921853E0,6.7170696E0,6.9134064E0,7.0976906E0,2.648896E0,2.185868E-1,0E0,0E0,0E0,0E0,0E0,0E0,0E0,0E0,0E0,0E0,0E0,0E0,0E0,0E0,0E0,0E0,0E0,0E0,0E0,0E0,0E0,0E0,0E0,0E0,0E0,0E0,0E0,0E0,0E0,0E0,0E0,0E0,0E0,0E0,0E0,0E0,0E0,0E0,0E0,0E0,0E0,0E0,0E0,0E0,0E0,0E0,0E0,0E0,0E0,0E0,0E0,0E0,0E0,0E0,0E0,0E0,0E0,0E0,0E0,0E0],"parents":[2147483647,0,0,1,1,2,2,3,3,4,4,5,5,6,6,7,7,8,8,9,9,10,10,11,11,12,12,13,13,14,14,15,15,16,16,17,17,18,18,19,19,20,20,21,21,22,22,23,23,24,24,25,25,26,26,27,27,28,28,29,29,30,30,31,31,32,32,33,33,34,34,35,35,36,36,37,37,38,38,39,39,41,41,42,42,43,43,44,44,45,45,46,46,47,47,49,49,50,50,51,51,52,52,53,53,54,54,55,55,56,56,57,57,58,58,59,59,60,60,61,61,62,62],"right_children":[2,4,6,8,10,12,14,16,18,20,22,24,26,28,30,32,34,36,38,40,42,44,46,48,50,52,54,56,58,60,62,64,66,68,70,72,74,76,78,80,-1,82,84,86,88,90,92,94,-1,96,98,100,102,104,106,108,110,112,114,116,118,120,122,-1,-1,-1,-1,-1,-1,-1,-1,-1,-1,-1,-1,-1,-1,-1,-1,-1,-1,-1,-1,-1,-1,-1,-1,-1,-1,-1,-1,-1,-1,-1,-1,-1,-1,-1,-1,-1,-1,-1,-1,-1,-1,-1,-1,-1,-1,-1,-1,-1,-1,-1,-1,-1,-1,-1,-1,-1,-1,-1,-1],"split_conditions":[1.5619586E-1,1.2545738E-1,1.1162791E-1,6.934003E-2,1.627907E-1,3.7E-1,3.0039504E-1,1.5029042E-2,2.9564872E-2,6.9767445E-2,2.7E-1,4.6511628E-2,2.6923078E-1,2.3E-1,1.744186E-1,9.3023255E-2,1.8604651E-1,2.9069766E-1,3.6153847E-1,3.3333334E-1,3.846154E-1,2.0733242E-1,3.9496798E-2,3.3333334E-1,7.692308E-2,4.6511628E-2,4.2307693E-1,2.4418604E-1,1.744186E-1,4.8888582E-1,4.1936228E-1,7.4845254E-3,6.487677E-2,5.100277E-2,9.302326E-1,3.2666665E-1,1.3311108E-2,5.3846154E-2,4.1538462E-1,2.7203065E-1,-1.1221842E-1,9.1029644E-2,4E-2,2.2093023E-1,4.3846154E-1,4.9E-1,4.6762967E-1,4.4143373E-1,-1.0730625E-1,8.139535E-2,3.2918194E-1,2.194256E-1,2.7944303E-1,2.757974E-1,2.152663E-1,2.0930232E-1,1.5333334E-1,2.2810906E-1,3.3333334E-3,4.95E-1,1.627907E-1,2.7906978E-1,4.6671528E-1,-1.915689E-2,-9.894719E-2,-3.793333E-2,-1.0529568E-2,-4.4301104E-2,-3.1025354E-2,-2.304897E-2,1.9089924E-2,-3.1905096E-2,-7.471359E-2,-6.4770672E-3,1.2232047E-2,-1.0767805E-2,-3.0045647E-2,3.6837857E-2,-1.0089845E-2,-3.579009E-2,-6.332221E-3,4.8329234E-3,2.155806E-2,1.2195333E-2,5.3560298E-2,-4.4134565E-2,-2.0297138E-2,5.668936E-3,-5.4394107E-2,-6.337228E-2,-2.3966571E-3,-2.8762102E-2,1.355382E-2,1.5401241E-2,5.0560713E-2,6.0686994E-2,2.4255667E-2,7.283691E-2,1.3637437E-1,-3.1492393E-2,-8.7275006E-2,1.0378288E-2,-2.734958E-2,6.6708006E-2,1.1474079E-2,4.0986156E-3,-3.2875936E-2,9.577465E-3,-2.9238816E-2,4.3498684E-2,8.34496E-3,-1.4066633E-2,4.0462416E-2,-4.458101E-2,1.7535418E-2,3.6433954E-2,8.765678E-2,1.3015668E-1,5.7178963E-2,2.4514485E-2,-3.5172928E-2,-1.0072852E-2,-4.630701E-2],"split_indices":[2,3,5,3,5,11,3,3,2,5,14,5,9,11,5,5,5,5,9,13,9,3,2,13,9,5,9,5,5,3,2,2,2,2,5,14,2,9,9,3,0,2,11,5,9,14,3,3,0,5,2,2,2,3,2,5,14,3,14,11,5,5,2,0,0,0,0,0,0,0,0,0,0,0,0,0,0,0,0,0,0,0,0,0,0,0,0,0,0,0,0,0,0,0,0,0,0,0,0,0,0,0,0,0,0,0,0,0,0,0,0,0,0,0,0,0,0,0,0,0,0,0,0],"split_type":[0,0,0,0,0,0,0,0,0,0,0,0,0,0,0,0,0,0,0,0,0,0,0,0,0,0,0,0,0,0,0,0,0,0,0,0,0,0,0,0,0,0,0,0,0,0,0,0,0,0,0,0,0,0,0,0,0,0,0,0,0,0,0,0,0,0,0,0,0,0,0,0,0,0,0,0,0,0,0,0,0,0,0,0,0,0,0,0,0,0,0,0,0,0,0,0,0,0,0,0,0,0,0,0,0,0,0,0,0,0,0,0,0,0,0,0,0,0,0,0,0,0,0],"sum_hessian":[6.769E3,4.741E3,2.028E3,2.021E3,2.72E3,7.97E2,1.231E3,8.45E2,1.176E3,1.885E3,8.35E2,6.78E2,1.19E2,1.019E3,2.12E2,2.5E1,8.2E2,3.42E2,8.34E2,1.73E2,1.712E3,5.12E2,3.23E2,1.58E2,5.2E2,6E1,5.9E1,7.91E2,2.28E2,1.51E2,6.1E1,1.5E1,1E1,5.19E2,3.01E2,2.62E2,8E1,7.66E2,6.8E1,1.57E2,1.6E1,1.508E3,2.04E2,2.65E2,2.47E2,1.79E2,1.44E2,1.5E2,8E0,4.31E2,8.9E1,1E1,5E1,3.9E1,2E1,6.35E2,1.56E2,1.1E2,1.18E2,1.14E2,3.7E1,5.4E1,7E0,1E0,1.4E1,9E0,1E0,1.5E2,3.69E2,2.97E2,4E0,2.07E2,5.5E1,4.7E1,3.3E1,6.84E2,8.2E1,3.6E1,3.2E1,7.1E1,8.6E1,9.32E2,5.76E2,7.8E1,1.26E2,9.3E1,1.72E2,2.25E2,2.2E1,1.68E2,1.1E1,1.37E2,7E0,1.15E2,3.5E1,3.55E2,7.6E1,6.6E1,2.3E1,2E0,8E0,1.5E1,3.5E1,3.5E1,4E0,1.1E1,9E0,5.75E2,6E1,1.37E2,1.9E1,8.5E1,2.5E1,1.07E2,1.1E1,9.5E1,1.9E1,1.5E1,2.2E1,5E1,4E0,2E0,5E0],"tree_param":{"num_deleted":"0","num_feature":"15","num_nodes":"123","size_leaf_vector":"1"}},{"base_weights":[1.521825E-3,4.5788443E-1,-2.6446787E-1,-1.2378033E-1,5.832351E-1,-1.8533154E-1,-6.277354E-1,-2.1980482E-1,5.049181E-1,1.0157489E0,4.3080223E-1,-7.6509E-2,-3.0015504E-1,-5.195446E-1,-9.2271316E-1,-1.0263408E-1,-5.155524E-1,-3.9911196E-1,6.5455246E-1,1.3285843E0,7.710256E-1,6.183102E-1,1.058453E-1,2.0377372E-1,-2.840821E-1,-1.5321082E-1,-4.4521248E-1,-4.4910008E-1,-8.328328E-1,-2.4295513E-1,-9.9121284E-1,2.9808277E-1,-1.8372092E-1,-5.41513E-1,2.330446E-2,-6.7778647E-1,1.18677795E-1,7.1038556E-1,1.1740645E-1,1.7215257E0,1.1695915E0,8.167201E-1,-3.9606206E-2,8.4130704E-1,4.2591733E-1,3.2359606E-1,-1.4056718E-1,5.7134558E-2,4.1268152E-1,-1.2447091E-1,-3.658003E-1,-3.257811E-2,-2.5000578E-1,-3.2453552E-1,-5.559844E-1,-3.5712537E-1,-5.7163155E-1,-7.6144606E-1,-8.8562E-2,-5.523647E-1,6.1549686E-2,2.39771E-2,-1.0071275E0,7.5043337E-3,4.195357E-2,3.3163324E-2,-1.8128822E-2,-2.9679915E-2,-5.040245E-2,-5.8559593E-2,-1.0878035E-2,-4.035682E-3,1.4929831E-2,3.736245E-2,7.796951E-2,6.1389048E-2,-6.368967E-2,1.3620117E-1,2.4847826E-2,1.0797655E-1,8.176064E-2,8.111384E-2,3.8552713E-2,7.678059E-2,5.124273E-2,5.825069E-2,1.7280443E-2,-1.8682964E-2,2.8264895E-2,-4.2206142E-2,-5.5324375E-3,1.3823432E-2,-9.154587E-3,3.7711967E-2,9.7294775E-4,-4.081881E-2,-6.6042324E-3,-2.6415374E-2,-4.370796E-2,-7.110512E-2,-8.5376884E-4,-1.0886437E-2,-3.1934228E-2,-1.2383772E-2,-3.6153376E-2,-3.8897365E-2,-5.5536095E-2,-2.4250362E-2,-3.7679408E-2,-3.9654236E-2,-6.274094E-2,-6.076681E-2,-2.9109001E-2,6.5241335E-3,-5.0226033E-2,-8.322092E-2,-4.798723E-2],"categories":[],"categories_nodes":[],"categories_segments":[],"categories_sizes":[],"default_left":[0,0,0,0,0,0,0,0,0,0,0,0,0,0,0,0,0,0,0,0,0,0,0,0,0,0,0,0,0,0,0,0,0,0,0,0,0,0,0,0,0,0,0,0,0,0,0,0,0,0,0,0,0,0,0,0,0,0,0,0,0,0,0,0,0,0,0,0,0,0,0,0,0,0,0,0,0,0,0,0,0,0,0,0,0,0,0,0,0,0,0,0,0,0,0,0,0,0,0,0,0,0,0,0,0,0,0,0,0,0,0,0,0,0,0,0,0],"id":1,"left_children":[1,3,5,7,9,11,13,15,17,19,21,23,25,27,29,31,33,35,37,39,41,43,45,47,49,51,53,55,57,59,61,63,65,67,-1,69,71,73,75,77,79,81,-1,83,85,87,89,91,93,95,97,99,101,103,105,107,109,111,-1,113,-1,-1,115,-1,-1,-1,-1,-1,-1,-1,-1,-1,-1,-1,-1,-1,-1,-1,-1,-1,-1,-1,-1,-1,-1,-1,-1,-1,-1,-1,-1,-1,-1,-1,-1,-1,-1,-1,-1,-1,-1,-1,-1,-1,-1,-1,-1,-1,-1,-1,-1,-1,-1,-1,-1,-1,-1],"loss_changes":[8.2215894E2,1.8191498E2,1.2289487E2,2.6855087E1,1.3484943E2,4.3898315E1,2.3934723E1,1.3288479E1,8.242404E0,3.9857605E1,9.2490295E1,1.0512945E2,3.6381042E1,1.2029007E1,9.258072E0,9.055286E0,2.4745865E0,1.3790916E0,1.4461136E0,1.2543152E1,1.8124313E1,4.0957245E1,2.9932158E1,2.3534023E1,1.3493256E1,9.928675E0,1.131572E1,4.991234E0,1.4010162E0,6.8672266E0,4.1432343E0,2.2561412E0,7.2676516E0,1.5918007E0,0E0,1.4910936E-1,6.0877793E-2,2.625805E0,4.4709697E0,3.0162811E0,2.830368E0,2.1036041E1,0E0,1.1385834E1,3.421849E1,7.085182E0,7.28864E0,9.686544E0,9.490898E0,5.519084E0,3.1273956E0,7.247768E0,8.340544E0,9.651291E0,3.4844055E0,1.355259E0,2.3520737E0,5.051346E-1,0E0,1.0427818E0,0E0,0E0,4.2012177E0,0E0,0E0,0E0,0E0,0E0,0E0,0E0,0E0,0E0,0E0,0E0,0E0,0E0,0E0,0E0,0E0,0E0,0E0,0E0,0E0,0E0,0E0,0E0,0E0,0E0,0E0,0E0,0E0,0E0,0E0,0E0,0E0,0E0,0E0,0E0,0E0,0E0,0E0,0E0,0E0,0E0,0E0,0E0,0E0,0E0,0E0,0E0,0E0,0E0,0E0,0E0,0E0,0E0,0E0],"parents":[2147483647,0,0,1,1,2,2,3,3,4,4,5,5,6,6,7,7,8,8,9,9,10,10,11,11,12,12,13,13,14,14,15,15,16,16,17,17,18,18,19,19,20,20,21,21,22,22,23,23,24,24,25,25,26,26,27,27,28,28,29,29,30,30,31,31,32,32,33,33,35,35,36,36,37,37,38,38,39,39,40,40,41,41,43,43,44,44,45,45,46,46,47,47,48,48,49,49,50,50,51,51,52,52,53,53,54,54,55,55,56,56,57,57,59,59,62,62],"right_children":[2,4,6,8,10,12,14,16,18,20,22,24,26,28,30,32,34,36,38,40,42,44,46,48,50,52,54,56,58,60,62,64,66,68,-1,70,72,74,76,78,80,82,-1,84,86,88,90,92,94,96,98,100,102,104,106,108,110,112,-1,114,-1,-1,116,-1,-1,-1,-1,-1,-1,-1,-1,-1,-1,-1,-1,-1,-1,-1,-1,-1,-1,-1,-1,-1,-1,-1,-1,-1,-1,-1,-1,-1,-1,-1,-1,-1,-1,-1,-1,-1,-1,-1,-1,-1,-1,-1,-1,-1,-1,-1,-1,-1,-1,-1,-1,-1,-1],"split_conditions":[5.857162E-1,1.7200189E-2,8.797431E-1,4E-1,4.2873365E-1,7.0875543E-1,9.4251144E-1,3.8297874E-1,1.1871762E-1,2.7236408E-1,1.9936273E-1,1.04509234E-1,5.7209093E-2,2.8399248E-2,1.7021276E-1,9.789692E-2,5.684429E-1,4.691168E-3,3.375E-1,3.5971197E-1,5.673759E-1,5.266356E-1,5.06033E-1,1.9441028E-1,6.1881375E-1,8.0645794E-1,7.5123525E-1,9.1330343E-1,5.4542266E-2,9.845863E-1,3.1266822E-3,1.0944533E-2,4.691168E-3,4.6732587E-1,2.330446E-2,2.3457779E-1,4.788042E-1,1.5625E-1,2.2624739E-1,1E0,1.703955E-1,3.724806E-1,-3.9606206E-2,1.5688273E-1,1.1092877E-1,1.8439716E-1,1.9148937E-1,8.249289E-2,6.916388E-1,1.5635703E-2,1.7493936E-1,7.093331E-1,3.057212E-2,8.529771E-2,8.835631E-2,1.9899689E-2,1.7108035E-1,3.75E-1,-8.8562E-2,3.1266822E-3,6.1549686E-2,2.39771E-2,1.0789688E-1,7.5043337E-3,4.195357E-2,3.3163324E-2,-1.8128822E-2,-2.9679915E-2,-5.040245E-2,-5.8559593E-2,-1.0878035E-2,-4.035682E-3,1.4929831E-2,3.736245E-2,7.796951E-2,6.1389048E-2,-6.368967E-2,1.3620117E-1,2.4847826E-2,1.0797655E-1,8.176064E-2,8.111384E-2,3.8552713E-2,7.678059E-2,5.124273E-2,5.825069E-2,1.7280443E-2,-1.8682964E-2,2.8264895E-2,-4.2206142E-2,-5.5324375E-3,1.3823432E-2,-9.154587E-3,3.7711967E-2,9.7294775E-4,-4.081881E-2,-6.6042324E-3,-2.6415374E-2,-4.370796E-2,-7.110512E-2,-8.5376884E-4,-1.0886437E-2,-3.1934228E-2,-1.2383772E-2,-3.6153376E-2,-3.8897365E-2,-5.5536095E-2,-2.4250362E-2,-3.7679408E-2,-3.9654236E-2,-6.274094E-2,-6.076681E-2,-2.9109001E-2,6.5241335E-3,-5.0226033E-2,-8.322092E-2,-4.798723E-2],"split_indices":[1,0,1,10,1,1,1,6,3,2,2,2,2,2,6,2,1,0,12,1,6,1,1,3,1,1,1,1,2,1,0,0,0,1,0,2,1,12,2,10,2,1,0,2,2,6,6,2,1,0,2,1,2,2,2,2,3,12,0,0,0,0,0,0,0,0,0,0,0,0,0,0,0,0,0,0,0,0,0,0,0,0,0,0,0,0,0,0,0,0,0,0,0,0,0,0,0,0,0,0,0,0,0,0,0,0,0,0,0,0,0,0,0,0,0,0,0],"split_type":[0,0,0,0,0,0,0,0,0,0,0,0,0,0,0,0,0,0,0,0,0,0,0,0,0,0,0,0,0,0,0,0,0,0,0,0,0,0,0,0,0,0,0,0,0,0,0,0,0,0,0,0,0,0,0,0,0,0,0,0,0,0,0,0,0,0,0,0,0,0,0,0,0,0,0,0,0,0,0,0,0,0,0,0,0,0,0,0,0,0,0,0,0,0,0,0,0,0,0,0,0,0,0,0,0,0,0,0,0,0,0,0,0,0,0,0,0],"sum_hessian":[6.771E3,2.493E3,4.278E3,4.42E2,2.051E3,3.514E3,7.64E2,3.84E2,5.8E1,5.33E2,1.518E3,1.805E3,1.709E3,5.61E2,2.03E2,2.76E2,1.08E2,8E0,5E1,2.32E2,3.01E2,9.62E2,5.56E2,7.68E2,1.037E3,8.5E2,8.59E2,4.6E2,1.01E2,1.9E1,1.84E2,4.6E1,2.3E2,1.05E2,3E0,5E0,3E0,4.5E1,5E0,6.4E1,1.68E2,2.91E2,1E1,4.44E2,5.18E2,2.95E2,2.61E2,4.52E2,3.16E2,3.52E2,6.85E2,3.79E2,4.71E2,4.13E2,4.46E2,2.65E2,1.95E2,8.5E1,1.6E1,1.5E1,4E0,2E0,1.82E2,2.6E1,2E1,1.7E1,2.13E2,4.5E1,6E1,4E0,1E0,1E0,2E0,2.7E1,1.8E1,3E0,2E0,6.2E1,2E0,5.2E1,1.16E2,1.67E2,1.24E2,2.38E2,2.06E2,1.97E2,3.21E2,2E1,2.75E2,3.7E1,2.24E2,2.67E2,1.85E2,2.66E2,5E1,3E1,3.22E2,6.13E2,7.2E1,8E0,3.71E2,2.83E2,1.88E2,1.93E2,2.2E2,3.39E2,1.07E2,2.01E2,6.4E1,1.59E2,3.6E1,7.9E1,6E0,2E0,1.3E1,1.53E2,2.9E1],"tree_param":{"num_deleted":"0","num_feature":"15","num_nodes":"117","size_leaf_vector":"1"}},{"base_weights":[-4.2167874E-3,1.8749994E-1,-9.225034E-2,-2.1107374E-1,3.1841022E-1,-1.10199556E-1,9.541291E-1,-1.4676575E-1,-1.0805137E0,-2.722047E-1,3.5762453E-1,-2.4280006E-1,-2.838216E-2,6.2337898E-2,1.236059E0,-3.7495557E-2,-1.4215423E-2,-1.2245247E0,7.05249E-2,-2.8962123E-1,2.9970199E-2,5.815929E-1,2.549785E-1,-2.7868024E-1,2.4618563E-1,6.425972E-2,-2.1693677E-1,1.0466187E-1,2.1904306E-2,7.3642366E-2,-7.234715E-1,-6.159924E-2,-1.0594658E-1,-2.4065156E-1,-3.1924427E-1,4.6795553E-1,1.0497316E0,2.1593407E-1,6.039029E-1,-3.2242095E-1,-1.6848679E-1,7.531071E-1,-9.2698174E-4,3.3784743E-2,4.4681752E-1,-9.5424436E-2,-5.415554E-1,1.2878861E-2,-1.1854223E-2,-2.9929133E-2,-6.6419825E-2,-2.2817686E-2,-1.3523939E-2,-2.6111724E-2,-1.625749E-2,2.518147E-2,5.7182897E-2,9.870427E-2,3.8274035E-2,-4.033426E-2,1.8068701E-2,5.2404214E-2,3.2645501E-3,-2.3422068E-2,-3.7588667E-2,-1.0013102E-2,-2.425826E-2,7.299298E-2,-1.9565174E-2,-4.124601E-2,1.1509694E-2,-1.357993E-3,2.0125048E-2,1.4780742E-3,4.791235E-2,2.1168126E-3,-3.3314615E-2,-1.509789E-2,-5.6678854E-2],"categories":[],"categories_nodes":[],"categories_segments":[],"categories_sizes":[],"default_left":[0,0,0,0,0,0,0,0,0,0,0,0,0,0,0,0,0,0,0,0,0,0,0,0,0,0,0,0,0,0,0,0,0,0,0,0,0,0,0,0,0,0,0,0,0,0,0,0,0,0,0,0,0,0,0,0,0,0,0,0,0,0,0,0,0,0,0,0,0,0,0,0,0,0,0,0,0,0,0],"id":2,"left_children":[1,3,5,7,9,11,13,15,17,19,21,23,25,-1,27,-1,29,31,-1,33,-1,35,37,39,41,43,45,-1,-1,47,49,-1,-1,51,53,55,57,59,61,63,65,67,69,71,73,75,77,-1,-1,-1,-1,-1,-1,-1,-1,-1,-1,-1,-1,-1,-1,-1,-1,-1,-1,-1,-1,-1,-1,-1,-1,-1,-1,-1,-1,-1,-1,-1,-1],"loss_changes":[1.137548E2,1.1073544E2,8.685778E1,2.9195183E1,3.7084778E1,4.9269386E1,2.262642E0,2.1945866E1,1.1445358E1,1.2611456E0,3.4289932E1,3.0473923E1,4.909917E1,0E0,2.4054794E0,0E0,2.2050005E1,1.0229149E0,0E0,6.5335274E-2,0E0,2.4511871E1,1.3888237E1,7.7298813E0,1.4907431E1,2.1961067E1,3.6474552E1,0E0,0E0,6.66271E0,1.4427052E0,0E0,0E0,9.50551E-2,4.506445E-2,1.4441399E1,1.0799347E1,1.219875E1,4.2298775E0,3.5567322E0,2.5709658E0,7.716507E0,6.535445E0,2.0311445E1,1.0250574E1,2.7801628E1,1.6547127E1,0E0,0E0,0E0,0E0,0E0,0E0,0E0,0E0,0E0,0E0,0E0,0E0,0E0,0E0,0E0,0E0,0E0,0E0,0E0,0E0,0E0,0E0,0E0,0E0,0E0,0E0,0E0,0E0,0E0,0E0,0E0,0E0],"parents":[2147483647,0,0,1,1,2,2,3,3,4,4,5,5,6,6,7,7,8,8,9,9,10,10,11,11,12,12,14,14,16,16,17,17,19,19,21,21,22,22,23,23,24,24,25,25,26,26,29,29,30,30,33,33,34,34,35,35,36,36,37,37,38,38,39,39,40,40,41,41,42,42,43,43,44,44,45,45,46,46],"right_children":[2,4,6,8,10,12,14,16,18,20,22,24,26,-1,28,-1,30,32,-1,34,-1,36,38,40,42,44,46,-1,-1,48,50,-1,-1,52,54,56,58,60,62,64,66,68,70,72,74,76,78,-1,-1,-1,-1,-1,-1,-1,-1,-1,-1,-1,-1,-1,-1,-1,-1,-1,-1,-1,-1,-1,-1,-1,-1,-1,-1,-1,-1,-1,-1,-1,-1],"split_conditions":[1.1162791E-1,6.9767445E-2,8E-2,1.5625E-1,1.9148937E-1,2.6950353E-1,2.5E-2,1.1627907E-2,3.076923E-2,3.6E-1,2.4113475E-1,2.6923078E-1,3.8297874E-1,6.2337898E-2,1.744186E-1,-3.7495557E-2,4.6511628E-2,2.1875E-1,7.05249E-2,1.4184397E-1,2.9970199E-2,2.625E-1,3.8297874E-1,2.2093023E-1,3.6153847E-1,3.846154E-1,2.9333332E-1,1.0466187E-1,2.1904306E-2,5.3333335E-2,5.8139537E-2,-6.159924E-2,-1.0594658E-1,9.929078E-2,8E-2,2.0769231E-1,1.9666667E-1,2.5531915E-1,7E-2,7.692308E-2,2.2695035E-1,1.744186E-1,1.9767442E-1,3.125E-1,2E-2,2.4E-1,1.25E-1,1.2878861E-2,-1.1854223E-2,-2.9929133E-2,-6.6419825E-2,-2.2817686E-2,-1.3523939E-2,-2.6111724E-2,-1.625749E-2,2.518147E-2,5.7182897E-2,9.870427E-2,3.8274035E-2,-4.033426E-2,1.8068701E-2,5.2404214E-2,3.2645501E-3,-2.3422068E-2,-3.7588667E-2,-1.0013102E-2,-2.425826E-2,7.299298E-2,-1.9565174E-2,-4.124601E-2,1.1509694E-2,-1.357993E-3,2.0125048E-2,1.4780742E-3,4.791235E-2,2.1168126E-3,-3.3314615E-2,-1.509789E-2,-5.6678854E-2],"split_indices":[5,5,7,12,6,6,12,5,9,7,6,9,6,0,5,0,5,12,0,6,0,12,6,5,9,9,14,0,0,14,5,0,0,6,7,9,14,6,11,9,6,5,5,12,11,11,12,0,0,0,0,0,0,0,0,0,0,0,0,0,0,0,0,0,0,0,0,0,0,0,0,0,0,0,0,0,0,0,0],"split_type":[0,0,0,0,0,0,0,0,0,0,0,0,0,0,0,0,0,0,0,0,0,0,0,0,0,0,0,0,0,0,0,0,0,0,0,0,0,0,0,0,0,0,0,0,0,0,0,0,0,0,0,0,0,0,0,0,0,0,0,0,0,0,0,0,0,0,0,0,0,0,0,0,0,0,0,0,0,0,0],"sum_hessian":[6.738E3,2.12E3,4.618E3,5.24E2,1.596E3,4.541E3,7.7E1,4.89E2,3.5E1,9.9E1,1.497E3,1.732E3,2.809E3,5.3E1,2.4E1,1.37E2,3.52E2,3.3E1,2E0,9.7E1,2E0,4.69E2,1.028E3,1.614E3,1.18E2,1.884E3,9.25E2,2.1E1,3E0,3.14E2,3.8E1,1E1,2.3E1,4E1,5.7E1,3.79E2,9E1,9.26E2,1.02E2,1.154E3,4.6E2,3.8E1,8E1,1.746E3,1.38E2,6.74E2,2.51E2,2.23E2,9.1E1,1.2E1,2.6E1,2E1,2E1,4.7E1,1E1,2.5E2,1.29E2,6.3E1,2.7E1,2.1E1,9.05E2,9E1,1.2E1,1.033E3,1.21E2,3.64E2,9.6E1,3.2E1,6E0,1.7E1,6.3E1,1.424E3,3.22E2,4E1,9.8E1,4.94E2,1.8E2,9E1,1.61E2],"tree_param":{"num_deleted":"0","num_feature":"15","num_nodes":"79","size_leaf_vector":"1"}},{"base_weights":[-5.904007E-4,1.0550223E-1,-2.7388653E-1,-3.695341E-1,1.3471036E-1,-2.2953492E-1,-4.4083732E-1,-5.962267E-1,-3.0336678E-1,1.6820109E-1,-3.3184877E-1,-1.8828076E-1,-4.5028672E-1,-8.979919E-2,-3.6677656E-1,-7.55793E-2,-4.6477342E-1,-4.072024E-1,-1.1916032E-1,1.139923E-1,3.3677495E-1,9.6523635E-2,-5.3610617E-1,-2.6508746E-1,-6.289159E-2,-6.386898E-1,-2.8671992E-1,-2.6707742E-1,-4.886234E-1,-4.1480847E-3,-4.8148343E-1,-4.3576396E-1,-2.595312E-1,1.564483E-2,-4.3435752E-1,9.0674326E-2,5.6885904E-1,4.7639757E-1,6.098525E-2,2.3857336E-1,-2.545817E-1,-5.7263535E-1,2.3713031E-1,-1.6374367E-1,-3.7617573E-1,6.67715E-2,-3.2346103E-1,-4.764063E-1,-9.881618E-1,-1.0060813E-1,-3.629618E-1,-2.853541E-1,7.858781E-2,-6.2465858E-2,-5.137764E-1,-2.8802568E-2,-4.591729E-2,-3.5320837E-2,-3.7393963E-3,-3.0425781E-2,1.7089418E-3,5.2474212E-2,-1.6081241E-3,-6.1045173E-3,-3.4526747E-2,-4.243178E-3,1.202739E-2,1.5577294E-2,5.976143E-2,1.8842729E-2,6.285401E-2,-2.0023105E-3,4.8729014E-2,-2.527762E-2,2.2149196E-2,2.2618284E-3,-2.2311542E-2,-1.758635E-2,-4.9953677E-2,-1.0949668E-2,3.9694127E-2,-1.6082525E-2,-3.5515057E-3,-3.1634156E-2,-4.901691E-4,-3.9729048E-3,1.4212848E-2,-3.543426E-2,-1.3882761E-2,-4.0691793E-2,6.291471E-3,-9.4724044E-2,-5.5927455E-2,-2.2766277E-2,1.9076215E-3,-1.4985329E-2,-3.3238515E-2,-2.5842028E-2,-1.1411239E-2,-1.2979982E-2,5.1480165E-4,-5.2004427E-2,-3.4158163E-2],"categories":[],"categories_nodes":[],"categories_segments":[],"categories_sizes":[],"default_left":[0,0,0,0,0,0,0,0,0,0,0,0,0,0,0,0,0,0,0,0,0,0,0,0,0,0,0,0,0,0,0,0,0,0,0,0,0,0,0,0,0,0,0,0,0,0,0,0,0,0,0,0,0,0,0,0,0,0,0,0,0,0,0,0,0,0,0,0,0,0,0,0,0,0,0,0,0,0,0,0,0,0,0,0,0,0,0,0,0,0,0,0,0,0,0,0,0,0,0,0,0,0,0],"id":3,"left_children":[1,3,5,7,9,11,13,15,17,19,21,23,25,-1,27,-1,29,31,33,35,37,39,41,43,45,47,49,51,53,-1,55,57,59,61,63,65,67,69,71,73,75,77,79,81,83,85,87,89,91,93,95,97,-1,99,101,-1,-1,-1,-1,-1,-1,-1,-1,-1,-1,-1,-1,-1,-1,-1,-1,-1,-1,-1,-1,-1,-1,-1,-1,-1,-1,-1,-1,-1,-1,-1,-1,-1,-1,-1,-1,-1,-1,-1,-1,-1,-1,-1,-1,-1,-1,-1,-1],"loss_changes":[1.9368452E2,6.6815895E1,1.3730499E1,4.0040245E0,7.09014E1,1.3375259E1,2.0427635E1,2.6502476E0,4.1212044E0,3.8625267E1,2.6651207E1,1.199284E1,6.966297E0,0E0,4.194195E0,0E0,3.039503E-1,4.7316742E-1,3.406012E0,3.3921276E1,3.9594116E1,4.9983034E0,5.9544106E0,8.640923E0,1.6070063E1,5.59758E0,1.7513609E0,4.9331913E0,1.6722488E0,0E0,3.418703E-1,9.082966E-1,9.509331E-1,1.3905594E0,6.732607E-2,2.8762465E1,1.1525387E1,5.325798E1,1.7168877E1,2.011673E0,2.872448E-1,4.831543E0,1.1180542E0,2.1039238E0,4.4624825E0,4.404014E0,2.9808884E0,2.1208858E0,1.1833267E0,9.294524E-1,9.2225933E-1,1.2674828E0,0E0,7.3933706E-2,1.4194221E0,0E0,0E0,0E0,0E0,0E0,0E0,0E0,0E0,0E0,0E0,0E0,0E0,0E0,0E0,0E0,0E0,0E0,0E0,0E0,0E0,0E0,0E0,0E0,0E0,0E0,0E0,0E0,0E0,0E0,0E0,0E0,0E0,0E0,0E0,0E0,0E0,0E0,0E0,0E0,0E0,0E0,0E0,0E0,0E0,0E0,0E0,0E0,0E0],"parents":[2147483647,0,0,1,1,2,2,3,3,4,4,5,5,6,6,7,7,8,8,9,9,10,10,11,11,12,12,14,14,16,16,17,17,18,18,19,19,20,20,21,21,22,22,23,23,24,24,25,25,26,26,27,27,28,28,30,30,31,31,32,32,33,33,34,34,35,35,36,36,37,37,38,38,39,39,40,40,41,41,42,42,43,43,44,44,45,45,46,46,47,47,48,48,49,49,50,50,51,51,53,53,54,54],"right_children":[2,4,6,8,10,12,14,16,18,20,22,24,26,-1,28,-1,30,32,34,36,38,40,42,44,46,48,50,52,54,-1,56,58,60,62,64,66,68,70,72,74,76,78,80,82,84,86,88,90,92,94,96,98,-1,100,102,-1,-1,-1,-1,-1,-1,-1,-1,-1,-1,-1,-1,-1,-1,-1,-1,-1,-1,-1,-1,-1,-1,-1,-1,-1,-1,-1,-1,-1,-1,-1,-1,-1,-1,-1,-1,-1,-1,-1,-1,-1,-1,-1,-1,-1,-1,-1,-1],"split_conditions":[3.2185328E-1,6.934003E-2,7.5E-2,3.5766758E-2,5.9574467E-1,3.3E-1,1.5625E-1,5.7491012E-2,2.9787233E-1,1.4030978E-1,1.2790698E-1,9.654428E-2,3.536513E-1,-8.979919E-2,1.306418E-1,-7.55793E-2,6.068388E-2,1.9767442E-1,1E-2,4.6762967E-1,1.627907E-1,6.25E-2,2.9069766E-1,2.2695035E-1,7.183835E-1,1.9767442E-1,4.499721E-1,1.2968574E-1,3.536513E-1,-4.1480847E-3,2.3842571E-2,3.6E-1,1.4030978E-1,3.1205675E-1,6.9957E-2,2.6950353E-1,1.2E-1,1.9089621E-1,1.45E-1,1.8180522E-1,8.435036E-2,6.524823E-1,1.6137028E-1,2.5581396E-1,3.9716312E-1,3.1205675E-1,1.9148937E-1,1.5172775E-1,2.3255815E-1,7.4649975E-2,1.2879485E-1,3.125E-1,7.858781E-2,1.5172775E-1,4.092052E-1,-2.8802568E-2,-4.591729E-2,-3.5320837E-2,-3.7393963E-3,-3.0425781E-2,1.7089418E-3,5.2474212E-2,-1.6081241E-3,-6.1045173E-3,-3.4526747E-2,-4.243178E-3,1.202739E-2,1.5577294E-2,5.976143E-2,1.8842729E-2,6.285401E-2,-2.0023105E-3,4.8729014E-2,-2.527762E-2,2.2149196E-2,2.2618284E-3,-2.2311542E-2,-1.758635E-2,-4.9953677E-2,-1.0949668E-2,3.9694127E-2,-1.6082525E-2,-3.5515057E-3,-3.1634156E-2,-4.901691E-4,-3.9729048E-3,1.4212848E-2,-3.543426E-2,-1.3882761E-2,-4.0691793E-2,6.291471E-3,-9.4724044E-2,-5.5927455E-2,-2.2766277E-2,1.9076215E-3,-1.4985329E-2,-3.3238515E-2,-2.5842028E-2,-1.1411239E-2,-1.2979982E-2,5.1480165E-4,-5.2004427E-2,-3.4158163E-2],"split_indices":[8,3,12,3,6,11,12,8,6,8,5,3,8,0,3,0,8,5,11,3,5,12,5,6,8,5,8,3,8,0,3,11,8,6,8,6,7,3,11,3,8,6,3,5,6,6,6,3,5,3,3,12,0,3,8,0,0,0,0,0,0,0,0,0,0,0,0,0,0,0,0,0,0,0,0,0,0,0,0,0,0,0,0,0,0,0,0,0,0,0,0,0,0,0,0,0,0,0,0,0,0,0,0],"split_type":[0,0,0,0,0,0,0,0,0,0,0,0,0,0,0,0,0,0,0,0,0,0,0,0,0,0,0,0,0,0,0,0,0,0,0,0,0,0,0,0,0,0,0,0,0,0,0,0,0,0,0,0,0,0,0,0,0,0,0,0,0,0,0,0,0,0,0,0,0,0,0,0,0,0,0,0,0,0,0,0,0,0,0,0,0,0,0,0,0,0,0,0,0,0,0,0,0,0,0,0,0,0,0],"sum_hessian":[6.678E3,4.811E3,1.867E3,2.78E2,4.533E3,1.477E3,3.9E2,6.1E1,2.17E2,4.23E3,3.03E2,1.246E3,2.31E2,3.5E1,3.55E2,1.4E1,4.7E1,1.38E2,7.9E1,3.202E3,1.028E3,9.8E1,2.05E2,7.72E2,4.74E2,1.06E2,1.25E2,1.97E2,1.58E2,2E0,4.5E1,1.14E2,2.4E1,5.6E1,2.3E1,3.047E3,1.55E2,6.82E2,3.46E2,7E1,2.8E1,1.96E2,9E0,4.05E2,3.67E2,3.17E2,1.57E2,7.4E1,3.2E1,3.7E1,8.8E1,1.95E2,2E0,9E0,1.49E2,2.5E1,2E1,1.08E2,6E0,1.6E1,8E0,2E0,5.4E1,1E0,2.2E1,9.39E2,2.108E3,5.6E1,9.9E1,4.04E2,2.78E2,3.01E2,4.5E1,5E0,6.5E1,3E0,2.5E1,3.5E1,1.61E2,4E0,5E0,2.94E2,1.11E2,3.37E2,3E1,1.58E2,1.59E2,8E1,7.7E1,6.8E1,6E0,1.5E1,1.7E1,1.4E1,2.3E1,2.6E1,6.2E1,1.43E2,5.2E1,3E0,6E0,4.4E1,1.05E2],"tree_param":{"num_deleted":"0","num_feature":"15","num_nodes":"103","size_leaf_vector":"1"}},{"base_weights":[4.4032433E-3,9.864232E-2,-2.4160577E-1,-3.2793045E-1,1.2617171E-1,-2.1138127E-1,-4.3403187E-1,-8.0276805E-1,-2.940542E-1,7.67696E-2,3.296398E-1,-2.5501302E-1,-1.11193806E-1,-5.2684855E-1,-1.6032797E-1,-7.3423415E-2,-2.5305882E-2,-3.740821E-1,-2.4998386E-1,4.19214E-2,4.2523032E-1,7.3564243E-1,1.817803E-1,-3.3012685E-1,-1.7045373E-1,-2.9043728E-1,-6.436917E-2,-4.8007828E-1,-8.9337647E-1,6.8514823E-4,-2.5459626E-1,-4.9336404E-1,-3.459019E-1,-9.9716425E-2,-3.097838E-1,1.2493109E-1,-2.5948524E-2,5.5919725E-1,1.7312732E-1,1.0386511E0,2.63633E-1,2.9062954E-1,-1.1953823E-1,-3.847914E-1,-1.9472435E-1,1.5731376E-2,-2.717583E-1,-6.0443114E-2,-3.122797E-1,-2.5963124E-2,-2.248163E-1,-4.9947697E-1,-2.966997E-2,-8.53828E-2,-2.6666416E-2,4.646046E-2,-2.710962E-2,-2.762223E-1,1.4500082E-2,-4.8311997E-2,-2.4897598E-2,2.1989685E-2,-2.8267337E-2,6.9826194E-3,-2.5760932E-2,1.7991733E-3,-2.5454074E-2,-1.4853322E-2,1.54309785E-2,-4.921577E-3,1.6393628E-2,1.7524524E-2,6.1005406E-2,-1.7151736E-3,4.7427908E-2,6.2266544E-2,1.0390616E-1,-1.3607636E-2,5.771534E-2,2.2050086E-3,3.6953777E-2,-1.5415221E-2,1.4013016E-2,-2.3961794E-2,-3.4360662E-2,-8.303494E-3,-3.3392455E-2,8.282085E-3,-5.502701E-2,-1.3854439E-2,-3.7061933E-2,-9.217471E-3,1.7106137E-3,-2.5880674E-2,-1.2687469E-2,5.324693E-3,-9.055355E-3,-8.066838E-4,-2.5176877E-2,-4.5708798E-2,-2.7196366E-2,1.289877E-2,-9.509283E-3,-2.7541236E-3,1.07688485E-2,-1.9077733E-2,-3.2647997E-2,1.6816802E-2,-9.715792E-3],"categories":[],"categories_nodes":[],"categories_segments":[],"categories_sizes":[],"default_left":[0,0,0,0,0,0,0,0,0,0,0,0,0,0,0,0,0,0,0,0,0,0,0,0,0,0,0,0,0,0,0,0,0,0,0,0,0,0,0,0,0,0,0,0,0,0,0,0,0,0,0,0,0,0,0,0,0,0,0,0,0,0,0,0,0,0,0,0,0,0,0,0,0,0,0,0,0,0,0,0,0,0,0,0,0,0,0,0,0,0,0,0,0,0,0,0,0,0,0,0,0,0,0,0,0,0,0,0,0],"id":4,"left_children":[1,3,5,7,9,11,13,15,17,19,21,23,25,27,29,-1,-1,31,33,35,37,39,41,43,45,47,49,51,53,55,57,59,61,63,65,67,69,71,73,75,77,79,81,83,85,87,89,91,93,95,97,99,101,-1,-1,103,-1,105,107,-1,-1,-1,-1,-1,-1,-1,-1,-1,-1,-1,-1,-1,-1,-1,-1,-1,-1,-1,-1,-1,-1,-1,-1,-1,-1,-1,-1,-1,-1,-1,-1,-1,-1,-1,-1,-1,-1,-1,-1,-1,-1,-1,-1,-1,-1,-1,-1,-1,-1],"loss_changes":[1.5535437E2,5.6937595E1,1.0702721E1,4.493145E0,4.573027E1,6.9920425E0,6.2920113E0,1.0131617E0,8.798981E-1,4.4474968E1,5.3234146E1,7.044777E0,4.085487E0,2.7767792E0,9.867724E-1,0E0,0E0,1.5203667E-1,1.5955725E0,1.8775269E1,1.114975E1,3.362262E1,2.1452036E1,4.2994843E0,9.963095E0,4.8851204E-1,2.3912354E0,1.4530525E0,1.9290848E0,4.1815954E-1,2.4260402E-1,1.5901327E-1,1.1019974E0,2.3796368E0,8.368263E-1,3.5467896E1,1.6453257E1,1.6387733E1,1.0068781E1,9.169891E0,2.0069197E1,2.3530586E1,4.209259E0,1.7347984E0,3.5151668E0,1.2496817E1,6.485195E0,5.1118296E-2,2.4952602E-1,2.728865E0,1.6154993E0,1.9698296E0,1.6707319E-1,0E0,0E0,1.8005529E-1,0E0,5.982852E-2,1.4103301E-1,0E0,0E0,0E0,0E0,0E0,0E0,0E0,0E0,0E0,0E0,0E0,0E0,0E0,0E0,0E0,0E0,0E0,0E0,0E0,0E0,0E0,0E0,0E0,0E0,0E0,0E0,0E0,0E0,0E0,0E0,0E0,0E0,0E0,0E0,0E0,0E0,0E0,0E0,0E0,0E0,0E0,0E0,0E0,0E0,0E0,0E0,0E0,0E0,0E0,0E0],"parents":[2147483647,0,0,1,1,2,2,3,3,4,4,5,5,6,6,7,7,8,8,9,9,10,10,11,11,12,12,13,13,14,14,17,17,18,18,19,19,20,20,21,21,22,22,23,23,24,24,25,25,26,26,27,27,28,28,29,29,30,30,31,31,32,32,33,33,34,34,35,35,36,36,37,37,38,38,39,39,40,40,41,41,42,42,43,43,44,44,45,45,46,46,47,47,48,48,49,49,50,50,51,51,52,52,55,55,57,57,58,58],"right_children":[2,4,6,8,10,12,14,16,18,20,22,24,26,28,30,-1,-1,32,34,36,38,40,42,44,46,48,50,52,54,56,58,60,62,64,66,68,70,72,74,76,78,80,82,84,86,88,90,92,94,96,98,100,102,-1,-1,104,-1,106,108,-1,-1,-1,-1,-1,-1,-1,-1,-1,-1,-1,-1,-1,-1,-1,-1,-1,-1,-1,-1,-1,-1,-1,-1,-1,-1,-1,-1,-1,-1,-1,-1,-1,-1,-1,-1,-1,-1,-1,-1,-1,-1,-1,-1,-1,-1,-1,-1,-1,-1],"split_conditions":[3.2185328E-1,6.934003E-2,3.3E-1,1.5029042E-2,1.534782E-1,2.3255815E-1,2.4418604E-1,5.7491012E-2,4.397096E-2,4.1797787E-1,1.911869E-1,8.873368E-2,4.397096E-2,2.2093023E-1,3.9534885E-1,-7.3423415E-2,-2.5305882E-2,6.9767445E-2,8.489518E-2,1.1627907E-1,1.627907E-1,8.139535E-2,1.627907E-1,5.4798025E-1,4.333739E-1,3.506649E-1,1E-2,5.05E-1,1.5315223E-1,4.499721E-1,8.1395346E-1,3.5766758E-2,8.139535E-2,8.139535E-2,4.561717E-2,2.50181E-2,3.1654707E-1,4.6511628E-2,8E-2,2.666501E-1,2.5817874E-1,1.6666668E-2,2.958784E-1,4.313537E-1,8E-1,1.9767442E-1,3.3333334E-3,3.3174545E-2,6.27907E-1,5.281455E-1,9.774878E-2,4.354179E-1,5.1E-1,-8.53828E-2,-2.6666416E-2,1.1871762E-1,-2.710962E-2,2.0580181E-1,8.138973E-2,-4.8311997E-2,-2.4897598E-2,2.1989685E-2,-2.8267337E-2,6.9826194E-3,-2.5760932E-2,1.7991733E-3,-2.5454074E-2,-1.4853322E-2,1.54309785E-2,-4.921577E-3,1.6393628E-2,1.7524524E-2,6.1005406E-2,-1.7151736E-3,4.7427908E-2,6.2266544E-2,1.0390616E-1,-1.3607636E-2,5.771534E-2,2.2050086E-3,3.6953777E-2,-1.5415221E-2,1.4013016E-2,-2.3961794E-2,-3.4360662E-2,-8.303494E-3,-3.3392455E-2,8.282085E-3,-5.502701E-2,-1.3854439E-2,-3.7061933E-2,-9.217471E-3,1.7106137E-3,-2.5880674E-2,-1.2687469E-2,5.324693E-3,-9.055355E-3,-8.066838E-4,-2.5176877E-2,-4.5708798E-2,-2.7196366E-2,1.289877E-2,-9.509283E-3,-2.7541236E-3,1.07688485E-2,-1.9077733E-2,-3.2647997E-2,1.6816802E-2,-9.715792E-3],"split_indices":[8,3,11,3,8,5,5,8,3,3,8,3,3,5,5,0,0,5,8,5,5,5,5,8,8,8,14,11,3,8,5,3,5,5,3,8,3,5,7,3,3,14,8,8,8,5,14,3,5,8,3,8,11,0,0,3,0,3,3,0,0,0,0,0,0,0,0,0,0,0,0,0,0,0,0,0,0,0,0,0,0,0,0,0,0,0,0,0,0,0,0,0,0,0,0,0,0,0,0,0,0,0,0,0,0,0,0,0,0],"split_type":[0,0,0,0,0,0,0,0,0,0,0,0,0,0,0,0,0,0,0,0,0,0,0,0,0,0,0,0,0,0,0,0,0,0,0,0,0,0,0,0,0,0,0,0,0,0,0,0,0,0,0,0,0,0,0,0,0,0,0,0,0,0,0,0,0,0,0,0,0,0,0,0,0,0,0,0,0,0,0,0,0,0,0,0,0,0,0,0,0,0,0,0,0,0,0,0,0,0,0,0,0,0,0,0,0,0,0,0,0],"sum_hessian":[6.699E3,4.844E3,1.855E3,2.93E2,4.551E3,1.605E3,2.5E2,1.8E1,2.75E2,3.663E3,8.88E2,1.117E3,4.88E2,1.86E2,6.4E1,1.3E1,5E0,9.5E1,1.8E2,3.331E3,3.32E2,2.36E2,6.52E2,5.9E2,5.27E2,1E2,3.88E2,1.67E2,1.9E1,2.4E1,4E1,1.5E1,8E1,5.2E1,1.28E2,1.498E3,1.833E3,2.16E2,1.16E2,1.43E2,9.3E1,4.79E2,1.73E2,4.19E2,1.71E2,1.86E2,3.41E2,9E0,9.1E1,3.14E2,7.4E1,1.6E2,7E0,1.3E1,6E0,2.2E1,2E0,3.7E1,3E0,7E0,8E0,2E0,7.8E1,2.9E1,2.3E1,7E0,1.21E2,2.85E2,1.213E3,1.583E3,2.5E2,8.9E1,1.27E2,8.1E1,3.5E1,8.3E1,6E1,4.9E1,4.4E1,2E2,2.79E2,1.37E2,3.6E1,1.88E2,2.31E2,1.26E2,4.5E1,1.66E2,2E1,2.37E2,1.04E2,5E0,4E0,7.8E1,1.3E1,1.54E2,1.6E2,2.4E1,5E1,9.7E1,6.3E1,2E0,5E0,1.2E1,1E1,3.3E1,4E0,1E0,2E0],"tree_param":{"num_deleted":"0","num_feature":"15","num_nodes":"109","size_leaf_vector":"1"}},{"base_weights":[1.1893088E-3,-2.9282346E-1,5.489968E-1,-5.2212405E-1,-1.2266611E-1,3.4841156E-1,8.785567E-1,-7.398655E-1,-4.4523004E-1,-2.2545469E-1,2.1590011E-2,3.8323548E-1,-5.029769E-1,1.0598323E0,5.6921273E-1,-9.123038E-1,-6.5163505E-1,-4.9778673E-1,-4.014924E-1,-2.163754E-1,-5.4485744E-1,6.275948E-2,-1.7229232E-1,2.8770348E-1,5.463189E-1,-9.938696E-2,8.677952E-2,9.703965E-1,1.4209806E0,5.2295554E-2,7.178492E-1,-9.559501E-1,5.0228465E-2,-6.649227E-1,3.317604E-1,-5.0800514E-1,-2.0868807E-1,-4.053858E-1,1.5160307E-2,-2.3163617E-1,7.9421125E-2,9.421301E-2,-7.334331E-1,2.4559957E-1,3.9108533E-2,3.941411E-2,-3.0566022E-1,-1.676177E-1,3.0214298E-1,6.356232E-1,2.7696222E-1,4.465691E-1,-1.8740162E-1,7.2659695E-1,1.0393707E0,9.6059334E-1,1.13958776E-1,1.8287855E-1,-8.1478184E-1,8.8145036E-1,2.2911228E-2,-4.521647E-2,-7.663805E-2,-4.5352533E-2,-5.6832854E-2,-2.8298276E-3,4.5598365E-2,-3.7536502E-2,-4.7737446E-2,-4.066081E-2,1.43029E-2,-2.8530583E-2,-3.5172835E-2,1.1497891E-2,-1.2027114E-2,-2.1502737E-2,-1.3813527E-2,2.2437159E-2,-1.3299685E-2,-3.3292975E-3,1.2312773E-2,-5.9263516E-2,-2.4811722E-2,1.0298042E-1,1.6203448E-2,-1.7875476E-3,6.5408517E-3,-2.537008E-2,1.16212815E-2,-3.2425877E-2,2.9178536E-3,4.014086E-2,-1.6418533E-2,1.52498465E-2,2.8418716E-2,5.140279E-2,3.178301E-2,3.415546E-3,4.0804517E-2,-3.6734152E-3,5.4016124E-2,-5.384034E-2,-4.38487E-3,5.7800777E-2,2.1584164E-3,9.403092E-2,7.545425E-2,1.0047702E-1,3.3769757E-2,2.535039E-2,-1.2893738E-2,1.2532854E-2,-7.280957E-2,7.151751E-2,7.6857284E-3,4.8495017E-2,-1.1120948E-2],"categories":[],"categories_nodes":[],"categories_segments":[],"categories_sizes":[],"default_left":[0,0,0,0,0,0,0,0,0,0,0,0,0,0,0,0,0,0,0,0,0,0,0,0,0,0,0,0,0,0,0,0,0,0,0,0,0,0,0,0,0,0,0,0,0,0,0,0,0,0,0,0,0,0,0,0,0,0,0,0,0,0,0,0,0,0,0,0,0,0,0,0,0,0,0,0,0,0,0,0,0,0,0,0,0,0,0,0,0,0,0,0,0,0,0,0,0,0,0,0,0,0,0,0,0,0,0,0,0,0,0,0,0,0,0,0,0],"id":5,"left_children":[1,3,5,7,9,11,13,15,17,19,21,23,25,27,29,31,33,35,37,39,41,43,45,47,49,-1,51,53,55,57,59,61,-1,63,65,67,69,71,73,75,77,79,81,83,85,87,89,91,93,95,97,99,101,103,105,107,-1,109,111,113,115,-1,-1,-1,-1,-1,-1,-1,-1,-1,-1,-1,-1,-1,-1,-1,-1,-1,-1,-1,-1,-1,-1,-1,-1,-1,-1,-1,-1,-1,-1,-1,-1,-1,-1,-1,-1,-1,-1,-1,-1,-1,-1,-1,-1,-1,-1,-1,-1,-1,-1,-1,-1,-1,-1,-1,-1],"loss_changes":[1.0855603E3,1.7106528E2,1.5530475E2,3.0946564E1,3.7356308E1,4.3628128E1,4.930487E1,6.799652E0,2.979248E0,4.1479416E0,8.3839655E0,2.1779022E1,2.6858772E1,1.6708862E1,2.5394104E1,1.1662979E1,4.467392E0,1.7373505E0,1.2390213E0,6.482559E0,4.8896255E0,3.735275E0,5.2072573E0,5.902046E0,1.2308365E1,0E0,3.4377036E0,6.845581E0,1.2111664E0,8.640924E0,2.9198822E1,1.4666138E0,0E0,1.3309174E0,4.962904E-1,1.1932373E0,2.9669347E0,1.1895828E0,2.053586E-1,3.300087E0,3.8094978E0,9.603104E-2,1.7325592E-1,3.602971E0,2.1739817E0,2.981188E0,4.4221525E0,9.685149E-1,5.8410645E0,2.2566223E0,7.6187286E0,1.8990829E0,1.2903339E0,1.4675102E0,2.7546997E0,1.9155521E0,0E0,3.3969457E0,1.3885655E0,6.9299927E0,5.124623E0,0E0,0E0,0E0,0E0,0E0,0E0,0E0,0E0,0E0,0E0,0E0,0E0,0E0,0E0,0E0,0E0,0E0,0E0,0E0,0E0,0E0,0E0,0E0,0E0,0E0,0E0,0E0,0E0,0E0,0E0,0E0,0E0,0E0,0E0,0E0,0E0,0E0,0E0,0E0,0E0,0E0,0E0,0E0,0E0,0E0,0E0,0E0,0E0,0E0,0E0,0E0,0E0,0E0,0E0,0E0,0E0],"parents":[2147483647,0,0,1,1,2,2,3,3,4,4,5,5,6,6,7,7,8,8,9,9,10,10,11,11,12,12,13,13,14,14,15,15,16,16,17,17,18,18,19,19,20,20,21,21,22,22,23,23,24,24,26,26,27,27,28,28,29,29,30,30,31,31,33,33,34,34,35,35,36,36,37,37,38,38,39,39,40,40,41,41,42,42,43,43,44,44,45,45,46,46,47,47,48,48,49,49,50,50,51,51,52,52,53,53,54,54,55,55,57,57,58,58,59,59,60,60],"right_children":[2,4,6,8,10,12,14,16,18,20,22,24,26,28,30,32,34,36,38,40,42,44,46,48,50,-1,52,54,56,58,60,62,-1,64,66,68,70,72,74,76,78,80,82,84,86,88,90,92,94,96,98,100,102,104,106,108,-1,110,112,114,116,-1,-1,-1,-1,-1,-1,-1,-1,-1,-1,-1,-1,-1,-1,-1,-1,-1,-1,-1,-1,-1,-1,-1,-1,-1,-1,-1,-1,-1,-1,-1,-1,-1,-1,-1,-1,-1,-1,-1,-1,-1,-1,-1,-1,-1,-1,-1,-1,-1,-1,-1,-1,-1,-1,-1,-1],"split_conditions":[4.139785E-1,2.9704303E-1,5.416667E-1,2.392473E-1,3.5752687E-1,4.4444445E-1,3.076923E-2,1.9287111E-1,2.715054E-1,4.6153846E-1,6.153846E-2,4.8655915E-1,4.6511628E-2,6.908602E-1,2.6923078E-1,2.9069766E-1,1.6E-1,8E-2,4.6762967E-1,3.6153847E-1,1.627907E-1,5.06033E-1,1.2790698E-1,3.2845926E-1,3.076923E-2,-9.938696E-2,6.3746554E-1,5.6317204E-1,1.4567664E-1,2.0769231E-1,1.744186E-1,7.594481E-1,5.0228465E-2,1.3953489E-1,6.1246085E-1,2.2287865E-1,2.830504E-1,1.4453276E-1,2.8494623E-1,3.266129E-1,6.9648063E-1,5.456242E-1,3.3768845E-1,3.5887095E-1,3.8172042E-1,4.2873365E-1,7.0875543E-1,4.6511628E-2,4.3682796E-1,8E-2,3.846154E-1,1.2790698E-1,1.1871762E-1,7.059921E-1,3.8191524E-1,4.9287015E-1,1.13958776E-1,5.516066E-1,1.2879485E-1,6.923077E-1,1.270127E-1,-4.521647E-2,-7.663805E-2,-4.5352533E-2,-5.6832854E-2,-2.8298276E-3,4.5598365E-2,-3.7536502E-2,-4.7737446E-2,-4.066081E-2,1.43029E-2,-2.8530583E-2,-3.5172835E-2,1.1497891E-2,-1.2027114E-2,-2.1502737E-2,-1.3813527E-2,2.2437159E-2,-1.3299685E-2,-3.3292975E-3,1.2312773E-2,-5.9263516E-2,-2.4811722E-2,1.0298042E-1,1.6203448E-2,-1.7875476E-3,6.5408517E-3,-2.537008E-2,1.16212815E-2,-3.2425877E-2,2.9178536E-3,4.014086E-2,-1.6418533E-2,1.52498465E-2,2.8418716E-2,5.140279E-2,3.178301E-2,3.415546E-3,4.0804517E-2,-3.6734152E-3,5.4016124E-2,-5.384034E-2,-4.38487E-3,5.7800777E-2,2.1584164E-3,9.403092E-2,7.545425E-2,1.0047702E-1,3.3769757E-2,2.535039E-2,-1.2893738E-2,1.2532854E-2,-7.280957E-2,7.151751E-2,7.6857284E-3,4.8495017E-2,-1.1120948E-2],"split_indices":[4,4,4,4,4,13,9,4,4,9,9,4,5,4,9,5,7,7,3,9,5,1,5,1,9,0,1,4,3,9,5,1,0,5,1,3,3,3,4,4,1,1,4,4,4,1,1,5,4,7,9,5,3,1,1,1,0,1,3,9,3,0,0,0,0,0,0,0,0,0,0,0,0,0,0,0,0,0,0,0,0,0,0,0,0,0,0,0,0,0,0,0,0,0,0,0,0,0,0,0,0,0,0,0,0,0,0,0,0,0,0,0,0,0,0,0,0],"split_type":[0,0,0,0,0,0,0,0,0,0,0,0,0,0,0,0,0,0,0,0,0,0,0,0,0,0,0,0,0,0,0,0,0,0,0,0,0,0,0,0,0,0,0,0,0,0,0,0,0,0,0,0,0,0,0,0,0,0,0,0,0,0,0,0,0,0,0,0,0,0,0,0,0,0,0,0,0,0,0,0,0,0,0,0,0,0,0,0,0,0,0,0,0,0,0,0,0,0,0,0,0,0,0,0,0,0,0,0,0,0,0,0,0,0,0,0,0],"sum_hessian":[6.738E3,4.385E3,2.353E3,1.867E3,2.518E3,1.464E3,8.89E2,4.85E2,1.382E3,1.47E3,1.048E3,1.407E3,5.7E1,5.59E2,3.3E2,1.61E2,3.24E2,6.23E2,7.59E2,1.431E3,3.9E1,8.65E2,1.83E2,8.89E2,5.18E2,2.4E1,3.3E1,4.51E2,1.08E2,7.4E1,2.56E2,1.57E2,4E0,3.2E2,4E0,6.01E2,2.2E1,7.52E2,7E0,1.361E3,7E1,9E0,3E1,9.8E1,7.67E2,7.1E1,1.12E2,2.7E1,8.62E2,3.88E2,1.3E2,1.4E1,1.9E1,1.02E2,3.49E2,1.3E1,9.5E1,6.5E1,9E0,2.07E2,4.9E1,1.5E1,1.42E2,1.55E2,1.65E2,2E0,2E0,5.02E2,9.9E1,1.2E1,1E1,4.37E2,3.15E2,4E0,3E0,7.24E2,6.37E2,3.8E1,3.2E1,3E0,6E0,2.7E1,3E0,2E0,9.6E1,3.24E2,4.43E2,1.6E1,5.5E1,8.4E1,2.8E1,1E0,2.6E1,3.32E2,5.3E2,3.42E2,4.6E1,6.8E1,6.2E1,5E0,9E0,3E0,1.6E1,9.9E1,3E0,8.8E1,2.61E2,7E0,6E0,4.6E1,1.9E1,1E0,8E0,1.96E2,1.1E1,1E1,3.9E1],"tree_param":{"num_deleted":"0","num_feature":"15","num_nodes":"117","size_leaf_vector":"1"}},{"base_weights":[-4.064097E-3,3.5822895E-1,-2.1214373E-1,-2.9710952E-2,4.775472E-1,-1.5161401E-1,-5.006629E-1,-1.7875934E-1,1.3348587E-1,8.327429E-1,3.400548E-1,-5.999003E-2,-2.4745733E-1,-4.1282296E-1,-7.7930546E-1,-1.10893905E-1,-5.3557026E-1,3.01767E-1,-1.2710784E-1,2.0317951E-1,8.874064E-1,5.118879E-1,2.2794858E-1,-1.01034984E-1,1.8524352E-1,-1.255554E-1,-2.9803813E-1,-2.5530595E-1,-4.8013917E-1,2.05338E-3,-8.46843E-1,-5.940659E-1,-8.248357E-2,-2.0743302E-1,-4.6100542E-2,6.6463095E-1,1.9420518E-1,-6.7068833E-1,-3.32313E-2,-3.4758797E-1,6.5368664E-1,1.1058764E0,7.466511E-1,1.0480745E0,4.9002874E-1,4.2917573E-1,1.3216415E-1,-2.6121733E-1,-5.7013765E-2,3.1068006E-1,4.183787E-2,-2.3882768E-1,-2.8360974E-2,-1.6884057E-1,-3.3772722E-1,-1.8953396E-1,-3.331375E-1,-4.536894E-1,-9.067587E-1,-3.3158785E-1,5.690158E-2,4.8040915E-2,-8.698023E-1,-1.9735036E-2,-5.8321126E-2,-1.0299312E-3,-2.2237783E-2,-4.02261E-3,-1.89048E-2,-4.0556807E-2,5.764385E-2,3.3072207E-2,-1.3941931E-2,-6.0390178E-2,5.1454017E-3,-4.6066437E-3,3.4596324E-2,-2.9145569E-2,-1.0558125E-2,2.423691E-2,5.6213506E-2,9.280325E-2,-2.7545812E-2,-1.9686304E-2,5.9702776E-2,3.916175E-2,9.242442E-2,2.8724097E-2,4.6221077E-2,-1.1147919E-2,3.5912134E-2,3.776109E-3,2.2556026E-2,-1.073906E-2,-2.541817E-2,-2.46371E-2,-1.1376429E-3,5.7232905E-2,1.653859E-2,-1.9736527E-2,9.66343E-3,-1.0300692E-2,-3.2677192E-2,1.1422641E-3,-3.1543076E-2,-4.0380888E-2,-1.988031E-3,-2.8380862E-2,-6.6612465E-3,-1.5570612E-2,9.945699E-3,-3.0861525E-2,-2.2878684E-2,-2.9202446E-2,-4.266611E-2,-7.15454E-2,-2.027256E-2,9.955615E-3,-3.466582E-2,1.9854268E-2,-1.3661126E-2,-3.302579E-2,-7.06397E-2],"categories":[],"categories_nodes":[],"categories_segments":[],"categories_sizes":[],"default_left":[0,0,0,0,0,0,0,0,0,0,0,0,0,0,0,0,0,0,0,0,0,0,0,0,0,0,0,0,0,0,0,0,0,0,0,0,0,0,0,0,0,0,0,0,0,0,0,0,0,0,0,0,0,0,0,0,0,0,0,0,0,0,0,0,0,0,0,0,0,0,0,0,0,0,0,0,0,0,0,0,0,0,0,0,0,0,0,0,0,0,0,0,0,0,0,0,0,0,0,0,0,0,0,0,0,0,0,0,0,0,0,0,0,0,0,0,0,0,0,0,0,0,0],"id":6,"left_children":[1,3,5,7,9,11,13,15,17,19,21,23,25,27,29,31,33,35,37,39,41,43,45,47,49,51,53,55,57,59,61,63,65,67,-1,69,71,73,75,77,79,81,83,85,87,89,91,93,95,97,99,101,103,105,107,109,111,113,115,117,-1,119,121,-1,-1,-1,-1,-1,-1,-1,-1,-1,-1,-1,-1,-1,-1,-1,-1,-1,-1,-1,-1,-1,-1,-1,-1,-1,-1,-1,-1,-1,-1,-1,-1,-1,-1,-1,-1,-1,-1,-1,-1,-1,-1,-1,-1,-1,-1,-1,-1,-1,-1,-1,-1,-1,-1,-1,-1,-1,-1,-1,-1],"loss_changes":[5.0606555E2,1.133743E2,7.439055E1,1.4058938E1,9.118799E1,3.0948883E1,1.7766022E1,7.2535763E0,1.2141785E1,1.7783905E1,2.5927658E1,1.817706E1,1.0586418E1,5.8577576E0,9.289436E0,3.451405E0,8.2835865E-1,6.4280157E0,5.5399227E0,1.0896574E1,1.3934692E1,5.73349E0,1.5748306E1,1.0886605E1,4.645975E0,5.5750103E0,6.183441E0,8.1223106E-1,4.0345078E0,3.9153218E0,3.3702393E0,5.6651783E-1,3.4279041E0,3.901556E-2,0E0,4.0331974E0,1.1524651E1,1.350225E0,1.2157223E0,7.192969E-2,3.6912727E-1,2.5970535E1,7.644333E0,9.8605156E-1,6.3376694E0,5.381645E0,7.3879957E0,2.7011147E0,1.3426121E1,5.5795546E0,3.0427992E0,4.483921E0,4.490024E0,1.4547853E1,6.7999725E0,3.8161802E-1,7.138157E-2,2.5728836E0,1.5943527E-2,6.4801466E-1,0E0,2.79706E-1,2.6511307E0,0E0,0E0,0E0,0E0,0E0,0E0,0E0,0E0,0E0,0E0,0E0,0E0,0E0,0E0,0E0,0E0,0E0,0E0,0E0,0E0,0E0,0E0,0E0,0E0,0E0,0E0,0E0,0E0,0E0,0E0,0E0,0E0,0E0,0E0,0E0,0E0,0E0,0E0,0E0,0E0,0E0,0E0,0E0,0E0,0E0,0E0,0E0,0E0,0E0,0E0,0E0,0E0,0E0,0E0,0E0,0E0,0E0,0E0,0E0,0E0],"parents":[2147483647,0,0,1,1,2,2,3,3,4,4,5,5,6,6,7,7,8,8,9,9,10,10,11,11,12,12,13,13,14,14,15,15,16,16,17,17,18,18,19,19,20,20,21,21,22,22,23,23,24,24,25,25,26,26,27,27,28,28,29,29,30,30,31,31,32,32,33,33,35,35,36,36,37,37,38,38,39,39,40,40,41,41,42,42,43,43,44,44,45,45,46,46,47,47,48,48,49,49,50,50,51,51,52,52,53,53,54,54,55,55,56,56,57,57,58,58,59,59,61,61,62,62],"right_children":[2,4,6,8,10,12,14,16,18,20,22,24,26,28,30,32,34,36,38,40,42,44,46,48,50,52,54,56,58,60,62,64,66,68,-1,70,72,74,76,78,80,82,84,86,88,90,92,94,96,98,100,102,104,106,108,110,112,114,116,118,-1,120,122,-1,-1,-1,-1,-1,-1,-1,-1,-1,-1,-1,-1,-1,-1,-1,-1,-1,-1,-1,-1,-1,-1,-1,-1,-1,-1,-1,-1,-1,-1,-1,-1,-1,-1,-1,-1,-1,-1,-1,-1,-1,-1,-1,-1,-1,-1,-1,-1,-1,-1,-1,-1,-1,-1,-1,-1,-1,-1,-1,-1],"split_conditions":[5.846998E-1,2.4706058E-2,8.797431E-1,2.5E-2,4.3542066E-1,7.0875543E-1,9.4936347E-1,5.106383E-1,5.130671E-1,9.774878E-2,7.50587E-2,2.977228E-1,2.2695035E-1,1.7021276E-1,1.7021276E-1,4.1E-1,3.2845926E-1,5.3333335E-2,6.253365E-3,2.6950353E-1,3.5971197E-1,2.814701E-2,5.011795E-1,7.62053E-2,6.574497E-1,1.0164122E-1,3.1273693E-2,9.1330343E-1,4.480065E-1,9.845863E-1,6.253365E-3,3.3E-1,1.2509019E-2,1.0944533E-2,-4.6100542E-2,9.5807366E-2,3.7E-1,5.5898815E-1,5.825215E-1,8.873368E-2,6.934003E-2,4.539007E-1,1.7730497E-1,1.0669176E-1,4.7223665E-2,1.7730497E-1,3.6879432E-1,1.6356465E-1,2.1891357E-2,3.2423085E-1,6.6665953E-1,4.6911687E-2,3.8076574E-1,2.032916E-2,5.106383E-1,1.3937026E-1,6.567636E-2,2.5E-2,9.2649806E-1,3.1266822E-3,5.690158E-2,3.1266822E-3,6.6354886E-2,-1.9735036E-2,-5.8321126E-2,-1.0299312E-3,-2.2237783E-2,-4.02261E-3,-1.89048E-2,-4.0556807E-2,5.764385E-2,3.3072207E-2,-1.3941931E-2,-6.0390178E-2,5.1454017E-3,-4.6066437E-3,3.4596324E-2,-2.9145569E-2,-1.0558125E-2,2.423691E-2,5.6213506E-2,9.280325E-2,-2.7545812E-2,-1.9686304E-2,5.9702776E-2,3.916175E-2,9.242442E-2,2.8724097E-2,4.6221077E-2,-1.1147919E-2,3.5912134E-2,3.776109E-3,2.2556026E-2,-1.073906E-2,-2.541817E-2,-2.46371E-2,-1.1376429E-3,5.7232905E-2,1.653859E-2,-1.9736527E-2,9.66343E-3,-1.0300692E-2,-3.2677192E-2,1.1422641E-3,-3.1543076E-2,-4.0380888E-2,-1.988031E-3,-2.8380862E-2,-6.6612465E-3,-1.5570612E-2,9.945699E-3,-3.0861525E-2,-2.2878684E-2,-2.9202446E-2,-4.266611E-2,-7.15454E-2,-2.027256E-2,9.955615E-3,-3.466582E-2,1.9854268E-2,-1.3661126E-2,-3.302579E-2,-7.06397E-2],"split_indices":[1,0,1,12,1,1,1,6,1,3,0,3,6,6,6,11,1,14,0,6,1,0,1,3,1,0,0,1,0,1,0,11,0,0,0,3,11,1,1,3,3,6,6,3,0,6,6,0,0,3,1,0,0,0,6,3,0,12,1,0,0,0,3,0,0,0,0,0,0,0,0,0,0,0,0,0,0,0,0,0,0,0,0,0,0,0,0,0,0,0,0,0,0,0,0,0,0,0,0,0,0,0,0,0,0,0,0,0,0,0,0,0,0,0,0,0,0,0,0,0,0,0,0],"split_type":[0,0,0,0,0,0,0,0,0,0,0,0,0,0,0,0,0,0,0,0,0,0,0,0,0,0,0,0,0,0,0,0,0,0,0,0,0,0,0,0,0,0,0,0,0,0,0,0,0,0,0,0,0,0,0,0,0,0,0,0,0,0,0,0,0,0,0,0,0,0,0,0,0,0,0,0,0,0,0,0,0,0,0,0,0,0,0,0,0,0,0,0,0,0,0,0,0,0,0,0,0,0,0,0,0,0,0,0,0,0,0,0,0,0,0,0,0,0,0,0,0,0,0],"sum_hessian":[6.711E3,2.448E3,4.263E3,5.76E2,1.872E3,3.525E3,7.38E2,3.01E2,2.75E2,5.21E2,1.351E3,1.803E3,1.722E3,5.63E2,1.75E2,2.54E2,4.7E1,1.67E2,1.08E2,4.2E1,4.79E2,5.32E2,8.19E2,1.545E3,2.58E2,5.06E2,1.216E3,1.7E2,3.93E2,1.4E1,1.61E2,1.3E1,2.41E2,8E0,3.9E1,3.7E1,1.3E2,1.5E1,9.3E1,1.9E1,2.3E1,1.85E2,2.94E2,1.9E1,5.13E2,2.63E2,5.56E2,3.32E2,1.213E3,1.37E2,1.21E2,2.33E2,2.73E2,2.87E2,9.29E2,9.4E1,7.6E1,3.72E2,2.1E1,1E1,4E0,4E0,1.57E2,5E0,8E0,1.81E2,6E1,2E0,6E0,2E0,3.5E1,8E1,5E1,1.3E1,2E0,8.9E1,4E0,1.6E1,3E0,5E0,1.8E1,1.74E2,1.1E1,7E0,2.87E2,5E0,1.4E1,2.46E2,2.67E2,1.5E1,2.48E2,3.66E2,1.9E2,1.19E2,2.13E2,1.68E2,1.045E3,2.4E1,1.13E2,2.6E1,9.5E1,1.49E2,8.4E1,2.46E2,2.7E1,8.2E1,2.05E2,8.32E2,9.7E1,9.1E1,3E0,2.4E1,5.2E1,2.12E2,1.6E2,2E1,1E0,2E0,8E0,2E0,2E0,1.5E1,1.42E2],"tree_param":{"num_deleted":"0","num_feature":"15","num_nodes":"123","size_leaf_vector":"1"}},{"base_weights":[4.854189E-3,-2.4706939E-1,4.8114341E-1,-4.2692396E-1,-7.3088095E-2,2.652984E-1,7.156452E-1,-6.1824095E-1,-3.618939E-1,-1.663065E-1,1.5697042E-2,-1.4680059E-1,3.4984097E-1,1.8365547E-1,8.509951E-1,-7.3182195E-1,-5.3521854E-1,-4.419195E-1,-3.207523E-1,-3.2652375E-1,-1.4358023E-1,-2.6661918E-1,5.7758577E-2,-5.9391063E-2,-8.751625E-1,2.7793166E-1,4.7068238E-1,7.285843E-2,5.5299824E-1,7.51395E-1,1.1685985E0,-3.2242632E-1,-7.7199125E-1,-2.6867932E-1,-5.61035E-1,-4.521214E-1,1.4705382E-1,-3.2800123E-1,2.4686633E-1,-2.1463056E-1,-6.140646E-1,5.695811E-1,-1.4870554E-1,-3.4456396E-1,-4.7554173E-2,2.594768E-1,3.130197E-2,9.445253E-3,-6.6130024E-1,-8.1911765E-2,2.168473E-1,3.4305987E-1,1.3619074E-1,4.8410705E-1,-2.984774E-1,2.3945642E-1,-1.5246496E-1,6.519005E-1,2.3798501E-1,6.1498886E-1,8.5694426E-1,9.280961E-1,1.283038E0,-6.355868E-2,2.776017E-2,-7.090662E-2,-5.2480686E-2,-3.4983233E-2,4.1853946E-2,-4.366057E-2,-3.5367312E-3,-1.749982E-2,-3.662103E-2,-2.9749526E-2,2.5374038E-2,-2.3231754E-2,-3.0580204E-2,8.480792E-3,4.350929E-2,-1.762749E-2,-7.4290985E-4,-6.031801E-2,-1.57597E-2,5.29514E-2,-4.6576327E-3,-1.2278408E-2,5.9322747E-3,-9.71034E-3,-3.3259973E-2,-7.640036E-3,3.388796E-2,2.3015434E-2,-2.2200575E-2,5.1760087E-3,-2.8328735E-3,-6.701499E-3,1.0629861E-2,1.0101493E-2,-8.77226E-2,2.4926975E-2,5.7457266E-3,2.8480718E-2,8.317145E-3,9.461476E-3,7.781803E-2,2.8623099E-2,4.371815E-2,-4.6491906E-2,2.3617452E-2,3.031461E-2,-9.085795E-3,-2.0218187E-3,-3.8562335E-2,2.4497852E-2,6.1038587E-2,7.097167E-2,-2.9886646E-2,5.786447E-2,4.2233974E-2,6.85446E-2,2.657454E-2,2.25803E-2,7.767672E-2,1.0312786E-1,5.3634256E-2],"categories":[],"categories_nodes":[],"categories_segments":[],"categories_sizes":[],"default_left":[0,0,0,0,0,0,0,0,0,0,0,0,0,0,0,0,0,0,0,0,0,0,0,0,0,0,0,0,0,0,0,0,0,0,0,0,0,0,0,0,0,0,0,0,0,0,0,0,0,0,0,0,0,0,0,0,0,0,0,0,0,0,0,0,0,0,0,0,0,0,0,0,0,0,0,0,0,0,0,0,0,0,0,0,0,0,0,0,0,0,0,0,0,0,0,0,0,0,0,0,0,0,0,0,0,0,0,0,0,0,0,0,0,0,0,0,0,0,0,0,0,0,0,0,0],"id":7,"left_children":[1,3,5,7,9,11,13,15,17,19,21,23,25,27,29,31,33,35,37,39,41,43,45,47,49,51,53,55,57,59,61,63,65,67,69,71,73,75,77,79,81,83,85,87,89,91,93,95,97,-1,99,101,103,105,107,109,111,113,115,117,119,121,123,-1,-1,-1,-1,-1,-1,-1,-1,-1,-1,-1,-1,-1,-1,-1,-1,-1,-1,-1,-1,-1,-1,-1,-1,-1,-1,-1,-1,-1,-1,-1,-1,-1,-1,-1,-1,-1,-1,-1,-1,-1,-1,-1,-1,-1,-1,-1,-1,-1,-1,-1,-1,-1,-1,-1,-1,-1,-1,-1,-1,-1,-1],"loss_changes":[8.022419E2,1.3680579E2,1.1688507E2,2.6525177E1,1.8409344E1,4.2068268E1,7.962494E1,4.738098E0,5.149109E0,3.903759E0,1.3552505E1,1.3063171E1,8.567482E0,9.2081E0,2.70542E1,3.484146E0,2.0374527E0,3.3291779E0,4.4630737E0,4.1794996E0,3.5644283E0,2.5107107E0,5.2913003E0,7.67139E0,4.646147E0,5.76902E0,3.9856644E0,6.605732E0,1.4649439E0,9.191345E0,4.5615234E0,7.7788925E0,2.16539E0,4.705105E0,4.8526E-1,2.4661865E0,1.0884717E0,1.840416E0,5.4471225E-1,2.6437616E-1,2.3575964E0,5.4822016E-1,2.152176E0,1.9857378E0,1.0383308E0,2.478547E0,2.12901E0,2.0655649E0,7.2622404E0,0E0,3.61778E-2,2.5138626E0,2.289612E0,3.1763992E0,1.4625095E0,5.5423326E0,3.2659674E0,1.5440407E0,6.2948623E0,2.3272324E0,5.368988E0,3.146328E0,3.194107E0,0E0,0E0,0E0,0E0,0E0,0E0,0E0,0E0,0E0,0E0,0E0,0E0,0E0,0E0,0E0,0E0,0E0,0E0,0E0,0E0,0E0,0E0,0E0,0E0,0E0,0E0,0E0,0E0,0E0,0E0,0E0,0E0,0E0,0E0,0E0,0E0,0E0,0E0,0E0,0E0,0E0,0E0,0E0,0E0,0E0,0E0,0E0,0E0,0E0,0E0,0E0,0E0,0E0,0E0,0E0,0E0,0E0,0E0,0E0,0E0,0E0,0E0],"parents":[2147483647,0,0,1,1,2,2,3,3,4,4,5,5,6,6,7,7,8,8,9,9,10,10,11,11,12,12,13,13,14,14,15,15,16,16,17,17,18,18,19,19,20,20,21,21,22,22,23,23,24,24,25,25,26,26,27,27,28,28,29,29,30,30,31,31,32,32,33,33,34,34,35,35,36,36,37,37,38,38,39,39,40,40,41,41,42,42,43,43,44,44,45,45,46,46,47,47,48,48,50,50,51,51,52,52,53,53,54,54,55,55,56,56,57,57,58,58,59,59,60,60,61,61,62,62],"right_children":[2,4,6,8,10,12,14,16,18,20,22,24,26,28,30,32,34,36,38,40,42,44,46,48,50,52,54,56,58,60,62,64,66,68,70,72,74,76,78,80,82,84,86,88,90,92,94,96,98,-1,100,102,104,106,108,110,112,114,116,118,120,122,124,-1,-1,-1,-1,-1,-1,-1,-1,-1,-1,-1,-1,-1,-1,-1,-1,-1,-1,-1,-1,-1,-1,-1,-1,-1,-1,-1,-1,-1,-1,-1,-1,-1,-1,-1,-1,-1,-1,-1,-1,-1,-1,-1,-1,-1,-1,-1,-1,-1,-1,-1,-1,-1,-1,-1,-1,-1,-1,-1,-1,-1,-1],"split_conditions":[4.139785E-1,3.091398E-1,5.174731E-1,2.4327958E-1,3.534946E-1,2.3455841E-2,2.032916E-2,2.1639785E-1,2.715054E-1,2.032916E-2,2.032916E-2,5.1209676E-1,4.717742E-1,4E-1,6.6263443E-1,1.4650537E-1,2.204301E-1,6.3666666E-1,6.168886E-1,1.2509019E-2,2.0953123E-2,7.03754E-1,5.06033E-1,7.561071E-1,1.5384616E-1,3.3333334E-3,4E-1,2.0769231E-1,8E-2,5.6317204E-1,4.7223665E-2,9.593741E-1,1.7741935E-1,3.3E-1,1.6E-1,2.0953123E-2,2.0953123E-2,3.3333334E-3,2.956989E-1,8.999217E-1,3.3768845E-1,3.172043E-1,3.6153847E-1,7.692308E-2,4E-1,2.4425274E-1,3.3333334E-3,1.2509019E-2,9.382336E-3,-8.1911765E-2,7.81785E-3,8E-2,5.7466805E-1,5.316734E-2,5.06033E-1,5.516066E-1,7.333333E-2,5.6317204E-1,2.9195753E-1,4.499009E-1,1E0,5.3333335E-2,1.9E-1,-6.355868E-2,2.776017E-2,-7.090662E-2,-5.2480686E-2,-3.4983233E-2,4.1853946E-2,-4.366057E-2,-3.5367312E-3,-1.749982E-2,-3.662103E-2,-2.9749526E-2,2.5374038E-2,-2.3231754E-2,-3.0580204E-2,8.480792E-3,4.350929E-2,-1.762749E-2,-7.4290985E-4,-6.031801E-2,-1.57597E-2,5.29514E-2,-4.6576327E-3,-1.2278408E-2,5.9322747E-3,-9.71034E-3,-3.3259973E-2,-7.640036E-3,3.388796E-2,2.3015434E-2,-2.2200575E-2,5.1760087E-3,-2.8328735E-3,-6.701499E-3,1.0629861E-2,1.0101493E-2,-8.77226E-2,2.4926975E-2,5.7457266E-3,2.8480718E-2,8.317145E-3,9.461476E-3,7.781803E-2,2.8623099E-2,4.371815E-2,-4.6491906E-2,2.3617452E-2,3.031461E-2,-9.085795E-3,-2.0218187E-3,-3.8562335E-2,2.4497852E-2,6.1038587E-2,7.097167E-2,-2.9886646E-2,5.786447E-2,4.2233974E-2,6.85446E-2,2.657454E-2,2.25803E-2,7.767672E-2,1.0312786E-1,5.3634256E-2],"split_indices":[4,4,4,4,4,0,0,4,4,0,0,4,4,10,4,4,4,14,0,0,0,1,1,1,9,14,10,9,14,4,0,1,4,14,7,0,0,14,4,1,4,4,9,9,10,0,14,0,0,0,0,7,0,0,1,1,14,4,1,1,10,14,14,0,0,0,0,0,0,0,0,0,0,0,0,0,0,0,0,0,0,0,0,0,0,0,0,0,0,0,0,0,0,0,0,0,0,0,0,0,0,0,0,0,0,0,0,0,0,0,0,0,0,0,0,0,0,0,0,0,0,0,0,0,0],"split_type":[0,0,0,0,0,0,0,0,0,0,0,0,0,0,0,0,0,0,0,0,0,0,0,0,0,0,0,0,0,0,0,0,0,0,0,0,0,0,0,0,0,0,0,0,0,0,0,0,0,0,0,0,0,0,0,0,0,0,0,0,0,0,0,0,0,0,0,0,0,0,0,0,0,0,0,0,0,0,0,0,0,0,0,0,0,0,0,0,0,0,0,0,0,0,0,0,0,0,0,0,0,0,0,0,0,0,0,0,0,0,0,0,0,0,0,0,0,0,0,0,0,0,0,0,0],"sum_hessian":[6.684E3,4.372E3,2.312E3,2.149E3,2.223E3,1.205E3,1.107E3,5.43E2,1.606E3,1.084E3,1.139E3,2.05E2,1E3,2.25E2,8.82E2,2.26E2,3.17E2,5.42E2,1.064E3,1.33E2,9.51E2,1.47E2,9.92E2,1.84E2,2.1E1,6.29E2,3.71E2,1.74E2,5.1E1,6.74E2,2.08E2,2.1E1,2.05E2,2.9E1,2.88E2,5.33E2,9E0,1.051E3,1.3E1,9.7E1,3.6E1,6E0,9.45E2,1.08E2,3.9E1,1.14E2,8.78E2,1.66E2,1.8E1,1.8E1,3E0,4.3E2,1.99E2,3.65E2,6E0,1E2,7.4E1,3.8E1,1.3E1,2.97E2,3.77E2,7E1,1.38E2,1.2E1,9E0,7.7E1,1.28E2,2.4E1,5E0,2.86E2,2E0,4.7E1,4.86E2,2E0,7E0,7.49E2,3.02E2,1E1,3E0,9.1E1,6E0,2.5E1,1.1E1,5E0,1E0,9.05E2,4E1,3.1E1,7.7E1,3.6E1,3E0,1.07E2,7E0,5.76E2,3.02E2,9.5E1,7.1E1,7E0,1.1E1,1E0,2E0,3.88E2,4.2E1,1.97E2,2E0,1.54E2,2.11E2,4E0,2E0,7E1,3E1,5.5E1,1.9E1,1.2E1,2.6E1,6E0,7E0,9.8E1,1.99E2,3.56E2,2.1E1,8E0,6.2E1,1.26E2,1.2E1],"tree_param":{"num_deleted":"0","num_feature":"15","num_nodes":"125","size_leaf_vector":"1"}},{"base_weights":[6.5447916E-3,-2.2820449E-1,4.4948426E-1,-4.0092185E-1,-6.6625364E-2,8.473956E-3,5.5089104E-1,-6.9385374E-1,-3.6387718E-1,-2.8305304E-1,-3.4226403E-2,7.735559E-2,-6.3626313E-1,3.1690776E-1,8.077368E-1,-7.2418344E-1,1.5159266E-1,-4.3678546E-1,-3.1497034E-1,-1.8663022E-1,-4.9609917E-1,-1.2424865E-1,6.805102E-2,3.0331982E-2,5.8942133E-1,-8.248033E-2,-1.5539902E-1,2.1362832E-1,4.1153336E-1,6.902789E-1,1.0357226E0,-1.4777659E-1,-7.583486E-1,6.1283904E-1,-4.4720892E-2,6.124331E-2,-4.427714E-1,-3.196283E-1,2.9916477E-1,-8.611312E-2,-2.4198622E-1,-1.8538953E-1,-7.3615795E-1,1.051653E-1,-1.2982035E-1,1.1888865E-1,-3.654297E-2,-4.051704E-1,6.675035E-2,4.339544E-1,9.5578265E-1,-5.3805795E-2,1.6440399E-1,2.743959E-1,9.490067E-2,4.7474653E-1,2.6477003E-1,6.1572176E-1,7.7030045E-1,8.369664E-1,1.1238562E0,4.1219372E-2,-2.3640165E-2,-6.2088646E-2,-2.7310887E-2,1.3049248E-2,5.166281E-2,-3.4863256E-2,3.2401057E-3,-2.7884964E-2,-1.9977136E-2,6.6820867E-3,7.740122E-2,-1.2938431E-2,2.4644695E-3,-3.4525655E-2,-1.347137E-2,-2.100547E-2,1.1695323E-2,-6.3132145E-2,-1.5769593E-2,3.6789514E-2,-1.0302416E-2,1.0732603E-2,-1.3973158E-2,-1.4729026E-2,1.9036016E-3,-1.3656559E-2,-4.8046507E-2,9.209861E-3,-2.3191363E-2,3.704429E-2,1.2242285E-2,1.7806131E-2,7.8717716E-2,2.1489527E-2,3.4503255E-3,2.3316607E-2,7.901165E-3,-8.797679E-3,1.381584E-2,3.464967E-2,4.878643E-2,4.9744777E-2,1.7933892E-2,3.906859E-2,5.5359386E-2,1.3492206E-2,6.0361885E-2,7.0163995E-2,-4.9133573E-2,7.3088124E-2,9.5603086E-2],"categories":[],"categories_nodes":[],"categories_segments":[],"categories_sizes":[],"default_left":[0,0,0,0,0,0,0,0,0,0,0,0,0,0,0,0,0,0,0,0,0,0,0,0,0,0,0,0,0,0,0,0,0,0,0,0,0,0,0,0,0,0,0,0,0,0,0,0,0,0,0,0,0,0,0,0,0,0,0,0,0,0,0,0,0,0,0,0,0,0,0,0,0,0,0,0,0,0,0,0,0,0,0,0,0,0,0,0,0,0,0,0,0,0,0,0,0,0,0,0,0,0,0,0,0,0,0,0,0,0,0,0,0],"id":8,"left_children":[1,3,5,7,9,11,13,15,17,19,21,23,25,27,29,31,33,35,37,39,41,43,45,47,49,-1,51,53,55,57,59,61,63,65,-1,-1,67,69,71,73,75,77,79,-1,81,83,85,87,89,91,93,-1,95,97,99,101,103,105,107,109,111,-1,-1,-1,-1,-1,-1,-1,-1,-1,-1,-1,-1,-1,-1,-1,-1,-1,-1,-1,-1,-1,-1,-1,-1,-1,-1,-1,-1,-1,-1,-1,-1,-1,-1,-1,-1,-1,-1,-1,-1,-1,-1,-1,-1,-1,-1,-1,-1,-1,-1,-1,-1],"loss_changes":[6.9520703E2,1.2192914E2,1.0357022E2,2.2666046E1,1.5830492E1,1.9323397E1,1.1290784E2,6.161316E0,6.5552673E0,5.946913E0,1.8109894E1,9.44524E0,8.520428E0,9.557915E0,2.3305603E1,4.3779526E0,3.3837528E0,5.8735657E0,3.3195267E0,1.114264E0,6.651085E0,8.824547E0,4.901588E0,5.7526093E0,1.464817E0,0E0,3.742478E0,3.3937683E0,4.642868E0,3.0755615E0,4.367035E0,1.6671684E0,3.5822144E0,3.410554E-2,0E0,0E0,2.9042358E0,2.7136993E0,1.256944E0,7.138838E-1,1.7380872E0,1.2303749E0,2.006586E0,0E0,2.194416E0,3.7148705E0,2.846637E0,1.2729678E0,6.441594E0,2.3415518E-1,1.7007351E-1,0E0,1.7783555E-1,1.4277306E0,2.8499715E0,1.212822E0,1.8058815E0,3.1007462E0,1.5652618E0,1.0593872E1,2.9860535E0,0E0,0E0,0E0,0E0,0E0,0E0,0E0,0E0,0E0,0E0,0E0,0E0,0E0,0E0,0E0,0E0,0E0,0E0,0E0,0E0,0E0,0E0,0E0,0E0,0E0,0E0,0E0,0E0,0E0,0E0,0E0,0E0,0E0,0E0,0E0,0E0,0E0,0E0,0E0,0E0,0E0,0E0,0E0,0E0,0E0,0E0,0E0,0E0,0E0,0E0,0E0,0E0],"parents":[2147483647,0,0,1,1,2,2,3,3,4,4,5,5,6,6,7,7,8,8,9,9,10,10,11,11,12,12,13,13,14,14,15,15,16,16,17,17,18,18,19,19,20,20,21,21,22,22,23,23,24,24,26,26,27,27,28,28,29,29,30,30,31,31,32,32,33,33,36,36,37,37,38,38,39,39,40,40,41,41,42,42,44,44,45,45,46,46,47,47,48,48,49,49,50,50,52,52,53,53,54,54,55,55,56,56,57,57,58,58,59,59,60,60],"right_children":[2,4,6,8,10,12,14,16,18,20,22,24,26,28,30,32,34,36,38,40,42,44,46,48,50,-1,52,54,56,58,60,62,64,66,-1,-1,68,70,72,74,76,78,80,-1,82,84,86,88,90,92,94,-1,96,98,100,102,104,106,108,110,112,-1,-1,-1,-1,-1,-1,-1,-1,-1,-1,-1,-1,-1,-1,-1,-1,-1,-1,-1,-1,-1,-1,-1,-1,-1,-1,-1,-1,-1,-1,-1,-1,-1,-1,-1,-1,-1,-1,-1,-1,-1,-1,-1,-1,-1,-1,-1,-1,-1,-1,-1,-1],"split_conditions":[4.139785E-1,3.077957E-1,2.0953123E-2,2.1639785E-1,2.032916E-2,2.0326871E-2,5.1478493E-1,2.9069766E-1,2.6747313E-1,1.2509019E-2,3.5752687E-1,1.7200189E-2,4.6511628E-2,4.5564517E-1,6.2903225E-1,1.3031466E-3,4.6911687E-2,3.802618E-3,6.168886E-1,7.831507E-2,1.627907E-1,3.802618E-3,3.3333334E-3,2.1884486E-3,5.860215E-1,-8.248033E-2,5.4542266E-2,3.3333334E-3,3E-2,5.6317204E-1,4.7223665E-2,8.287655E-2,4.354179E-1,3.1266822E-3,-4.4720892E-2,6.124331E-2,5.833333E-1,3.7738252E-1,2.956989E-1,3.5887095E-1,6.255654E-3,1.12466805E-1,1.7200189E-2,1.051653E-1,2.0953123E-2,4.2924184E-1,2.8333333E-1,1.89139E-1,1.7333333E-1,2.3628174E-1,1.3346545E-1,-5.3805795E-2,1.0206627E-1,3.0727145E-1,1E-1,2.4418604E-1,2.5559323E-2,8.489518E-2,1.4849713E-2,1.9767442E-1,6.72043E-1,4.1219372E-2,-2.3640165E-2,-6.2088646E-2,-2.7310887E-2,1.3049248E-2,5.166281E-2,-3.4863256E-2,3.2401057E-3,-2.7884964E-2,-1.9977136E-2,6.6820867E-3,7.740122E-2,-1.2938431E-2,2.4644695E-3,-3.4525655E-2,-1.347137E-2,-2.100547E-2,1.1695323E-2,-6.3132145E-2,-1.5769593E-2,3.6789514E-2,-1.0302416E-2,1.0732603E-2,-1.3973158E-2,-1.4729026E-2,1.9036016E-3,-1.3656559E-2,-4.8046507E-2,9.209861E-3,-2.3191363E-2,3.704429E-2,1.2242285E-2,1.7806131E-2,7.8717716E-2,2.1489527E-2,3.4503255E-3,2.3316607E-2,7.901165E-3,-8.797679E-3,1.381584E-2,3.464967E-2,4.878643E-2,4.9744777E-2,1.7933892E-2,3.906859E-2,5.5359386E-2,1.3492206E-2,6.0361885E-2,7.0163995E-2,-4.9133573E-2,7.3088124E-2,9.5603086E-2],"split_indices":[4,4,0,4,0,0,4,5,4,0,4,0,5,4,4,2,0,8,0,2,5,8,14,0,4,0,2,14,14,4,0,0,8,0,0,0,14,8,4,4,0,8,0,0,0,0,14,2,14,2,2,0,2,0,14,5,2,8,8,5,4,0,0,0,0,0,0,0,0,0,0,0,0,0,0,0,0,0,0,0,0,0,0,0,0,0,0,0,0,0,0,0,0,0,0,0,0,0,0,0,0,0,0,0,0,0,0,0,0,0,0,0,0],"split_type":[0,0,0,0,0,0,0,0,0,0,0,0,0,0,0,0,0,0,0,0,0,0,0,0,0,0,0,0,0,0,0,0,0,0,0,0,0,0,0,0,0,0,0,0,0,0,0,0,0,0,0,0,0,0,0,0,0,0,0,0,0,0,0,0,0,0,0,0,0,0,0,0,0,0,0,0,0,0,0,0,0,0,0,0,0,0,0,0,0,0,0,0,0,0,0,0,0,0,0,0,0,0,0,0,0,0,0,0,0,0,0,0,0],"sum_hessian":[6.684E3,4.369E3,2.315E3,2.111E3,2.258E3,4.33E2,1.882E3,2.35E2,1.876E3,2.93E2,1.965E3,3.92E2,4.1E1,9.86E2,8.96E2,2.27E2,8E0,7.5E2,1.126E3,2.03E2,9E1,1.045E3,9.2E2,3.6E2,3.2E1,2.1E1,2E1,4.73E2,5.13E2,5.94E2,3.02E2,1.3E1,2.14E2,5E0,3E0,3E0,7.47E2,1.118E3,8E0,7.3E1,1.3E2,4E1,5E1,3E0,1.042E3,6.19E2,3.01E2,2.7E1,3.33E2,2.4E1,8E0,7E0,1.3E1,3.12E2,1.61E2,3.57E2,1.56E2,3.12E2,2.82E2,9.6E1,2.06E2,2E0,1.1E1,1.92E2,2.2E1,1E0,4E0,7.35E2,1.2E1,6.68E2,4.5E2,7E0,1E0,4.3E1,3E1,3.1E1,9.9E1,3.2E1,8E0,4.3E1,7E0,5E0,1.037E3,5.81E2,3.8E1,8.5E1,2.16E2,1.4E1,1.3E1,2.92E2,4.1E1,2E1,4E0,1E0,7E0,6E0,7E0,2.69E2,4.3E1,4.6E1,1.15E2,3.08E2,4.9E1,1.1E1,1.45E2,1.51E2,1.61E2,5E0,2.77E2,9.2E1,4E0,8.3E1,1.23E2],"tree_param":{"num_deleted":"0","num_feature":"15","num_nodes":"113","size_leaf_vector":"1"}},{"base_weights":[-4.3609124E-4,6.424562E-2,-1.6831414E-1,-8.62524E-2,1.07436776E-1,-3.8765264E-1,-1.3388935E-1,-1.3157468E-1,2.2900118E-1,-3.252184E-2,1.7256255E-1,-2.5133988E-1,-7.7625996E-1,-9.440341E-2,-2.1821259E-1,-2.1273793E-1,-4.100416E-2,2.5950384E-1,-4.905976E-2,4.500272E-2,-3.5332257E-1,1.4599018E-1,3.881723E-1,-7.9399574E-1,-2.0057946E-1,-6.995146E-2,-6.760869E-1,-1.1202284E-1,1.626342E-1,-2.706885E-1,-4.980336E-2,-5.7982105E-1,-1.9561279E-1,5.303883E-2,-1.2886992E-1,-1.5407883E-1,3.2500872E-1,-3.355998E-2,2.974285E-1,2.2580868E-1,-4.452736E-1,8.6429246E-2,2.1801683E-1,2.2793344E-1,8.419894E-1,-3.6971852E-2,-6.9163375E-2,-5.5574827E-2,-2.7138197E-1,-8.242287E-1,3.802678E-2,1.01929545E-1,-1.258527E-1,-8.175912E-3,2.2848761E-1,-2.8295544E-1,-1.0526827E-1,-1.3422705E-1,1.8010202E-1,-1.5813615E-2,-5.245758E-2,-9.027333E-3,-1.8650936E-2,-2.339014E-2,9.430204E-3,-2.0396601E-2,4.564477E-3,4.0762457E-3,-2.1587258E-2,3.3892542E-2,1.2477933E-2,-3.602459E-2,2.936244E-3,1.0155506E-2,4.2102464E-2,1.0076069E-2,3.6052667E-2,-3.6057964E-2,4.59555E-3,2.621875E-3,2.587329E-2,3.369031E-2,1.1611305E-2,-3.0251628E-2,2.1959733E-2,7.04792E-2,3.8250731E-3,-7.1854484E-3,1.8172866E-2,-1.8241864E-2,-2.8798772E-2,-1.7970862E-2,-6.45955E-2,2.9403059E-2,-1.8816352E-2,-9.4338326E-4,2.2635834E-2,6.165507E-3,-1.0849714E-2,1.4857945E-2,-1.915756E-2,1.4503678E-2,3.329223E-2,-2.1130964E-2,-3.722651E-2,1.3516186E-2,-2.2128984E-2,-1.9760981E-2,-9.821517E-4,3.0737557E-2,-4.684458E-3],"categories":[],"categories_nodes":[],"categories_segments":[],"categories_sizes":[],"default_left":[0,0,0,0,0,0,0,0,0,0,0,0,0,0,0,0,0,0,0,0,0,0,0,0,0,0,0,0,0,0,0,0,0,0,0,0,0,0,0,0,0,0,0,0,0,0,0,0,0,0,0,0,0,0,0,0,0,0,0,0,0,0,0,0,0,0,0,0,0,0,0,0,0,0,0,0,0,0,0,0,0,0,0,0,0,0,0,0,0,0,0,0,0,0,0,0,0,0,0,0,0,0,0,0,0,0,0,0,0,0,0],"id":9,"left_children":[1,3,5,7,9,11,13,15,17,19,21,23,25,27,29,31,33,35,-1,37,39,41,43,45,47,-1,49,51,53,55,57,59,61,63,65,67,69,71,73,75,77,79,81,83,85,-1,-1,87,89,91,93,95,97,99,101,103,105,107,109,-1,-1,-1,-1,-1,-1,-1,-1,-1,-1,-1,-1,-1,-1,-1,-1,-1,-1,-1,-1,-1,-1,-1,-1,-1,-1,-1,-1,-1,-1,-1,-1,-1,-1,-1,-1,-1,-1,-1,-1,-1,-1,-1,-1,-1,-1,-1,-1,-1,-1,-1,-1],"loss_changes":[7.382784E1,3.191217E1,1.4226444E1,1.5675503E1,3.4769894E1,1.3365761E1,5.426594E0,7.033531E0,3.7984219E0,3.0158264E1,1.4856598E1,5.101919E0,2.3554993E-1,5.072421E0,4.5908203E0,3.0611858E0,3.7583091E0,3.6803617E0,0E0,1.9385113E1,1.2667952E1,9.929611E0,2.0533031E1,7.912922E-2,1.7918549E0,0E0,4.368738E0,3.1049147E0,8.117552E-1,7.758064E-1,2.4503572E0,6.7377234E-1,1.7100735E0,5.423028E0,5.968519E0,5.0585663E-1,2.0781898E0,2.3076845E1,9.444529E0,6.969001E-1,2.1797485E0,1.6552208E1,1.542997E1,7.456828E0,4.0135117E0,0E0,0E0,6.615643E-1,3.3553886E-1,2.523613E-2,8.623473E-1,1.3965896E0,2.9216595E0,1.0548335E0,3.4956312E-1,5.83025E-1,1.5183733E0,1.3524513E0,1.8020608E0,0E0,0E0,0E0,0E0,0E0,0E0,0E0,0E0,0E0,0E0,0E0,0E0,0E0,0E0,0E0,0E0,0E0,0E0,0E0,0E0,0E0,0E0,0E0,0E0,0E0,0E0,0E0,0E0,0E0,0E0,0E0,0E0,0E0,0E0,0E0,0E0,0E0,0E0,0E0,0E0,0E0,0E0,0E0,0E0,0E0,0E0,0E0,0E0,0E0,0E0,0E0,0E0],"parents":[2147483647,0,0,1,1,2,2,3,3,4,4,5,5,6,6,7,7,8,8,9,9,10,10,11,11,12,12,13,13,14,14,15,15,16,16,17,17,19,19,20,20,21,21,22,22,23,23,24,24,26,26,27,27,28,28,29,29,30,30,31,31,32,32,33,33,34,34,35,35,36,36,37,37,38,38,39,39,40,40,41,41,42,42,43,43,44,44,47,47,48,48,49,49,50,50,51,51,52,52,53,53,54,54,55,55,56,56,57,57,58,58],"right_children":[2,4,6,8,10,12,14,16,18,20,22,24,26,28,30,32,34,36,-1,38,40,42,44,46,48,-1,50,52,54,56,58,60,62,64,66,68,70,72,74,76,78,80,82,84,86,-1,-1,88,90,92,94,96,98,100,102,104,106,108,110,-1,-1,-1,-1,-1,-1,-1,-1,-1,-1,-1,-1,-1,-1,-1,-1,-1,-1,-1,-1,-1,-1,-1,-1,-1,-1,-1,-1,-1,-1,-1,-1,-1,-1,-1,-1,-1,-1,-1,-1,-1,-1,-1,-1,-1,-1,-1,-1,-1,-1,-1,-1],"split_conditions":[3.2185328E-1,1.23902045E-1,2.032916E-2,3.6153847E-1,3.2211926E-2,1.0944533E-2,2.0672339E-1,9.175859E-2,7.692308E-1,2.3255815E-1,7.692308E-2,1.3953489E-1,3.3333334E-3,1.6919404E-1,5.4427236E-1,1.5029042E-2,1.0864684E-1,6.934003E-2,-4.905976E-2,2.6923078E-1,7.81785E-3,8.4397905E-2,1.3338599E-1,7.706649E-2,6.255654E-3,-6.995146E-2,3.076923E-2,1.2790698E-1,7.706649E-2,1.9767442E-1,3.3244672E-1,3.0727145E-1,8.710233E-2,3.3346504E-2,1.6845222E-1,1.15108654E-1,4.1538462E-1,4.6511628E-2,2.4706058E-2,4.651163E-1,3.9333335E-1,4.1797787E-1,8.139535E-2,3.5087477E-2,1.911869E-1,-3.6971852E-2,-6.9163375E-2,1.5853113E-1,1.827438E-1,2.2666667E-1,1.4073505E-2,9.175859E-2,2.9711496E-2,6.842866E-2,1.3573141E-1,3.076923E-2,3.6434665E-1,6.094027E-1,3.6997607E-1,-1.5813615E-2,-5.245758E-2,-9.027333E-3,-1.8650936E-2,-2.339014E-2,9.430204E-3,-2.0396601E-2,4.564477E-3,4.0762457E-3,-2.1587258E-2,3.3892542E-2,1.2477933E-2,-3.602459E-2,2.936244E-3,1.0155506E-2,4.2102464E-2,1.0076069E-2,3.6052667E-2,-3.6057964E-2,4.59555E-3,2.621875E-3,2.587329E-2,3.369031E-2,1.1611305E-2,-3.0251628E-2,2.1959733E-2,7.04792E-2,3.8250731E-3,-7.1854484E-3,1.8172866E-2,-1.8241864E-2,-2.8798772E-2,-1.7970862E-2,-6.45955E-2,2.9403059E-2,-1.8816352E-2,-9.4338326E-4,2.2635834E-2,6.165507E-3,-1.0849714E-2,1.4857945E-2,-1.915756E-2,1.4503678E-2,3.329223E-2,-2.1130964E-2,-3.722651E-2,1.3516186E-2,-2.2128984E-2,-1.9760981E-2,-9.821517E-4,3.0737557E-2,-4.684458E-3],"split_indices":[8,3,0,9,0,0,0,3,9,5,9,5,14,0,8,3,8,3,0,9,0,8,8,3,0,0,9,5,3,5,0,0,8,8,8,8,9,5,0,5,14,3,5,8,8,0,0,3,3,14,0,3,0,3,3,9,0,8,0,0,0,0,0,0,0,0,0,0,0,0,0,0,0,0,0,0,0,0,0,0,0,0,0,0,0,0,0,0,0,0,0,0,0,0,0,0,0,0,0,0,0,0,0,0,0,0,0,0,0,0,0],"split_type":[0,0,0,0,0,0,0,0,0,0,0,0,0,0,0,0,0,0,0,0,0,0,0,0,0,0,0,0,0,0,0,0,0,0,0,0,0,0,0,0,0,0,0,0,0,0,0,0,0,0,0,0,0,0,0,0,0,0,0,0,0,0,0,0,0,0,0,0,0,0,0,0,0,0,0,0,0,0,0,0,0,0,0,0,0,0,0,0,0,0,0,0,0,0,0,0,0,0,0,0,0,0,0,0,0,0,0,0,0,0,0],"sum_hessian":[6.797E3,4.907E3,1.89E3,1.094E3,3.813E3,2.55E2,1.635E3,9.57E2,1.37E2,1.211E3,2.602E3,1.9E2,6.5E1,1.115E3,5.2E2,5.04E2,4.53E2,1.33E2,4E0,9.76E2,2.35E2,2.318E3,2.84E2,1.5E1,1.75E2,2.5E1,4E1,1.044E3,7.1E1,3.96E2,1.24E2,2.1E1,4.83E2,2.19E2,2.34E2,1.8E1,1.15E2,7.45E2,2.31E2,3.2E1,2.03E2,1.27E3,1.048E3,2.11E2,7.3E1,5E0,1E1,5.8E1,1.17E2,3.3E1,7E0,6.3E1,9.81E2,2E1,5.1E1,3.68E2,2.8E1,9.1E1,3.3E1,5E0,1.6E1,1.78E2,3.05E2,3.5E1,1.84E2,1.36E2,9.8E1,7E0,1.1E1,6.7E1,4.8E1,1.05E2,6.4E2,1.39E2,9.2E1,2.4E1,8E0,1.95E2,8E0,1.049E3,2.21E2,2.48E2,8E2,1.7E1,1.94E2,6.7E1,6E0,5.2E1,6E0,8.9E1,2.8E1,1E0,3.2E1,3E0,4E0,4E1,2.3E1,6.4E1,9.17E2,1.1E1,9E0,4.4E1,7E0,3.53E2,1.5E1,1.1E1,1.7E1,4.5E1,4.6E1,1.7E1,1.6E1],"tree_param":{"num_deleted":"0","num_feature":"15","num_nodes":"111","size_leaf_vector":"1"}},{"base_weights":[8.255006E-4,-2.074608E-1,3.9820045E-1,-3.5855448E-1,-5.3086773E-2,2.2030458E-1,5.9384733E-1,-5.1967704E-1,-2.9498905E-1,-1.2927806E-1,1.8220754E-2,2.494744E-1,-4.2228612E-1,7.1136093E-1,2.1145213E-1,-6.376419E-1,-4.4575083E-1,-3.6226943E-1,-2.6625976E-1,-1.16750926E-1,-2.4032994E-1,5.7526138E-2,-2.5732493E-1,2.932965E-1,-3.235266E-2,-8.0338717E-1,-2.5544833E-2,6.011635E-1,8.727707E-1,1.7226093E-1,6.4928246E-1,3.5910153E-1,-6.560575E-1,-4.5019355E-1,9.551883E-2,-2.8751928E-1,-3.9382517E-1,-2.584026E-1,-4.6769318E-1,-1.2254351E-1,5.8064353E-1,-1.8237256E-1,-3.3924386E-1,3.8052949E-3,1.1211629E-1,-1.6524453E-2,-3.5931578E-1,2.3087671E-1,4.0927267E-1,-3.8522172E-1,8.7538145E-2,1.6273549E-2,-7.2620526E-2,-4.4237873E-1,2.074487E-1,3.7045312E-1,6.3216555E-1,7.4594647E-1,9.743112E-1,9.939959E-2,4.2746225E-1,7.1978676E-1,-2.942344E-2,-2.6472908E-2,4.7956347E-2,-5.3044725E-2,-2.168744E-2,-1.9598145E-2,-3.5954494E-2,-2.9503352E-3,1.9201951E-2,-2.5664696E-2,-1.9206167E-3,-2.7670326E-2,-3.4749668E-2,-2.1989876E-2,-1.5806517E-2,-1.4067026E-2,-3.6948364E-2,-1.25356475E-2,-6.69817E-3,7.768227E-2,9.713099E-3,-1.7685277E-2,-2.1181942E-3,-1.0019215E-2,-3.4273975E-2,8.00472E-3,-2.6457983E-3,6.0469774E-3,1.8239545E-2,-1.9156791E-2,1.0026128E-2,-2.9577184E-2,2.1988425E-2,1.1821987E-2,2.1554641E-2,3.2461464E-2,-6.8104244E-3,-3.3522617E-2,1.21215265E-2,1.2205173E-2,-1.5021731E-2,2.3831185E-2,-4.331501E-2,3.2156166E-2,-8.111642E-3,-1.7929537E-2,3.905292E-2,4.3781783E-2,5.58314E-2,5.181359E-2,8.147666E-2,1.4743085E-2,7.661955E-2,3.2414008E-2,3.6972642E-3,-4.678455E-2,3.8790077E-2,6.403329E-2,6.230107E-3],"categories":[],"categories_nodes":[],"categories_segments":[],"categories_sizes":[],"default_left":[0,0,0,0,0,0,0,0,0,0,0,0,0,0,0,0,0,0,0,0,0,0,0,0,0,0,0,0,0,0,0,0,0,0,0,0,0,0,0,0,0,0,0,0,0,0,0,0,0,0,0,0,0,0,0,0,0,0,0,0,0,0,0,0,0,0,0,0,0,0,0,0,0,0,0,0,0,0,0,0,0,0,0,0,0,0,0,0,0,0,0,0,0,0,0,0,0,0,0,0,0,0,0,0,0,0,0,0,0,0,0,0,0,0,0,0,0,0,0,0,0],"id":10,"left_children":[1,3,5,7,9,11,13,15,17,19,21,23,25,27,29,31,33,35,37,39,41,43,45,47,49,51,53,55,57,59,61,63,65,67,69,71,73,75,77,79,81,83,85,87,89,91,93,95,97,99,101,-1,-1,103,105,107,109,111,113,115,117,119,-1,-1,-1,-1,-1,-1,-1,-1,-1,-1,-1,-1,-1,-1,-1,-1,-1,-1,-1,-1,-1,-1,-1,-1,-1,-1,-1,-1,-1,-1,-1,-1,-1,-1,-1,-1,-1,-1,-1,-1,-1,-1,-1,-1,-1,-1,-1,-1,-1,-1,-1,-1,-1,-1,-1,-1,-1,-1,-1],"loss_changes":[5.5619916E2,1.0282065E2,8.030298E1,2.2665497E1,1.1857187E1,2.2823395E1,4.9279877E1,5.2010803E0,2.996231E0,1.4396172E0,1.2231526E1,1.4335785E1,7.992999E0,1.4434143E1,4.3495207E0,4.64093E0,9.808426E-1,1.0095558E0,1.6596832E0,3.908884E0,5.458069E-1,2.8970103E0,3.4569445E0,7.173668E0,6.675725E0,3.906145E0,2.714E0,3.3635254E0,3.638794E0,4.4201446E0,1.7983484E0,1.1271316E0,2.4437408E0,9.977112E-1,9.1128364E-2,1.6786575E0,5.034981E-1,1.4603806E0,3.0251503E-2,1.3257132E0,1.4162822E0,4.885769E-1,7.703247E-1,1.8943213E0,2.0385394E0,1.484695E0,1.5788527E0,2.4002724E0,1.8482704E0,1.1122537E0,2.3664098E0,0E0,0E0,1.0552546E0,1.2145164E0,5.1371326E0,2.2119904E0,2.9193497E0,2.1695862E0,3.0809464E0,4.35406E0,1.3149633E0,0E0,0E0,0E0,0E0,0E0,0E0,0E0,0E0,0E0,0E0,0E0,0E0,0E0,0E0,0E0,0E0,0E0,0E0,0E0,0E0,0E0,0E0,0E0,0E0,0E0,0E0,0E0,0E0,0E0,0E0,0E0,0E0,0E0,0E0,0E0,0E0,0E0,0E0,0E0,0E0,0E0,0E0,0E0,0E0,0E0,0E0,0E0,0E0,0E0,0E0,0E0,0E0,0E0,0E0,0E0,0E0,0E0,0E0,0E0],"parents":[2147483647,0,0,1,1,2,2,3,3,4,4,5,5,6,6,7,7,8,8,9,9,10,10,11,11,12,12,13,13,14,14,15,15,16,16,17,17,18,18,19,19,20,20,21,21,22,22,23,23,24,24,25,25,26,26,27,27,28,28,29,29,30,30,31,31,32,32,33,33,34,34,35,35,36,36,37,37,38,38,39,39,40,40,41,41,42,42,43,43,44,44,45,45,46,46,47,47,48,48,49,49,50,50,53,53,54,54,55,55,56,56,57,57,58,58,59,59,60,60,61,61],"right_children":[2,4,6,8,10,12,14,16,18,20,22,24,26,28,30,32,34,36,38,40,42,44,46,48,50,52,54,56,58,60,62,64,66,68,70,72,74,76,78,80,82,84,86,88,90,92,94,96,98,100,102,-1,-1,104,106,108,110,112,114,116,118,120,-1,-1,-1,-1,-1,-1,-1,-1,-1,-1,-1,-1,-1,-1,-1,-1,-1,-1,-1,-1,-1,-1,-1,-1,-1,-1,-1,-1,-1,-1,-1,-1,-1,-1,-1,-1,-1,-1,-1,-1,-1,-1,-1,-1,-1,-1,-1,-1,-1,-1,-1,-1,-1,-1,-1,-1,-1,-1,-1],"split_conditions":[4.139785E-1,3.1182796E-1,5.174731E-1,2.4865592E-1,3.534946E-1,4.4444445E-1,1.4E-1,2.1639785E-1,2.715054E-1,4.3E-1,3.35E-1,2.85E-1,2.4113475E-1,6.1021507E-1,3.274066E-1,1.2765957E-1,5.05E-1,3.5783052E-2,6.524823E-1,3E-1,2.0580181E-1,3.844086E-1,7.75074E-2,4.7311828E-1,9.774878E-2,5.850245E-2,5.4542266E-2,5.100277E-2,1.4938004E-1,4E-1,4.6671528E-1,1.4199624E-2,2.6E-1,2.204301E-1,9.685035E-2,2.9564872E-2,1.6137028E-1,2.9704303E-1,1.5500861E-1,3.293011E-1,3.172043E-1,3.3768845E-1,2.5531915E-1,5.15736E-2,1.8371604E-1,7.931596E-2,4.1129032E-1,4.3145162E-1,4E-1,1E0,3.400565E-1,1.6273549E-2,-7.2620526E-2,3.2375142E-2,3.6879432E-1,1.4921378E-1,5.6317204E-1,3.4042552E-1,7.3613085E-2,1.08867206E-1,1.1871762E-1,8.360215E-1,-2.942344E-2,-2.6472908E-2,4.7956347E-2,-5.3044725E-2,-2.168744E-2,-1.9598145E-2,-3.5954494E-2,-2.9503352E-3,1.9201951E-2,-2.5664696E-2,-1.9206167E-3,-2.7670326E-2,-3.4749668E-2,-2.1989876E-2,-1.5806517E-2,-1.4067026E-2,-3.6948364E-2,-1.25356475E-2,-6.69817E-3,7.768227E-2,9.713099E-3,-1.7685277E-2,-2.1181942E-3,-1.0019215E-2,-3.4273975E-2,8.00472E-3,-2.6457983E-3,6.0469774E-3,1.8239545E-2,-1.9156791E-2,1.0026128E-2,-2.9577184E-2,2.1988425E-2,1.1821987E-2,2.1554641E-2,3.2461464E-2,-6.8104244E-3,-3.3522617E-2,1.21215265E-2,1.2205173E-2,-1.5021731E-2,2.3831185E-2,-4.331501E-2,3.2156166E-2,-8.111642E-3,-1.7929537E-2,3.905292E-2,4.3781783E-2,5.58314E-2,5.181359E-2,8.147666E-2,1.4743085E-2,7.661955E-2,3.2414008E-2,3.6972642E-3,-4.678455E-2,3.8790077E-2,6.403329E-2,6.230107E-3],"split_indices":[4,4,4,4,4,13,11,4,4,11,11,11,6,4,3,6,11,2,6,11,3,4,2,4,3,2,2,2,2,10,2,2,11,4,2,2,3,4,3,4,4,4,6,2,2,3,4,4,10,10,2,0,0,2,6,3,4,6,3,3,3,4,0,0,0,0,0,0,0,0,0,0,0,0,0,0,0,0,0,0,0,0,0,0,0,0,0,0,0,0,0,0,0,0,0,0,0,0,0,0,0,0,0,0,0,0,0,0,0,0,0,0,0,0,0,0,0,0,0,0,0],"split_type":[0,0,0,0,0,0,0,0,0,0,0,0,0,0,0,0,0,0,0,0,0,0,0,0,0,0,0,0,0,0,0,0,0,0,0,0,0,0,0,0,0,0,0,0,0,0,0,0,0,0,0,0,0,0,0,0,0,0,0,0,0,0,0,0,0,0,0,0,0,0,0,0,0,0,0,0,0,0,0,0,0,0,0,0,0,0,0,0,0,0,0,0,0,0,0,0,0,0,0,0,0,0,0,0,0,0,0,0,0,0,0,0,0,0,0,0,0,0,0,0,0],"sum_hessian":[6.718E3,4.408E3,2.31E3,2.227E3,2.181E3,1.211E3,1.099E3,6.28E2,1.599E3,1.054E3,1.127E3,1.159E3,5.2E1,8.4E2,2.59E2,2.39E2,3.89E2,4.75E2,1.124E3,9.49E2,1.05E2,9.87E2,1.4E2,1.003E3,1.56E2,2.6E1,2.6E1,5.02E2,3.38E2,2.39E2,2E1,4E0,2.35E2,3.86E2,3E0,1.44E2,3.31E2,1.084E3,4E1,9.42E2,7E0,6.8E1,3.7E1,4.98E2,4.89E2,4.2E1,9.8E1,6.54E2,3.49E2,3.9E1,1.17E2,3E0,2.3E1,9E0,1.7E1,6.1E1,4.41E2,1.54E2,1.84E2,1.87E2,5.2E1,1.9E1,1E0,1E0,3E0,2.17E2,1.8E1,2.8E1,3.58E2,2E0,1E0,1.23E2,2.1E1,2.05E2,1.26E2,7.3E2,3.54E2,2E0,3.8E1,4.47E2,4.95E2,3E0,4E0,5.2E1,1.6E1,1.3E1,2.4E1,1.37E2,3.61E2,3.85E2,1.04E2,1.6E1,2.6E1,9.5E1,3E0,2.5E2,4.04E2,3.42E2,7E0,3.6E1,3E0,9.4E1,2.3E1,1E0,8E0,1E1,7E0,1.1E1,5E1,2.58E2,1.83E2,1.26E2,2.8E1,4E0,1.8E2,2.5E1,1.62E2,3E0,4.9E1,1.6E1,3E0],"tree_param":{"num_deleted":"0","num_feature":"15","num_nodes":"121","size_leaf_vector":"1"}},{"base_weights":[-1.0331167E-3,-1.9337764E-1,3.599832E-1,-3.333554E-1,-5.6401037E-2,2.0074451E-1,5.4430336E-1,-4.4862038E-1,-2.599039E-1,-1.2701963E-1,2.4059203E-2,2.3713222E-1,-6.5344594E-2,6.542943E-1,1.3531375E-1,-5.574224E-1,-4.0471774E-1,-1.8954597E-1,-2.8049737E-1,-7.218936E-2,-1.488663E-1,6.7712985E-2,-2.216118E-1,2.944562E-1,9.478599E-2,2.8613028E-1,-1.1770665E-1,5.841297E-1,8.53841E-1,-2.1136326E-1,2.0902288E-1,-1.9390075E-1,-5.7908344E-1,-4.1326028E-1,1.6085515E-2,-1.4389051E-1,-3.1775594E-1,-2.7068982E-1,-4.0301237E-1,2.0747286E-1,-9.131005E-2,-1.6292585E-1,-7.3050864E-2,5.4015562E-2,3.6275423E-1,-3.0344117E-1,-3.5060503E-2,2.1786551E-1,3.9684054E-1,1.3833125E-1,-4.993627E-1,1.393128E-1,4.1682217E-2,-2.78511E-1,-2.3622885E-2,7.507515E-1,5.175882E-1,8.854086E-1,4.7328892E-1,2.3839207E-1,-4.5339906E-1,2.6356098E-1,-2.0080155E-1,-2.4912275E-2,1.8494682E-2,-4.6682697E-2,-2.0339893E-2,-3.3674352E-2,-1.827265E-2,3.3641037E-2,-2.3208972E-2,-1.8465843E-2,-5.3686923E-3,-2.9599361E-2,-1.5847918E-2,-2.1156281E-2,1.7133143E-2,-4.2774204E-2,-2.3597362E-2,6.5558037E-4,1.1331249E-1,-9.062967E-3,2.667099E-3,-1.2182555E-2,-2.4638886E-2,-1.2901952E-2,2.7268515E-3,1.1507304E-2,1.9320624E-3,1.8108435E-2,3.8660765E-2,1.1875198E-2,-2.5644952E-2,-5.8716666E-3,3.430373E-2,-2.9680695E-2,1.7648416E-2,3.3673376E-2,1.4517466E-2,1.9839773E-2,3.7954266E-3,1.1616446E-2,-5.408507E-2,1.2953812E-2,2.091673E-3,-2.5635079E-2,1.2061237E-2,-3.5401087E-2,3.641916E-3,5.9017304E-2,-1.7213674E-2,4.104356E-2,2.4174384E-3,7.049237E-2,3.8758893E-2,-1.8229589E-2,4.8029542E-2,-4.2776526E-3,6.472854E-2,1.8019574E-2,-4.795448E-2,4.2858623E-2,1.35400705E-2,-2.2911167E-2,2.524874E-2],"categories":[],"categories_nodes":[],"categories_segments":[],"categories_sizes":[],"default_left":[0,0,0,0,0,0,0,0,0,0,0,0,0,0,0,0,0,0,0,0,0,0,0,0,0,0,0,0,0,0,0,0,0,0,0,0,0,0,0,0,0,0,0,0,0,0,0,0,0,0,0,0,0,0,0,0,0,0,0,0,0,0,0,0,0,0,0,0,0,0,0,0,0,0,0,0,0,0,0,0,0,0,0,0,0,0,0,0,0,0,0,0,0,0,0,0,0,0,0,0,0,0,0,0,0,0,0,0,0,0,0,0,0,0,0,0,0,0,0,0,0,0,0,0,0],"id":11,"left_children":[1,3,5,7,9,11,13,15,17,19,21,23,25,27,29,31,33,35,37,39,41,43,45,47,49,51,53,55,57,59,61,63,65,67,69,71,73,75,77,79,81,83,85,87,89,91,93,95,97,99,101,103,-1,105,107,109,111,113,115,117,119,121,123,-1,-1,-1,-1,-1,-1,-1,-1,-1,-1,-1,-1,-1,-1,-1,-1,-1,-1,-1,-1,-1,-1,-1,-1,-1,-1,-1,-1,-1,-1,-1,-1,-1,-1,-1,-1,-1,-1,-1,-1,-1,-1,-1,-1,-1,-1,-1,-1,-1,-1,-1,-1,-1,-1,-1,-1,-1,-1,-1,-1,-1,-1],"loss_changes":[4.6746698E2,8.419197E1,6.857184E1,1.82724E1,1.2622751E1,1.2186241E1,4.8675354E1,3.8059387E0,1.8724442E0,1.4063206E0,1.1157728E1,8.996891E0,2.831079E0,1.1458191E1,5.9469833E0,1.7775421E0,2.1814651E0,1.733737E0,1.1237259E0,1.8316907E0,8.888092E-1,3.5488777E0,2.386025E0,6.0927887E0,8.322359E0,6.671151E-1,2.005588E0,6.651825E0,2.223816E0,4.5712194E0,4.321974E0,9.0954775E-1,1.5884094E0,2.2170029E0,1.8518921E0,1.5799427E0,5.0044584E-1,1.3878632E0,9.18313E-1,5.492798E0,1.0385149E0,5.507431E-1,1.3664961E0,2.3212519E0,5.7066345E-1,1.4510622E0,9.9160486E-1,2.8951893E0,2.6243248E0,3.130684E0,2.9612641E0,3.9734036E-2,0E0,1.1780753E0,2.6303146E0,2.3048935E0,2.8825989E0,1.558136E0,2.1354203E0,2.6827247E0,3.231502E0,4.2488165E0,1.2536126E0,0E0,0E0,0E0,0E0,0E0,0E0,0E0,0E0,0E0,0E0,0E0,0E0,0E0,0E0,0E0,0E0,0E0,0E0,0E0,0E0,0E0,0E0,0E0,0E0,0E0,0E0,0E0,0E0,0E0,0E0,0E0,0E0,0E0,0E0,0E0,0E0,0E0,0E0,0E0,0E0,0E0,0E0,0E0,0E0,0E0,0E0,0E0,0E0,0E0,0E0,0E0,0E0,0E0,0E0,0E0,0E0,0E0,0E0,0E0,0E0,0E0,0E0],"parents":[2147483647,0,0,1,1,2,2,3,3,4,4,5,5,6,6,7,7,8,8,9,9,10,10,11,11,12,12,13,13,14,14,15,15,16,16,17,17,18,18,19,19,20,20,21,21,22,22,23,23,24,24,25,25,26,26,27,27,28,28,29,29,30,30,31,31,32,32,33,33,34,34,35,35,36,36,37,37,38,38,39,39,40,40,41,41,42,42,43,43,44,44,45,45,46,46,47,47,48,48,49,49,50,50,51,51,53,53,54,54,55,55,56,56,57,57,58,58,59,59,60,60,61,61,62,62],"right_children":[2,4,6,8,10,12,14,16,18,20,22,24,26,28,30,32,34,36,38,40,42,44,46,48,50,52,54,56,58,60,62,64,66,68,70,72,74,76,78,80,82,84,86,88,90,92,94,96,98,100,102,104,-1,106,108,110,112,114,116,118,120,122,124,-1,-1,-1,-1,-1,-1,-1,-1,-1,-1,-1,-1,-1,-1,-1,-1,-1,-1,-1,-1,-1,-1,-1,-1,-1,-1,-1,-1,-1,-1,-1,-1,-1,-1,-1,-1,-1,-1,-1,-1,-1,-1,-1,-1,-1,-1,-1,-1,-1,-1,-1,-1,-1,-1,-1,-1,-1,-1,-1,-1,-1,-1],"split_conditions":[4.139785E-1,3.091398E-1,5.2150536E-1,2.594086E-1,3.5752687E-1,5E-1,2.85E-1,2.1639785E-1,6.3590896E-1,4.994329E-2,9E-2,6.407187E-1,2.5652472E-2,6.532258E-1,4.85E-1,1.3031466E-3,2.2E-1,2.4761344E-1,2.5E-1,6.514005E-1,3.4811828E-1,1E-2,6.9648063E-1,4.7311828E-1,5.1209676E-1,1.9899689E-2,2.0769231E-1,4.1854462E-1,4E-1,3.7E-1,4.3846154E-1,1.7069893E-1,2.6E-1,2E-2,2.4462366E-1,1.5449192E-1,2.9301074E-1,1.05E-1,6.84711E-1,6.4919513E-1,3.9496798E-2,8E-2,1.4142826E-1,5.491232E-1,3.9247313E-1,6.153846E-2,4E-1,3.0824187E-1,5.9519255E-1,5.15736E-2,6.558771E-1,7.7281207E-1,4.1682217E-2,5.9519255E-1,4.422043E-1,4.2307693E-1,1.4E-1,5.785711E-1,6.6263443E-1,3.6E-1,9.2827655E-2,3.461679E-1,7.903226E-1,-2.4912275E-2,1.8494682E-2,-4.6682697E-2,-2.0339893E-2,-3.3674352E-2,-1.827265E-2,3.3641037E-2,-2.3208972E-2,-1.8465843E-2,-5.3686923E-3,-2.9599361E-2,-1.5847918E-2,-2.1156281E-2,1.7133143E-2,-4.2774204E-2,-2.3597362E-2,6.5558037E-4,1.1331249E-1,-9.062967E-3,2.667099E-3,-1.2182555E-2,-2.4638886E-2,-1.2901952E-2,2.7268515E-3,1.1507304E-2,1.9320624E-3,1.8108435E-2,3.8660765E-2,1.1875198E-2,-2.5644952E-2,-5.8716666E-3,3.430373E-2,-2.9680695E-2,1.7648416E-2,3.3673376E-2,1.4517466E-2,1.9839773E-2,3.7954266E-3,1.1616446E-2,-5.408507E-2,1.2953812E-2,2.091673E-3,-2.5635079E-2,1.2061237E-2,-3.5401087E-2,3.641916E-3,5.9017304E-2,-1.7213674E-2,4.104356E-2,2.4174384E-3,7.049237E-2,3.8758893E-2,-1.8229589E-2,4.8029542E-2,-4.2776526E-3,6.472854E-2,1.8019574E-2,-4.795448E-2,4.2858623E-2,1.35400705E-2,-2.2911167E-2,2.524874E-2],"split_indices":[4,4,4,4,4,11,11,4,1,2,11,1,2,4,11,2,7,2,11,1,4,11,1,4,4,2,9,1,10,11,9,4,11,11,4,2,4,11,1,1,2,7,2,1,4,9,10,1,1,2,1,1,0,1,4,9,11,1,4,11,2,1,4,0,0,0,0,0,0,0,0,0,0,0,0,0,0,0,0,0,0,0,0,0,0,0,0,0,0,0,0,0,0,0,0,0,0,0,0,0,0,0,0,0,0,0,0,0,0,0,0,0,0,0,0,0,0,0,0,0,0,0,0,0,0],"split_type":[0,0,0,0,0,0,0,0,0,0,0,0,0,0,0,0,0,0,0,0,0,0,0,0,0,0,0,0,0,0,0,0,0,0,0,0,0,0,0,0,0,0,0,0,0,0,0,0,0,0,0,0,0,0,0,0,0,0,0,0,0,0,0,0,0,0,0,0,0,0,0,0,0,0,0,0,0,0,0,0,0,0,0,0,0,0,0,0,0,0,0,0,0,0,0,0,0,0,0,0,0,0,0,0,0,0,0,0,0,0,0,0,0,0,0,0,0,0,0,0,0,0,0,0,0],"sum_hessian":[6.73E3,4.391E3,2.339E3,2.171E3,2.22E3,1.256E3,1.083E3,8.43E2,1.328E3,1.182E3,1.038E3,1.105E3,1.51E2,8.53E2,2.3E2,2.39E2,6.04E2,3.03E2,1.025E3,3.38E2,8.44E2,8.82E2,1.56E2,7.87E2,3.18E2,1.9E1,1.32E2,6.34E2,2.19E2,4E1,1.9E2,1.4E1,2.25E2,5.92E2,1.2E1,2.25E2,7.8E1,9.52E2,7.3E1,2.1E1,3.17E2,7.11E2,1.33E2,8.44E2,3.8E1,1.08E2,4.8E1,4.52E2,3.35E2,2.97E2,2.1E1,1.3E1,6E0,4.8E1,8.4E1,1.78E2,4.56E2,2.01E2,1.8E1,1.4E1,2.6E1,1.68E2,2.2E1,1.1E1,3E0,2.08E2,1.7E1,5.25E2,6.7E1,5E0,7E0,9.8E1,1.27E2,4.8E1,3E1,9.47E2,5E0,2.7E1,4.6E1,1.9E1,2E0,2.63E2,5.4E1,6.89E2,2.2E1,7.1E1,6.2E1,1.97E2,6.47E2,2.1E1,1.7E1,6E0,1.02E2,4.5E1,3E0,7E0,4.45E2,2.82E2,5.3E1,1.27E2,1.7E2,5E0,1.6E1,1E1,3E0,4.3E1,5E0,1.1E1,7.3E1,1.76E2,2E0,4.44E2,1.2E1,1.87E2,1.4E1,3E0,1.5E1,1E1,4E0,5E0,2.1E1,3.8E1,1.3E2,1.9E1,3E0],"tree_param":{"num_deleted":"0","num_feature":"15","num_nodes":"125","size_leaf_vector":"1"}},{"base_weights":[2.2673083E-3,-2.0787501E-1,2.98111E-1,-3.3137456E-1,-9.988992E-2,1.6087508E-1,5.062801E-1,-4.7056818E-1,-2.8083158E-1,1.0034636E-1,-1.0249256E-1,-1.19719595E-1,2.1087645E-1,7.445002E-2,6.251334E-1,-5.938828E-1,-4.1282034E-1,-3.2393005E-1,-2.1688914E-1,-1.4779313E-1,-2.6209034E-2,-1.8289875E-2,-6.24084E-1,1.4001341E-1,3.296445E-1,1.3040121E-1,-2.60187E-1,5.5841756E-1,8.446449E-1,-6.2730414E-1,4.0803928E-2,6.126138E-2,-4.260136E-1,-3.4506845E-1,-1.7254473E-1,-2.6928464E-1,-1.6985172E-1,-1.3092667E-1,-3.0423445E-1,-1.2479368E-1,4.7897227E-2,3.5329014E-2,-2.5375575E-1,-6.777505E-2,-9.4993845E-2,1.699798E-1,-7.09904E-2,2.1474771E-1,4.1308585E-1,7.995105E-2,4.5186824E-1,-3.3573392E-1,1.6091214E-1,6.160593E-1,3.943369E-1,9.29327E-1,6.641047E-1,8.683854E-3,-4.9352657E-2,-2.0309983E-2,-3.5988867E-2,1.8662004E-2,-2.7699064E-2,-7.1575637E-3,-3.805155E-2,-2.3361515E-2,-1.3408258E-2,-1.0919287E-2,-2.0870421E-2,-1.0416534E-2,2.5257697E-2,-4.795161E-2,-1.986615E-2,-1.6010372E-2,-2.5635278E-3,1.0750058E-2,-9.4526896E-4,-1.4702092E-3,2.0989545E-2,-9.037297E-3,-6.0859095E-2,3.7398928E-5,-3.690015E-2,1.3950787E-2,-1.3100237E-2,-1.9001164E-2,-2.0159914E-3,1.7929193E-2,-3.5173766E-2,3.52405E-2,7.4819075E-3,1.3043732E-2,-1.7557254E-2,3.7810538E-2,-1.4794952E-3,-1.2899779E-3,-4.0188123E-2,-2.9480077E-2,2.6727578E-2,5.2039824E-2,2.6947705E-2,-3.2494485E-3,3.6037378E-2,3.1958845E-2,7.587406E-2,5.4573197E-2,-3.6282375E-2],"categories":[],"categories_nodes":[],"categories_segments":[],"categories_sizes":[],"default_left":[0,0,0,0,0,0,0,0,0,0,0,0,0,0,0,0,0,0,0,0,0,0,0,0,0,0,0,0,0,0,0,0,0,0,0,0,0,0,0,0,0,0,0,0,0,0,0,0,0,0,0,0,0,0,0,0,0,0,0,0,0,0,0,0,0,0,0,0,0,0,0,0,0,0,0,0,0,0,0,0,0,0,0,0,0,0,0,0,0,0,0,0,0,0,0,0,0,0,0,0,0,0,0,0,0,0,0],"id":12,"left_children":[1,3,5,7,9,11,13,15,17,-1,19,21,23,25,27,29,31,33,35,37,39,41,43,45,47,49,51,53,55,57,-1,-1,59,61,63,65,67,69,71,73,75,77,79,-1,81,83,85,87,89,91,93,95,97,99,101,103,105,-1,-1,-1,-1,-1,-1,-1,-1,-1,-1,-1,-1,-1,-1,-1,-1,-1,-1,-1,-1,-1,-1,-1,-1,-1,-1,-1,-1,-1,-1,-1,-1,-1,-1,-1,-1,-1,-1,-1,-1,-1,-1,-1,-1,-1,-1,-1,-1,-1,-1],"loss_changes":[4.206371E2,5.272455E1,8.0195404E1,1.2847916E1,7.813202E0,2.380629E1,5.7231537E1,3.244194E0,3.6666412E0,0E0,7.28417E0,1.3136074E1,1.2064846E1,4.5649767E0,1.234259E1,6.1027336E0,5.694275E0,2.5260925E0,1.3072987E0,3.4510498E0,5.7555943E0,2.72343E0,5.6533318E0,5.721756E0,5.0595894E0,3.3372297E0,1.16747E0,6.1316833E0,2.471115E0,1.2645111E0,0E0,0E0,2.0214386E0,5.499481E0,2.5355325E0,7.5813484E-1,7.9917336E-1,2.0922928E0,1.7560205E0,2.5394359E0,2.4658408E0,2.2624176E0,2.8274782E0,0E0,5.4741704E-1,2.8176517E0,8.803283E-1,2.7080336E0,4.126049E0,4.9652896E0,4.9685574E-1,1.7509868E0,7.321872E-1,7.3135376E0,5.5786514E0,3.1910477E0,3.5246449E0,0E0,0E0,0E0,0E0,0E0,0E0,0E0,0E0,0E0,0E0,0E0,0E0,0E0,0E0,0E0,0E0,0E0,0E0,0E0,0E0,0E0,0E0,0E0,0E0,0E0,0E0,0E0,0E0,0E0,0E0,0E0,0E0,0E0,0E0,0E0,0E0,0E0,0E0,0E0,0E0,0E0,0E0,0E0,0E0,0E0,0E0,0E0,0E0,0E0,0E0],"parents":[2147483647,0,0,1,1,2,2,3,3,4,4,5,5,6,6,7,7,8,8,10,10,11,11,12,12,13,13,14,14,15,15,16,16,17,17,18,18,19,19,20,20,21,21,22,22,23,23,24,24,25,25,26,26,27,27,28,28,29,29,32,32,33,33,34,34,35,35,36,36,37,37,38,38,39,39,40,40,41,41,42,42,44,44,45,45,46,46,47,47,48,48,49,49,50,50,51,51,52,52,53,53,54,54,55,55,56,56],"right_children":[2,4,6,8,10,12,14,16,18,-1,20,22,24,26,28,30,32,34,36,38,40,42,44,46,48,50,52,54,56,58,-1,-1,60,62,64,66,68,70,72,74,76,78,80,-1,82,84,86,88,90,92,94,96,98,100,102,104,106,-1,-1,-1,-1,-1,-1,-1,-1,-1,-1,-1,-1,-1,-1,-1,-1,-1,-1,-1,-1,-1,-1,-1,-1,-1,-1,-1,-1,-1,-1,-1,-1,-1,-1,-1,-1,-1,-1,-1,-1,-1,-1,-1,-1,-1,-1,-1,-1,-1,-1],"split_conditions":[3.8844085E-1,2.9704303E-1,5.174731E-1,2.392473E-1,3.802618E-3,2.032916E-2,2.032916E-2,1.9287111E-1,3.7941098E-1,1.0034636E-1,3.4811828E-1,2.0326871E-2,4.5564517E-1,2.9913837E-1,6.6263443E-1,2.9069766E-1,3.802618E-3,1.5E-2,2.7284947E-1,2.1875E-1,6.254968E-2,2.9405972E-1,4.6511628E-2,2.625E-1,5.6294024E-2,1.7200189E-2,3.536513E-1,2.1875E-1,1.9666667E-1,1.1627907E-2,4.0803928E-2,6.126138E-2,9.3023255E-2,2.0953123E-2,1.627907E-1,5.872874E-1,3.448008E-1,7.482413E-1,5.8601916E-2,2.8333333E-1,1.1665296E-1,4.8924732E-1,9.382336E-3,-6.777505E-2,5.0537634E-1,9E-2,7.39696E-2,4.4333333E-1,5E-3,8E-2,1.6656981E-1,6.255654E-3,4.691168E-3,3.512114E-1,2.8458992E-2,4.6911687E-2,1.744186E-1,8.683854E-3,-4.9352657E-2,-2.0309983E-2,-3.5988867E-2,1.8662004E-2,-2.7699064E-2,-7.1575637E-3,-3.805155E-2,-2.3361515E-2,-1.3408258E-2,-1.0919287E-2,-2.0870421E-2,-1.0416534E-2,2.5257697E-2,-4.795161E-2,-1.986615E-2,-1.6010372E-2,-2.5635278E-3,1.0750058E-2,-9.4526896E-4,-1.4702092E-3,2.0989545E-2,-9.037297E-3,-6.0859095E-2,3.7398928E-5,-3.690015E-2,1.3950787E-2,-1.3100237E-2,-1.9001164E-2,-2.0159914E-3,1.7929193E-2,-3.5173766E-2,3.52405E-2,7.4819075E-3,1.3043732E-2,-1.7557254E-2,3.7810538E-2,-1.4794952E-3,-1.2899779E-3,-4.0188123E-2,-2.9480077E-2,2.6727578E-2,5.2039824E-2,2.6947705E-2,-3.2494485E-3,3.6037378E-2,3.1958845E-2,7.587406E-2,5.4573197E-2,-3.6282375E-2],"split_indices":[4,4,4,4,8,0,0,4,8,0,4,0,4,8,4,5,8,11,4,12,0,8,5,12,0,0,8,12,14,5,0,0,5,0,5,8,0,0,8,14,0,4,0,0,4,11,8,14,11,14,8,0,0,0,0,0,5,0,0,0,0,0,0,0,0,0,0,0,0,0,0,0,0,0,0,0,0,0,0,0,0,0,0,0,0,0,0,0,0,0,0,0,0,0,0,0,0,0,0,0,0,0,0,0,0,0,0],"split_type":[0,0,0,0,0,0,0,0,0,0,0,0,0,0,0,0,0,0,0,0,0,0,0,0,0,0,0,0,0,0,0,0,0,0,0,0,0,0,0,0,0,0,0,0,0,0,0,0,0,0,0,0,0,0,0,0,0,0,0,0,0,0,0,0,0,0,0,0,0,0,0,0,0,0,0,0,0,0,0,0,0,0,0,0,0,0,0,0,0,0,0,0,0,0,0,0,0,0,0,0,0,0,0,0,0,0,0],"sum_hessian":[6.764E3,3.955E3,2.809E3,1.844E3,2.111E3,1.694E3,1.115E3,4.89E2,1.355E3,3E0,2.108E3,2.56E2,1.438E3,2.41E2,8.74E2,1.53E2,3.36E2,8.07E2,5.48E2,1.322E3,7.86E2,2.14E2,4.2E1,9.02E2,5.36E2,2.07E2,3.4E1,6.73E2,2.01E2,1.49E2,4E0,3E0,3.33E2,7.07E2,1E2,2.57E2,2.91E2,1.195E3,1.27E2,3.37E2,4.49E2,1.75E2,3.9E1,2.8E1,1.4E1,7.9E2,1.12E2,2.27E2,3.09E2,1.8E2,2.7E1,2.9E1,5E0,4.96E2,1.77E2,1.34E2,6.7E1,2E0,1.47E2,6.6E1,2.67E2,1.5E1,6.92E2,8.1E1,1.9E1,1.9E2,6.7E1,2.28E2,6.3E1,1.186E3,9E0,1.5E1,1.12E2,1.77E2,1.6E2,1.78E2,2.71E2,1.43E2,3.2E1,3.2E1,7E0,1.2E1,2E0,7.67E2,2.3E1,2.2E1,9E1,2.22E2,5E0,2.72E2,3.7E1,1.4E2,4E1,2.5E1,2E0,1.1E1,1.8E1,1E0,4E0,4.08E2,8.8E1,2.5E1,1.52E2,1.3E1,1.21E2,6.5E1,2E0],"tree_param":{"num_deleted":"0","num_feature":"15","num_nodes":"107","size_leaf_vector":"1"}},{"base_weights":[3.0112576E-3,5.0298955E-2,-1.1972101E-1,6.970121E-2,-2.3250084E-1,-9.7831845E-2,-2.6736212E-1,-2.3102544E-2,1.2255221E-1,-1.8851346E-1,-3.8468084E-1,-7.182323E-2,-1.8125018E-1,-4.2762786E-1,-9.9462554E-2,-6.3243665E-2,1.8321021E-1,8.7953046E-2,2.7973697E-1,-4.8216555E-2,-3.2841516E-1,-4.1854468E-1,-2.495173E-2,-1.4373368E-1,-4.3764625E-2,-7.097863E-2,-2.963972E-1,-4.4237083E-1,2.394301E-2,-5.8528762E-2,-2.4362847E-1,-1.5655418E-1,-1.1810134E-2,-1.5809967E-1,2.5994787E-1,1.3394094E-1,5.1362463E-3,5.062215E-1,1.05102785E-1,-2.7443904E-1,4.8547216E-2,-3.568516E-1,-1.1772033E-1,-4.6268466E-1,-3.0823216E-1,-6.2739714E-3,1.0624173E-3,-1.576447E-1,1.0617599E-1,-6.596638E-2,2.4037873E-2,-4.434397E-1,-4.470605E-2,-4.5841698E-2,-2.345176E-1,-2.2298436E-1,-5.091015E-1,-1.6754882E-1,-4.50143E-2,-3.296498E-1,-9.6358486E-2,-3.2042023E-2,-1.1370331E-2,-1.0927399E-2,1.1745364E-3,-1.6979795E-3,-1.8628318E-2,2.689655E-2,9.005979E-3,-5.7316865E-3,1.2541852E-2,-1.1837167E-2,3.299489E-3,4.6655852E-2,1.5967114E-2,-9.028507E-3,2.297028E-2,-1.4969527E-2,-2.9407667E-2,9.940733E-3,-1.0359096E-2,-3.0245196E-2,-9.373243E-3,-1.44899115E-2,2.2835736E-3,-3.658166E-2,-1.2249671E-3,-2.4926623E-2,-1.0669114E-3,-5.6885183E-3,-1.6589433E-2,-6.162709E-3,1.5321322E-2,-1.6579605E-3,-1.0854709E-2,2.4393646E-2,3.4091543E-4,-4.367338E-2,-2.0025378E-2,-4.288728E-3,3.5622805E-2,-1.324358E-2,-2.3803579E-2,-1.7963191E-2,-4.81829E-3,-3.1102575E-2,-4.8489526E-2,-2.7494112E-4,-1.609643E-2,9.773112E-3,-5.5841734E-3,-1.6454237E-2,-3.0703561E-2,-1.5567465E-3,-1.7382726E-2],"categories":[],"categories_nodes":[],"categories_segments":[],"categories_sizes":[],"default_left":[0,0,0,0,0,0,0,0,0,0,0,0,0,0,0,0,0,0,0,0,0,0,0,0,0,0,0,0,0,0,0,0,0,0,0,0,0,0,0,0,0,0,0,0,0,0,0,0,0,0,0,0,0,0,0,0,0,0,0,0,0,0,0,0,0,0,0,0,0,0,0,0,0,0,0,0,0,0,0,0,0,0,0,0,0,0,0,0,0,0,0,0,0,0,0,0,0,0,0,0,0,0,0,0,0,0,0,0,0,0,0,0,0,0,0],"id":13,"left_children":[1,3,5,7,9,11,13,15,17,19,21,23,25,27,29,31,33,35,37,39,41,43,45,47,49,51,53,55,-1,57,59,61,63,65,67,69,71,73,75,77,79,81,83,85,87,-1,-1,89,91,93,95,97,99,-1,101,103,105,107,109,111,113,-1,-1,-1,-1,-1,-1,-1,-1,-1,-1,-1,-1,-1,-1,-1,-1,-1,-1,-1,-1,-1,-1,-1,-1,-1,-1,-1,-1,-1,-1,-1,-1,-1,-1,-1,-1,-1,-1,-1,-1,-1,-1,-1,-1,-1,-1,-1,-1,-1,-1,-1,-1,-1,-1],"loss_changes":[3.904189E1,2.666085E1,6.0204296E0,2.2295015E1,2.0160122E0,3.5255938E0,6.4424324E0,1.3676268E1,1.5725178E1,4.773342E0,8.301029E-1,2.505755E0,4.892874E0,1.4737186E0,6.879903E-1,6.6307697E0,7.086562E0,9.044668E0,2.05929E1,2.70581E0,6.889448E-1,1.6414547E-1,1.632324E-2,1.2300363E0,1.3518709E0,1.927493E0,3.325943E0,1.657898E0,0E0,1.3095257E-1,2.976129E-1,1.14781E0,3.1196208E0,5.579337E-1,2.7311459E0,8.972763E0,5.0452275E0,6.4745064E0,1.2632991E1,2.4300647E-1,1.2867905E0,8.1437016E-1,1.6953136E-1,1.896925E-1,8.231938E-2,0E0,0E0,1.5662794E0,3.4031755E-1,2.2357378E0,1.2682333E0,1.4456272E-1,1.0403645E0,0E0,6.796589E-1,3.014028E-2,9.074116E-1,6.57669E-2,4.050411E-1,4.1460633E-2,1.0312567E-1,0E0,0E0,0E0,0E0,0E0,0E0,0E0,0E0,0E0,0E0,0E0,0E0,0E0,0E0,0E0,0E0,0E0,0E0,0E0,0E0,0E0,0E0,0E0,0E0,0E0,0E0,0E0,0E0,0E0,0E0,0E0,0E0,0E0,0E0,0E0,0E0,0E0,0E0,0E0,0E0,0E0,0E0,0E0,0E0,0E0,0E0,0E0,0E0,0E0,0E0,0E0,0E0,0E0,0E0],"parents":[2147483647,0,0,1,1,2,2,3,3,4,4,5,5,6,6,7,7,8,8,9,9,10,10,11,11,12,12,13,13,14,14,15,15,16,16,17,17,18,18,19,19,20,20,21,21,22,22,23,23,24,24,25,25,26,26,27,27,29,29,30,30,31,31,32,32,33,33,34,34,35,35,36,36,37,37,38,38,39,39,40,40,41,41,42,42,43,43,44,44,47,47,48,48,49,49,50,50,51,51,52,52,54,54,55,55,56,56,57,57,58,58,59,59,60,60],"right_children":[2,4,6,8,10,12,14,16,18,20,22,24,26,28,30,32,34,36,38,40,42,44,46,48,50,52,54,56,-1,58,60,62,64,66,68,70,72,74,76,78,80,82,84,86,88,-1,-1,90,92,94,96,98,100,-1,102,104,106,108,110,112,114,-1,-1,-1,-1,-1,-1,-1,-1,-1,-1,-1,-1,-1,-1,-1,-1,-1,-1,-1,-1,-1,-1,-1,-1,-1,-1,-1,-1,-1,-1,-1,-1,-1,-1,-1,-1,-1,-1,-1,-1,-1,-1,-1,-1,-1,-1,-1,-1,-1,-1,-1,-1,-1,-1],"split_conditions":[3.2185328E-1,5.673759E-1,1.5384616E-1,1.6034563E-1,4.6153846E-1,1.2666667E-1,4.354179E-1,2.6923078E-1,1.534782E-1,2.6666668E-1,5.55E-1,5.598603E-2,4.2251638E-1,1.827438E-1,1.827438E-1,9.331392E-2,1.5E-2,3.3333334E-3,1.9307439E-1,1.85307E-1,1.12466805E-1,5.3846157E-1,2.5226814E-1,3.9716312E-1,3.4042552E-1,3E-1,4.354179E-1,3.2588616E-1,2.394301E-2,6.0133573E-2,1.9148937E-1,1.5029042E-2,2.6950353E-1,1.0261732E-1,5E-1,1.9148937E-1,3.288509E-2,2.4113475E-1,3.1205675E-1,1.2381024E-1,2.3663807E-1,3.6333334E-1,1.1871762E-1,3.0381837E-1,5.45E-1,-6.2739714E-3,1.0624173E-3,1.9858156E-1,3.5766758E-2,1.8439716E-1,6.117046E-2,2.0666666E-1,3.6663467E-1,-4.5841698E-2,1.7035396E-1,1.3937026E-1,1.2492799E-1,1.0638298E-1,8.138973E-2,1.8917494E-1,2.1825865E-1,-3.2042023E-2,-1.1370331E-2,-1.0927399E-2,1.1745364E-3,-1.6979795E-3,-1.8628318E-2,2.689655E-2,9.005979E-3,-5.7316865E-3,1.2541852E-2,-1.1837167E-2,3.299489E-3,4.6655852E-2,1.5967114E-2,-9.028507E-3,2.297028E-2,-1.4969527E-2,-2.9407667E-2,9.940733E-3,-1.0359096E-2,-3.0245196E-2,-9.373243E-3,-1.44899115E-2,2.2835736E-3,-3.658166E-2,-1.2249671E-3,-2.4926623E-2,-1.0669114E-3,-5.6885183E-3,-1.6589433E-2,-6.162709E-3,1.5321322E-2,-1.6579605E-3,-1.0854709E-2,2.4393646E-2,3.4091543E-4,-4.367338E-2,-2.0025378E-2,-4.288728E-3,3.5622805E-2,-1.324358E-2,-2.3803579E-2,-1.7963191E-2,-4.81829E-3,-3.1102575E-2,-4.8489526E-2,-2.7494112E-4,-1.609643E-2,9.773112E-3,-5.5841734E-3,-1.6454237E-2,-3.0703561E-2,-1.5567465E-3,-1.7382726E-2],"split_indices":[8,6,9,3,9,14,8,9,8,14,11,3,8,3,3,3,11,14,8,3,8,9,3,6,6,14,8,8,0,3,6,3,6,3,11,6,8,6,6,8,3,14,3,3,11,0,0,6,3,6,3,14,3,0,3,3,3,6,3,3,3,0,0,0,0,0,0,0,0,0,0,0,0,0,0,0,0,0,0,0,0,0,0,0,0,0,0,0,0,0,0,0,0,0,0,0,0,0,0,0,0,0,0,0,0,0,0,0,0,0,0,0,0,0,0],"split_type":[0,0,0,0,0,0,0,0,0,0,0,0,0,0,0,0,0,0,0,0,0,0,0,0,0,0,0,0,0,0,0,0,0,0,0,0,0,0,0,0,0,0,0,0,0,0,0,0,0,0,0,0,0,0,0,0,0,0,0,0,0,0,0,0,0,0,0,0,0,0,0,0,0,0,0,0,0,0,0,0,0,0,0,0,0,0,0,0,0,0,0,0,0,0,0,0,0,0,0,0,0,0,0,0,0,0,0,0,0,0,0,0,0,0,0],"sum_hessian":[6.725E3,4.855E3,1.87E3,4.544E3,3.11E2,1.63E3,2.4E2,1.649E3,2.895E3,2.43E2,6.8E1,1.244E3,3.86E2,1.22E2,1.18E2,1.381E3,2.68E2,2.374E3,5.21E2,1.22E2,1.21E2,6.2E1,6E0,3.48E2,8.96E2,1.98E2,1.88E2,1.2E2,2E0,9.3E1,2.5E1,4.9E2,8.91E2,4.9E1,2.19E2,1.526E3,8.48E2,2.26E2,2.95E2,3.6E1,8.6E1,1.06E2,1.5E1,4.2E1,2E1,2E0,4E0,3.3E2,1.8E1,6.75E2,2.21E2,1.2E1,1.86E2,3.1E1,1.57E2,2.9E1,9.1E1,9E0,8.4E1,1.5E1,1E1,1.6E1,4.74E2,1.53E2,7.38E2,1.9E1,3E1,1.35E2,8.4E1,1.82E2,1.344E3,1.62E2,6.86E2,1.7E2,5.6E1,1.37E2,1.58E2,2.2E1,1.4E1,6E1,2.6E1,9.2E1,1.4E1,1E1,5E0,4.1E1,1E0,1.9E1,1E0,1.34E2,1.96E2,6E0,1.2E1,4.23E2,2.52E2,1.3E1,2.08E2,6E0,6E0,1.83E2,3E0,8.6E1,7.1E1,2.7E1,2E0,5E1,4.1E1,2E0,7E0,1.1E1,7.3E1,7E0,8E0,7E0,3E0],"tree_param":{"num_deleted":"0","num_feature":"15","num_nodes":"115","size_leaf_vector":"1"}},{"base_weights":[-4.9400367E-3,-1.6528878E-1,2.991334E-1,-2.794919E-1,-5.256715E-2,-5.1921317E-3,3.8625628E-1,-5.042997E-1,-2.53111E-1,-1.1964317E-1,-4.1201343E-3,-2.2034626E-2,4.347589E-1,2.5165957E-1,5.8262885E-1,-2.185025E-1,-5.293557E-1,-3.223447E-1,-2.2257982E-1,-1.7958726E-1,-4.959198E-2,-8.266597E-2,6.055738E-2,2.5022425E-2,-3.136054E-1,-8.259056E-2,9.0863246E-1,2.643883E-1,-2.4748036E-1,4.9936682E-1,7.1638983E-1,1.5573505E-1,-2.937053E-1,7.4649766E-2,-5.415649E-1,-1.9377422E-1,-3.417285E-1,-2.2815102E-1,2.8958184E-1,-1.02511905E-1,-2.2079036E-1,-1.15247965E-1,5.6400523E-2,-1.0479311E-1,1.9507374E-1,7.218702E-2,-2.980845E-2,-8.348813E-2,1.0797691E-1,2.0962214E-1,-5.629805E-1,2.7727693E-1,-2.7643046E-1,2.8569315E-2,7.7138044E-2,1.723563E-1,3.3777896E-1,3.2849753E-1,-3.9331612E-1,5.232738E-1,3.4897768E-1,7.393663E-1,2.95376E-1,1.6242359E-2,-2.718384E-4,-2.5258726E-2,8.969998E-3,3.8999174E-2,-2.937578E-2,-4.5922056E-2,-3.168215E-2,6.831911E-2,-1.9121114E-2,-2.7024824E-2,3.126423E-3,-1.5270596E-2,-2.159171E-2,7.3868334E-2,3.3755712E-3,-1.4322113E-2,-4.719617E-3,-3.1138131E-2,-1.334578E-2,-4.201711E-2,-7.30891E-3,-7.308742E-3,8.570517E-3,-6.448699E-3,-2.0901754E-2,9.2646316E-2,9.045666E-3,7.0529915E-3,-7.853214E-3,-1.8366635E-3,-4.0821686E-2,1.2240912E-2,-1.3631686E-2,6.5872786E-3,4.239156E-2,-4.8819613E-2,2.5354726E-2,2.7414003E-2,1.7728254E-3,3.1525008E-3,-2.599585E-2,1.4415715E-2,-8.0372505E-3,3.0036908E-2,1.9252677E-2,8.550978E-3,3.1699885E-2,-3.356184E-2,6.4830953E-4,4.5941893E-2,3.5159107E-2,3.8166575E-2,1.086448E-2,3.7636437E-2,6.1069958E-2,-2.6202736E-2,4.138027E-2],"categories":[],"categories_nodes":[],"categories_segments":[],"categories_sizes":[],"default_left":[0,0,0,0,0,0,0,0,0,0,0,0,0,0,0,0,0,0,0,0,0,0,0,0,0,0,0,0,0,0,0,0,0,0,0,0,0,0,0,0,0,0,0,0,0,0,0,0,0,0,0,0,0,0,0,0,0,0,0,0,0,0,0,0,0,0,0,0,0,0,0,0,0,0,0,0,0,0,0,0,0,0,0,0,0,0,0,0,0,0,0,0,0,0,0,0,0,0,0,0,0,0,0,0,0,0,0,0,0,0,0,0,0,0,0,0,0,0,0,0,0],"id":14,"left_children":[1,3,5,7,9,11,13,15,17,19,21,23,25,27,29,31,33,35,37,39,41,43,45,47,49,51,53,55,57,59,61,63,65,67,69,71,73,75,77,79,81,83,85,87,89,91,-1,93,95,97,99,101,103,-1,-1,105,107,109,111,113,115,117,119,-1,-1,-1,-1,-1,-1,-1,-1,-1,-1,-1,-1,-1,-1,-1,-1,-1,-1,-1,-1,-1,-1,-1,-1,-1,-1,-1,-1,-1,-1,-1,-1,-1,-1,-1,-1,-1,-1,-1,-1,-1,-1,-1,-1,-1,-1,-1,-1,-1,-1,-1,-1,-1,-1,-1,-1,-1,-1],"loss_changes":[3.255077E2,5.625389E1,6.1116135E1,1.2747772E1,7.1519485E0,3.818254E0,4.7217896E1,1.5098686E0,4.039566E0,3.8669138E0,6.502517E0,6.8131957E0,4.7330503E0,6.83181E0,7.7501526E0,6.086145E-1,1.5743027E0,1.4116478E0,3.9266663E0,1.5557098E0,2.978011E0,3.5725896E0,3.668448E0,3.86163E0,9.121126E0,7.742146E-1,1.09703064E-1,6.959488E0,2.3971546E0,1.4424973E0,2.4611511E0,3.529813E-2,2.6667178E-1,1.1675062E0,1.1604233E0,4.822353E0,1.5192299E0,2.0429611E0,2.4131546E0,5.888773E-1,2.7634802E0,2.2936096E0,1.3567551E0,1.8769417E0,3.2284603E0,2.2699218E0,0E0,4.924332E0,3.5004342E0,9.2211854E-1,3.0615711E0,7.036674E-2,1.4615637E-1,0E0,0E0,1.8123751E0,2.4956512E0,6.1052382E-2,3.6233497E-1,1.6147232E0,1.8886323E0,2.9390717E0,2.6123662E0,0E0,0E0,0E0,0E0,0E0,0E0,0E0,0E0,0E0,0E0,0E0,0E0,0E0,0E0,0E0,0E0,0E0,0E0,0E0,0E0,0E0,0E0,0E0,0E0,0E0,0E0,0E0,0E0,0E0,0E0,0E0,0E0,0E0,0E0,0E0,0E0,0E0,0E0,0E0,0E0,0E0,0E0,0E0,0E0,0E0,0E0,0E0,0E0,0E0,0E0,0E0,0E0,0E0,0E0,0E0,0E0,0E0,0E0],"parents":[2147483647,0,0,1,1,2,2,3,3,4,4,5,5,6,6,7,7,8,8,9,9,10,10,11,11,12,12,13,13,14,14,15,15,16,16,17,17,18,18,19,19,20,20,21,21,22,22,23,23,24,24,25,25,26,26,27,27,28,28,29,29,30,30,31,31,32,32,33,33,34,34,35,35,36,36,37,37,38,38,39,39,40,40,41,41,42,42,43,43,44,44,45,45,47,47,48,48,49,49,50,50,51,51,52,52,55,55,56,56,57,57,58,58,59,59,60,60,61,61,62,62],"right_children":[2,4,6,8,10,12,14,16,18,20,22,24,26,28,30,32,34,36,38,40,42,44,46,48,50,52,54,56,58,60,62,64,66,68,70,72,74,76,78,80,82,84,86,88,90,92,-1,94,96,98,100,102,104,-1,-1,106,108,110,112,114,116,118,120,-1,-1,-1,-1,-1,-1,-1,-1,-1,-1,-1,-1,-1,-1,-1,-1,-1,-1,-1,-1,-1,-1,-1,-1,-1,-1,-1,-1,-1,-1,-1,-1,-1,-1,-1,-1,-1,-1,-1,-1,-1,-1,-1,-1,-1,-1,-1,-1,-1,-1,-1,-1,-1,-1,-1,-1,-1,-1],"split_conditions":[4.139785E-1,3.1048387E-1,2.4706058E-2,2.1639785E-1,6.333078E-2,4.1E-1,5.282258E-1,1.4073505E-2,2.594086E-1,2.8333333E-1,3.4811828E-1,3.3333334E-1,5.403226E-1,2.4E-1,6.2903225E-1,6.253365E-3,1.2765957E-1,2.4706058E-2,7.482413E-1,2.9787233E-1,3.7231183E-1,5.106383E-1,2.35E-1,7.0367525E-3,3.1666666E-1,4.4333333E-1,2.2456764E-1,4.5564517E-1,8.287655E-2,3.512114E-1,4.3940535E-1,3.1266822E-3,7.45E-1,4.6911687E-2,1.1665296E-1,2.204301E-1,5.833333E-1,1.5853113E-1,7.67006E-1,3.3655927E-1,3.4042552E-1,1.5637992E-2,2.5531915E-1,3.3333334E-3,5.9096687E-2,4.2924184E-1,-2.980845E-2,1.5E-1,5.673759E-1,2.4113475E-1,3.9666668E-1,2.4487042E-1,9.654428E-2,2.8569315E-2,7.7138044E-2,3E-2,3.3333334E-3,6.598834E-2,2.8520477E-1,6.666667E-3,5E-3,3.1273693E-2,5.519934E-1,1.6242359E-2,-2.718384E-4,-2.5258726E-2,8.969998E-3,3.8999174E-2,-2.937578E-2,-4.5922056E-2,-3.168215E-2,6.831911E-2,-1.9121114E-2,-2.7024824E-2,3.126423E-3,-1.5270596E-2,-2.159171E-2,7.3868334E-2,3.3755712E-3,-1.4322113E-2,-4.719617E-3,-3.1138131E-2,-1.334578E-2,-4.201711E-2,-7.30891E-3,-7.308742E-3,8.570517E-3,-6.448699E-3,-2.0901754E-2,9.2646316E-2,9.045666E-3,7.0529915E-3,-7.853214E-3,-1.8366635E-3,-4.0821686E-2,1.2240912E-2,-1.3631686E-2,6.5872786E-3,4.239156E-2,-4.8819613E-2,2.5354726E-2,2.7414003E-2,1.7728254E-3,3.1525008E-3,-2.599585E-2,1.4415715E-2,-8.0372505E-3,3.0036908E-2,1.9252677E-2,8.550978E-3,3.1699885E-2,-3.356184E-2,6.4830953E-4,4.5941893E-2,3.5159107E-2,3.8166575E-2,