{"learner":{"attributes":{},"feature_names":[],"feature_types":[],"gradient_booster":{"model":{"gbtree_model_param":{"num_parallel_tree":"1","num_trees":"306"},"iteration_indptr":[0,1,2,3,4,5,6,7,8,9,10,11,12,13,14,15,16,17,18,19,20,21,22,23,24,25,26,27,28,29,30,31,32,33,34,35,36,37,38,39,40,41,42,43,44,45,46,47,48,49,50,51,52,53,54,55,56,57,58,59,60,61,62,63,64,65,66,67,68,69,70,71,72,73,74,75,76,77,78,79,80,81,82,83,84,85,86,87,88,89,90,91,92,93,94,95,96,97,98,99,100,101,102,103,104,105,106,107,108,109,110,111,112,113,114,115,116,117,118,119,120,121,122,123,124,125,126,127,128,129,130,131,132,133,134,135,136,137,138,139,140,141,142,143,144,145,146,147,148,149,150,151,152,153,154,155,156,157,158,159,160,161,162,163,164,165,166,167,168,169,170,171,172,173,174,175,176,177,178,179,180,181,182,183,184,185,186,187,188,189,190,191,192,193,194,195,196,197,198,199,200,201,202,203,204,205,206,207,208,209,210,211,212,213,214,215,216,217,218,219,220,221,222,223,224,225,226,227,228,229,230,231,232,233,234,235,236,237,238,239,240,241,242,243,244,245,246,247,248,249,250,251,252,253,254,255,256,257,258,259,260,261,262,263,264,265,266,267,268,269,270,271,272,273,274,275,276,277,278,279,280,281,282,283,284,285,286,287,288,289,290,291,292,293,294,295,296,297,298,299,300,301,302,303,304,305,306],"tree_info":[0,0,0,0,0,0,0,0,0,0,0,0,0,0,0,0,0,0,0,0,0,0,0,0,0,0,0,0,0,0,0,0,0,0,0,0,0,0,0,0,0,0,0,0,0,0,0,0,0,0,0,0,0,0,0,0,0,0,0,0,0,0,0,0,0,0,0,0,0,0,0,0,0,0,0,0,0,0,0,0,0,0,0,0,0,0,0,0,0,0,0,0,0,0,0,0,0,0,0,0,0,0,0,0,0,0,0,0,0,0,0,0,0,0,0,0,0,0,0,0,0,0,0,0,0,0,0,0,0,0,0,0,0,0,0,0,0,0,0,0,0,0,0,0,0,0,0,0,0,0,0,0,0,0,0,0,0,0,0,0,0,0,0,0,0,0,0,0,0,0,0,0,0,0,0,0,0,0,0,0,0,0,0,0,0,0,0,0,0,0,0,0,0,0,0,0,0,0,0,0,0,0,0,0,0,0,0,0,0,0,0,0,0,0,0,0,0,0,0,0,0,0,0,0,0,0,0,0,0,0,0,0,0,0,0,0,0,0,0,0,0,0,0,0,0,0,0,0,0,0,0,0,0,0,0,0,0,0,0,0,0,0,0,0,0,0,0,0,0,0,0,0,0,0,0,0,0,0,0,0,0,0,0,0,0,0,0,0,0,0,0,0,0,0,0,0,0,0,0,0,0,0,0,0,0,0],"trees":[{"base_weights":[-3.2694696E-3,-2.0343848E-1,4.4039237E-1,1.9221406E-1,-2.6786515E-1,2.6579195E-1,6.897445E-1,1.288836E-1,7.3650146E-1,-4.5327136E-1,-8.0292165E-2,1.9366986E-1,3.5227934E-1,5.5145353E-1,7.926748E-1,1.584845E-1,-3.881761E-1,2.865584E-1,2.3477806E-2,-5.6620085E-1,-3.3251247E-1,-1.5874627E-1,2.6259495E-2,1.7012918E-1,4.948124E-1,3.569458E-1,-1.67694E-2,4.2654476E-1,6.2761724E-1,8.0819476E-1,1.1547202E-1,1.004988E-1,3.7695113E-1,-5.5961895E-1,1.0163239E-2,-9.294919E-3,3.7645128E-1,-6.5367264E-1,-4.059096E-1,-1.4106317E-2,-3.0619535E-1,-1.9233502E-1,2.0804808E-3,4.465415E-2,-3.7716538E-1,1.4296938E-1,3.151607E-1,5.246727E-1,6.3683772E-3,4.359298E-1,3.0761933E-1,8.858032E-2,4.580524E-1,6.4890254E-1,3.4295186E-1,1.3581312E-2,8.166611E-1,3.236273E-1,-1.7359006E-1,7.823318E-3,1.0496017E-3,1.3212849E-2,-5.717433E-3,-3.8610739E-3,-1.5359366E-2,4.707441E-3,-1.2552737E-3,1.48895215E-2,1.0780253E-3,-1.9451376E-2,-1.0251493E-2,-1.1510526E-2,5.543128E-3,-8.481325E-3,1.0973834E-3,-4.791336E-3,-1.707159E-2,6.8870527E-3,-1.0947466E-3,8.652122E-4,1.0771858E-2,-1.5874265E-3,-1.2854206E-2,5.641568E-3,2.5307732E-3,8.691286E-3,-1.2933337E-3,1.4196832E-2,3.0937106E-3,1.008099E-2,1.410325E-2,1.4397817E-2,7.4701724E-3,4.7473274E-3,-4.0425835E-3,1.2658821E-2,4.523798E-3,1.7370384E-2,6.70445E-3,9.522667E-3,2.0956614E-3,2.0989617E-2,2.4626264E-2,1.04382355E-2,5.406315E-4,-9.4376E-3,1.6485628E-4],"categories":[],"categories_nodes":[],"categories_segments":[],"categories_sizes":[],"default_left":[0,0,0,0,0,0,0,0,0,0,0,0,0,0,0,0,0,0,0,0,0,0,0,0,0,0,0,0,0,0,0,0,0,0,0,0,0,0,0,0,0,0,0,0,0,0,0,0,0,0,0,0,0,0,0,0,0,0,0,0,0,0,0,0,0,0,0,0,0,0,0,0,0,0,0,0,0,0,0,0,0,0,0,0,0,0,0,0,0,0,0,0,0,0,0,0,0,0,0,0,0,0,0,0,0,0,0],"id":0,"left_children":[1,3,5,7,9,11,13,15,17,19,21,23,25,27,29,31,33,35,-1,37,39,41,43,45,47,49,-1,51,53,55,57,59,61,63,65,-1,67,69,71,-1,73,75,77,79,81,83,85,87,-1,89,91,93,95,97,99,-1,101,103,105,-1,-1,-1,-1,-1,-1,-1,-1,-1,-1,-1,-1,-1,-1,-1,-1,-1,-1,-1,-1,-1,-1,-1,-1,-1,-1,-1,-1,-1,-1,-1,-1,-1,-1,-1,-1,-1,-1,-1,-1,-1,-1,-1,-1,-1,-1,-1,-1],"loss_changes":[3.7219238E2,7.366827E1,5.654535E1,1.3865414E1,8.6350174E1,4.722294E0,7.1924896E0,5.6326985E0,2.5882988E0,1.6844635E1,1.0336404E1,2.9003296E0,1.8269501E0,1.9394302E0,3.1122894E0,4.332556E0,1.371536E0,8.200697E-1,0E0,8.76416E0,3.0324936E0,3.8466015E0,3.9127946E0,1.4990396E0,1.0152292E-1,1.2178116E0,0E0,9.284363E-1,6.3785934E-1,3.2562256E-1,5.3753686E-1,3.2400815E0,5.3241577E0,3.4742355E-2,7.601725E-2,0E0,6.6408813E-1,8.6857605E0,4.1839256E0,0E0,2.6694603E0,2.9045258E0,1.4008621E0,2.1677682E0,7.618964E-1,1.082757E0,3.0843258E-1,6.0709953E-2,0E0,4.9617767E-1,1.1499157E0,2.2448409E-1,3.9868927E-1,2.1183014E-1,2.4647236E-2,0E0,3.9367676E-2,9.912199E-2,1.337978E-1,0E0,0E0,0E0,0E0,0E0,0E0,0E0,0E0,0E0,0E0,0E0,0E0,0E0,0E0,0E0,0E0,0E0,0E0,0E0,0E0,0E0,0E0,0E0,0E0,0E0,0E0,0E0,0E0,0E0,0E0,0E0,0E0,0E0,0E0,0E0,0E0,0E0,0E0,0E0,0E0,0E0,0E0,0E0,0E0,0E0,0E0,0E0,0E0],"parents":[2147483647,0,0,1,1,2,2,3,3,4,4,5,5,6,6,7,7,8,8,9,9,10,10,11,11,12,12,13,13,14,14,15,15,16,16,17,17,19,19,20,20,21,21,22,22,23,23,24,24,25,25,27,27,28,28,29,29,30,30,31,31,32,32,33,33,34,34,36,36,37,37,38,38,40,40,41,41,42,42,43,43,44,44,45,45,46,46,47,47,49,49,50,50,51,51,52,52,53,53,54,54,56,56,57,57,58,58],"right_children":[2,4,6,8,10,12,14,16,18,20,22,24,26,28,30,32,34,36,-1,38,40,42,44,46,48,50,-1,52,54,56,58,60,62,64,66,-1,68,70,72,-1,74,76,78,80,82,84,86,88,-1,90,92,94,96,98,100,-1,102,104,106,-1,-1,-1,-1,-1,-1,-1,-1,-1,-1,-1,-1,-1,-1,-1,-1,-1,-1,-1,-1,-1,-1,-1,-1,-1,-1,-1,-1,-1,-1,-1,-1,-1,-1,-1,-1,-1,-1,-1,-1,-1,-1,-1,-1,-1,-1,-1,-1],"split_conditions":[7.226971E-1,2.2912476E-2,8.362911E-1,3.75E-1,5.8117074E-1,7.761531E-1,8.9274824E-1,3.5687E-1,2.2093023E-1,5.021912E-1,6.558771E-1,7E-2,1E0,1.2790698E-1,3.7000927E-1,2.1875E-1,1.6875E-1,6.5450524E-3,2.3477806E-2,3.3333334E-3,3.8333334E-2,7.5E-2,4.9058825E-1,1.5625E-1,8.675115E-2,1.0097422E-1,-1.67694E-2,1.1471665E-3,3.0889672E-1,1.4823529E-1,1.06382266E-1,6.547448E-3,2.6249006E-1,6.5450524E-3,3.173237E-1,-9.294919E-3,1.3953489E-1,2.5E-2,1.4E-1,-1.4106317E-2,3.3E-1,5.9294116E-1,2.9459925E-2,1.5666667E-1,8.139535E-2,2.717647E-1,4.2117646E-1,4.4588235E-1,6.3683772E-3,8.1290406E-1,2.127741E-2,8.7638307E-1,3.814881E-1,3.8333333E-1,3.4470588E-1,1.3581312E-2,5.673759E-1,9.59908E-1,1.2602222E-1,7.823318E-3,1.0496017E-3,1.3212849E-2,-5.717433E-3,-3.8610739E-3,-1.5359366E-2,4.707441E-3,-1.2552737E-3,1.48895215E-2,1.0780253E-3,-1.9451376E-2,-1.0251493E-2,-1.1510526E-2,5.543128E-3,-8.481325E-3,1.0973834E-3,-4.791336E-3,-1.707159E-2,6.8870527E-3,-1.0947466E-3,8.652122E-4,1.0771858E-2,-1.5874265E-3,-1.2854206E-2,5.641568E-3,2.5307732E-3,8.691286E-3,-1.2933337E-3,1.4196832E-2,3.0937106E-3,1.008099E-2,1.410325E-2,1.4397817E-2,7.4701724E-3,4.7473274E-3,-4.0425835E-3,1.2658821E-2,4.523798E-3,1.7370384E-2,6.70445E-3,9.522667E-3,2.0956614E-3,2.0989617E-2,2.4626264E-2,1.04382355E-2,5.406315E-4,-9.4376E-3,1.6485628E-4],"split_indices":[1,0,1,9,1,1,1,3,5,1,1,11,6,5,3,12,9,0,0,14,2,12,4,12,2,3,0,2,3,4,0,0,3,0,1,0,5,9,11,0,11,4,0,11,5,4,4,4,0,1,0,1,3,14,4,0,6,1,0,0,0,0,0,0,0,0,0,0,0,0,0,0,0,0,0,0,0,0,0,0,0,0,0,0,0,0,0,0,0,0,0,0,0,0,0,0,0,0,0,0,0,0,0,0,0,0,0],"split_type":[0,0,0,0,0,0,0,0,0,0,0,0,0,0,0,0,0,0,0,0,0,0,0,0,0,0,0,0,0,0,0,0,0,0,0,0,0,0,0,0,0,0,0,0,0,0,0,0,0,0,0,0,0,0,0,0,0,0,0,0,0,0,0,0,0,0,0,0,0,0,0,0,0,0,0,0,0,0,0,0,0,0,0,0,0,0,0,0,0,0,0,0,0,0,0,0,0,0,0,0,0,0,0,0,0,0,0],"sum_hessian":[4.189E3,2.887E3,1.302E3,4.04E2,2.483E3,7.67E2,5.35E2,3.63E2,4.1E1,1.248E3,1.235E3,4.2E2,3.47E2,2.31E2,3.04E2,3.44E2,1.9E1,1.1E1,3E1,6.43E2,6.05E2,7.11E2,5.24E2,3.91E2,2.9E1,3.46E2,1E0,9E1,1.41E2,2.97E2,7E0,2.73E2,7.1E1,1.3E1,6E0,1E0,1E1,4.14E2,2.29E2,6.8E1,5.37E2,5.88E2,1.23E2,5.02E2,2.2E1,3.31E2,6E1,2.5E1,4E0,1.3E2,2.16E2,8E0,8.2E1,1.3E2,1.1E1,1E1,2.87E2,4E0,3E0,6.4E1,2.09E2,5.9E1,1.2E1,1E0,1.2E1,1E0,5E0,6E0,4E0,3.16E2,9.8E1,2.19E2,1E1,5.16E2,2.1E1,5.75E2,1.3E1,1.7E1,1.06E2,4.87E2,1.5E1,6E0,1.6E1,1.32E2,1.99E2,5.8E1,2E0,2.4E1,1E0,8.6E1,4.4E1,1.9E1,1.97E2,6E0,2E0,7.6E1,6E0,1.27E2,3E0,1E1,1E0,2.44E2,4.3E1,3E0,1E0,1E0,2E0],"tree_param":{"num_deleted":"0","num_feature":"15","num_nodes":"107","size_leaf_vector":"1"}},{"base_weights":[1.1089884E-4,-1.979116E-1,4.304059E-1,1.9303787E-1,-2.6575276E-1,2.5343472E-1,6.8210953E-1,1.2631637E-1,7.15838E-1,-5.038422E-1,-1.3356394E-1,2.0086055E-1,3.8118982E-1,7.029433E-1,1.5393426E-1,5.446391E-2,3.1578717E-1,5.8964808E-2,7.9084736E-1,-5.821352E-1,-3.6487567E-1,-2.2559597E-1,-1.510083E-2,1.3306423E-1,2.8336984E-1,1.5048853E-2,3.5820335E-1,5.7504064E-1,7.897951E-1,2.4416311E-1,-7.429372E-2,8.230915E-2,-4.0316552E-1,5.2162284E-1,-1.23333976E-1,-9.171893E-3,2.0935145E-1,2.3559595E-2,5.8684194E-1,-6.4664596E-1,-3.4873018E-1,-2.3760821E-1,-4.938722E-1,-3.9184684E-1,-1.9604972E-1,-5.033564E-1,-2.0389596E-3,1.1307714E-1,4.4657558E-1,5.498276E-1,2.7108672E-1,3.8080427E-1,2.0868726E-1,9.975692E-2,5.8814514E-1,1.3751639E-2,7.989365E-1,2.774865E-1,7.2662034E-3,-2.724289E-1,5.9446145E-2,1.2026846E-2,1.399856E-3,-1.4853788E-2,-1.2275832E-3,-1.1988922E-2,1.4729535E-2,-3.1082204E-4,-7.462598E-3,1.3780363E-2,-4.5440146E-3,1.6121771E-2,3.06892E-3,-2.318191E-2,-1.5123802E-2,-1.0182932E-2,7.992471E-3,-7.115857E-3,1.6373588E-2,-1.4160107E-2,4.316448E-3,-8.631949E-3,-1.6061556E-2,-6.558688E-3,-3.00402E-3,-5.3183585E-3,-1.6884385E-2,-2.4671285E-4,7.887833E-3,-8.431283E-3,3.3906314E-3,1.2840806E-2,5.0434764E-3,1.646761E-2,-1.3309425E-3,3.776652E-3,7.73798E-3,9.14294E-3,1.294412E-2,7.938564E-3,-1.805728E-3,7.293872E-3,-2.672652E-3,1.3480146E-2,1.7416947E-2,1.931459E-2,2.2089908E-2,8.405153E-3,6.580829E-4,9.7649934E-4,-6.879803E-4,-1.5046409E-3,-9.312687E-3,-4.3540294E-4,3.0580992E-3],"categories":[],"categories_nodes":[],"categories_segments":[],"categories_sizes":[],"default_left":[0,0,0,0,0,0,0,0,0,0,0,0,0,0,0,0,0,0,0,0,0,0,0,0,0,0,0,0,0,0,0,0,0,0,0,0,0,0,0,0,0,0,0,0,0,0,0,0,0,0,0,0,0,0,0,0,0,0,0,0,0,0,0,0,0,0,0,0,0,0,0,0,0,0,0,0,0,0,0,0,0,0,0,0,0,0,0,0,0,0,0,0,0,0,0,0,0,0,0,0,0,0,0,0,0,0,0,0,0,0,0,0,0,0,0],"id":1,"left_children":[1,3,5,7,9,11,13,15,17,19,21,23,25,27,29,31,33,35,37,39,41,43,45,47,49,-1,51,53,55,57,59,61,63,65,67,-1,69,-1,71,73,75,77,79,81,83,85,87,89,91,93,95,97,99,101,103,-1,105,107,109,111,113,-1,-1,-1,-1,-1,-1,-1,-1,-1,-1,-1,-1,-1,-1,-1,-1,-1,-1,-1,-1,-1,-1,-1,-1,-1,-1,-1,-1,-1,-1,-1,-1,-1,-1,-1,-1,-1,-1,-1,-1,-1,-1,-1,-1,-1,-1,-1,-1,-1,-1,-1,-1,-1,-1],"loss_changes":[3.5795917E2,7.635645E1,5.8803772E1,1.4769313E1,7.710391E1,5.1556816E0,5.8999023E0,5.1424866E0,2.3184032E0,9.3076935E0,1.7200583E1,3.0612736E0,7.69413E-1,5.3778076E0,4.711802E-1,3.5501971E0,9.46456E0,4.383816E-1,3.475361E-1,8.176361E0,5.103279E0,4.2851143E0,4.4058475E0,1.8669529E0,6.659107E-1,0E0,6.098881E-1,1.2866592E0,3.5095215E-1,1.2429124E-1,2.0168486E-1,2.8333144E0,8.757305E-1,2.6606216E0,5.983581E-1,0E0,6.822609E-1,0E0,1.0700083E-1,7.0227203E0,2.9930859E0,4.4943743E0,4.321102E0,1.6817341E0,3.2000618E0,6.039686E-1,1.4750811E0,1.9129395E0,8.505893E-2,4.649446E-1,6.125736E-1,5.053921E-1,7.5285304E-1,2.7480114E-1,8.217697E-1,0E0,1.2519836E-1,1.3369286E-1,3.914121E-3,3.133975E-2,2.3180485E-2,0E0,0E0,0E0,0E0,0E0,0E0,0E0,0E0,0E0,0E0,0E0,0E0,0E0,0E0,0E0,0E0,0E0,0E0,0E0,0E0,0E0,0E0,0E0,0E0,0E0,0E0,0E0,0E0,0E0,0E0,0E0,0E0,0E0,0E0,0E0,0E0,0E0,0E0,0E0,0E0,0E0,0E0,0E0,0E0,0E0,0E0,0E0,0E0,0E0,0E0,0E0,0E0,0E0,0E0],"parents":[2147483647,0,0,1,1,2,2,3,3,4,4,5,5,6,6,7,7,8,8,9,9,10,10,11,11,12,12,13,13,14,14,15,15,16,16,17,17,18,18,19,19,20,20,21,21,22,22,23,23,24,24,26,26,27,27,28,28,29,29,30,30,31,31,32,32,33,33,34,34,36,36,38,38,39,39,40,40,41,41,42,42,43,43,44,44,45,45,46,46,47,47,48,48,49,49,50,50,51,51,52,52,53,53,54,54,56,56,57,57,58,58,59,59,60,60],"right_children":[2,4,6,8,10,12,14,16,18,20,22,24,26,28,30,32,34,36,38,40,42,44,46,48,50,-1,52,54,56,58,60,62,64,66,68,-1,70,-1,72,74,76,78,80,82,84,86,88,90,92,94,96,98,100,102,104,-1,106,108,110,112,114,-1,-1,-1,-1,-1,-1,-1,-1,-1,-1,-1,-1,-1,-1,-1,-1,-1,-1,-1,-1,-1,-1,-1,-1,-1,-1,-1,-1,-1,-1,-1,-1,-1,-1,-1,-1,-1,-1,-1,-1,-1,-1,-1,-1,-1,-1,-1,-1,-1,-1,-1,-1,-1,-1],"split_conditions":[7.226971E-1,2.2912476E-2,8.362911E-1,3.75E-1,5.3894216E-1,3.2185328E-1,3.814881E-1,1.5640186E-1,1.5554173E-1,3.3333334E-3,6.358311E-1,7.7215993E-1,2.8333334E-2,8.9274824E-1,1.06382266E-1,3.5687E-1,3.7941098E-1,6.5450524E-3,4.2588234E-1,2.5E-2,4.9058825E-1,4.05E-2,1.1471665E-3,7E-2,2.1275016E-2,1.5048853E-2,3.3411765E-1,1.1471665E-3,1.4823529E-1,3.2352942E-1,1.2602222E-1,1.4184397E-1,1.6875E-1,2.968454E-1,2.08E-1,-9.171893E-3,1.3208482E-1,2.3559595E-2,7.3125E-1,4.1692725E-1,5.106383E-1,8E-2,1.4E-1,4.717647E-1,5.990855E-1,1.1310382E-1,1.5666667E-1,1.1471665E-3,2.5E-2,4.727383E-2,2E-2,8.0582887E-1,7.829764E-1,8.6636007E-1,2.86304E-1,1.3751639E-2,9.135453E-1,4.577917E-2,8.3963203E-1,8.5967803E-1,1.546646E-1,1.2026846E-2,1.399856E-3,-1.4853788E-2,-1.2275832E-3,-1.1988922E-2,1.4729535E-2,-3.1082204E-4,-7.462598E-3,1.3780363E-2,-4.5440146E-3,1.6121771E-2,3.06892E-3,-2.318191E-2,-1.5123802E-2,-1.0182932E-2,7.992471E-3,-7.115857E-3,1.6373588E-2,-1.4160107E-2,4.316448E-3,-8.631949E-3,-1.6061556E-2,-6.558688E-3,-3.00402E-3,-5.3183585E-3,-1.6884385E-2,-2.4671285E-4,7.887833E-3,-8.431283E-3,3.3906314E-3,1.2840806E-2,5.0434764E-3,1.646761E-2,-1.3309425E-3,3.776652E-3,7.73798E-3,9.14294E-3,1.294412E-2,7.938564E-3,-1.805728E-3,7.293872E-3,-2.672652E-3,1.3480146E-2,1.7416947E-2,1.931459E-2,2.2089908E-2,8.405153E-3,6.580829E-4,9.7649934E-4,-6.879803E-4,-1.5046409E-3,-9.312687E-3,-4.3540294E-4,3.0580992E-3],"split_indices":[1,0,1,9,1,8,3,8,3,14,1,1,2,1,0,3,8,0,4,9,4,2,2,11,0,0,4,2,4,4,0,6,9,1,2,0,3,0,9,1,6,11,11,4,1,8,11,2,12,2,2,1,1,1,8,0,1,2,1,1,0,0,0,0,0,0,0,0,0,0,0,0,0,0,0,0,0,0,0,0,0,0,0,0,0,0,0,0,0,0,0,0,0,0,0,0,0,0,0,0,0,0,0,0,0,0,0,0,0,0,0,0,0,0,0],"split_type":[0,0,0,0,0,0,0,0,0,0,0,0,0,0,0,0,0,0,0,0,0,0,0,0,0,0,0,0,0,0,0,0,0,0,0,0,0,0,0,0,0,0,0,0,0,0,0,0,0,0,0,0,0,0,0,0,0,0,0,0,0,0,0,0,0,0,0,0,0,0,0,0,0,0,0,0,0,0,0,0,0,0,0,0,0,0,0,0,0,0,0,0,0,0,0,0,0,0,0,0,0,0,0,0,0,0,0,0,0,0,0,0,0,0,0],"sum_hessian":[4.199E3,2.876E3,1.323E3,4.25E2,2.451E3,7.78E2,5.45E2,3.78E2,4.7E1,8.74E2,1.577E3,5.53E2,2.25E2,5.24E2,2.1E1,2.75E2,1.03E2,5E0,4.2E1,5.57E2,3.17E2,8.87E2,6.9E2,3.05E2,2.48E2,2.2E1,2.03E2,2.15E2,3.09E2,1.5E1,6E0,2.6E2,1.5E1,7E1,3.3E1,1E0,4E0,2.6E1,1.6E1,4.35E2,1.22E2,1.61E2,1.56E2,1.32E2,7.55E2,1.7E1,6.73E2,2.88E2,1.7E1,9E0,2.39E2,1.75E2,2.8E1,6E0,2.09E2,1.2E1,2.97E2,1.3E1,2E0,2E0,4E0,1.8E1,2.42E2,1E1,5E0,2E0,6.8E1,2E1,1.3E1,2E0,2E0,1.5E1,1E0,1.05E2,3.3E2,1.16E2,6E0,1.56E2,5E0,1.47E2,9E0,1.03E2,2.9E1,4.63E2,2.92E2,6E0,1.1E1,6.58E2,1.5E1,9E0,2.79E2,1.4E1,3E0,8E0,1E0,3.5E1,2.04E2,1.35E2,4E1,2.1E1,7E0,3E0,3E0,1.02E2,1.07E2,1.08E2,1.89E2,1.1E1,2E0,1E0,1E0,1E0,1E0,2E0,2E0],"tree_param":{"num_deleted":"0","num_feature":"15","num_nodes":"115","size_leaf_vector":"1"}},{"base_weights":[3.5619491E-3,-1.8934652E-1,4.2997286E-1,2.075012E-1,-2.568627E-1,2.630883E-1,6.836709E-1,1.3745284E-1,7.10253E-1,-4.373705E-1,-8.460339E-2,2.1878922E-1,4.001744E-1,5.5567485E-1,7.609736E-1,5.6997303E-2,3.563013E-1,6.288139E-2,7.792525E-1,-5.505163E-1,-3.1364375E-1,-1.5375455E-1,1.2818376E-2,1.7062391E-1,3.2106638E-1,3.5735938E-1,1.3772566E-2,4.6508914E-1,1.7128993E-2,7.671843E-1,2.1749878E-1,8.387852E-2,-4.4245628E-1,5.4103553E-1,-8.662195E-2,-2.595376E-1,2.889753E-1,2.3024917E-2,5.736136E-1,-6.355355E-1,-3.951E-1,-3.2894233E-1,5.1929057E-2,-1.8492481E-1,-8.150705E-3,3.853955E-2,-3.5900265E-1,1.5374379E-1,5.7457805E-1,3.2894048E-1,-3.606367E-2,3.6061612E-1,-1.4341378E-3,4.2411458E-1,1.7138174E-2,7.3946494E-1,2.389222E-2,2.7042967E-1,7.643876E-5,6.9228077E-4,8.563401E-3,-1.535752E-2,-2.079682E-3,-2.733139E-3,1.5126377E-2,-4.390004E-3,1.2183466E-3,-9.050496E-3,-1.2549582E-3,1.3537173E-2,-5.0066453E-3,1.6032493E-2,5.8819437E-3,-1.8716237E-2,-1.0402362E-2,-5.982736E-3,-1.3101733E-2,-9.891706E-3,-6.3745803E-3,1.304249E-2,-6.4955847E-3,-6.2740827E-3,-2.333646E-3,5.7600257E-3,-1.0381462E-3,7.5494027E-4,1.0715249E-2,-6.2779263E-3,-1.9200912E-2,2.8821297E-3,7.664321E-3,1.6747229E-4,1.62015E-2,8.821659E-3,-1.1974721E-3,-3.8611086E-3,7.372381E-4,9.693744E-3,1.9879157E-3,5.1072882E-3,1.1955295E-2,1.962257E-2,3.4088977E-3,8.125983E-3,2.1282842E-3],"categories":[],"categories_nodes":[],"categories_segments":[],"categories_sizes":[],"default_left":[0,0,0,0,0,0,0,0,0,0,0,0,0,0,0,0,0,0,0,0,0,0,0,0,0,0,0,0,0,0,0,0,0,0,0,0,0,0,0,0,0,0,0,0,0,0,0,0,0,0,0,0,0,0,0,0,0,0,0,0,0,0,0,0,0,0,0,0,0,0,0,0,0,0,0,0,0,0,0,0,0,0,0,0,0,0,0,0,0,0,0,0,0,0,0,0,0,0,0,0,0,0,0,0,0],"id":2,"left_children":[1,3,5,7,9,11,13,15,17,19,21,23,25,27,29,31,33,35,37,39,41,43,45,47,49,51,-1,53,-1,55,57,59,61,63,65,67,69,-1,71,73,75,77,79,81,83,85,87,89,91,93,95,97,-1,99,-1,101,-1,103,-1,-1,-1,-1,-1,-1,-1,-1,-1,-1,-1,-1,-1,-1,-1,-1,-1,-1,-1,-1,-1,-1,-1,-1,-1,-1,-1,-1,-1,-1,-1,-1,-1,-1,-1,-1,-1,-1,-1,-1,-1,-1,-1,-1,-1,-1,-1],"loss_changes":[3.4383875E2,7.716543E1,5.494458E1,1.4658274E1,7.6454636E1,4.6917305E0,4.682678E0,6.4768853E0,2.229082E0,1.6640335E1,8.4903755E0,2.8861675E0,7.962761E-1,1.3384476E0,9.0989685E-1,3.6755364E0,8.147351E0,5.123818E-1,3.5765076E-1,8.020477E0,3.2384987E0,3.3433743E0,5.025201E0,2.6937313E0,5.4615784E-1,2.1253586E-1,0E0,4.949417E-1,0E0,5.147095E-1,5.6016937E-2,3.560282E0,6.5593696E-1,1.4295673E0,3.228742E-1,3.6204517E-2,5.2207685E-1,0E0,5.6841373E-2,6.711914E0,3.6697617E0,2.0902061E0,3.2660253E0,3.0387287E0,9.272702E-1,1.790395E0,1.3456216E0,2.3627758E0,3.3673096E-1,3.152485E-1,3.914997E-2,2.0040321E-1,0E0,4.6630764E-1,0E0,1.9996643E-1,0E0,3.0968785E-3,0E0,0E0,0E0,0E0,0E0,0E0,0E0,0E0,0E0,0E0,0E0,0E0,0E0,0E0,0E0,0E0,0E0,0E0,0E0,0E0,0E0,0E0,0E0,0E0,0E0,0E0,0E0,0E0,0E0,0E0,0E0,0E0,0E0,0E0,0E0,0E0,0E0,0E0,0E0,0E0,0E0,0E0,0E0,0E0,0E0,0E0,0E0],"parents":[2147483647,0,0,1,1,2,2,3,3,4,4,5,5,6,6,7,7,8,8,9,9,10,10,11,11,12,12,13,13,14,14,15,15,16,16,17,17,18,18,19,19,20,20,21,21,22,22,23,23,24,24,25,25,27,27,29,29,30,30,31,31,32,32,33,33,34,34,35,35,36,36,38,38,39,39,40,40,41,41,42,42,43,43,44,44,45,45,46,46,47,47,48,48,49,49,50,50,51,51,53,53,55,55,57,57],"right_children":[2,4,6,8,10,12,14,16,18,20,22,24,26,28,30,32,34,36,38,40,42,44,46,48,50,52,-1,54,-1,56,58,60,62,64,66,68,70,-1,72,74,76,78,80,82,84,86,88,90,92,94,96,98,-1,100,-1,102,-1,104,-1,-1,-1,-1,-1,-1,-1,-1,-1,-1,-1,-1,-1,-1,-1,-1,-1,-1,-1,-1,-1,-1,-1,-1,-1,-1,-1,-1,-1,-1,-1,-1,-1,-1,-1,-1,-1,-1,-1,-1,-1,-1,-1,-1,-1,-1,-1],"split_conditions":[7.226971E-1,2.2912476E-2,8.463141E-1,3.75E-1,5.7903415E-1,8.0582887E-1,8.9274824E-1,1.5640186E-1,1.3963619E-1,5.021912E-1,6.558771E-1,2.5748262E-1,4.3986547E-1,2.5748262E-1,3.7000927E-1,3.5687E-1,3.7941098E-1,5E-1,4.2588234E-1,3.3333334E-3,3.3E-1,7.5E-2,4.6705884E-1,3.375E-1,3.3666667E-1,4.5185614E-1,1.3772566E-2,3.8297874E-1,1.7128993E-2,5.673759E-1,1.06382266E-1,6.1246085E-1,6.440363E-1,3.272526E-3,5.9748954E-1,6.5450524E-3,1.3208482E-1,2.3024917E-2,7.5E-2,2.5E-2,4.847059E-1,2.5E-2,7.656184E-2,1.5117994E-1,2.9459925E-2,8.6666666E-2,4.0697673E-1,6.25E-2,1E-2,4.6705884E-1,2.3730008E-2,6.6875E-1,-1.4341378E-3,2.3268834E-2,1.7138174E-2,5.833333E-1,2.389222E-2,2.0117646E-1,7.643876E-5,6.9228077E-4,8.563401E-3,-1.535752E-2,-2.079682E-3,-2.733139E-3,1.5126377E-2,-4.390004E-3,1.2183466E-3,-9.050496E-3,-1.2549582E-3,1.3537173E-2,-5.0066453E-3,1.6032493E-2,5.8819437E-3,-1.8716237E-2,-1.0402362E-2,-5.982736E-3,-1.3101733E-2,-9.891706E-3,-6.3745803E-3,1.304249E-2,-6.4955847E-3,-6.2740827E-3,-2.333646E-3,5.7600257E-3,-1.0381462E-3,7.5494027E-4,1.0715249E-2,-6.2779263E-3,-1.9200912E-2,2.8821297E-3,7.664321E-3,1.6747229E-4,1.62015E-2,8.821659E-3,-1.1974721E-3,-3.8611086E-3,7.372381E-4,9.693744E-3,1.9879157E-3,5.1072882E-3,1.1955295E-2,1.962257E-2,3.4088977E-3,8.125983E-3,2.1282842E-3],"split_indices":[1,0,1,9,1,1,1,8,3,1,1,8,8,8,3,3,8,9,4,14,11,12,4,9,14,3,0,6,0,6,0,1,1,0,1,0,3,0,12,9,4,12,8,8,0,11,5,12,11,4,0,12,0,8,0,14,0,4,0,0,0,0,0,0,0,0,0,0,0,0,0,0,0,0,0,0,0,0,0,0,0,0,0,0,0,0,0,0,0,0,0,0,0,0,0,0,0,0,0,0,0,0,0,0,0],"split_type":[0,0,0,0,0,0,0,0,0,0,0,0,0,0,0,0,0,0,0,0,0,0,0,0,0,0,0,0,0,0,0,0,0,0,0,0,0,0,0,0,0,0,0,0,0,0,0,0,0,0,0,0,0,0,0,0,0,0,0,0,0,0,0,0,0,0,0,0,0,0,0,0,0,0,0,0,0,0,0,0,0,0,0,0,0,0,0,0,0,0,0,0,0,0,0,0,0,0,0,0,0,0,0,0,0],"sum_hessian":[4.178E3,2.877E3,1.301E3,4.18E2,2.459E3,7.86E2,5.15E2,3.68E2,5E1,1.2E3,1.259E3,5.96E2,1.9E2,1.97E2,3.18E2,2.7E2,9.8E1,5E0,4.5E1,6.25E2,5.75E2,7.36E2,5.23E2,4.07E2,1.89E2,1.43E2,4.7E1,1.02E2,9.5E1,3.14E2,4E0,2.57E2,1.3E1,6.9E1,2.9E1,2E0,3E0,2.9E1,1.6E1,4.02E2,2.23E2,5.52E2,2.3E1,6.06E2,1.3E2,4.9E2,3.3E1,3.92E2,1.5E1,1.85E2,4E0,1.42E2,1E0,8.6E1,1.6E1,2.66E2,4.8E1,3E0,1E0,2.08E2,4.9E1,9E0,4E0,3E0,6.6E1,1.8E1,1.1E1,1E0,1E0,2E0,1E0,1.4E1,2E0,3.09E2,9.3E1,8.4E1,1.39E2,3.64E2,1.88E2,9E0,1.4E1,3.93E2,2.13E2,1.5E1,1.15E2,4.78E2,1.2E1,2.6E1,7E0,2.96E2,9.6E1,1E0,1.4E1,1.83E2,2E0,1E0,3E0,1.39E2,3E0,1E1,7.6E1,2.65E2,1E0,2E0,1E0],"tree_param":{"num_deleted":"0","num_feature":"15","num_nodes":"105","size_leaf_vector":"1"}},{"base_weights":[-1.2613975E-3,2.1703792E-1,-1.912365E-1,4.550027E-1,-3.4706903E-4,4.3956853E-2,-3.1437072E-1,6.2597585E-1,3.2377222E-1,1.0871946E-1,-1.10719085E-1,-3.6239587E-3,4.6064043E-1,-2.0064564E-1,-5.407037E-1,4.5686256E-2,6.6309154E-1,4.5940992E-1,2.3100512E-1,3.1631967E-1,7.4187495E-2,-1.4093065E-1,8.138771E-1,-4.3770574E-2,3.9280173E-1,3.0168068E-1,6.9191223E-1,-9.467422E-2,-4.2741987E-1,-4.5149356E-1,-6.52505E-1,4.183859E-1,-6.840795E-2,1.4126869E-1,6.9062215E-1,-1.4120724E-2,4.6667793E-1,1.7688859E-1,3.456509E-1,3.4479398E-1,4.542592E-2,1.0909743E-1,-4.420084E-2,-5.0175395E-2,-1.9952075E-1,3.1980167E-3,2.2554291E-2,2.59267E-1,-7.83871E-2,4.664465E-1,-2.6299158E-1,4.6293572E-1,-1.2300551E-1,2.026576E-2,2.5739148E-1,-1.9796062E-1,1.9554669E-1,-4.7132072E-1,-3.4046255E-2,-3.9011893E-1,-6.418906E-1,-6.834473E-1,-3.5280338E-1,2.8534664E-3,1.2148885E-2,2.8462606E-3,-4.537466E-3,1.2859543E-2,2.0118188E-3,2.0134097E-2,1.5187071E-2,1.0546651E-2,1.4886751E-2,3.8388614E-3,1.1201122E-2,9.444372E-3,-3.4234514E-3,9.709705E-3,3.7627516E-3,4.380385E-3,-3.0705135E-3,3.268099E-3,-4.9429866E-3,-2.104461E-3,2.9242283E-3,-2.009525E-3,3.3033644E-3,-5.5744215E-3,1.7416436E-2,8.508434E-3,-7.7497414E-3,6.8065367E-4,-5.179029E-3,1.3166237E-2,-6.7793685E-3,1.181967E-3,-1.33650005E-2,1.5108963E-2,2.3295744E-3,5.630438E-4,-5.4404354E-3,8.245481E-3,-1.7322815E-4,-3.4107945E-3,-6.8985494E-3,9.632866E-3,-3.0294175E-3,-1.380965E-2,-7.204518E-3,1.0688051E-2,-8.389232E-3,-1.1658529E-2,-5.355139E-3,-1.8480659E-2,-1.1276686E-2,-1.6954394E-2,-2.501113E-2,5.378401E-4,-1.5021594E-2],"categories":[],"categories_nodes":[],"categories_segments":[],"categories_sizes":[],"default_left":[0,0,0,0,0,0,0,0,0,0,0,0,0,0,0,0,0,0,0,0,0,0,0,0,0,0,0,0,0,0,0,0,0,0,0,0,0,0,0,0,0,0,0,0,0,0,0,0,0,0,0,0,0,0,0,0,0,0,0,0,0,0,0,0,0,0,0,0,0,0,0,0,0,0,0,0,0,0,0,0,0,0,0,0,0,0,0,0,0,0,0,0,0,0,0,0,0,0,0,0,0,0,0,0,0,0,0,0,0,0,0,0,0,0,0,0,0,0,0],"id":3,"left_children":[1,3,5,7,9,11,13,15,17,19,21,23,25,27,29,31,33,35,37,39,41,43,45,47,49,51,53,55,57,59,61,63,65,67,69,-1,71,73,75,77,79,81,83,85,87,-1,-1,89,91,93,95,97,99,-1,101,103,105,107,109,111,113,115,117,-1,-1,-1,-1,-1,-1,-1,-1,-1,-1,-1,-1,-1,-1,-1,-1,-1,-1,-1,-1,-1,-1,-1,-1,-1,-1,-1,-1,-1,-1,-1,-1,-1,-1,-1,-1,-1,-1,-1,-1,-1,-1,-1,-1,-1,-1,-1,-1,-1,-1,-1,-1,-1,-1,-1,-1],"loss_changes":[1.7156737E2,9.9580345E1,6.407412E1,2.041684E1,1.2134196E1,1.5089365E1,3.726561E1,8.541779E0,6.462055E0,3.6111364E0,1.4109383E1,1.0903156E1,2.6587696E0,2.322211E1,4.542694E0,1.0916927E0,5.2753754E0,1.7715187E0,1.8745804E0,5.3971004E-1,1.8067794E0,2.5742264E0,3.2011795E-1,6.54517E0,3.1653023E0,3.3441176E0,7.9518604E-1,1.9852764E1,5.302944E0,2.939743E0,1.7341232E0,2.6112437E-2,3.8085657E-1,4.128113E-1,2.467804E0,0E0,1.1476898E0,1.618072E0,5.693474E-1,2.37741E-1,1.7422293E-1,1.4547248E0,5.5474424E-1,8.740974E-1,2.9368572E0,0E0,0E0,2.2899766E0,6.828594E0,1.4012775E0,5.4346263E-1,1.3648033E0,1.7104267E-1,0E0,8.7705344E-2,2.079193E0,9.122179E0,2.636364E0,4.090929E0,1.8854771E0,4.9193573E-1,1.5511703E0,1.7736306E0,0E0,0E0,0E0,0E0,0E0,0E0,0E0,0E0,0E0,0E0,0E0,0E0,0E0,0E0,0E0,0E0,0E0,0E0,0E0,0E0,0E0,0E0,0E0,0E0,0E0,0E0,0E0,0E0,0E0,0E0,0E0,0E0,0E0,0E0,0E0,0E0,0E0,0E0,0E0,0E0,0E0,0E0,0E0,0E0,0E0,0E0,0E0,0E0,0E0,0E0,0E0,0E0,0E0,0E0,0E0,0E0],"parents":[2147483647,0,0,1,1,2,2,3,3,4,4,5,5,6,6,7,7,8,8,9,9,10,10,11,11,12,12,13,13,14,14,15,15,16,16,17,17,18,18,19,19,20,20,21,21,22,22,23,23,24,24,25,25,26,26,27,27,28,28,29,29,30,30,31,31,32,32,33,33,34,34,36,36,37,37,38,38,39,39,40,40,41,41,42,42,43,43,44,44,47,47,48,48,49,49,50,50,51,51,52,52,54,54,55,55,56,56,57,57,58,58,59,59,60,60,61,61,62,62],"right_children":[2,4,6,8,10,12,14,16,18,20,22,24,26,28,30,32,34,36,38,40,42,44,46,48,50,52,54,56,58,60,62,64,66,68,70,-1,72,74,76,78,80,82,84,86,88,-1,-1,90,92,94,96,98,100,-1,102,104,106,108,110,112,114,116,118,-1,-1,-1,-1,-1,-1,-1,-1,-1,-1,-1,-1,-1,-1,-1,-1,-1,-1,-1,-1,-1,-1,-1,-1,-1,-1,-1,-1,-1,-1,-1,-1,-1,-1,-1,-1,-1,-1,-1,-1,-1,-1,-1,-1,-1,-1,-1,-1,-1,-1,-1,-1,-1,-1,-1,-1],"split_conditions":[3.2352942E-1,6.93125E-2,4.3534424E-2,2.5E-2,1.195336E-1,3.3561215E-1,4.6E-1,2.6437283E-2,2.517647E-1,2.1529412E-1,6.524823E-1,3.4375E-1,7.5E-2,1.325E-1,5.435294E-1,3.5678443E-2,1.1471665E-3,2.5221335E-2,2.4441463E-1,2.2599117E-1,2.9294118E-1,1.542811E-1,1.2790698E-1,6.547448E-3,1.4729963E-2,3.3333334E-1,1.2586269E-1,2.942491E-1,6E-2,1.715E-1,1E-1,2.7822463E-2,1.33615825E-2,3.273245E-2,2.647059E-1,-1.4120724E-2,1.3953489E-1,1.9767442E-1,2.03125E-1,4.115605E-1,8.590733E-2,3.4653053E-1,7.5E-2,1.8E-1,4.8125E-1,3.1980167E-3,2.2554291E-2,7.294118E-1,1.1617915E-1,2.4273552E-1,3.764706E-1,4.499721E-1,3.6588237E-1,2.026576E-2,9.911665E-2,1.918028E-1,8.245945E-2,6.25E-2,9.216176E-2,6.666667E-3,7.333333E-2,2.200851E-1,3.4042552E-1,2.8534664E-3,1.2148885E-2,2.8462606E-3,-4.537466E-3,1.2859543E-2,2.0118188E-3,2.0134097E-2,1.5187071E-2,1.0546651E-2,1.4886751E-2,3.8388614E-3,1.1201122E-2,9.444372E-3,-3.4234514E-3,9.709705E-3,3.7627516E-3,4.380385E-3,-3.0705135E-3,3.268099E-3,-4.9429866E-3,-2.104461E-3,2.9242283E-3,-2.009525E-3,3.3033644E-3,-5.5744215E-3,1.7416436E-2,8.508434E-3,-7.7497414E-3,6.8065367E-4,-5.179029E-3,1.3166237E-2,-6.7793685E-3,1.181967E-3,-1.33650005E-2,1.5108963E-2,2.3295744E-3,5.630438E-4,-5.4404354E-3,8.245481E-3,-1.7322815E-4,-3.4107945E-3,-6.8985494E-3,9.632866E-3,-3.0294175E-3,-1.380965E-2,-7.204518E-3,1.0688051E-2,-8.389232E-3,-1.1658529E-2,-5.355139E-3,-1.8480659E-2,-1.1276686E-2,-1.6954394E-2,-2.501113E-2,5.378401E-4,-1.5021594E-2],"split_indices":[4,2,0,2,2,8,4,8,4,4,6,9,12,2,4,0,2,2,8,3,4,2,5,0,0,14,3,8,11,2,11,0,8,0,4,0,5,5,9,8,8,3,12,11,9,0,0,4,2,8,4,8,4,0,2,3,2,12,8,14,11,2,6,0,0,0,0,0,0,0,0,0,0,0,0,0,0,0,0,0,0,0,0,0,0,0,0,0,0,0,0,0,0,0,0,0,0,0,0,0,0,0,0,0,0,0,0,0,0,0,0,0,0,0,0,0,0,0,0],"split_type":[0,0,0,0,0,0,0,0,0,0,0,0,0,0,0,0,0,0,0,0,0,0,0,0,0,0,0,0,0,0,0,0,0,0,0,0,0,0,0,0,0,0,0,0,0,0,0,0,0,0,0,0,0,0,0,0,0,0,0,0,0,0,0,0,0,0,0,0,0,0,0,0,0,0,0,0,0,0,0,0,0,0,0,0,0,0,0,0,0,0,0,0,0,0,0,0,0,0,0,0,0,0,0,0,0,0,0,0,0,0,0,0,0,0,0,0,0,0,0],"sum_hessian":[4.135E3,1.924E3,2.211E3,9.18E2,1.006E3,7.6E2,1.451E3,3.97E2,5.21E2,5.06E2,5E2,6.83E2,7.7E1,9.67E2,4.84E2,2.4E1,3.73E2,2.1E2,3.11E2,7.1E1,4.35E2,4.85E2,1.5E1,6.21E2,6.2E1,4.7E1,3E1,6.6E2,3.07E2,2.72E2,2.12E2,5E0,1.9E1,1.9E1,3.54E2,1E0,2.09E2,2.13E2,9.8E1,6.4E1,7E0,3.36E2,9.9E1,1.91E2,2.94E2,1E0,1.4E1,6.3E1,5.58E2,5.6E1,6E0,3.4E1,1.3E1,2.5E1,5E0,4.87E2,1.73E2,2.76E2,3.1E1,2.08E2,6.4E1,1.91E2,2.1E1,1E0,4E0,7E0,1.2E1,2E0,1.7E1,2.18E2,1.36E2,1.25E2,8.4E1,1.9E2,2.3E1,9.6E1,2E0,5.7E1,7E0,4E0,3E0,3.21E2,1.5E1,8.1E1,1.8E1,1.67E2,2.4E1,2.91E2,3E0,5.7E1,6E0,2.96E2,2.62E2,5.4E1,2E0,3E0,3E0,2.6E1,8E0,5E0,8E0,4E0,1E0,2.33E2,2.54E2,1.12E2,6.1E1,2.19E2,5.7E1,1.2E1,1.9E1,1.63E2,4.5E1,4.9E1,1.5E1,1.67E2,2.4E1,8E0,1.3E1],"tree_param":{"num_deleted":"0","num_feature":"15","num_nodes":"119","size_leaf_vector":"1"}},{"base_weights":[2.8891602E-4,-1.8316655E-1,4.05874E-1,1.710409E-1,-2.45154E-1,2.6213717E-1,6.627343E-1,1.2123021E-1,2.0703303E-2,-4.0966395E-1,-7.799419E-2,2.0686388E-1,3.97616E-1,6.766123E-1,1.6832706E-1,4.1021064E-2,3.347414E-1,-5.190371E-1,-2.950682E-1,-1.4586745E-1,1.6405765E-2,1.6771105E-1,3.1738582E-1,9.430341E-2,4.1457087E-1,5.589257E-1,7.31115E-1,2.3433931E-1,-9.130384E-3,6.8266466E-2,-3.9892098E-1,5.10021E-1,-1.17082685E-1,-5.881356E-1,-3.3863056E-1,-3.1268045E-1,1.2392973E-1,-1.8523698E-1,-1.0853355E-2,-4.2456484E-1,3.4444712E-2,1.384759E-1,3.0373552E-1,1.4578077E-2,3.0420563E-1,2.3295999E-1,3.530979E-2,3.58786E-1,4.8695666E-1,8.287668E-2,5.716622E-1,1.8683277E-2,2.263559E-2,2.542716E-1,-6.4166525E-5,-2.6676213E-4,5.4547735E-3,-1.34463515E-2,-9.4336335E-4,-1.0435027E-5,1.4231413E-2,-3.2704553E-4,-6.912728E-3,-1.7037617E-2,-1.0017236E-2,-6.530601E-3,-1.3120402E-2,-9.568627E-3,-5.6712455E-3,1.3034924E-2,-5.314607E-3,-6.182864E-3,-1.9195054E-3,3.6881026E-4,-5.4837936E-3,-3.0021172E-3,-1.647973E-2,6.254725E-4,1.0561248E-2,3.209613E-3,1.0608891E-2,8.698676E-3,-3.1803458E-3,5.076198E-3,8.559795E-3,1.4194737E-3,7.276028E-3,-1.4209938E-3,5.412404E-3,5.381619E-3,1.0655342E-2,1.3326038E-2,2.2962904E-3,5.252215E-3,-1.59579E-3,1.5876789E-2,1.0318236E-2,7.3109716E-3,1.7508051E-4],"categories":[],"categories_nodes":[],"categories_segments":[],"categories_sizes":[],"default_left":[0,0,0,0,0,0,0,0,0,0,0,0,0,0,0,0,0,0,0,0,0,0,0,0,0,0,0,0,0,0,0,0,0,0,0,0,0,0,0,0,0,0,0,0,0,0,0,0,0,0,0,0,0,0,0,0,0,0,0,0,0,0,0,0,0,0,0,0,0,0,0,0,0,0,0,0,0,0,0,0,0,0,0,0,0,0,0,0,0,0,0,0,0,0,0,0,0,0,0],"id":4,"left_children":[1,3,5,7,9,11,13,15,-1,17,19,21,23,25,27,29,31,33,35,37,39,41,43,45,47,49,51,53,-1,55,57,59,61,63,65,67,69,71,73,75,77,79,81,-1,83,85,87,89,91,93,95,-1,-1,97,-1,-1,-1,-1,-1,-1,-1,-1,-1,-1,-1,-1,-1,-1,-1,-1,-1,-1,-1,-1,-1,-1,-1,-1,-1,-1,-1,-1,-1,-1,-1,-1,-1,-1,-1,-1,-1,-1,-1,-1,-1,-1,-1,-1,-1],"loss_changes":[3.0938342E2,6.2903152E1,4.763803E1,1.2901971E1,6.698422E1,6.1480637E0,3.0697784E0,6.767987E0,0E0,1.5238235E1,7.7551465E0,2.512827E0,1.1951332E0,2.4841766E0,5.551522E-1,3.4913013E0,8.612832E0,7.6168976E0,4.481209E0,3.7400599E0,4.0476294E0,1.7076874E0,3.060646E-1,1.06292166E-1,7.419205E-1,8.4391403E-1,3.5401917E-1,6.196636E-2,0E0,2.9492636E0,6.552994E-1,1.0988464E0,4.6446642E-1,5.016449E0,2.418064E0,2.6986656E0,3.09004E0,2.9522934E0,7.813844E-1,1.1614795E0,1.9146821E0,1.5961709E0,8.5126925E-1,0E0,2.5677013E-1,1.5321091E-2,1.7655857E-1,8.158531E-1,5.886326E-1,9.466109E-2,4.973259E-1,0E0,0E0,6.3296676E-2,0E0,0E0,0E0,0E0,0E0,0E0,0E0,0E0,0E0,0E0,0E0,0E0,0E0,0E0,0E0,0E0,0E0,0E0,0E0,0E0,0E0,0E0,0E0,0E0,0E0,0E0,0E0,0E0,0E0,0E0,0E0,0E0,0E0,0E0,0E0,0E0,0E0,0E0,0E0,0E0,0E0,0E0,0E0,0E0,0E0],"parents":[2147483647,0,0,1,1,2,2,3,3,4,4,5,5,6,6,7,7,9,9,10,10,11,11,12,12,13,13,14,14,15,15,16,16,17,17,18,18,19,19,20,20,21,21,22,22,23,23,24,24,25,25,26,26,27,27,29,29,30,30,31,31,32,32,33,33,34,34,35,35,36,36,37,37,38,38,39,39,40,40,41,41,42,42,44,44,45,45,46,46,47,47,48,48,49,49,50,50,53,53],"right_children":[2,4,6,8,10,12,14,16,-1,18,20,22,24,26,28,30,32,34,36,38,40,42,44,46,48,50,52,54,-1,56,58,60,62,64,66,68,70,72,74,76,78,80,82,-1,84,86,88,90,92,94,96,-1,-1,98,-1,-1,-1,-1,-1,-1,-1,-1,-1,-1,-1,-1,-1,-1,-1,-1,-1,-1,-1,-1,-1,-1,-1,-1,-1,-1,-1,-1,-1,-1,-1,-1,-1,-1,-1,-1,-1,-1,-1,-1,-1,-1,-1,-1,-1],"split_conditions":[7.226971E-1,2.2912476E-2,8.5967803E-1,5.673759E-1,5.8117074E-1,8.0582887E-1,3.814881E-1,1.5640186E-1,2.0703303E-2,5.021912E-1,6.558771E-1,3.2185328E-1,1.1471665E-3,8.9274824E-1,9.6659E-1,3.5687E-1,4.3986547E-1,5E-2,3.3E-1,6.25E-2,1.1471665E-3,7.5E-2,2.973346E-2,7.092199E-2,1.5116279E-1,1.1471665E-3,5.673759E-1,1.1310382E-1,-9.130384E-3,5.4722387E-1,1.6875E-1,2.968454E-1,2.08E-1,2.5E-2,2.4990973E-1,2.5E-2,8.489518E-2,1.5735051E-1,3.0022794E-1,1.1310382E-1,1.5666667E-1,7E-2,5E-1,1.4578077E-2,2.9786458E-2,8.1290406E-1,5.673759E-1,3.273245E-2,4.375E-1,8.6636007E-1,4.577917E-2,1.8683277E-2,2.263559E-2,9.59908E-1,-6.4166525E-5,-2.6676213E-4,5.4547735E-3,-1.34463515E-2,-9.4336335E-4,-1.0435027E-5,1.4231413E-2,-3.2704553E-4,-6.912728E-3,-1.7037617E-2,-1.0017236E-2,-6.530601E-3,-1.3120402E-2,-9.568627E-3,-5.6712455E-3,1.3034924E-2,-5.314607E-3,-6.182864E-3,-1.9195054E-3,3.6881026E-4,-5.4837936E-3,-3.0021172E-3,-1.647973E-2,6.254725E-4,1.0561248E-2,3.209613E-3,1.0608891E-2,8.698676E-3,-3.1803458E-3,5.076198E-3,8.559795E-3,1.4194737E-3,7.276028E-3,-1.4209938E-3,5.412404E-3,5.381619E-3,1.0655342E-2,1.3326038E-2,2.2962904E-3,5.252215E-3,-1.59579E-3,1.5876789E-2,1.0318236E-2,7.3109716E-3,1.7508051E-4],"split_indices":[1,0,1,6,1,1,3,8,0,1,1,8,2,1,1,3,8,14,11,12,2,12,2,6,5,2,6,8,0,1,9,1,2,9,3,12,8,8,3,8,11,11,13,0,0,1,6,0,12,1,2,0,0,1,0,0,0,0,0,0,0,0,0,0,0,0,0,0,0,0,0,0,0,0,0,0,0,0,0,0,0,0,0,0,0,0,0,0,0,0,0,0,0,0,0,0,0,0,0],"split_type":[0,0,0,0,0,0,0,0,0,0,0,0,0,0,0,0,0,0,0,0,0,0,0,0,0,0,0,0,0,0,0,0,0,0,0,0,0,0,0,0,0,0,0,0,0,0,0,0,0,0,0,0,0,0,0,0,0,0,0,0,0,0,0,0,0,0,0,0,0,0,0,0,0,0,0,0,0,0,0,0,0,0,0,0,0,0,0,0,0,0,0,0,0,0,0,0,0,0,0],"sum_hessian":[4.156E3,2.862E3,1.294E3,4.26E2,2.436E3,8.31E2,4.63E2,3.95E2,3.1E1,1.227E3,1.209E3,5.92E2,2.39E2,4.5E2,1.3E1,2.88E2,1.07E2,6.26E2,6.01E2,7.03E2,5.06E2,4.39E2,1.53E2,1.3E1,2.26E2,1.46E2,3.04E2,1.2E1,1E0,2.72E2,1.6E1,7.7E1,3E1,4.51E2,1.75E2,5.77E2,2.4E1,5.44E2,1.59E2,1.9E1,4.87E2,3.63E2,7.6E1,6E0,1.47E2,3E0,1E1,1.31E2,9.5E1,4E0,1.42E2,2.58E2,4.6E1,1.1E1,1E0,1.74E2,9.8E1,1.2E1,4E0,4E0,7.3E1,1.8E1,1.2E1,3.55E2,9.6E1,1.12E2,6.3E1,3.84E2,1.93E2,1.1E1,1.3E1,3.8E2,1.64E2,1.42E2,1.7E1,8E0,1.1E1,4.74E2,1.3E1,3.42E2,2.1E1,7.2E1,4E0,2.3E1,1.24E2,1E0,2E0,7E0,3E0,3E1,1.01E2,9.1E1,4E0,2E0,2E0,1.21E2,2.1E1,1E1,1E0],"tree_param":{"num_deleted":"0","num_feature":"15","num_nodes":"99","size_leaf_vector":"1"}},{"base_weights":[1.5407483E-3,-1.7234705E-1,3.9113966E-1,2.0158237E-1,-2.3547898E-1,2.537816E-1,6.5502644E-1,1.3521822E-1,6.573195E-1,-4.428546E-1,-1.18026935E-1,1.9528638E-1,3.907298E-1,1.6768017E-1,6.6823685E-1,5.148475E-2,3.7785387E-1,-1.0454921E-1,7.388589E-1,-5.1500446E-1,-3.08798E-1,-2.0229918E-1,-1.3738493E-2,1.5665406E-1,3.012082E-1,4.1240397E-1,1.3061166E-1,2.5858006E-1,-2.215128E-1,7.0249385E-1,5.071393E-1,7.76203E-2,-4.0496367E-1,5.270672E-1,-1.0567718E-1,-2.6492637E-1,9.22971E-3,7.697926E-1,5.4567847E-3,-5.7478184E-1,-2.8774557E-1,-3.3263025E-1,2.7226362E-1,-3.55095E-1,-1.7495508E-1,9.261738E-3,-3.1066817E-1,1.2700653E-1,2.9515657E-1,2.8959557E-1,1.5908148E-2,3.7535644E-1,5.010195E-1,-3.250293E-2,3.13288E-1,2.3054313E-2,1.03204455E-2,-9.009536E-3,2.1393258E-4,6.436987E-1,7.596073E-1,5.358209E-1,2.811239E-1,5.9802387E-5,5.144279E-3,-1.3459245E-2,1.7802628E-4,1.02229705E-2,1.8049607E-2,-1.2133656E-4,-6.264182E-3,-1.3369792E-3,-8.097699E-3,2.2008082E-2,1.5194683E-2,-2.0590072E-2,-1.3251898E-2,-1.4827545E-3,-1.1798234E-2,-6.673158E-3,-1.4691357E-2,1.336813E-2,4.022078E-3,-8.495944E-3,-1.702036E-2,-4.9172244E-3,2.597841E-3,-5.938773E-4,2.3820705E-3,-2.7517625E-3,-1.2280106E-2,2.941836E-3,1.23436535E-2,9.2508225E-3,2.9377155E-3,4.180119E-3,8.181073E-3,5.3275274E-3,1.0223317E-2,1.3363721E-2,3.3463943E-3,-2.5346554E-3,2.935664E-4,1.088293E-2,1.6877399E-3,5.159528E-3,-4.142398E-3,1.7112782E-2,1.965678E-3,8.850306E-3,2.0254409E-2,1.4707013E-2,6.2398887E-3,8.1985565E-3,-6.331766E-5],"categories":[],"categories_nodes":[],"categories_segments":[],"categories_sizes":[],"default_left":[0,0,0,0,0,0,0,0,0,0,0,0,0,0,0,0,0,0,0,0,0,0,0,0,0,0,0,0,0,0,0,0,0,0,0,0,0,0,0,0,0,0,0,0,0,0,0,0,0,0,0,0,0,0,0,0,0,0,0,0,0,0,0,0,0,0,0,0,0,0,0,0,0,0,0,0,0,0,0,0,0,0,0,0,0,0,0,0,0,0,0,0,0,0,0,0,0,0,0,0,0,0,0,0,0,0,0,0,0,0,0,0,0,0,0],"id":5,"left_children":[1,3,5,7,9,11,13,15,17,19,21,23,25,27,29,31,33,35,37,39,41,43,45,47,49,51,53,55,57,59,61,63,65,67,69,71,-1,73,-1,75,77,79,81,83,85,87,89,91,93,95,-1,97,99,101,103,105,-1,-1,-1,107,109,111,113,-1,-1,-1,-1,-1,-1,-1,-1,-1,-1,-1,-1,-1,-1,-1,-1,-1,-1,-1,-1,-1,-1,-1,-1,-1,-1,-1,-1,-1,-1,-1,-1,-1,-1,-1,-1,-1,-1,-1,-1,-1,-1,-1,-1,-1,-1,-1,-1,-1,-1,-1,-1],"loss_changes":[2.8385748E2,6.843663E1,4.6701126E1,1.2583611E1,6.0327988E1,6.748909E0,2.733551E0,7.436783E0,3.369732E0,8.507248E0,1.3918394E1,2.4039268E0,1.3781433E0,5.171875E-1,2.0168E0,3.3001244E0,6.8377323E0,5.2848595E-1,6.3230705E-1,7.727463E0,4.46653E0,3.5978584E0,4.844959E0,1.7733727E0,3.7942505E-1,5.8015823E-1,6.3592345E-1,3.311627E-1,8.460429E-2,6.930542E-1,3.6148453E-1,2.286439E0,6.4245963E-1,1.3067074E0,3.0342436E-1,2.8482467E-2,0E0,6.5504074E-2,0E0,6.522888E0,4.4771776E0,5.304432E0,2.8732067E-1,1.0911846E0,2.2158604E0,1.6882035E0,1.5672464E0,1.9140115E0,7.31421E-1,3.483696E-1,0E0,2.4142838E-1,3.0582428E-2,3.414789E-2,2.179128E-1,1.8477625E-1,0E0,0E0,0E0,2.3554993E-1,1.5163422E-1,2.7824402E-1,8.9906156E-2,0E0,0E0,0E0,0E0,0E0,0E0,0E0,0E0,0E0,0E0,0E0,0E0,0E0,0E0,0E0,0E0,0E0,0E0,0E0,0E0,0E0,0E0,0E0,0E0,0E0,0E0,0E0,0E0,0E0,0E0,0E0,0E0,0E0,0E0,0E0,0E0,0E0,0E0,0E0,0E0,0E0,0E0,0E0,0E0,0E0,0E0,0E0,0E0,0E0,0E0,0E0,0E0],"parents":[2147483647,0,0,1,1,2,2,3,3,4,4,5,5,6,6,7,7,8,8,9,9,10,10,11,11,12,12,13,13,14,14,15,15,16,16,17,17,18,18,19,19,20,20,21,21,22,22,23,23,24,24,25,25,26,26,27,27,28,28,29,29,30,30,31,31,32,32,33,33,34,34,35,35,37,37,39,39,40,40,41,41,42,42,43,43,44,44,45,45,46,46,47,47,48,48,49,49,51,51,52,52,53,53,54,54,55,55,59,59,60,60,61,61,62,62],"right_children":[2,4,6,8,10,12,14,16,18,20,22,24,26,28,30,32,34,36,38,40,42,44,46,48,50,52,54,56,58,60,62,64,66,68,70,72,-1,74,-1,76,78,80,82,84,86,88,90,92,94,96,-1,98,100,102,104,106,-1,-1,-1,108,110,112,114,-1,-1,-1,-1,-1,-1,-1,-1,-1,-1,-1,-1,-1,-1,-1,-1,-1,-1,-1,-1,-1,-1,-1,-1,-1,-1,-1,-1,-1,-1,-1,-1,-1,-1,-1,-1,-1,-1,-1,-1,-1,-1,-1,-1,-1,-1,-1,-1,-1,-1,-1,-1],"split_conditions":[7.226971E-1,2.2912476E-2,8.6301905E-1,3.75E-1,5.3894216E-1,8.0582887E-1,1.1471665E-3,1.5640186E-1,1.5554173E-1,3.3333334E-3,6.358311E-1,3.2185328E-1,3.5687E-1,9.3652105E-1,2.6026106E-2,3.5687E-1,3.7941098E-1,6.6924113E-1,7.5E-2,1.6666668E-2,1.4E-1,4.05E-2,4.6705884E-1,7.5E-2,4.117647E-1,4.3986547E-1,2.973346E-2,1.0384987E-1,1.2602222E-1,9.135453E-1,3.3356592E-1,5.4364496E-1,1.6875E-1,2.999879E-1,2.08E-1,8.245945E-2,9.22971E-3,4.2588234E-1,5.4567847E-3,4.2714268E-1,4.6E-1,2.6249006E-1,4.9411765E-1,6.3529414E-1,3.3E-1,2.5E-2,3.016376E-1,3.375E-1,4.2E-1,2.9786458E-2,1.5908148E-2,1.1471665E-3,5.6712E-2,1.75E-2,9.492722E-2,8.6636007E-1,1.03204455E-2,-9.009536E-3,2.1393258E-4,3.814881E-1,1.2E-1,2.6941177E-1,1.06382266E-1,5.9802387E-5,5.144279E-3,-1.3459245E-2,1.7802628E-4,1.02229705E-2,1.8049607E-2,-1.2133656E-4,-6.264182E-3,-1.3369792E-3,-8.097699E-3,2.2008082E-2,1.5194683E-2,-2.0590072E-2,-1.3251898E-2,-1.4827545E-3,-1.1798234E-2,-6.673158E-3,-1.4691357E-2,1.336813E-2,4.022078E-3,-8.495944E-3,-1.702036E-2,-4.9172244E-3,2.597841E-3,-5.938773E-4,2.3820705E-3,-2.7517625E-3,-1.2280106E-2,2.941836E-3,1.23436535E-2,9.2508225E-3,2.9377155E-3,4.180119E-3,8.181073E-3,5.3275274E-3,1.0223317E-2,1.3363721E-2,3.3463943E-3,-2.5346554E-3,2.935664E-4,1.088293E-2,1.6877399E-3,5.159528E-3,-4.142398E-3,1.7112782E-2,1.965678E-3,8.850306E-3,2.0254409E-2,1.4707013E-2,6.2398887E-3,8.1985565E-3,-6.331766E-5],"split_indices":[1,0,1,9,1,1,2,8,3,14,1,8,3,1,2,3,8,1,12,11,11,2,4,12,4,8,2,3,0,1,3,1,9,8,2,2,0,4,0,1,4,3,4,4,11,12,3,9,14,0,0,2,2,2,0,1,0,0,0,3,4,4,0,0,0,0,0,0,0,0,0,0,0,0,0,0,0,0,0,0,0,0,0,0,0,0,0,0,0,0,0,0,0,0,0,0,0,0,0,0,0,0,0,0,0,0,0,0,0,0,0,0,0,0,0],"split_type":[0,0,0,0,0,0,0,0,0,0,0,0,0,0,0,0,0,0,0,0,0,0,0,0,0,0,0,0,0,0,0,0,0,0,0,0,0,0,0,0,0,0,0,0,0,0,0,0,0,0,0,0,0,0,0,0,0,0,0,0,0,0,0,0,0,0,0,0,0,0,0,0,0,0,0,0,0,0,0,0,0,0,0,0,0,0,0,0,0,0,0,0,0,0,0,0,0,0,0,0,0,0,0,0,0,0,0,0,0,0,0,0,0,0,0],"sum_hessian":[4.188E3,2.896E3,1.292E3,4.18E2,2.478E3,8.51E2,4.41E2,3.66E2,5.2E1,8.95E2,1.583E3,5.98E2,2.53E2,1.2E1,4.29E2,2.73E2,9.3E1,5E0,4.7E1,5.8E2,3.15E2,8.75E2,7.08E2,4.4E2,1.58E2,2.33E2,2E1,1E1,2E0,3.51E2,7.8E1,2.59E2,1.4E1,7.1E1,2.2E1,4E0,1E0,4.4E1,3E0,4.58E2,1.22E2,3.03E2,1.2E1,1.31E2,7.44E2,6.58E2,5E1,3.64E2,7.6E1,1.54E2,4E0,1.68E2,6.5E1,1.1E1,9E0,4E0,6E0,1E0,1E0,1.79E2,1.72E2,6.8E1,1E1,1.58E2,1.01E2,1.1E1,3E0,3.9E1,3.2E1,1.3E1,9E0,1E0,3E0,3.1E1,1.3E1,1.2E2,3.38E2,5E1,7.2E1,2.24E2,7.9E1,3E0,9E0,1.19E2,1.2E1,7.16E2,2.8E1,4.73E2,1.85E2,2.2E1,2.8E1,3.49E2,1.5E1,5.8E1,1.8E1,2.1E1,1.33E2,1.1E1,1.57E2,6.4E1,1E0,4E0,7E0,6E0,3E0,2E0,2E0,1.78E2,1E0,3E0,1.69E2,6.3E1,5E0,9E0,1E0],"tree_param":{"num_deleted":"0","num_feature":"15","num_nodes":"115","size_leaf_vector":"1"}},{"base_weights":[1.5215256E-3,-1.9121465E-1,3.4326497E-1,1.6311678E-1,-2.5459945E-1,1.836876E-1,5.791679E-1,1.1218175E-1,1.9941442E-2,-4.5187965E-1,-1.4223856E-1,1.19196296E-1,2.591333E-1,4.611672E-1,6.852911E-1,2.9870826E-1,4.301621E-2,-4.9191213E-1,-2.2102979E-1,-2.5333658E-1,-7.5643696E-2,9.485836E-2,3.6152607E-1,2.0827985E-1,3.5168818E-1,3.8314012E-1,5.491454E-1,6.956453E-1,1.9840723E-1,2.3937672E-1,7.623867E-1,-1.6538955E-2,3.0374837E-1,-2.294777E-1,-5.4061675E-1,-2.8812772E-1,4.8834246E-1,-3.0011174E-1,-1.4234194E-1,-4.622299E-2,-2.4413848E-1,6.3573316E-2,2.725991E-1,1.4415786E-1,3.987536E-1,2.1374406E-1,-1.662569E-2,1.8747523E-1,3.7798652E-1,1.465616E-1,4.1082063E-1,4.8206243E-1,1.6172845E-2,6.705635E-1,2.1839237E-2,2.6267147E-1,3.7430127E-3,7.8241E-3,-2.4033983E-3,2.1968815E-2,8.091952E-3,-1.4455438E-3,1.0511213E-2,3.9717876E-3,1.41487215E-2,-1.1510556E-3,-9.947183E-3,-1.9277466E-2,-1.2376867E-2,-1.2355286E-3,-1.0479302E-2,1.9406343E-2,-3.2632465E-3,-8.422557E-3,2.7340176E-3,7.331459E-4,-4.8815873E-3,-1.9693156E-3,2.0599368E-3,-4.4387523E-3,-1.3637575E-2,3.9160876E-3,6.121251E-5,7.607947E-3,-3.5495902E-3,1.2656684E-3,5.093143E-3,1.2080471E-2,6.810999E-3,1.0238554E-2,5.186294E-3,1.12955095E-2,5.3715584E-4,1.0156446E-2,2.9473573E-3,5.1276316E-3,-4.0692966E-3,1.1198441E-2,3.129126E-3,1.4125683E-2,1.0114545E-2,1.22994995E-2,1.800575E-2,8.318212E-3,6.4251726E-5,-6.247826E-5,2.1110199E-4],"categories":[],"categories_nodes":[],"categories_segments":[],"categories_sizes":[],"default_left":[0,0,0,0,0,0,0,0,0,0,0,0,0,0,0,0,0,0,0,0,0,0,0,0,0,0,0,0,0,0,0,0,0,0,0,0,0,0,0,0,0,0,0,0,0,0,0,0,0,0,0,0,0,0,0,0,0,0,0,0,0,0,0,0,0,0,0,0,0,0,0,0,0,0,0,0,0,0,0,0,0,0,0,0,0,0,0,0,0,0,0,0,0,0,0,0,0,0,0,0,0,0,0,0,0,0,0],"id":6,"left_children":[1,3,5,7,9,11,13,15,-1,17,19,21,23,25,27,29,31,33,35,37,39,41,43,45,47,49,51,53,55,57,59,61,63,65,67,69,71,73,75,77,79,81,83,85,87,89,-1,91,93,95,97,99,-1,101,-1,103,105,-1,-1,-1,-1,-1,-1,-1,-1,-1,-1,-1,-1,-1,-1,-1,-1,-1,-1,-1,-1,-1,-1,-1,-1,-1,-1,-1,-1,-1,-1,-1,-1,-1,-1,-1,-1,-1,-1,-1,-1,-1,-1,-1,-1,-1,-1,-1,-1,-1,-1],"loss_changes":[2.7453058E2,5.9895355E1,5.6473724E1,1.209066E1,5.0054367E1,4.338417E0,7.2726746E0,4.812202E0,0E0,7.4692993E0,1.0649557E1,2.8320408E0,1.8706322E0,1.780365E0,1.4600677E0,2.5960894E0,4.259681E0,8.797607E0,5.995185E0,2.760849E0,4.4650993E0,2.4460278E0,2.9856825E-1,1.3635645E0,5.5532265E-1,9.679222E-1,2.6111603E-1,4.5266724E-1,9.909642E-2,1.7151532E0,8.5523605E-2,3.5487926E0,1.7286234E0,3.0039654E0,7.7195587E0,2.9212933E0,1.7371068E0,2.7947502E0,1.1639316E0,2.6964698E0,2.6905265E0,1.9532359E0,4.359088E-1,2.7985632E-2,1.840887E-1,7.5072575E-1,0E0,8.7124497E-1,1.4544296E-1,2.845956E-1,4.5059204E-1,1.5175438E-1,0E0,2.0974731E-1,0E0,7.975173E-2,9.630397E-5,0E0,0E0,0E0,0E0,0E0,0E0,0E0,0E0,0E0,0E0,0E0,0E0,0E0,0E0,0E0,0E0,0E0,0E0,0E0,0E0,0E0,0E0,0E0,0E0,0E0,0E0,0E0,0E0,0E0,0E0,0E0,0E0,0E0,0E0,0E0,0E0,0E0,0E0,0E0,0E0,0E0,0E0,0E0,0E0,0E0,0E0,0E0,0E0,0E0,0E0],"parents":[2147483647,0,0,1,1,2,2,3,3,4,4,5,5,6,6,7,7,9,9,10,10,11,11,12,12,13,13,14,14,15,15,16,16,17,17,18,18,19,19,20,20,21,21,22,22,23,23,24,24,25,25,26,26,27,27,28,28,29,29,30,30,31,31,32,32,33,33,34,34,35,35,36,36,37,37,38,38,39,39,40,40,41,41,42,42,43,43,44,44,45,45,47,47,48,48,49,49,50,50,51,51,53,53,55,55,56,56],"right_children":[2,4,6,8,10,12,14,16,-1,18,20,22,24,26,28,30,32,34,36,38,40,42,44,46,48,50,52,54,56,58,60,62,64,66,68,70,72,74,76,78,80,82,84,86,88,90,-1,92,94,96,98,100,-1,102,-1,104,106,-1,-1,-1,-1,-1,-1,-1,-1,-1,-1,-1,-1,-1,-1,-1,-1,-1,-1,-1,-1,-1,-1,-1,-1,-1,-1,-1,-1,-1,-1,-1,-1,-1,-1,-1,-1,-1,-1,-1,-1,-1,-1,-1,-1,-1,-1,-1,-1,-1,-1],"split_conditions":[6.960146E-1,2.2912476E-2,8.296091E-1,5.673759E-1,5.2891916E-1,7.594481E-1,8.9274824E-1,6.547448E-3,1.9941442E-2,5E-2,5.957392E-1,1.4166667E-1,2.86304E-1,2.86304E-1,3.7000927E-1,3.656653E-1,3.4375E-1,3.5678443E-2,5.106383E-1,6.666667E-3,3.1391025E-1,1.875E-1,1.2790698E-1,9.5035464E-1,2.9786458E-2,5.8139537E-2,8.6636007E-1,5.673759E-1,1.06382266E-1,2.0333333E-1,1.6875E-1,2.1275016E-2,2.6975134E-1,8.590733E-2,4.1692725E-1,3.4042552E-1,9.216176E-2,3.3E-1,8.139535E-2,7.5E-2,5.2117646E-1,2.9294118E-1,6.524823E-1,7.364981E-3,3.506649E-1,1.835294E-1,-1.662569E-2,1.1860355E-1,2.03125E-1,8.7304205E-1,3.814881E-1,1.0662354E-1,1.6172845E-2,1.4823529E-1,2.1839237E-2,9.59908E-1,1.546646E-1,7.8241E-3,-2.4033983E-3,2.1968815E-2,8.091952E-3,-1.4455438E-3,1.0511213E-2,3.9717876E-3,1.41487215E-2,-1.1510556E-3,-9.947183E-3,-1.9277466E-2,-1.2376867E-2,-1.2355286E-3,-1.0479302E-2,1.9406343E-2,-3.2632465E-3,-8.422557E-3,2.7340176E-3,7.331459E-4,-4.8815873E-3,-1.9693156E-3,2.0599368E-3,-4.4387523E-3,-1.3637575E-2,3.9160876E-3,6.121251E-5,7.607947E-3,-3.5495902E-3,1.2656684E-3,5.093143E-3,1.2080471E-2,6.810999E-3,1.0238554E-2,5.186294E-3,1.12955095E-2,5.3715584E-4,1.0156446E-2,2.9473573E-3,5.1276316E-3,-4.0692966E-3,1.1198441E-2,3.129126E-3,1.4125683E-2,1.0114545E-2,1.22994995E-2,1.800575E-2,8.318212E-3,6.4251726E-5,-6.247826E-5,2.1110199E-4],"split_indices":[1,0,1,6,1,1,1,0,0,11,1,11,8,8,3,8,9,0,6,14,3,12,5,6,0,5,1,6,0,14,9,0,3,8,1,6,8,11,5,12,4,4,6,0,8,4,0,3,9,1,3,3,0,4,0,1,0,0,0,0,0,0,0,0,0,0,0,0,0,0,0,0,0,0,0,0,0,0,0,0,0,0,0,0,0,0,0,0,0,0,0,0,0,0,0,0,0,0,0,0,0,0,0,0,0,0,0],"split_type":[0,0,0,0,0,0,0,0,0,0,0,0,0,0,0,0,0,0,0,0,0,0,0,0,0,0,0,0,0,0,0,0,0,0,0,0,0,0,0,0,0,0,0,0,0,0,0,0,0,0,0,0,0,0,0,0,0,0,0,0,0,0,0,0,0,0,0,0,0,0,0,0,0,0,0,0,0,0,0,0,0,0,0,0,0,0,0,0,0,0,0,0,0,0,0,0,0,0,0,0,0,0,0,0,0,0,0],"sum_hessian":[4.166E3,2.664E3,1.502E3,4.04E2,2.26E3,8.97E2,6.05E2,3.73E2,3.1E1,8.19E2,1.441E3,4.85E2,4.12E2,2.89E2,3.16E2,1E2,2.73E2,6.97E2,1.22E2,5.39E2,9.02E2,4.42E2,4.3E1,2.68E2,1.44E2,1.56E2,1.33E2,3.09E2,7E0,9E1,1E1,2.23E2,5E1,1.1E2,5.87E2,1.12E2,1E1,3.78E2,1.61E2,7.69E2,1.33E2,3.77E2,6.5E1,7E0,3.6E1,2.67E2,1E0,2.1E1,1.23E2,1.7E1,1.39E2,6.8E1,6.5E1,2.64E2,4.5E1,5E0,2E0,7.7E1,1.3E1,8E0,2E0,2.05E2,1.8E1,3.1E1,1.9E1,4.9E1,6.1E1,1.62E2,4.25E2,3.5E1,7.7E1,7E0,3E0,3.62E2,1.6E1,3.2E1,1.29E2,6.27E2,1.42E2,1.05E2,2.8E1,1.58E2,2.19E2,6.3E1,2E0,3E0,4E0,2.4E1,1.2E1,2.3E1,2.44E2,8E0,1.3E1,1.2E2,3E0,1.5E1,2E0,1.33E2,6E0,4.2E1,2.6E1,1.4E1,2.5E2,4E0,1E0,1E0,1E0],"tree_param":{"num_deleted":"0","num_feature":"15","num_nodes":"107","size_leaf_vector":"1"}},{"base_weights":[8.33802E-4,-1.7496012E-1,3.5153705E-1,1.6799195E-1,-2.3477587E-1,2.1450461E-1,5.881019E-1,1.1848979E-1,5.9118515E-1,-3.6316365E-1,-6.4831726E-2,1.4825377E-1,2.905739E-1,4.8759842E-1,6.5682906E-1,4.8049387E-2,3.1422633E-1,-9.025718E-3,6.214973E-1,-4.7076213E-1,-2.6244417E-1,-2.4095395E-1,-3.247425E-2,1.2643309E-1,3.8839638E-1,2.5632787E-1,4.1121036E-1,5.5998266E-2,5.021337E-1,8.5317075E-2,6.7019176E-1,3.4821582E-1,1.3827891E-2,4.5226908E-1,-6.552572E-2,3.7529662E-1,7.3119414E-1,-5.1950246E-1,-2.4661523E-1,-2.7786073E-1,4.6804637E-2,-1.7001447E-1,-4.6835023E-1,-8.433103E-2,3.2296248E-2,8.166567E-2,2.3592699E-1,4.282186E-1,6.0907872E-3,2.6469484E-1,1.812321E-2,3.3859858E-1,4.6357512E-1,-1.05886795E-1,6.4684E-3,4.353103E-1,5.646894E-1,2.2307129E-1,-2.1863039E-1,1.9463366E-2,6.208059E-1,1.9700697E-3,2.2066517E-2,1.0178175E-2,-4.9627625E-4,-1.2135582E-2,1.2834317E-2,5.409288E-4,-5.6569627E-3,1.2443541E-2,-4.2490284E-3,2.0164227E-2,5.8963187E-3,-5.6880973E-3,-1.4918908E-2,-8.036055E-3,1.2626087E-2,-8.625438E-3,-4.850034E-3,6.9915093E-3,-3.6704638E-3,-6.486912E-3,-8.317242E-4,-5.915539E-3,-1.6086405E-2,-2.979206E-3,4.2382666E-4,5.839876E-4,9.989052E-3,4.393873E-3,1.6012065E-4,2.0953878E-3,6.6637504E-3,1.209833E-2,3.3526046E-3,6.3046273E-3,8.85978E-3,3.8494254E-3,-3.5315054E-3,9.085018E-3,2.0442372E-3,1.2507972E-2,4.5904593E-4,-3.7387775E-3,4.701474E-4,1.059681E-2,1.5586527E-2,1.5067265E-2,5.9923087E-3,1.6324101E-3,7.6331794E-3,-8.889462E-3,2.0830925E-4,9.401389E-3,1.6673455E-2],"categories":[],"categories_nodes":[],"categories_segments":[],"categories_sizes":[],"default_left":[0,0,0,0,0,0,0,0,0,0,0,0,0,0,0,0,0,0,0,0,0,0,0,0,0,0,0,0,0,0,0,0,0,0,0,0,0,0,0,0,0,0,0,0,0,0,0,0,0,0,0,0,0,0,0,0,0,0,0,0,0,0,0,0,0,0,0,0,0,0,0,0,0,0,0,0,0,0,0,0,0,0,0,0,0,0,0,0,0,0,0,0,0,0,0,0,0,0,0,0,0,0,0,0,0,0,0,0,0,0,0,0,0,0,0],"id":7,"left_children":[1,3,5,7,9,11,13,15,17,19,21,23,25,27,29,31,33,-1,35,37,39,41,43,45,47,49,51,53,55,57,59,61,63,65,67,69,71,73,75,77,79,81,83,85,87,89,91,93,-1,95,97,99,101,103,-1,105,107,109,111,-1,113,-1,-1,-1,-1,-1,-1,-1,-1,-1,-1,-1,-1,-1,-1,-1,-1,-1,-1,-1,-1,-1,-1,-1,-1,-1,-1,-1,-1,-1,-1,-1,-1,-1,-1,-1,-1,-1,-1,-1,-1,-1,-1,-1,-1,-1,-1,-1,-1,-1,-1,-1,-1,-1,-1],"loss_changes":[2.5702496E2,5.7006645E1,4.4998383E1,8.581878E0,5.157779E1,4.4069366E0,3.2024689E0,5.100161E0,1.4268885E0,1.4474228E1,5.799324E0,2.4346895E0,1.5884361E0,1.295578E0,2.233902E0,2.8097525E0,5.166992E0,0E0,8.598995E-1,6.973114E0,3.3407593E0,2.4691315E0,2.8980002E0,2.1179E0,1.4733171E-1,6.369629E-1,1.8143845E-1,2.6981115E-1,6.0694504E-1,3.8373053E-1,4.8510742E-1,3.659023E0,2.9896848E0,2.357893E0,3.4827223E-1,8.3721447E-1,2.6517868E-1,7.036789E0,5.008288E0,2.9600296E0,1.4069321E0,1.2611158E0,1.1267147E0,1.3578548E0,1.3478479E0,1.981947E0,2.9232502E-1,2.0282316E-1,0E0,4.9776268E-1,2.5087216E-1,2.283144E-2,1.8717957E-1,2.4364416E-2,0E0,3.176117E-1,2.6535034E-2,4.5441806E-2,8.2269296E-2,0E0,1.9280243E-1,0E0,0E0,0E0,0E0,0E0,0E0,0E0,0E0,0E0,0E0,0E0,0E0,0E0,0E0,0E0,0E0,0E0,0E0,0E0,0E0,0E0,0E0,0E0,0E0,0E0,0E0,0E0,0E0,0E0,0E0,0E0,0E0,0E0,0E0,0E0,0E0,0E0,0E0,0E0,0E0,0E0,0E0,0E0,0E0,0E0,0E0,0E0,0E0,0E0,0E0,0E0,0E0,0E0,0E0],"parents":[2147483647,0,0,1,1,2,2,3,3,4,4,5,5,6,6,7,7,8,8,9,9,10,10,11,11,12,12,13,13,14,14,15,15,16,16,18,18,19,19,20,20,21,21,22,22,23,23,24,24,25,25,26,26,27,27,28,28,29,29,30,30,31,31,32,32,33,33,34,34,35,35,36,36,37,37,38,38,39,39,40,40,41,41,42,42,43,43,44,44,45,45,46,46,47,47,49,49,50,50,51,51,52,52,53,53,55,55,56,56,57,57,58,58,60,60],"right_children":[2,4,6,8,10,12,14,16,18,20,22,24,26,28,30,32,34,-1,36,38,40,42,44,46,48,50,52,54,56,58,60,62,64,66,68,70,72,74,76,78,80,82,84,86,88,90,92,94,-1,96,98,100,102,104,-1,106,108,110,112,-1,114,-1,-1,-1,-1,-1,-1,-1,-1,-1,-1,-1,-1,-1,-1,-1,-1,-1,-1,-1,-1,-1,-1,-1,-1,-1,-1,-1,-1,-1,-1,-1,-1,-1,-1,-1,-1,-1,-1,-1,-1,-1,-1,-1,-1,-1,-1,-1,-1,-1,-1,-1,-1,-1,-1],"split_conditions":[7.0876414E-1,2.2912476E-2,8.463141E-1,3.75E-1,5.957392E-1,7.694711E-1,8.9274824E-1,1.5640186E-1,6.5450524E-3,5.021912E-1,4.15E-2,2.1E-1,4.115605E-1,1.1471665E-3,2.0571385E-2,4.6511628E-2,3.7941098E-1,-9.025718E-3,3.8297874E-1,5E-2,9E-2,4.9058825E-1,6.558771E-1,2.5748262E-1,8.675115E-2,4.0714586E-1,8.0582887E-1,2.3411764E-1,2.5748262E-1,9.59908E-1,1.1861335E-2,7.356226E-2,1.4184397E-1,2.968454E-1,2.08E-1,2.4113475E-1,4.3058825E-1,3.5678443E-2,5.106383E-1,6.666667E-3,8.489518E-2,6.550723E-1,1.1310382E-1,7.5E-2,1.4166667E-1,2.9294118E-1,2.1669506E-1,2.5E-2,6.0907872E-3,8.195861E-1,3.3882353E-1,8.58618E-2,2.1875E-1,2.2705883E-1,6.4684E-3,3.8297874E-1,3.3333334E-1,9.09793E-1,1.2602222E-1,1.9463366E-2,1.2E-1,1.9700697E-3,2.2066517E-2,1.0178175E-2,-4.9627625E-4,-1.2135582E-2,1.2834317E-2,5.409288E-4,-5.6569627E-3,1.2443541E-2,-4.2490284E-3,2.0164227E-2,5.8963187E-3,-5.6880973E-3,-1.4918908E-2,-8.036055E-3,1.2626087E-2,-8.625438E-3,-4.850034E-3,6.9915093E-3,-3.6704638E-3,-6.486912E-3,-8.317242E-4,-5.915539E-3,-1.6086405E-2,-2.979206E-3,4.2382666E-4,5.839876E-4,9.989052E-3,4.393873E-3,1.6012065E-4,2.0953878E-3,6.6637504E-3,1.209833E-2,3.3526046E-3,6.3046273E-3,8.85978E-3,3.8494254E-3,-3.5315054E-3,9.085018E-3,2.0442372E-3,1.2507972E-2,4.5904593E-4,-3.7387775E-3,4.701474E-4,1.059681E-2,1.5586527E-2,1.5067265E-2,5.9923087E-3,1.6324101E-3,7.6331794E-3,-8.889462E-3,2.0830925E-4,9.401389E-3,1.6673455E-2],"split_indices":[1,0,1,9,1,1,1,8,0,1,2,11,8,2,8,5,8,0,6,9,11,4,1,8,2,8,1,4,8,1,2,8,6,1,2,6,4,0,6,14,8,1,8,12,11,4,4,12,0,1,4,2,12,4,0,6,13,1,0,0,4,0,0,0,0,0,0,0,0,0,0,0,0,0,0,0,0,0,0,0,0,0,0,0,0,0,0,0,0,0,0,0,0,0,0,0,0,0,0,0,0,0,0,0,0,0,0,0,0,0,0,0,0,0,0],"split_type":[0,0,0,0,0,0,0,0,0,0,0,0,0,0,0,0,0,0,0,0,0,0,0,0,0,0,0,0,0,0,0,0,0,0,0,0,0,0,0,0,0,0,0,0,0,0,0,0,0,0,0,0,0,0,0,0,0,0,0,0,0,0,0,0,0,0,0,0,0,0,0,0,0,0,0,0,0,0,0,0,0,0,0,0,0,0,0,0,0,0,0,0,0,0,0,0,0,0,0,0,0,0,0,0,0,0,0,0,0,0,0,0,0,0,0],"sum_hessian":[4.167E3,2.776E3,1.391E3,4.12E2,2.364E3,8.82E2,5.09E2,3.7E2,4.2E1,1.346E3,1.018E3,4.73E2,4.09E2,2.1E2,2.99E2,2.73E2,9.7E1,1E0,4.1E1,6.49E2,6.97E2,1.57E2,8.61E2,4.35E2,3.8E1,3.21E2,8.8E1,7E0,2.03E2,7E0,2.92E2,2.7E1,2.46E2,7.1E1,2.6E1,1.4E1,2.7E1,5.32E2,1.17E2,6.64E2,3.3E1,1.21E2,3.6E1,4.78E2,3.83E2,3.1E2,1.25E2,2.9E1,9E0,3.1E2,1.1E1,4E1,4.8E1,4E0,3E0,1.02E2,1.01E2,5E0,2E0,1.2E2,1.72E2,1.8E1,9E0,1.9E1,2.27E2,2E0,6.9E1,1.7E1,9E0,1.2E1,2E0,2.5E1,2E0,6.8E1,4.64E2,1.09E2,8E0,4.39E2,2.25E2,1.5E1,1.8E1,7.8E1,4.3E1,1.4E1,2.2E1,3.73E2,1.05E2,3.73E2,1E1,1.46E2,1.64E2,1.2E1,1.13E2,2.6E1,3E0,2.28E2,8.2E1,6E0,5E0,3.9E1,1E0,4.7E1,1E0,3E0,1E0,8.6E1,1.6E1,9.9E1,2E0,2E0,3E0,1E0,1E0,7E0,1.65E2],"tree_param":{"num_deleted":"0","num_feature":"15","num_nodes":"115","size_leaf_vector":"1"}},{"base_weights":[-2.3617079E-3,-1.6437685E-1,3.6230162E-1,1.7743707E-1,-2.2354233E-1,2.184405E-1,5.796518E-1,1.2261378E-1,6.3522786E-1,-4.2415115E-1,-1.09977886E-1,1.2648438E-1,2.7470303E-1,4.740777E-1,6.5295064E-1,4.0707678E-2,3.416951E-1,1.5483856E-2,1.9328725E-2,-4.8214227E-1,-3.1230578E-1,-1.925141E-1,-1.0639611E-2,1.9458023E-1,4.8589926E-2,2.2941038E-1,3.5173568E-1,3.6844718E-1,5.308145E-1,6.630421E-1,1.4159577E-1,6.5361746E-2,-3.6554694E-1,4.6994954E-1,-5.6210306E-2,1.8294263E-1,-4.125446E-3,-5.3588116E-1,-2.9241422E-1,-3.3123338E-1,2.772889E-1,-3.2803267E-1,-1.6919886E-1,5.966484E-3,-3.7402344E-1,2.5084883E-1,1.4940219E-1,-9.788559E-3,1.9703245E-1,1.0441747E-1,2.4540415E-1,1.3231032E-2,3.2353392E-1,4.0067664E-1,1.3864526E-1,5.450145E-1,2.7145752E-1,4.1986346E-1,6.702276E-1,6.119744E-2,8.258863E-3,-1.8531478E-4,5.155677E-3,-1.2468577E-2,-1.0402448E-3,9.265005E-3,1.6955296E-2,3.6835537E-4,-5.710717E-3,-1.8290489E-3,7.676343E-3,-1.963696E-2,-1.2551566E-2,-9.052286E-3,1.0900252E-2,-5.9531713E-3,-1.2060397E-2,8.421639E-3,2.00964E-3,-7.882071E-3,-1.6199334E-2,-5.5690794E-3,-3.0759403E-3,-6.622943E-5,8.393645E-3,-5.58448E-3,-1.413277E-2,7.684463E-3,2.4386218E-3,3.1355498E-3,5.6278436E-3,3.3039658E-3,-2.8962437E-3,4.5133944E-4,6.0682814E-3,9.856644E-3,1.8206023E-3,5.606124E-3,8.699944E-3,3.1007032E-3,9.436528E-3,1.66619E-3,1.0999479E-2,-1.6050193E-3,5.020712E-3,1.45300105E-2,7.3987467E-4,-1.108656E-4,9.286449E-3,3.2016581E-3,1.1585441E-2,1.7217651E-2,2.0377317E-2,2.4683583E-3,-5.1190582E-5],"categories":[],"categories_nodes":[],"categories_segments":[],"categories_sizes":[],"default_left":[0,0,0,0,0,0,0,0,0,0,0,0,0,0,0,0,0,0,0,0,0,0,0,0,0,0,0,0,0,0,0,0,0,0,0,0,0,0,0,0,0,0,0,0,0,0,0,0,0,0,0,0,0,0,0,0,0,0,0,0,0,0,0,0,0,0,0,0,0,0,0,0,0,0,0,0,0,0,0,0,0,0,0,0,0,0,0,0,0,0,0,0,0,0,0,0,0,0,0,0,0,0,0,0,0,0,0,0,0,0,0,0,0,0,0],"id":8,"left_children":[1,3,5,7,9,11,13,15,17,19,21,23,25,27,29,31,33,35,-1,37,39,41,43,45,47,49,51,53,55,57,59,61,63,65,67,69,-1,71,73,75,77,79,81,83,85,87,89,91,93,95,97,-1,99,101,103,105,107,109,111,113,-1,-1,-1,-1,-1,-1,-1,-1,-1,-1,-1,-1,-1,-1,-1,-1,-1,-1,-1,-1,-1,-1,-1,-1,-1,-1,-1,-1,-1,-1,-1,-1,-1,-1,-1,-1,-1,-1,-1,-1,-1,-1,-1,-1,-1,-1,-1,-1,-1,-1,-1,-1,-1,-1,-1],"loss_changes":[2.4430034E2,5.7939766E1,3.9646576E1,1.0538395E1,5.5564278E1,3.9334717E0,3.6061096E0,6.7869034E0,2.6366558E0,5.570114E0,1.2788403E1,1.544702E0,1.5765877E0,1.0689735E0,1.4335785E0,2.7982776E0,5.2828293E0,2.2934553E-1,0E0,5.746643E0,3.4843674E0,2.6365185E0,4.2806115E0,3.5909128E-1,1.1978161E0,5.781059E-1,5.6498146E-1,5.1474094E-1,3.4923935E-1,2.2532654E-1,7.680434E-2,2.454704E0,5.3207064E-1,1.371624E0,2.9385272E-1,1.2795402E-1,0E0,5.368393E0,4.677002E0,3.7991066E0,5.8113873E-2,8.8362503E-1,1.5667286E0,1.789739E0,6.9547176E-1,3.9900208E-1,1.4891052E-1,1.3545849E0,2.2216511E-1,3.181717E-1,6.777725E-1,0E0,9.7149086E-1,3.0982304E-1,1.2334038E-1,2.3957443E-1,1.9833201E-1,5.582571E-3,5.130768E-2,1.2320114E-2,0E0,0E0,0E0,0E0,0E0,0E0,0E0,0E0,0E0,0E0,0E0,0E0,0E0,0E0,0E0,0E0,0E0,0E0,0E0,0E0,0E0,0E0,0E0,0E0,0E0,0E0,0E0,0E0,0E0,0E0,0E0,0E0,0E0,0E0,0E0,0E0,0E0,0E0,0E0,0E0,0E0,0E0,0E0,0E0,0E0,0E0,0E0,0E0,0E0,0E0,0E0,0E0,0E0,0E0,0E0],"parents":[2147483647,0,0,1,1,2,2,3,3,4,4,5,5,6,6,7,7,8,8,9,9,10,10,11,11,12,12,13,13,14,14,15,15,16,16,17,17,19,19,20,20,21,21,22,22,23,23,24,24,25,25,26,26,27,27,28,28,29,29,30,30,31,31,32,32,33,33,34,34,35,35,37,37,38,38,39,39,40,40,41,41,42,42,43,43,44,44,45,45,46,46,47,47,48,48,49,49,50,50,52,52,53,53,54,54,55,55,56,56,57,57,58,58,59,59],"right_children":[2,4,6,8,10,12,14,16,18,20,22,24,26,28,30,32,34,36,-1,38,40,42,44,46,48,50,52,54,56,58,60,62,64,66,68,70,-1,72,74,76,78,80,82,84,86,88,90,92,94,96,98,-1,100,102,104,106,108,110,112,114,-1,-1,-1,-1,-1,-1,-1,-1,-1,-1,-1,-1,-1,-1,-1,-1,-1,-1,-1,-1,-1,-1,-1,-1,-1,-1,-1,-1,-1,-1,-1,-1,-1,-1,-1,-1,-1,-1,-1,-1,-1,-1,-1,-1,-1,-1,-1,-1,-1,-1,-1,-1,-1,-1,-1],"split_conditions":[7.226971E-1,2.2912476E-2,8.3963203E-1,5.106383E-1,5.3894216E-1,7.594481E-1,8.9274824E-1,1.5640186E-1,1.2790698E-1,3.3333334E-3,6.358311E-1,2.9411766E-1,2.86304E-1,1.2790698E-1,3.7000927E-1,3.5687E-1,4.3986547E-1,2.2822885E-1,1.9328725E-2,3.3333334E-3,1.4E-1,4.05E-2,4.9058825E-1,2.5411764E-1,2.2068682E-1,1.862679E-2,2.691279E-2,3.814881E-1,3.0889672E-1,1.4823529E-1,4.5185614E-1,5.4722387E-1,1.744186E-1,3.2185328E-1,2.08E-1,4.909987E-3,-4.125446E-3,4.1692725E-1,5.106383E-1,2.19713E-1,4.6895695E-1,1.5116279E-1,5.945952E-1,1.5666667E-1,8.281432E-2,2.2119859E-1,3.2185328E-1,6.6284835E-2,2.9786458E-2,8.1825135E-3,8.0866736E-1,1.3231032E-2,2.9786458E-2,1.1471665E-3,4.1266996E-1,3.3333334E-1,2.9459925E-2,1.2765957E-1,5.673759E-1,1.06382266E-1,8.258863E-3,-1.8531478E-4,5.155677E-3,-1.2468577E-2,-1.0402448E-3,9.265005E-3,1.6955296E-2,3.6835537E-4,-5.710717E-3,-1.8290489E-3,7.676343E-3,-1.963696E-2,-1.2551566E-2,-9.052286E-3,1.0900252E-2,-5.9531713E-3,-1.2060397E-2,8.421639E-3,2.00964E-3,-7.882071E-3,-1.6199334E-2,-5.5690794E-3,-3.0759403E-3,-6.622943E-5,8.393645E-3,-5.58448E-3,-1.413277E-2,7.684463E-3,2.4386218E-3,3.1355498E-3,5.6278436E-3,3.3039658E-3,-2.8962437E-3,4.5133944E-4,6.0682814E-3,9.856644E-3,1.8206023E-3,5.606124E-3,8.699944E-3,3.1007032E-3,9.436528E-3,1.66619E-3,1.0999479E-2,-1.6050193E-3,5.020712E-3,1.45300105E-2,7.3987467E-4,-1.108656E-4,9.286449E-3,3.2016581E-3,1.1585441E-2,1.7217651E-2,2.0377317E-2,2.4683583E-3,-5.1190582E-5],"split_indices":[1,0,1,6,1,1,1,8,5,14,1,4,8,5,3,3,8,3,0,11,11,2,4,4,8,2,2,3,3,4,3,1,5,8,2,0,0,1,6,3,1,5,1,11,0,3,8,0,0,0,1,0,0,2,3,13,0,6,6,0,0,0,0,0,0,0,0,0,0,0,0,0,0,0,0,0,0,0,0,0,0,0,0,0,0,0,0,0,0,0,0,0,0,0,0,0,0,0,0,0,0,0,0,0,0,0,0,0,0,0,0,0,0,0,0],"split_type":[0,0,0,0,0,0,0,0,0,0,0,0,0,0,0,0,0,0,0,0,0,0,0,0,0,0,0,0,0,0,0,0,0,0,0,0,0,0,0,0,0,0,0,0,0,0,0,0,0,0,0,0,0,0,0,0,0,0,0,0,0,0,0,0,0,0,0,0,0,0,0,0,0,0,0,0,0,0,0,0,0,0,0,0,0,0,0,0,0,0,0,0,0,0,0,0,0,0,0,0,0,0,0,0,0,0,0,0,0,0,0,0,0,0,0],"sum_hessian":[4.133E3,2.862E3,1.271E3,4.22E2,2.44E3,7.66E2,5.05E2,3.78E2,4.4E1,8.81E2,1.559E3,2.92E2,4.74E2,2.1E2,2.95E2,2.76E2,1.02E2,6E0,3.8E1,5.78E2,3.03E2,8.51E2,7.08E2,1.55E2,1.37E2,3.01E2,1.73E2,7.6E1,1.34E2,2.89E2,6E0,2.61E2,1.5E1,7.7E1,2.5E1,3E0,3E0,4.49E2,1.29E2,2.94E2,9E0,1.23E2,7.28E2,6.78E2,3E1,6.7E1,8.8E1,9.9E1,3.8E1,3.5E1,2.66E2,2.5E1,1.48E2,6.6E1,1E1,1.26E2,8E0,1E1,2.79E2,5E0,1E0,1.68E2,9.3E1,1.1E1,4E0,4.7E1,3E1,1.8E1,7E0,1E0,2E0,1.01E2,3.48E2,1.21E2,8E0,1.6E2,1.34E2,7E0,2E0,1.13E2,1E1,4.08E2,3.2E2,6.61E2,1.7E1,1.6E1,1.4E1,5.3E1,1.4E1,6.1E1,2.7E1,4.2E1,5.7E1,6E0,3.2E1,3E0,3.2E1,1.92E2,7.4E1,2.1E1,1.27E2,3E0,6.3E1,2E0,8E0,1.25E2,1E0,2E0,6E0,1E0,9E0,2.39E2,4E1,3E0,2E0],"tree_param":{"num_deleted":"0","num_feature":"15","num_nodes":"115","size_leaf_vector":"1"}},{"base_weights":[-5.7466404E-4,-1.7107897E-1,3.3752182E-1,1.543907E-1,-2.2714606E-1,1.998978E-1,5.4919595E-1,1.01000026E-1,5.6459945E-1,-3.643271E-1,-8.931139E-2,1.5026389E-1,3.0147338E-1,4.46212E-1,6.2789655E-1,3.4031834E-2,2.902675E-1,-1.098789E-1,6.4751065E-1,-4.5176405E-1,-2.63654E-1,-1.6534206E-1,-1.2873693E-2,3.9249578E-1,1.3287528E-1,2.1482103E-1,3.618222E-1,3.776991E-1,5.256167E-1,6.41419E-1,3.555861E-2,5.5937216E-2,-3.420888E-1,4.4038472E-1,-8.466957E-2,-2.651619E-1,8.822044E-3,1.7639218E-2,4.776866E-3,-5.141355E-1,-2.8582665E-1,-2.772715E-1,4.9753875E-2,-1.9398083E-1,-2.501955E-2,8.554135E-3,-2.9419008E-1,6.168709E-1,3.0159074E-1,1.9713524E-1,5.3461704E-2,1.8452692E-1,6.777023E-3,3.7207365E-1,2.0181851E-1,9.796227E-2,3.994685E-1,5.3051704E-1,1.7399947E-1,6.1997545E-1,2.0220116E-2,1.3530827E-1,-8.771125E-3,-1.7580099E-4,4.7573177E-3,-1.2973858E-2,-1.0157564E-3,-1.2084925E-2,1.25601385E-2,-1.1269165E-4,-5.520761E-3,-1.4382402E-3,-8.054861E-3,-1.5034552E-2,-8.248444E-3,-8.148466E-3,1.3976704E-2,-8.520356E-3,-4.9966685E-3,1.2525496E-2,-5.070016E-3,-3.3239033E-3,-6.9179456E-3,6.1030714E-3,-1.5471594E-3,-6.379961E-4,2.9545326E-3,-1.0286248E-3,-9.867634E-3,1.7863424E-2,6.7954827E-3,1.2076185E-2,4.811523E-3,3.766535E-3,6.5242527E-3,3.7117954E-3,-1.6166563E-3,4.2785737E-3,7.801697E-3,9.930775E-3,2.4914076E-3,-1.054945E-3,6.019883E-3,4.7232355E-3,-9.075104E-4,9.735454E-3,1.44505035E-2,1.2100549E-2,1.5008438E-2,1.2464506E-3,5.6625423E-3,1.6817447E-2,1.3555084E-2,8.149552E-3,1.4622356E-3],"categories":[],"categories_nodes":[],"categories_segments":[],"categories_sizes":[],"default_left":[0,0,0,0,0,0,0,0,0,0,0,0,0,0,0,0,0,0,0,0,0,0,0,0,0,0,0,0,0,0,0,0,0,0,0,0,0,0,0,0,0,0,0,0,0,0,0,0,0,0,0,0,0,0,0,0,0,0,0,0,0,0,0,0,0,0,0,0,0,0,0,0,0,0,0,0,0,0,0,0,0,0,0,0,0,0,0,0,0,0,0,0,0,0,0,0,0,0,0,0,0,0,0,0,0,0,0,0,0,0,0,0,0,0,0],"id":9,"left_children":[1,3,5,7,9,11,13,15,17,19,21,23,25,27,29,31,33,35,37,39,41,43,45,47,49,51,53,55,57,59,61,63,65,67,69,71,-1,-1,-1,73,75,77,79,81,83,85,87,89,91,93,95,97,-1,99,101,103,105,107,109,111,-1,113,-1,-1,-1,-1,-1,-1,-1,-1,-1,-1,-1,-1,-1,-1,-1,-1,-1,-1,-1,-1,-1,-1,-1,-1,-1,-1,-1,-1,-1,-1,-1,-1,-1,-1,-1,-1,-1,-1,-1,-1,-1,-1,-1,-1,-1,-1,-1,-1,-1,-1,-1,-1,-1],"loss_changes":[2.4159828E2,5.0874367E1,4.08199E1,8.922516E0,4.4912506E1,4.2551765E0,4.2018433E0,4.603786E0,2.6994753E0,1.0364731E1,6.8962526E0,2.369791E0,1.3812656E0,1.123455E0,2.4682465E0,2.2436833E0,5.3843145E0,5.0124913E-1,2.4935532E-1,6.435486E0,2.386715E0,2.3862534E0,3.5771203E0,5.8903646E-1,2.7349358E0,9.876251E-2,1.9227219E-1,7.76886E-1,9.722519E-2,3.2453156E-1,3.3762133E-1,1.9841378E0,6.5554166E-1,2.296153E0,2.7804917E-1,2.4710536E-2,0E0,0E0,0E0,4.848221E0,3.3130426E0,2.0433655E0,2.5425498E0,2.2436218E0,8.848694E-1,1.8604076E0,8.281696E-1,3.548217E-2,4.543407E-1,7.685032E-1,2.413243E0,1.3150287E-1,0E0,9.47628E-2,8.328402E-2,1.2317076E-1,3.7470627E-1,2.9787064E-2,5.1238984E-3,1.1148071E-1,0E0,7.970929E-2,0E0,0E0,0E0,0E0,0E0,0E0,0E0,0E0,0E0,0E0,0E0,0E0,0E0,0E0,0E0,0E0,0E0,0E0,0E0,0E0,0E0,0E0,0E0,0E0,0E0,0E0,0E0,0E0,0E0,0E0,0E0,0E0,0E0,0E0,0E0,0E0,0E0,0E0,0E0,0E0,0E0,0E0,0E0,0E0,0E0,0E0,0E0,0E0,0E0,0E0,0E0,0E0,0E0],"parents":[2147483647,0,0,1,1,2,2,3,3,4,4,5,5,6,6,7,7,8,8,9,9,10,10,11,11,12,12,13,13,14,14,15,15,16,16,17,17,18,18,19,19,20,20,21,21,22,22,23,23,24,24,25,25,26,26,27,27,28,28,29,29,30,30,31,31,32,32,33,33,34,34,35,35,39,39,40,40,41,41,42,42,43,43,44,44,45,45,46,46,47,47,48,48,49,49,50,50,51,51,53,53,54,54,55,55,56,56,57,57,58,58,59,59,61,61],"right_children":[2,4,6,8,10,12,14,16,18,20,22,24,26,28,30,32,34,36,38,40,42,44,46,48,50,52,54,56,58,60,62,64,66,68,70,72,-1,-1,-1,74,76,78,80,82,84,86,88,90,92,94,96,98,-1,100,102,104,106,108,110,112,-1,114,-1,-1,-1,-1,-1,-1,-1,-1,-1,-1,-1,-1,-1,-1,-1,-1,-1,-1,-1,-1,-1,-1,-1,-1,-1,-1,-1,-1,-1,-1,-1,-1,-1,-1,-1,-1,-1,-1,-1,-1,-1,-1,-1,-1,-1,-1,-1,-1,-1,-1,-1,-1,-1],"split_conditions":[7.0876414E-1,2.2912476E-2,8.3438504E-1,3.75E-1,5.723609E-1,2.5748262E-1,8.9274824E-1,1.5640186E-1,1.5554173E-1,5.021912E-1,6.358311E-1,2.127741E-2,7.5685745E-1,2.86304E-1,3.7000927E-1,3.5687E-1,3.7941098E-1,6.6924113E-1,7.5E-2,5E-2,3.3E-1,7.5E-2,4.6705884E-1,8.4397905E-2,2.9294118E-1,7.367851E-1,7.875845E-2,1E-2,3.3666667E-1,5.673759E-1,9.6659E-1,5.4364496E-1,1.6875E-1,2.968454E-1,2.08E-1,8.245945E-2,8.822044E-3,1.7639218E-2,4.776866E-3,2.5E-2,5.866665E-1,1E-2,8.489518E-2,1.7005815E-1,2.9459925E-2,6.25E-2,8.139535E-2,4E-1,1.4184397E-1,3.4042552E-1,8.592478E-2,5.3333335E-2,6.777023E-3,3.3666667E-1,3.4369912E-2,8.7638307E-1,3.8297874E-1,8.6636007E-1,2.7004931E-2,2.4E-2,2.0220116E-2,1.1471665E-3,-8.771125E-3,-1.7580099E-4,4.7573177E-3,-1.2973858E-2,-1.0157564E-3,-1.2084925E-2,1.25601385E-2,-1.1269165E-4,-5.520761E-3,-1.4382402E-3,-8.054861E-3,-1.5034552E-2,-8.248444E-3,-8.148466E-3,1.3976704E-2,-8.520356E-3,-4.9966685E-3,1.2525496E-2,-5.070016E-3,-3.3239033E-3,-6.9179456E-3,6.1030714E-3,-1.5471594E-3,-6.379961E-4,2.9545326E-3,-1.0286248E-3,-9.867634E-3,1.7863424E-2,6.7954827E-3,1.2076185E-2,4.811523E-3,3.766535E-3,6.5242527E-3,3.7117954E-3,-1.6166563E-3,4.2785737E-3,7.801697E-3,9.930775E-3,2.4914076E-3,-1.054945E-3,6.019883E-3,4.7232355E-3,-9.075104E-4,9.735454E-3,1.44505035E-2,1.2100549E-2,1.5008438E-2,1.2464506E-3,5.6625423E-3,1.6817447E-2,1.3555084E-2,8.149552E-3,1.4622356E-3],"split_indices":[1,0,1,9,1,8,1,8,3,1,1,0,1,8,3,3,8,1,12,14,11,12,4,8,4,1,2,2,14,6,1,1,9,1,2,2,0,0,0,9,2,14,8,3,0,12,5,10,6,6,0,11,0,14,0,1,6,1,0,2,0,2,0,0,0,0,0,0,0,0,0,0,0,0,0,0,0,0,0,0,0,0,0,0,0,0,0,0,0,0,0,0,0,0,0,0,0,0,0,0,0,0,0,0,0,0,0,0,0,0,0,0,0,0,0],"split_type":[0,0,0,0,0,0,0,0,0,0,0,0,0,0,0,0,0,0,0,0,0,0,0,0,0,0,0,0,0,0,0,0,0,0,0,0,0,0,0,0,0,0,0,0,0,0,0,0,0,0,0,0,0,0,0,0,0,0,0,0,0,0,0,0,0,0,0,0,0,0,0,0,0,0,0,0,0,0,0,0,0,0,0,0,0,0,0,0,0,0,0,0,0,0,0,0,0,0,0,0,0,0,0,0,0,0,0,0,0,0,0,0,0,0,0],"sum_hessian":[4.189E3,2.785E3,1.404E3,4.09E2,2.376E3,8.52E2,5.52E2,3.63E2,4.6E1,1.19E3,1.186E3,5.74E2,2.78E2,2.42E2,3.1E2,2.69E2,9.4E1,5E0,4.1E1,6.35E2,5.55E2,5.94E2,5.92E2,3.7E1,5.37E2,1.16E2,1.62E2,1.33E2,1.09E2,3.03E2,7E0,2.55E2,1.4E1,6.7E1,2.7E1,4E0,1E0,3.9E1,2E0,4.6E2,1.75E2,5.32E2,2.3E1,4.93E2,1.01E2,5.51E2,4.1E1,9E0,2.8E1,2.96E2,2.41E2,7E1,4.6E1,1.51E2,1.1E1,1E1,1.23E2,1.07E2,2E0,2.63E2,4E1,6E0,1E0,1.7E2,8.5E1,9E0,5E0,2E0,6.5E1,1.7E1,1E1,1E0,3E0,3.62E2,9.8E1,1.71E2,4E0,3.52E2,1.8E2,8E0,1.5E1,2.46E2,2.47E2,1.1E1,9E1,4.19E2,1.32E2,1E1,3.1E1,7E0,2E0,1.1E1,1.7E1,1.42E2,1.54E2,1.37E2,1.04E2,6E1,1E1,1.49E2,2E0,1E0,1E1,6E0,4E0,1.04E2,1.9E1,4E1,6.7E1,1E0,1E0,2.26E2,3.7E1,1E0,5E0],"tree_param":{"num_deleted":"0","num_feature":"15","num_nodes":"115","size_leaf_vector":"1"}},{"base_weights":[1.4880764E-3,-1.5652038E-1,3.4563735E-1,1.5652357E-1,-2.0914526E-1,2.2721358E-1,5.734585E-1,1.0938544E-1,6.274965E-1,-3.8685375E-1,-9.441905E-2,1.7375618E-1,3.2988638E-1,9.074459E-2,5.854841E-1,3.74873E-2,2.7448303E-1,5.7494085E-2,1.892071E-2,-4.492448E-1,-2.6659876E-1,-1.7127857E-1,-4.5326844E-4,1.782348E-1,-1.9261513E-2,7.974456E-2,3.4121528E-1,-2.6228957E-2,8.768597E-3,6.164403E-1,4.4714576E-1,-3.8506676E-2,1.7518078E-1,3.9005512E-1,-7.3727705E-2,1.7599368E-1,-3.1678246E-3,-5.840297E-1,-3.7268797E-1,-1.9630772E-1,-4.161073E-1,-3.132464E-1,-1.4527385E-1,1.2772649E-2,-2.8126845E-1,1.6279475E-1,3.5735914E-1,2.5619352E-1,-4.6748586E-2,3.9584202E-1,2.9192597E-1,1.6811605E-1,-2.1532817E-1,5.6501096E-1,6.663874E-1,4.6071336E-1,1.4334854E-1,4.339572E-3,-2.8825926E-3,2.1963729E-2,3.4032203E-3,1.1247626E-2,-3.6936225E-3,1.4151157E-4,-5.9428653E-3,-1.8678062E-3,7.4569173E-3,-1.6638236E-2,-8.100856E-3,-1.0780367E-2,-3.8978239E-3,-1.8845657E-3,-7.5586587E-3,-1.2173614E-2,2.5684973E-3,-7.3694345E-3,-1.5080643E-2,-4.074029E-3,3.2654405E-3,-4.5312408E-4,2.7196337E-3,-8.428626E-3,1.0516174E-3,3.3619045E-3,6.531108E-3,7.5762332E-3,1.3368489E-2,1.1753828E-3,7.667983E-3,-2.305201E-3,1.6663121E-3,1.3600642E-2,9.716528E-3,6.750004E-3,9.408058E-3,3.793537E-4,5.37314E-3,-7.286187E-3,3.2232207E-4,1.5020523E-2,1.7559329E-3,8.59909E-3,1.7803261E-2,8.905402E-3,1.3388034E-2,1.6293976E-4,6.1614355E-3],"categories":[],"categories_nodes":[],"categories_segments":[],"categories_sizes":[],"default_left":[0,0,0,0,0,0,0,0,0,0,0,0,0,0,0,0,0,0,0,0,0,0,0,0,0,0,0,0,0,0,0,0,0,0,0,0,0,0,0,0,0,0,0,0,0,0,0,0,0,0,0,0,0,0,0,0,0,0,0,0,0,0,0,0,0,0,0,0,0,0,0,0,0,0,0,0,0,0,0,0,0,0,0,0,0,0,0,0,0,0,0,0,0,0,0,0,0,0,0,0,0,0,0,0,0,0,0],"id":10,"left_children":[1,3,5,7,9,11,13,15,17,19,21,23,25,27,29,31,33,35,-1,37,39,41,43,45,-1,47,49,51,-1,53,55,57,59,61,63,65,-1,67,69,71,73,75,77,79,81,83,85,87,89,91,93,95,97,99,101,103,105,-1,-1,-1,-1,-1,-1,-1,-1,-1,-1,-1,-1,-1,-1,-1,-1,-1,-1,-1,-1,-1,-1,-1,-1,-1,-1,-1,-1,-1,-1,-1,-1,-1,-1,-1,-1,-1,-1,-1,-1,-1,-1,-1,-1,-1,-1,-1,-1,-1,-1],"loss_changes":[2.2518108E2,4.6785667E1,3.5023926E1,9.011482E0,4.9505867E1,4.657406E0,2.5300598E0,4.4172983E0,1.7993565E0,7.030426E0,1.0674284E1,2.4186726E0,8.031025E-1,3.462801E-1,1.5829468E0,2.737817E0,4.576268E0,1.4702447E-1,0E0,6.241844E0,3.365305E0,2.9559536E0,2.477142E0,1.5044384E0,0E0,3.2445085E-1,6.383476E-1,3.669545E-1,0E0,5.2767944E-1,2.7606583E-1,2.4260187E0,2.7310715E0,1.6277637E0,3.4694576E-1,1.2412349E-1,0E0,2.5917282E0,3.072029E0,2.4916773E0,2.3805752E0,9.586687E-1,1.6162252E0,1.7147206E0,3.7027764E-1,1.5367937E0,3.1774664E-1,2.9679894E-2,4.5302518E-2,2.5274467E-1,2.633915E-1,2.389872E-2,7.151204E-2,1.791687E-1,1.45607E-1,2.7215004E-1,5.9899785E-2,0E0,0E0,0E0,0E0,0E0,0E0,0E0,0E0,0E0,0E0,0E0,0E0,0E0,0E0,0E0,0E0,0E0,0E0,0E0,0E0,0E0,0E0,0E0,0E0,0E0,0E0,0E0,0E0,0E0,0E0,0E0,0E0,0E0,0E0,0E0,0E0,0E0,0E0,0E0,0E0,0E0,0E0,0E0,0E0,0E0,0E0,0E0,0E0,0E0,0E0],"parents":[2147483647,0,0,1,1,2,2,3,3,4,4,5,5,6,6,7,7,8,8,9,9,10,10,11,11,12,12,13,13,14,14,15,15,16,16,17,17,19,19,20,20,21,21,22,22,23,23,25,25,26,26,27,27,29,29,30,30,31,31,32,32,33,33,34,34,35,35,37,37,38,38,39,39,40,40,41,41,42,42,43,43,44,44,45,45,46,46,47,47,48,48,49,49,50,50,51,51,52,52,53,53,54,54,55,55,56,56],"right_children":[2,4,6,8,10,12,14,16,18,20,22,24,26,28,30,32,34,36,-1,38,40,42,44,46,-1,48,50,52,-1,54,56,58,60,62,64,66,-1,68,70,72,74,76,78,80,82,84,86,88,90,92,94,96,98,100,102,104,106,-1,-1,-1,-1,-1,-1,-1,-1,-1,-1,-1,-1,-1,-1,-1,-1,-1,-1,-1,-1,-1,-1,-1,-1,-1,-1,-1,-1,-1,-1,-1,-1,-1,-1,-1,-1,-1,-1,-1,-1,-1,-1,-1,-1,-1,-1,-1,-1,-1,-1],"split_conditions":[7.226971E-1,2.2912476E-2,8.6301905E-1,5.106383E-1,5.4896516E-1,7.9665816E-1,1.1471665E-3,1.5640186E-1,1.2790698E-1,2.5E-2,6.3917214E-1,1E0,1.1471665E-3,8.139535E-2,2.6026106E-2,5.523062E-1,4.3986547E-1,2.2822885E-1,1.892071E-2,4.487352E-1,2.4990973E-1,4.05E-2,4.9058825E-1,7E-2,-1.9261513E-2,8.510638E-2,1.1200556E-1,8.7638307E-1,8.768597E-3,9.135453E-1,3.814881E-1,6.547448E-3,4.6511628E-2,7.294118E-1,2.08E-1,4.909987E-3,-3.1678246E-3,5E-2,5E-2,9.216176E-2,5.5666666E-2,5.6E-1,3.3E-1,6.25E-2,4.1266996E-1,2.86304E-1,1.3092501E-2,8.1290406E-1,5.673759E-1,1.8333334E-2,1.5116279E-1,5.8139537E-2,1.2602222E-1,3.814881E-1,1.4823529E-1,8.7638307E-1,3.1E-2,4.339572E-3,-2.8825926E-3,2.1963729E-2,3.4032203E-3,1.1247626E-2,-3.6936225E-3,1.4151157E-4,-5.9428653E-3,-1.8678062E-3,7.4569173E-3,-1.6638236E-2,-8.100856E-3,-1.0780367E-2,-3.8978239E-3,-1.8845657E-3,-7.5586587E-3,-1.2173614E-2,2.5684973E-3,-7.3694345E-3,-1.5080643E-2,-4.074029E-3,3.2654405E-3,-4.5312408E-4,2.7196337E-3,-8.428626E-3,1.0516174E-3,3.3619045E-3,6.531108E-3,7.5762332E-3,1.3368489E-2,1.1753828E-3,7.667983E-3,-2.305201E-3,1.6663121E-3,1.3600642E-2,9.716528E-3,6.750004E-3,9.408058E-3,3.793537E-4,5.37314E-3,-7.286187E-3,3.2232207E-4,1.5020523E-2,1.7559329E-3,8.59909E-3,1.7803261E-2,8.905402E-3,1.3388034E-2,1.6293976E-4,6.1614355E-3],"split_indices":[1,0,1,6,1,1,2,8,5,12,1,6,2,5,2,1,8,3,0,1,3,2,4,11,0,6,3,1,0,1,3,0,5,4,2,0,0,9,11,8,11,4,11,12,3,8,0,1,6,2,5,5,0,3,4,1,2,0,0,0,0,0,0,0,0,0,0,0,0,0,0,0,0,0,0,0,0,0,0,0,0,0,0,0,0,0,0,0,0,0,0,0,0,0,0,0,0,0,0,0,0,0,0,0,0,0,0],"split_type":[0,0,0,0,0,0,0,0,0,0,0,0,0,0,0,0,0,0,0,0,0,0,0,0,0,0,0,0,0,0,0,0,0,0,0,0,0,0,0,0,0,0,0,0,0,0,0,0,0,0,0,0,0,0,0,0,0,0,0,0,0,0,0,0,0,0,0,0,0,0,0,0,0,0,0,0,0,0,0,0,0,0,0,0,0,0,0,0,0,0,0,0,0,0,0,0,0,0,0,0,0,0,0,0,0,0,0],"sum_hessian":[4.139E3,2.837E3,1.302E3,4.08E2,2.429E3,8.58E2,4.44E2,3.72E2,3.6E1,9.52E2,1.477E3,5.66E2,2.92E2,1.1E1,4.33E2,2.6E2,1.12E2,5E0,3.1E1,6.25E2,3.27E2,8.12E2,6.65E2,5.64E2,2E0,1.3E1,2.79E2,8E0,3E0,3.51E2,8.2E1,1.68E2,9.2E1,8.4E1,2.8E1,3E0,2E0,2.24E2,4.01E2,2.24E2,1.03E2,1.24E2,6.88E2,6.36E2,2.9E1,5.21E2,4.3E1,5E0,8E0,1.29E2,1.5E2,4E0,4E0,1.79E2,1.72E2,7.8E1,4E0,4.3E1,1.25E2,5E0,8.7E1,7.9E1,5E0,1.9E1,9E0,1E0,2E0,1.92E2,3.2E1,3.47E2,5.4E1,9.4E1,1.3E2,9.5E1,8E0,1.11E2,1.3E1,6.67E2,2.1E1,4.78E2,1.58E2,2.6E1,3E0,3.67E2,1.54E2,3.1E1,1.2E1,1E0,4E0,6E0,2E0,2.2E1,1.07E2,9.8E1,5.2E1,1E0,3E0,3E0,1E0,1.78E2,1E0,4E0,1.68E2,2.3E1,5.5E1,2E0,2E0],"tree_param":{"num_deleted":"0","num_feature":"15","num_nodes":"107","size_leaf_vector":"1"}},{"base_weights":[-4.422902E-3,-1.7281826E-1,2.9605454E-1,1.3602646E-1,-2.2924155E-1,1.689638E-1,5.194341E-1,7.848616E-2,5.971444E-1,-3.9407676E-1,-1.2276126E-1,1.2234664E-1,2.6477775E-1,4.1042978E-1,5.873937E-1,2.547542E-1,1.3393186E-2,-2.3883957E-1,6.610233E-1,-4.2111027E-1,-1.628472E-1,-1.7452414E-1,-2.4706626E-2,3.9401364E-1,1.0048225E-1,2.0308164E-1,3.1388798E-1,2.977974E-1,4.7593948E-1,5.971029E-1,4.853487E-2,2.0213905E-1,2.0231811E-2,-2.1325905E-2,3.730457E-1,-9.071141E-3,-2.3824375E-3,6.805014E-1,4.6187527E-3,-2.0416868E-1,-4.6263686E-1,9.040547E-2,-2.811239E-1,-3.1729177E-1,-1.4709204E-1,-1.9348885E-1,3.6891892E-3,1.03910305E-1,4.582962E-1,2.9452205E-2,1.6093108E-1,1.8764845E-1,2.9897422E-1,1.701945E-1,3.3929572E-1,3.2958734E-1,1.0615886E-1,4.8499846E-1,1.4703007E-1,5.76933E-1,1.9371009E-2,-3.3425093E-3,8.827853E-2,6.383686E-3,-8.102197E-3,-1.7844794E-2,-1.3728657E-4,1.6625315E-2,3.8598882E-4,1.8487643E-2,9.008532E-3,-5.8321544E-4,-9.658558E-3,-1.6435994E-2,-1.0513441E-2,7.961051E-3,-4.9365144E-3,-9.541159E-3,5.059304E-3,-7.4439864E-3,-1.6804848E-2,-4.1414374E-3,2.5018097E-3,-9.778841E-3,-3.4113904E-3,-6.908033E-4,3.419934E-3,-9.613345E-4,6.654887E-3,6.846961E-3,1.396332E-2,-4.4029046E-4,4.410861E-3,4.3734335E-3,-1.6236844E-2,-7.8371895E-4,5.263855E-3,9.722356E-3,5.4955143E-3,1.101266E-2,-1.0635587E-3,7.9412265E-3,1.0558572E-2,6.941255E-3,1.1585667E-2,8.7597035E-3,1.4933311E-4,1.307891E-2,8.180504E-3,-2.1120424E-3,5.9211208E-3,1.5555078E-2,1.0907638E-2,-3.3001127E-4,3.1805565E-4,5.432665E-4,2.7536212E-3],"categories":[],"categories_nodes":[],"categories_segments":[],"categories_sizes":[],"default_left":[0,0,0,0,0,0,0,0,0,0,0,0,0,0,0,0,0,0,0,0,0,0,0,0,0,0,0,0,0,0,0,0,0,0,0,0,0,0,0,0,0,0,0,0,0,0,0,0,0,0,0,0,0,0,0,0,0,0,0,0,0,0,0,0,0,0,0,0,0,0,0,0,0,0,0,0,0,0,0,0,0,0,0,0,0,0,0,0,0,0,0,0,0,0,0,0,0,0,0,0,0,0,0,0,0,0,0,0,0,0,0,0,0,0,0,0,0],"id":11,"left_children":[1,3,5,7,9,11,13,15,17,19,21,23,25,27,29,31,33,35,37,39,41,43,45,47,49,51,53,55,57,59,61,63,-1,65,67,-1,-1,69,-1,71,73,75,77,79,81,83,85,87,89,91,93,95,97,99,101,103,105,107,109,111,-1,113,115,-1,-1,-1,-1,-1,-1,-1,-1,-1,-1,-1,-1,-1,-1,-1,-1,-1,-1,-1,-1,-1,-1,-1,-1,-1,-1,-1,-1,-1,-1,-1,-1,-1,-1,-1,-1,-1,-1,-1,-1,-1,-1,-1,-1,-1,-1,-1,-1,-1,-1,-1,-1,-1,-1],"loss_changes":[2.12314E2,4.688981E1,4.2695175E1,1.0990807E1,3.986419E1,4.26445E0,3.8036346E0,4.253371E0,2.614357E0,5.507263E0,7.01523E0,3.81536E0,8.876476E-1,1.4298897E0,1.7184601E0,2.5264454E0,3.404368E0,3.0979559E-2,2.8877258E-1,7.0946198E0,2.8710346E0,3.4976864E0,2.2964215E0,8.4751034E-1,2.5800576E0,1.5404844E-1,5.738621E-1,4.584775E-1,3.2497597E-1,4.6875763E-1,1.472765E-2,1.8980188E0,0E0,2.61993E0,2.1846821E0,0E0,0E0,1.200676E-2,0E0,3.7969818E0,6.6855164E0,1.8615365E0,2.5033941E0,1.4828272E0,1.7353325E0,7.3677087E-1,1.5397798E0,2.1594918E-1,4.022932E-1,1.7602137E0,1.1791439E0,3.1012058E-1,3.6092043E-2,1.4647453E0,2.221756E-1,3.8764954E-1,2.9182577E-1,5.3426743E-2,1.047745E-1,2.688675E-1,0E0,7.1029546E-4,2.1322202E-3,0E0,0E0,0E0,0E0,0E0,0E0,0E0,0E0,0E0,0E0,0E0,0E0,0E0,0E0,0E0,0E0,0E0,0E0,0E0,0E0,0E0,0E0,0E0,0E0,0E0,0E0,0E0,0E0,0E0,0E0,0E0,0E0,0E0,0E0,0E0,0E0,0E0,0E0,0E0,0E0,0E0,0E0,0E0,0E0,0E0,0E0,0E0,0E0,0E0,0E0,0E0,0E0,0E0,0E0],"parents":[2147483647,0,0,1,1,2,2,3,3,4,4,5,5,6,6,7,7,8,8,9,9,10,10,11,11,12,12,13,13,14,14,15,15,16,16,17,17,18,18,19,19,20,20,21,21,22,22,23,23,24,24,25,25,26,26,27,27,28,28,29,29,30,30,31,31,33,33,34,34,37,37,39,39,40,40,41,41,42,42,43,43,44,44,45,45,46,46,47,47,48,48,49,49,50,50,51,51,52,52,53,53,54,54,55,55,56,56,57,57,58,58,59,59,61,61,62,62],"right_children":[2,4,6,8,10,12,14,16,18,20,22,24,26,28,30,32,34,36,38,40,42,44,46,48,50,52,54,56,58,60,62,64,-1,66,68,-1,-1,70,-1,72,74,76,78,80,82,84,86,88,90,92,94,96,98,100,102,104,106,108,110,112,-1,114,116,-1,-1,-1,-1,-1,-1,-1,-1,-1,-1,-1,-1,-1,-1,-1,-1,-1,-1,-1,-1,-1,-1,-1,-1,-1,-1,-1,-1,-1,-1,-1,-1,-1,-1,-1,-1,-1,-1,-1,-1,-1,-1,-1,-1,-1,-1,-1,-1,-1,-1,-1,-1,-1,-1],"split_conditions":[6.952194E-1,2.2912476E-2,8.3438504E-1,3.75E-1,5.3894216E-1,2.5748262E-1,8.842364E-1,6.547448E-3,1.5554173E-1,9.3333334E-2,6.3917214E-1,2.127741E-2,7.5685745E-1,1.2790698E-1,3.814881E-1,3.656653E-1,2.1275016E-2,6.5450524E-3,3.3356592E-1,3.5678443E-2,1.18001685E-1,4.05E-2,4.15E-2,7.364981E-3,7.460841E-1,5.3333335E-2,2.9786458E-2,3.814881E-1,3.5687E-1,5.673759E-1,1.835294E-1,7.294118E-1,2.0231811E-2,4.6511628E-2,2.4113475E-1,-9.071141E-3,-2.3824375E-3,6E-1,4.6187527E-3,8.590733E-2,4.2714268E-1,4.1411763E-1,2.625E-1,6.3529414E-1,3.3E-1,2.8368795E-1,1.0625E-1,1.2790698E-1,1.862679E-2,5E-2,9.5035464E-1,3.1097386E-2,8.675115E-2,2.127741E-2,8.0582887E-1,1.4566216E-1,5.573565E-3,4.2E-1,1.7E-2,3.654113E-2,1.9371009E-2,1.546646E-1,2.7822463E-2,6.383686E-3,-8.102197E-3,-1.7844794E-2,-1.3728657E-4,1.6625315E-2,3.8598882E-4,1.8487643E-2,9.008532E-3,-5.8321544E-4,-9.658558E-3,-1.6435994E-2,-1.0513441E-2,7.961051E-3,-4.9365144E-3,-9.541159E-3,5.059304E-3,-7.4439864E-3,-1.6804848E-2,-4.1414374E-3,2.5018097E-3,-9.778841E-3,-3.4113904E-3,-6.908033E-4,3.419934E-3,-9.613345E-4,6.654887E-3,6.846961E-3,1.396332E-2,-4.4029046E-4,4.410861E-3,4.3734335E-3,-1.6236844E-2,-7.8371895E-4,5.263855E-3,9.722356E-3,5.4955143E-3,1.101266E-2,-1.0635587E-3,7.9412265E-3,1.0558572E-2,6.941255E-3,1.1585667E-2,8.7597035E-3,1.4933311E-4,1.307891E-2,8.180504E-3,-2.1120424E-3,5.9211208E-3,1.5555078E-2,1.0907638E-2,-3.3001127E-4,3.1805565E-4,5.432665E-4,2.7536212E-3],"split_indices":[1,0,1,9,1,8,1,0,3,11,1,0,1,5,3,8,0,0,3,0,8,2,2,0,1,11,0,3,3,6,4,4,0,5,6,0,0,4,0,8,1,4,12,4,11,6,12,5,2,12,6,0,2,0,1,0,8,14,2,2,0,0,0,0,0,0,0,0,0,0,0,0,0,0,0,0,0,0,0,0,0,0,0,0,0,0,0,0,0,0,0,0,0,0,0,0,0,0,0,0,0,0,0,0,0,0,0,0,0,0,0,0,0,0,0,0,0],"split_type":[0,0,0,0,0,0,0,0,0,0,0,0,0,0,0,0,0,0,0,0,0,0,0,0,0,0,0,0,0,0,0,0,0,0,0,0,0,0,0,0,0,0,0,0,0,0,0,0,0,0,0,0,0,0,0,0,0,0,0,0,0,0,0,0,0,0,0,0,0,0,0,0,0,0,0,0,0,0,0,0,0,0,0,0,0,0,0,0,0,0,0,0,0,0,0,0,0,0,0,0,0,0,0,0,0,0,0,0,0,0,0,0,0,0,0,0,0],"sum_hessian":[4.194E3,2.688E3,1.506E3,4.15E2,2.273E3,9.61E2,5.45E2,3.7E2,4.5E1,8.91E2,1.382E3,6.48E2,3.13E2,2.12E2,3.33E2,9.9E1,2.71E2,3E0,4.2E1,7.97E2,9.4E1,9.04E2,4.78E2,4.7E1,6.01E2,1.41E2,1.72E2,8E1,1.32E2,3.27E2,6E0,9.1E1,8E0,2.48E2,2.3E1,1E0,2E0,4E1,2E0,1.29E2,6.68E2,3E1,6.4E1,1.44E2,7.6E2,6.8E1,4.1E2,9E0,3.8E1,2.77E2,3.24E2,1.24E2,1.7E1,2.7E1,1.45E2,6.8E1,1.2E1,1.28E2,4E0,2.89E2,3.8E1,3E0,3E0,8.5E1,6E0,5E0,2.43E2,1.3E1,1E1,3.7E1,3E0,6.1E1,6.8E1,1.93E2,4.75E2,1.7E1,1.3E1,5.5E1,9E0,1.31E2,1.3E1,7.32E2,2.8E1,1.7E1,5.1E1,3.32E2,7.8E1,5E0,4E0,1.1E1,2.7E1,2.08E2,6.9E1,3.23E2,1E0,6E0,1.18E2,8E0,9E0,1.2E1,1.5E1,9.1E1,5.4E1,4.4E1,2.4E1,3E0,9E0,1.2E2,8E0,1E0,3E0,2.69E2,2E1,2E0,1E0,1E0,2E0],"tree_param":{"num_deleted":"0","num_feature":"15","num_nodes":"117","size_leaf_vector":"1"}},{"base_weights":[2.384885E-3,1.4494844E-1,-1.8176427E-1,3.1318733E-1,-2.427626E-2,7.193854E-2,-2.648401E-1,4.7581336E-1,2.1040995E-1,2.0271073E-1,-5.6805834E-2,1.937586E-1,-2.4930513E-2,-1.5779598E-1,-4.303949E-1,2.2485171E-1,5.486094E-1,3.235545E-1,1.18748866E-1,1.3385569E-1,6.3324755E-1,2.2868993E-2,-1.8499249E-1,-1.07567966E-1,2.850566E-1,-1.3549183E-1,1.4337198E-1,-8.512209E-2,-3.586616E-1,-3.6043727E-1,-5.229124E-1,6.486867E-2,5.010099E-1,7.006228E-2,5.638409E-1,-1.9316976E-1,3.3228654E-1,7.475249E-2,2.540157E-1,3.628959E-2,2.8044978E-1,7.290641E-2,1.8303787E-2,7.431647E-2,-8.807442E-2,-9.346246E-2,-2.3527211E-1,-3.1614068E-1,8.862166E-2,5.470946E-1,2.2456357E-1,-5.4654174E-2,-2.3723133E-1,3.5284755E-1,-2.7516792E-2,-1.573217E-1,1.2558074E-1,-4.2113858E-1,-1.7581871E-1,-3.0316526E-1,-5.102353E-1,-5.422053E-1,-2.6663384E-1,8.353362E-3,-8.911061E-4,2.3446355E-3,1.565206E-2,6.1271517E-3,-1.3005275E-2,1.5014769E-2,-1.2420128E-4,2.9079404E-3,-1.410417E-2,1.1825863E-2,8.060217E-3,9.152856E-4,6.1151586E-3,5.3823204E-3,1.11148255E-2,3.6214683E-3,-2.9774879E-3,3.930299E-3,1.3100936E-2,-2.251783E-3,5.146676E-3,6.426097E-3,1.2604845E-3,-3.129329E-3,1.6796058E-3,-3.0895434E-3,1.1888897E-2,-7.927736E-3,-3.6755975E-3,-1.9014897E-4,-1.2717857E-2,-7.998977E-3,4.1201916E-3,4.369982E-3,1.7041588E-2,-4.5718113E-4,8.038274E-3,-4.088977E-3,3.1397399E-3,-3.1677661E-3,-9.390198E-3,2.2061504E-2,7.561165E-3,-5.913606E-3,6.9683427E-3,-5.205024E-3,-1.975395E-4,6.7647565E-3,-1.9164872E-3,-1.2389274E-2,-4.0837773E-3,-5.9328675E-3,1.4091713E-2,-9.8745E-3,-3.2926542E-3,-7.3997807E-3,-1.4726928E-2,-1.3309249E-2,-1.8260263E-2,6.507242E-4,-1.2022953E-2],"categories":[],"categories_nodes":[],"categories_segments":[],"categories_sizes":[],"default_left":[0,0,0,0,0,0,0,0,0,0,0,0,0,0,0,0,0,0,0,0,0,0,0,0,0,0,0,0,0,0,0,0,0,0,0,0,0,0,0,0,0,0,0,0,0,0,0,0,0,0,0,0,0,0,0,0,0,0,0,0,0,0,0,0,0,0,0,0,0,0,0,0,0,0,0,0,0,0,0,0,0,0,0,0,0,0,0,0,0,0,0,0,0,0,0,0,0,0,0,0,0,0,0,0,0,0,0,0,0,0,0,0,0,0,0,0,0,0,0,0,0,0,0,0,0],"id":12,"left_children":[1,3,5,7,9,11,13,15,17,19,21,23,25,27,29,31,33,35,37,39,41,43,45,47,49,51,53,55,57,59,61,63,65,67,69,71,73,75,77,79,81,83,-1,85,87,89,91,93,95,97,99,101,103,105,107,109,111,113,115,117,119,121,123,-1,-1,-1,-1,-1,-1,-1,-1,-1,-1,-1,-1,-1,-1,-1,-1,-1,-1,-1,-1,-1,-1,-1,-1,-1,-1,-1,-1,-1,-1,-1,-1,-1,-1,-1,-1,-1,-1,-1,-1,-1,-1,-1,-1,-1,-1,-1,-1,-1,-1,-1,-1,-1,-1,-1,-1,-1,-1,-1,-1,-1,-1],"loss_changes":[1.0931741E2,6.682711E1,3.8315197E1,1.9572601E1,8.657933E0,5.303297E0,2.4193039E1,8.189056E0,7.459774E0,4.2729974E0,1.0472812E1,5.5052543E0,4.68997E0,1.2129341E1,3.2871475E0,4.5622845E0,2.5262375E0,1.5215836E0,2.3674636E0,1.8205571E0,6.019354E-1,3.619557E0,1.7866344E0,1.951248E0,2.3024178E0,1.2371404E0,3.5894115E0,9.345119E0,2.4505405E0,2.496296E0,9.8768616E-1,1.6656117E0,1.3624554E0,1.200968E0,6.5561676E-1,6.760408E-1,8.757286E-1,1.9004719E0,7.38574E-1,1.181796E0,1.3700051E0,7.412795E-2,0E0,1.9357603E0,9.2550004E-1,1.8311822E0,1.5248184E0,1.1640577E0,7.018689E-1,9.2785263E-1,2.4153953E0,1.5056144E0,8.830662E-1,1.2154202E0,3.2482123E0,2.690508E0,4.0583186E0,1.9798908E0,2.1033754E0,2.7762814E0,7.378292E-1,8.869095E-1,9.9430263E-1,0E0,0E0,0E0,0E0,0E0,0E0,0E0,0E0,0E0,0E0,0E0,0E0,0E0,0E0,0E0,0E0,0E0,0E0,0E0,0E0,0E0,0E0,0E0,0E0,0E0,0E0,0E0,0E0,0E0,0E0,0E0,0E0,0E0,0E0,0E0,0E0,0E0,0E0,0E0,0E0,0E0,0E0,0E0,0E0,0E0,0E0,0E0,0E0,0E0,0E0,0E0,0E0,0E0,0E0,0E0,0E0,0E0,0E0,0E0,0E0,0E0,0E0],"parents":[2147483647,0,0,1,1,2,2,3,3,4,4,5,5,6,6,7,7,8,8,9,9,10,10,11,11,12,12,13,13,14,14,15,15,16,16,17,17,18,18,19,19,20,20,21,21,22,22,23,23,24,24,25,25,26,26,27,27,28,28,29,29,30,30,31,31,32,32,33,33,34,34,35,35,36,36,37,37,38,38,39,39,40,40,41,41,43,43,44,44,45,45,46,46,47,47,48,48,49,49,50,50,51,51,52,52,53,53,54,54,55,55,56,56,57,57,58,58,59,59,60,60,61,61,62,62],"right_children":[2,4,6,8,10,12,14,16,18,20,22,24,26,28,30,32,34,36,38,40,42,44,46,48,50,52,54,56,58,60,62,64,66,68,70,72,74,76,78,80,82,84,-1,86,88,90,92,94,96,98,100,102,104,106,108,110,112,114,116,118,120,122,124,-1,-1,-1,-1,-1,-1,-1,-1,-1,-1,-1,-1,-1,-1,-1,-1,-1,-1,-1,-1,-1,-1,-1,-1,-1,-1,-1,-1,-1,-1,-1,-1,-1,-1,-1,-1,-1,-1,-1,-1,-1,-1,-1,-1,-1,-1,-1,-1,-1,-1,-1,-1,-1,-1,-1,-1,-1,-1,-1,-1,-1,-1],"split_conditions":[3.529412E-1,7.5E-2,2.9786458E-2,2.5E-2,2.2912476E-2,1.4729963E-2,4.6705884E-1,9.387665E-2,2.7058825E-1,5.106383E-1,1.37E-1,7.356226E-2,7.5E-2,1.5E-1,5.435294E-1,1.5116279E-1,1.1471665E-3,6.609322E-3,1.744186E-1,9.819975E-3,1.2790698E-1,2.9411766E-1,2.717647E-1,1.6875E-1,9.216176E-2,4.6E-1,9.216176E-2,2.574325E-1,6.666667E-3,1.7415865E-1,1.1333334E-1,4.664488E-2,1.1471665E-3,3.0588236E-1,3.814881E-1,7.5284876E-2,1.9764706E-1,6.25E-2,1.1E-2,1.7415865E-1,1.5117994E-1,1.3092501E-2,1.8303787E-2,2.0470588E-1,7.5E-2,5.106383E-1,2.5E-2,5.7074934E-2,3.2766667E-1,1.25E-1,1.1565397E-1,2.7004931E-2,5E-2,4.6511628E-2,1.8861403E-1,2.5E-2,7.771665E-2,1.6875E-1,7E-2,1E-2,3.5678443E-2,2.045E-1,3.4042552E-1,8.353362E-3,-8.911061E-4,2.3446355E-3,1.565206E-2,6.1271517E-3,-1.3005275E-2,1.5014769E-2,-1.2420128E-4,2.9079404E-3,-1.410417E-2,1.1825863E-2,8.060217E-3,9.152856E-4,6.1151586E-3,5.3823204E-3,1.11148255E-2,3.6214683E-3,-2.9774879E-3,3.930299E-3,1.3100936E-2,-2.251783E-3,5.146676E-3,6.426097E-3,1.2604845E-3,-3.129329E-3,1.6796058E-3,-3.0895434E-3,1.1888897E-2,-7.927736E-3,-3.6755975E-3,-1.9014897E-4,-1.2717857E-2,-7.998977E-3,4.1201916E-3,4.369982E-3,1.7041588E-2,-4.5718113E-4,8.038274E-3,-4.088977E-3,3.1397399E-3,-3.1677661E-3,-9.390198E-3,2.2061504E-2,7.561165E-3,-5.913606E-3,6.9683427E-3,-5.205024E-3,-1.975395E-4,6.7647565E-3,-1.9164872E-3,-1.2389274E-2,-4.0837773E-3,-5.9328675E-3,1.4091713E-2,-9.8745E-3,-3.2926542E-3,-7.3997807E-3,-1.4726928E-2,-1.3309249E-2,-1.8260263E-2,6.507242E-4,-1.2022953E-2],"split_indices":[4,2,0,2,0,0,4,8,4,6,2,8,12,2,4,5,2,8,5,0,5,4,4,9,8,4,8,8,14,2,11,0,2,4,3,0,4,12,11,2,8,0,0,4,12,6,12,8,11,9,8,0,12,5,8,12,2,9,11,14,0,2,6,0,0,0,0,0,0,0,0,0,0,0,0,0,0,0,0,0,0,0,0,0,0,0,0,0,0,0,0,0,0,0,0,0,0,0,0,0,0,0,0,0,0,0,0,0,0,0,0,0,0,0,0,0,0,0,0,0,0,0,0,0,0],"split_type":[0,0,0,0,0,0,0,0,0,0,0,0,0,0,0,0,0,0,0,0,0,0,0,0,0,0,0,0,0,0,0,0,0,0,0,0,0,0,0,0,0,0,0,0,0,0,0,0,0,0,0,0,0,0,0,0,0,0,0,0,0,0,0,0,0,0,0,0,0,0,0,0,0,0,0,0,0,0,0,0,0,0,0,0,0,0,0,0,0,0,0,0,0,0,0,0,0,0,0,0,0,0,0,0,0,0,0,0,0,0,0,0,0,0,0,0,0,0,0,0,0,0,0,0,0],"sum_hessian":[4.162E3,2.346E3,1.816E3,1.176E3,1.17E3,4.48E2,1.368E3,4.54E2,7.22E2,1.46E2,1.024E3,1.98E2,2.5E2,8.32E2,5.36E2,1.03E2,3.51E2,3.22E2,4E2,1.27E2,1.9E1,6.32E2,3.92E2,4.6E1,1.52E2,1.51E2,9.9E1,6.12E2,2.2E2,3.08E2,2.28E2,6.6E1,3.7E1,1.1E1,3.4E2,5E0,3.17E2,3.03E2,9.7E1,7.7E1,5E1,2E0,1.7E1,4.32E2,2E2,1.4E2,2.52E2,2.2E1,2.4E1,2.7E1,1.25E2,8.5E1,6.6E1,4.4E1,5.5E1,4.56E2,1.56E2,1.63E2,5.7E1,2.25E2,8.3E1,2.11E2,1.7E1,1.8E1,4.8E1,7E0,3E1,9E0,2E0,3.38E2,2E0,3E0,2E0,5.9E1,2.58E2,2.42E2,6.1E1,7.6E1,2.1E1,4.6E1,3.1E1,3.2E1,1.8E1,1E0,1E0,5.8E1,3.74E2,1.67E2,3.3E1,1.35E2,5E0,1.5E2,1.02E2,8E0,1.4E1,3E0,2.1E1,6E0,2.1E1,3.1E1,9.4E1,5.4E1,3.1E1,3.4E1,3.2E1,4E0,4E1,3.3E1,2.2E1,3.61E2,9.5E1,9.4E1,6.2E1,1.38E2,2.5E1,5.4E1,3E0,1.61E2,6.4E1,1.5E1,6.8E1,1.7E2,4.1E1,7E0,1E1],"tree_param":{"num_deleted":"0","num_feature":"15","num_nodes":"125","size_leaf_vector":"1"}},{"base_weights":[5.680929E-4,1.4232308E-1,-1.7662594E-1,3.0688456E-1,-2.3366794E-2,8.571735E-2,-2.6287282E-1,4.6545112E-1,2.0375174E-1,1.9812612E-1,-5.2861538E-2,4.244715E-2,3.4076175E-1,-1.6733962E-1,-4.1526857E-1,2.4758868E-1,5.3273886E-1,3.1178716E-1,1.1007732E-1,1.2915039E-1,6.124437E-1,2.3907017E-2,-1.7154638E-1,-1.8014711E-3,3.2467046E-1,4.5077127E-1,-1.0004307E-1,-7.129638E-2,-2.9866743E-1,-3.6608043E-1,-5.395784E-1,8.087769E-2,5.1160675E-1,6.215952E-2,5.5092317E-1,-1.8992238E-1,3.2021987E-1,8.9125164E-2,3.410554E-1,8.493373E-2,4.029597E-1,-4.9726055E-3,1.7665382E-2,9.241504E-2,-5.1439922E-2,-8.005746E-2,-2.2198142E-1,-8.905902E-2,1.623763E-1,4.064116E-1,-3.833704E-1,3.411385E-1,7.05765E-1,-1.9128035E-1,1.7587018E-1,-1.3797083E-1,1.6828056E-1,-3.2382855E-1,3.7011027E-2,-3.304087E-1,-5.832996E-1,-3.6716196E-1,-5.730391E-1,5.1332153E-3,-2.890169E-3,1.52475E-2,7.3529123E-3,4.210449E-3,-1.5849806E-2,1.4653216E-2,-4.25412E-3,2.8502066E-3,-1.3855266E-2,9.343055E-3,5.971348E-3,1.4915661E-3,6.5695057E-3,-2.0894923E-3,9.468425E-3,5.0342833E-3,-7.4979226E-4,1.5238783E-2,2.6117386E-3,5.868583E-3,1.6751849E-3,-2.186282E-3,1.5200587E-3,-2.6424883E-3,1.28513025E-2,-7.6102107E-3,-3.390286E-3,5.9905513E-3,-3.4954697E-3,8.28519E-3,3.1113177E-5,2.5883974E-3,1.2577233E-2,-1.6429331E-3,-1.1520811E-2,-7.62421E-3,1.06300535E-2,1.935975E-2,4.600734E-3,-2.0767597E-3,-8.232111E-3,1.0839642E-3,5.4847114E-3,-4.782788E-3,7.458779E-4,1.047631E-2,1.8942311E-3,-9.833719E-3,-4.919482E-3,-3.8571928E-3,1.7745674E-2,-1.0169703E-2,-5.328254E-3,-1.6064456E-2,-3.783698E-3,-6.4138393E-3,-1.8247059E-2,-1.6184626E-2,-9.771247E-3],"categories":[],"categories_nodes":[],"categories_segments":[],"categories_sizes":[],"default_left":[0,0,0,0,0,0,0,0,0,0,0,0,0,0,0,0,0,0,0,0,0,0,0,0,0,0,0,0,0,0,0,0,0,0,0,0,0,0,0,0,0,0,0,0,0,0,0,0,0,0,0,0,0,0,0,0,0,0,0,0,0,0,0,0,0,0,0,0,0,0,0,0,0,0,0,0,0,0,0,0,0,0,0,0,0,0,0,0,0,0,0,0,0,0,0,0,0,0,0,0,0,0,0,0,0,0,0,0,0,0,0,0,0,0,0,0,0,0,0,0,0,0,0],"id":13,"left_children":[1,3,5,7,9,11,13,15,17,19,21,23,25,27,29,31,33,35,37,39,41,43,45,47,49,51,53,55,57,59,61,63,65,67,69,71,73,75,77,79,81,-1,-1,83,85,87,89,91,93,95,97,99,101,103,105,107,109,111,113,115,117,119,121,-1,-1,-1,-1,-1,-1,-1,-1,-1,-1,-1,-1,-1,-1,-1,-1,-1,-1,-1,-1,-1,-1,-1,-1,-1,-1,-1,-1,-1,-1,-1,-1,-1,-1,-1,-1,-1,-1,-1,-1,-1,-1,-1,-1,-1,-1,-1,-1,-1,-1,-1,-1,-1,-1,-1,-1,-1,-1,-1,-1],"loss_changes":[1.039891E2,6.2719368E1,4.1654907E1,1.8777008E1,7.503683E0,5.0178704E0,2.009452E1,6.5234985E0,7.059908E0,3.778913E0,9.233811E0,4.88339E0,3.245617E0,1.0737724E1,3.0615387E0,4.7562265E0,2.9265366E0,1.4358177E0,1.7940903E0,1.3822867E0,9.600954E-1,3.1844656E0,1.8186989E0,4.87089E0,3.2232375E0,1.2408876E0,3.8607055E-1,7.914207E0,3.052559E0,2.7904778E0,6.492119E-1,1.4820806E0,4.7243023E-1,9.91808E-1,7.116165E-1,6.5181345E-1,9.1163254E-1,1.7950745E0,2.4476147E-1,1.2212156E0,7.840929E-1,0E0,0E0,1.2024574E0,1.0017402E0,1.647068E0,1.5380011E0,3.0395217E0,2.8645139E0,9.715061E-1,7.294309E-2,1.5984397E0,7.703161E-2,1.2416434E-1,8.4209815E-3,2.751132E0,2.3479497E0,2.1339417E0,3.1066623E0,2.2346764E0,4.6320152E-1,9.1910005E-1,7.3651886E-1,0E0,0E0,0E0,0E0,0E0,0E0,0E0,0E0,0E0,0E0,0E0,0E0,0E0,0E0,0E0,0E0,0E0,0E0,0E0,0E0,0E0,0E0,0E0,0E0,0E0,0E0,0E0,0E0,0E0,0E0,0E0,0E0,0E0,0E0,0E0,0E0,0E0,0E0,0E0,0E0,0E0,0E0,0E0,0E0,0E0,0E0,0E0,0E0,0E0,0E0,0E0,0E0,0E0,0E0,0E0,0E0,0E0,0E0,0E0,0E0],"parents":[2147483647,0,0,1,1,2,2,3,3,4,4,5,5,6,6,7,7,8,8,9,9,10,10,11,11,12,12,13,13,14,14,15,15,16,16,17,17,18,18,19,19,20,20,21,21,22,22,23,23,24,24,25,25,26,26,27,27,28,28,29,29,30,30,31,31,32,32,33,33,34,34,35,35,36,36,37,37,38,38,39,39,40,40,43,43,44,44,45,45,46,46,47,47,48,48,49,49,50,50,51,51,52,52,53,53,54,54,55,55,56,56,57,57,58,58,59,59,60,60,61,61,62,62],"right_children":[2,4,6,8,10,12,14,16,18,20,22,24,26,28,30,32,34,36,38,40,42,44,46,48,50,52,54,56,58,60,62,64,66,68,70,72,74,76,78,80,82,-1,-1,84,86,88,90,92,94,96,98,100,102,104,106,108,110,112,114,116,118,120,122,-1,-1,-1,-1,-1,-1,-1,-1,-1,-1,-1,-1,-1,-1,-1,-1,-1,-1,-1,-1,-1,-1,-1,-1,-1,-1,-1,-1,-1,-1,-1,-1,-1,-1,-1,-1,-1,-1,-1,-1,-1,-1,-1,-1,-1,-1,-1,-1,-1,-1,-1,-1,-1,-1,-1,-1,-1,-1,-1,-1],"split_conditions":[3.529412E-1,7.57978E-2,2.9786458E-2,2.5E-2,2.2912476E-2,2.5748262E-1,4.6705884E-1,9.387665E-2,2.7058825E-1,3.75E-1,1.37E-1,3.4375E-1,2.127741E-2,1.146028E-1,1.7415865E-1,5E-2,1.1471665E-3,6.609322E-3,2.1E-1,2.625E-1,1.3963619E-1,2.7294117E-1,2.717647E-1,7.5E-2,2.4273552E-1,6E-2,1.5116279E-1,2.9405972E-1,4.539007E-1,6.3529414E-1,3.5678443E-2,3E-1,2.8117648E-1,3.2117647E-1,5E-1,7.5284876E-2,2.517647E-1,7.5E-2,2.717647E-1,1.5297465E-1,3.3333334E-1,-4.9726055E-3,1.7665382E-2,2.0470588E-1,5E-2,5.106383E-1,2.5E-2,4.909987E-3,9.216176E-2,1.3088213E-1,1.4729963E-2,2.1E-1,1.4136133E-1,4.92027E-2,2.3730008E-2,2.5E-2,3.521383E-2,2.5E-2,2.71E-1,2.5E-2,3.6666665E-2,1.1162791E-1,1.4E-1,5.1332153E-3,-2.890169E-3,1.52475E-2,7.3529123E-3,4.210449E-3,-1.5849806E-2,1.4653216E-2,-4.25412E-3,2.8502066E-3,-1.3855266E-2,9.343055E-3,5.971348E-3,1.4915661E-3,6.5695057E-3,-2.0894923E-3,9.468425E-3,5.0342833E-3,-7.4979226E-4,1.5238783E-2,2.6117386E-3,5.868583E-3,1.6751849E-3,-2.186282E-3,1.5200587E-3,-2.6424883E-3,1.28513025E-2,-7.6102107E-3,-3.390286E-3,5.9905513E-3,-3.4954697E-3,8.28519E-3,3.1113177E-5,2.5883974E-3,1.2577233E-2,-1.6429331E-3,-1.1520811E-2,-7.62421E-3,1.06300535E-2,1.935975E-2,4.600734E-3,-2.0767597E-3,-8.232111E-3,1.0839642E-3,5.4847114E-3,-4.782788E-3,7.458779E-4,1.047631E-2,1.8942311E-3,-9.833719E-3,-4.919482E-3,-3.8571928E-3,1.7745674E-2,-1.0169703E-2,-5.328254E-3,-1.6064456E-2,-3.783698E-3,-6.4138393E-3,-1.8247059E-2,-1.6184626E-2,-9.771247E-3],"split_indices":[4,2,0,2,0,8,4,8,4,9,2,9,0,2,2,12,2,8,11,12,3,4,4,12,8,14,5,8,6,4,0,4,4,4,13,0,4,12,4,2,13,0,0,4,12,6,12,0,8,3,0,11,3,2,0,12,2,12,2,12,11,5,11,0,0,0,0,0,0,0,0,0,0,0,0,0,0,0,0,0,0,0,0,0,0,0,0,0,0,0,0,0,0,0,0,0,0,0,0,0,0,0,0,0,0,0,0,0,0,0,0,0,0,0,0,0,0,0,0,0,0,0,0],"split_type":[0,0,0,0,0,0,0,0,0,0,0,0,0,0,0,0,0,0,0,0,0,0,0,0,0,0,0,0,0,0,0,0,0,0,0,0,0,0,0,0,0,0,0,0,0,0,0,0,0,0,0,0,0,0,0,0,0,0,0,0,0,0,0,0,0,0,0,0,0,0,0,0,0,0,0,0,0,0,0,0,0,0,0,0,0,0,0,0,0,0,0,0,0,0,0,0,0,0,0,0,0,0,0,0,0,0,0,0,0,0,0,0,0,0,0,0,0,0,0,0,0,0,0],"sum_hessian":[4.138E3,2.299E3,1.839E3,1.153E3,1.146E3,4.55E2,1.384E3,4.53E2,7E2,1.34E2,1.012E3,3.9E2,6.5E1,8.52E2,5.32E2,1.08E2,3.45E2,3.24E2,3.76E2,1.16E2,1.8E1,6.15E2,3.97E2,3.38E2,5.2E1,5.2E1,1.3E1,4.93E2,3.59E2,3.84E2,1.48E2,6.7E1,4.1E1,1.3E1,3.32E2,5E0,3.19E2,3.46E2,3E1,1.01E2,1.5E1,1E0,1.7E1,3.22E2,2.93E2,1.42E2,2.55E2,2.21E2,1.17E2,4.7E1,5E0,3.8E1,1.4E1,1E1,3E0,3.86E2,1.07E2,3.34E2,2.5E1,3.32E2,5.2E1,2.6E1,1.22E2,4.2E1,2.5E1,3.1E1,1E1,1.2E1,1E0,3.31E2,1E0,3E0,2E0,2.35E2,8.4E1,2.88E2,5.8E1,1E0,2.9E1,5.2E1,4.9E1,9E0,6E0,5.8E1,2.64E2,2.28E2,6.5E1,1.38E2,4E0,1.49E2,1.06E2,2.6E1,1.95E2,6E1,5.7E1,9E0,3.8E1,1E0,4E0,3E0,3.5E1,1.3E1,1E0,6E0,4E0,1E0,2E0,3.07E2,7.9E1,3.1E1,7.6E1,2.47E2,8.7E1,2E1,5E0,2.33E2,9.9E1,4.9E1,3E0,2E1,6E0,1.01E2,2.1E1],"tree_param":{"num_deleted":"0","num_feature":"15","num_nodes":"123","size_leaf_vector":"1"}},{"base_weights":[4.05705E-3,-1.5644349E-1,2.8152102E-1,1.2973511E-1,-2.0749079E-1,1.5500537E-1,4.7469783E-1,8.228338E-2,5.2288485E-1,-4.0359265E-1,-1.3074295E-1,1.5988615E-1,-6.200289E-1,3.7912637E-1,5.586314E-1,1.0433457E-1,-3.412605E-1,-9.659181E-2,5.8889765E-1,-4.6120855E-1,-2.5437236E-1,-2.0784885E-1,-6.331365E-2,1.0889246E-1,2.1914257E-1,-2.046648E-2,1.9272551E-3,3.416036E-1,4.731214E-1,5.668249E-1,1.6823193E-1,2.4443565E-1,4.945992E-2,-4.6019214E-1,6.000018E-2,-2.9704118E-1,9.333862E-3,1.6093154E-2,4.1734306E-3,-5.110283E-1,-2.8202644E-1,-2.8433728E-1,4.179245E-1,-2.2095363E-1,9.432299E-2,-9.278566E-2,7.626818E-2,9.0387814E-2,3.180484E-1,1.0845705E-2,2.2994304E-1,3.7570298E-1,2.6587394E-1,4.837013E-1,5.818363E-3,5.417922E-1,1.8364182E-2,2.2835493E-1,-8.091371E-3,5.094293E-3,1.4865437E-2,-3.3298624E-4,6.1109834E-3,-3.1833397E-3,-1.2629217E-2,3.4991454E-3,2.3578215E-4,-1.6211877E-3,-9.403304E-3,-1.8063806E-2,-1.2425322E-2,-1.4138157E-3,-1.0251751E-2,-4.6367603E-3,-1.2054292E-2,-6.356121E-3,1.4459478E-2,-9.613534E-3,-5.3180144E-3,3.2424924E-4,1.4164069E-2,-2.0581535E-3,-1.1145881E-2,6.479858E-3,1.3277247E-3,1.6283088E-3,6.401676E-3,3.4933577E-3,9.185674E-3,-7.2010416E-3,1.8484405E-3,5.318453E-3,8.117831E-3,1.0129675E-2,1.0999333E-3,4.299429E-3,8.736641E-3,1.4673521E-2,1.1512873E-2,9.9754E-3,1.4526894E-2,7.4408944E-3,-4.676671E-4,-5.7898497E-4,2.5770112E-4],"categories":[],"categories_nodes":[],"categories_segments":[],"categories_sizes":[],"default_left":[0,0,0,0,0,0,0,0,0,0,0,0,0,0,0,0,0,0,0,0,0,0,0,0,0,0,0,0,0,0,0,0,0,0,0,0,0,0,0,0,0,0,0,0,0,0,0,0,0,0,0,0,0,0,0,0,0,0,0,0,0,0,0,0,0,0,0,0,0,0,0,0,0,0,0,0,0,0,0,0,0,0,0,0,0,0,0,0,0,0,0,0,0,0,0,0,0,0,0,0,0,0,0,0,0],"id":14,"left_children":[1,3,5,7,9,11,13,15,17,19,21,23,25,27,29,31,33,35,37,39,41,43,45,47,49,-1,-1,51,53,55,57,59,61,63,65,67,-1,-1,-1,69,71,73,75,77,79,81,83,85,87,89,91,93,95,97,-1,99,-1,101,103,-1,-1,-1,-1,-1,-1,-1,-1,-1,-1,-1,-1,-1,-1,-1,-1,-1,-1,-1,-1,-1,-1,-1,-1,-1,-1,-1,-1,-1,-1,-1,-1,-1,-1,-1,-1,-1,-1,-1,-1,-1,-1,-1,-1,-1,-1],"loss_changes":[1.859253E2,3.8666786E1,3.731945E1,7.4378867E0,3.3735374E1,3.601984E0,4.6413116E0,3.388538E0,1.8152981E0,5.3076706E0,8.383547E0,2.7591248E0,6.928439E-1,8.470917E-1,9.282379E-1,2.6172054E0,8.8661814E-1,5.549415E-1,2.2452736E-1,3.9086533E0,3.7047005E0,3.0026398E0,3.5572488E0,1.8948202E0,9.5363045E-1,0E0,0E0,4.372368E-1,1.0541153E-1,6.1854553E-1,8.665639E-2,1.4747438E0,2.7825077E0,2.30484E-2,1.7263668E-2,3.3124387E-2,0E0,0E0,0E0,2.205696E0,2.4096022E0,3.113285E0,8.0660665E-1,1.9864044E0,1.1510146E0,3.4863744E0,6.5215695E-1,1.9880114E0,1.6973591E-1,3.8606063E-1,8.381691E-1,3.1216812E-1,3.9781475E-1,1.7278671E-2,0E0,9.975433E-2,0E0,8.281392E-2,9.499169E-4,0E0,0E0,0E0,0E0,0E0,0E0,0E0,0E0,0E0,0E0,0E0,0E0,0E0,0E0,0E0,0E0,0E0,0E0,0E0,0E0,0E0,0E0,0E0,0E0,0E0,0E0,0E0,0E0,0E0,0E0,0E0,0E0,0E0,0E0,0E0,0E0,0E0,0E0,0E0,0E0,0E0,0E0,0E0,0E0,0E0,0E0],"parents":[2147483647,0,0,1,1,2,2,3,3,4,4,5,5,6,6,7,7,8,8,9,9,10,10,11,11,12,12,13,13,14,14,15,15,16,16,17,17,18,18,19,19,20,20,21,21,22,22,23,23,24,24,27,27,28,28,29,29,30,30,31,31,32,32,33,33,34,34,35,35,39,39,40,40,41,41,42,42,43,43,44,44,45,45,46,46,47,47,48,48,49,49,50,50,51,51,52,52,53,53,55,55,57,57,58,58],"right_children":[2,4,6,8,10,12,14,16,18,20,22,24,26,28,30,32,34,36,38,40,42,44,46,48,50,-1,-1,52,54,56,58,60,62,64,66,68,-1,-1,-1,70,72,74,76,78,80,82,84,86,88,90,92,94,96,98,-1,100,-1,102,104,-1,-1,-1,-1,-1,-1,-1,-1,-1,-1,-1,-1,-1,-1,-1,-1,-1,-1,-1,-1,-1,-1,-1,-1,-1,-1,-1,-1,-1,-1,-1,-1,-1,-1,-1,-1,-1,-1,-1,-1,-1,-1,-1,-1,-1,-1],"split_conditions":[6.952194E-1,2.2912476E-2,8.296091E-1,3.75E-1,5.021912E-1,9.5035464E-1,8.9274824E-1,3.5687E-1,1.3963619E-1,5E-2,5.990855E-1,7.594481E-1,8.674231E-2,2.4418604E-1,3.7000927E-1,6.547448E-3,1.6875E-1,1.893641E-1,3.3585924E-1,2.5E-2,5.106383E-1,3.1333333E-1,1.0625E-1,2.1E-1,1.1E-2,-2.046648E-2,1.9272551E-3,3.1E-1,3.5E-2,5.673759E-1,1.06382266E-1,3.4375E-1,5.9748954E-1,6.5450524E-3,3.173237E-1,8.245945E-2,9.333862E-3,1.6093154E-2,4.1734306E-3,3.8328138E-1,4.6E-1,2.4990973E-1,2.1042515E-1,4.05E-2,1.744186E-1,5.294118E-1,2.9459925E-2,1.5625E-1,1.2790698E-1,7.694711E-1,1.744186E-1,2.6416016E-1,1.5625E-1,4.2552426E-2,5.818363E-3,1.4823529E-1,1.8364182E-2,9.59908E-1,1.546646E-1,5.094293E-3,1.4865437E-2,-3.3298624E-4,6.1109834E-3,-3.1833397E-3,-1.2629217E-2,3.4991454E-3,2.3578215E-4,-1.6211877E-3,-9.403304E-3,-1.8063806E-2,-1.2425322E-2,-1.4138157E-3,-1.0251751E-2,-4.6367603E-3,-1.2054292E-2,-6.356121E-3,1.4459478E-2,-9.613534E-3,-5.3180144E-3,3.2424924E-4,1.4164069E-2,-2.0581535E-3,-1.1145881E-2,6.479858E-3,1.3277247E-3,1.6283088E-3,6.401676E-3,3.4933577E-3,9.185674E-3,-7.2010416E-3,1.8484405E-3,5.318453E-3,8.117831E-3,1.0129675E-2,1.0999333E-3,4.299429E-3,8.736641E-3,1.4673521E-2,1.1512873E-2,9.9754E-3,1.4526894E-2,7.4408944E-3,-4.676671E-4,-5.7898497E-4,2.5770112E-4],"split_indices":[1,0,1,9,1,6,1,3,3,14,1,1,0,5,3,0,9,2,3,9,6,11,12,11,2,0,0,14,2,6,0,12,1,0,1,2,0,0,0,1,4,3,2,2,5,4,0,12,5,1,5,9,12,0,0,4,0,1,0,0,0,0,0,0,0,0,0,0,0,0,0,0,0,0,0,0,0,0,0,0,0,0,0,0,0,0,0,0,0,0,0,0,0,0,0,0,0,0,0,0,0,0,0,0,0],"split_type":[0,0,0,0,0,0,0,0,0,0,0,0,0,0,0,0,0,0,0,0,0,0,0,0,0,0,0,0,0,0,0,0,0,0,0,0,0,0,0,0,0,0,0,0,0,0,0,0,0,0,0,0,0,0,0,0,0,0,0,0,0,0,0,0,0,0,0,0,0,0,0,0,0,0,0,0,0,0,0,0,0,0,0,0,0,0,0,0,0,0,0,0,0,0,0,0,0,0,0,0,0,0,0,0,0],"sum_hessian":[4.173E3,2.644E3,1.529E3,4E2,2.244E3,9.25E2,6.04E2,3.58E2,4.2E1,6.3E2,1.614E3,9.2E2,5E0,2.85E2,3.19E2,3.41E2,1.7E1,4E0,3.8E1,4.53E2,1.77E2,7.52E2,8.62E2,4.96E2,4.24E2,4E0,1E0,2.07E2,7.8E1,3.12E2,7E0,9.5E1,2.46E2,1.3E1,4E0,3E0,1E0,3.6E1,2E0,3.53E2,1E2,1.7E2,7E0,7.21E2,3.1E1,7.12E2,1.5E2,4.57E2,3.9E1,2.1E1,4.03E2,1.4E2,6.7E1,7.4E1,4E0,2.65E2,4.7E1,5E0,2E0,8.3E1,1.2E1,1.84E2,6.2E1,1E0,1.2E1,1E0,3E0,1E0,2E0,6.6E1,2.87E2,3.2E1,6.8E1,1.05E2,6.5E1,1E0,6E0,8.7E1,6.34E2,2.7E1,4E0,6.82E2,3E1,1.9E1,1.31E2,3.85E2,7.2E1,6E0,3.3E1,3E0,1.8E1,2.95E2,1.08E2,1.37E2,3E0,2.7E1,4E1,2.6E1,4.8E1,1.3E1,2.52E2,4E0,1E0,1E0,1E0],"tree_param":{"num_deleted":"0","num_feature":"15","num_nodes":"105","size_leaf_vector":"1"}},{"base_weights":[-4.694763E-3,-1.595287E-1,2.6698267E-1,1.21645994E-1,-2.0949449E-1,1.3945295E-1,4.5206717E-1,7.088934E-2,5.1291734E-1,-4.0787277E-1,-1.3353367E-1,3.7020174E-1,1.2309905E-1,3.6165994E-1,5.41304E-1,1.2179376E-2,2.0794831E-1,-9.073709E-3,5.3954995E-1,-4.5751187E-1,-2.8641436E-1,-2.1045679E-1,-5.4348055E-2,4.5813456E-2,4.2018786E-1,-2.1048532E-1,1.3569833E-1,3.0025867E-1,4.3407393E-1,2.4235215E-2,5.51463E-1,3.493792E-1,-7.7070817E-3,3.558782E-1,-9.36878E-2,2.547468E-1,6.1364377E-1,-4.9043003E-1,-2.4386829E-1,-1.2489666E-1,-3.9393628E-1,-2.486362E-1,-1.2871377E-1,-3.6718465E-2,-3.745842E-1,1.0711721E-1,-2.978018E-3,4.846188E-1,2.1529047E-1,-1.0152323E-1,-2.003306E-2,8.428788E-2,2.0351306E-1,1.045274E-1,3.184089E-1,4.5683613E-1,3.3119664E-1,1.6011629E-1,-2.1031165E-1,6.007575E-1,5.060197E-1,1.1929168E-2,5.746902E-3,-1.0147269E-2,3.6884312E-4,-1.1982011E-2,1.0203239E-2,-2.2328147E-4,-6.0104253E-3,9.147062E-3,-2.7150763E-3,1.711919E-2,1.0297437E-2,-1.7293647E-2,-1.18550295E-2,5.130938E-3,-9.107154E-3,1.2146786E-2,-4.8259557E-3,-1.1409767E-2,3.515568E-3,-7.2545083E-3,-3.9493586E-3,-5.354611E-4,-4.223158E-3,-4.2591696E-3,-4.375913E-4,-1.2673668E-2,-3.494616E-3,4.272438E-3,6.8974594E-4,